0.367959 0.443215 0.555543 -0.0947226 0.569856 0.26621 0.420175 0.912867 1.25456 0.371546 0.780908 0.708378 0.855467 1.06022 0.390946 0.471946 0.824407 0.941798 -0.0882489 0.102325 -0.367101 -0.258867 -0.155917 -0.057998 0.372562 0.4504 0.368392 0.0641392 -0.00743497 0.571078 0.525454 0.457288 0.44828 0.617989 0.797308 -0.0533792 0.753884 0.853914 0.633984 0.782613 -0.0759852 0.128885 -0.0475612 0.403381 0.171131 0.74976 -0.0231703 0.588493 0.418606 0.27781 0.117664 0.554208 0.204791 -0.109527 0.270514 0.380715 0.296674 0.20979 -0.0789668 -0.469083 -0.416889 -0.673573 0.552048 0.697447 0.773292 0.596577 -0.33019 0.448901 0.39939 0.336108 0.0782459 0.218551 0.336289 0.340109 -0.15806 -0.606864 0.0330004 0.156196 0.169129 -0.552398 -0.136514 -0.171422 0.250236 0.200078 -0.21634 0.033134 0.186205 -0.399498 0.199253 0.0652443 -0.442386 0.211839 0.00418972 -0.429912 0.489467 0.0117998 0.607653 0.701989 -0.317104 -0.00460136 0.0773814 0.306531 -0.245735 -0.0730976 0.15154 0.195595 -0.0705056 -0.255093 -0.0650769 -0.178382 -0.0829718 0.0666857 -0.101546 -0.29264 -0.159883 0.342676 0.405446 0.564982 0.455031 -0.323989 -0.30742 -0.366386 0.510447 0.145288 -0.355702 0.319126 0.484086 0.380202 0.117433 0.576038 -0.212613 -0.412393 0.281585 -0.0569976 -0.0623251 -0.141603 0.55722 0.253917 0.00210529 -0.125168 0.45405 0.284078 0.288959 -0.275864 0.355262 0.477134 0.431845 0.129163 0.379558 0.234147 0.168475 0.475412 0.268858 0.0623562 0.0344464 0.337004 -0.188328 -0.0893748 0.105424 0.342917 -0.100817 0.30647 0.345793 0.591105 -0.332976 -0.322407 -0.155103 0.619075 0.329917 0.232086 -0.0956614 0.194996 -0.0859914 0.58329 0.278483 -0.350386 0.440812 0.104381 0.198412 0.270971 -0.217227 -0.230479 0.156971 0.470753 0.216696 0.537971 0.14401 0.39259 -0.193877 -0.378869 0.0838718 0.0616614 0.277311 -0.198906 0.0340584 0.325056 -0.139659 0.249476 0.292444 0.534062 -0.161764 0.550313 0.120026 0.143524 0.553498 -0.188393 0.216936 0.389444 0.306555 -0.230366 0.0438882 0.483725 -0.117103 0.507459 0.240333 0.470409 0.407517 -0.222527 0.237827 -0.396105 -0.218613 -0.253883 0.0637485 0.471006 -0.0376392 0.529326 0.246568 0.269432 0.197793 -0.0387844 0.240855 0.488252 -0.0422229 -0.245466 0.0580542 -0.0850902 -0.0025733 -0.337047 -0.306751 -0.330209 -0.214567 0.0598672 0.496608 0.07504 -0.0312337 0.13876 -0.0856207 -0.240791 0.287113 -0.425724 -0.202457 0.52246 -0.213445 0.341315 0.430806 0.171208 0.272387 0.102813 -0.131134 -0.0533203 -0.447515 -0.419765 -0.069311 4.26951e-05 -0.176519 0.419586 0.331971 0.211342 0.456871 0.412445 0.238378 -0.37139 -0.139641 0.132653 0.136078 0.265074 -0.291623 0.485546 0.469659 0.451901 0.495002 -0.320271 0.384459 -0.29932 0.468386 0.307717 0.366631 0.227839 -0.112502 -0.292617 -0.341135 -0.077523 -0.242015 0.0222185 0.37723 0.0493648 -0.0932243 0.165946 -0.280996 -0.159028 1.8714 2.27882 1.63321 2.07796 1.7721 1.25296 1.90302 2.02503 2.15334 1.70092 1.75801 2.08038 1.71878 1.53018 0.965978 1.43778 0.973913 1.66909 1.05769 1.37819 0.970891 1.24292 1.84567 1.20841 1.85857 1.77563 1.93283 1.32944 1.75983 2.34621 2.03941 2.43038 2.40259 2.43336 2.24833 1.92185 2.51252 1.92199 1.76073 2.53041 2.51132 2.41109 2.28096 1.97031 1.61803 2.34866 1.69726 2.05917 2.55014 2.04423 1.63321 1.57415 2.46034 1.72687 2.00258 2.30494 2.37123 1.70977 2.24576 1.60557 1.52323 1.74078 1.39864 1.31736 1.40242 1.98893 1.47559 1.23555 1.25225 1.64 1.32741 1.28044 1.63603 1.25769 1.78345 1.78217 1.16616 1.96966 1.44507 2.22317 1.56288 1.60592 1.40262 1.4664 1.99793 2.02064 2.56035 2.05345 2.53312 2.59829 2.419 2.70515 2.06366 2.6674 2.93919 2.47024 2.7938 2.59089 2.84845 3.03469 -0.271842 0.54878 -0.281728 0.190691 -0.364362 0.417292 -0.121892 -0.32732 0.260771 0.0925421 -0.313232 0.569568 0.419342 -0.288921 -0.383087 -0.198715 0.121199 0.433961 0.127765 -0.19655 0.187921 -0.281634 -0.337252 0.323405 0.460803 -0.37249 -0.18021 0.144218 0.0997949 -0.417506 0.104718 0.253419 0.535604 0.185552 -0.225485 0.520121 -0.0672712 0.0249885 -0.427517 -0.410752 0.494706 -0.392428 -0.484644 0.314205 -0.241557 -0.395411 -0.420503 0.298548 0.464794 0.125517 0.529505 0.0663468 0.290103 -0.353329 -0.166563 0.158786 -0.310288 0.0789098 -0.28759 0.199506 0.0787048 0.239158 -0.116749 0.0584698 -0.12537 0.131546 0.0295061 0.271504 -0.359717 0.101286 0.348517 -0.378271 0.162459 0.320786 0.408624 0.387097 0.410174 0.465456 0.174275 0.337657 0.0315996 0.123849 -0.158013 -0.250838 0.208453 0.106172 0.33856 0.31066 -0.408358 0.473942 -0.062948 0.0958678 0.136605 0.231598 0.580689 0.433834 -0.213489 0.0413656 0.130825 -0.168087 1.16549 0.519423 0.445983 0.73571 0.238493 0.284855 0.582177 1.09891 0.149351 1.11512 0.718778 0.536431 0.511384 0.891694 0.59437 0.10117 0.371005 0.328355 0.833132 0.39808 0.270492 0.20859 0.953453 0.835851 0.902817 0.960609 0.701904 0.0869063 0.431853 0.262537 0.406554 0.435061 0.619385 0.679772 0.979488 0.676311 0.805313 0.391747 0.588791 0.797184 0.378105 0.271722 0.284697 0.894831 0.208387 0.95926 1.08213 0.634063 0.381815 0.977656 1.0972 0.645076 1.13317 0.973823 0.408408 0.975436 0.851074 1.01687 0.923901 1.13502 1.119 0.157122 0.377052 0.558139 0.658972 0.216821 1.12715 0.332421 0.46094 0.552381 1.0039 0.700353 0.678876 1.1186 0.387535 0.646521 0.834404 0.257915 1.09116 0.989968 1.06678 0.994605 0.459817 1.01312 0.788732 0.66566 0.804991 0.471967 0.511714 0.584061 0.481451 0.520687 0.643816 0.761516 0.99116 1.20016 0.945083 1.04336 0.429238 1.2491 0.316339 1.1442 0.697287 0.872021 1.18826 1.0111 0.477698 0.935841 1.09208 0.336724 0.65531 0.921009 1.10765 0.911229 0.68865 0.629681 0.277978 0.217282 0.778056 0.501313 0.478173 0.964261 0.721211 0.843328 0.444269 0.427085 0.751087 1.03042 0.16425 0.909565 1.04919 0.319872 0.927274 0.5427 1.07761 0.918388 0.400869 1.28006 0.5854 1.27004 0.367829 1.02367 0.91242 1.20877 0.666032 0.43533 0.591412 0.731371 0.397661 0.243058 0.0843305 0.80459 0.150356 0.776068 0.587239 0.522511 0.0562687 0.229729 0.479799 0.169374 0.135838 0.449605 0.509915 1.00185 1.01605 0.421821 0.729355 1.09681 0.342878 0.974549 1.01197 0.42079 0.748704 0.751085 0.505751 1.25274 1.05358 0.99612 0.805558 0.285841 0.927893 0.67802 0.766004 0.885422 0.266159 0.309068 0.396927 0.381288 0.652567 0.921863 0.671333 0.806484 0.361514 0.995747 0.638174 0.15043 0.192643 0.152517 1.08143 0.406403 0.6621 0.593885 0.338574 0.217623 0.158535 0.597416 0.240754 -0.0534009 0.331542 0.844451 -0.0156264 0.153726 0.396791 0.783457 0.130797 0.769677 0.268012 0.611471 0.26366 0.909606 0.51545 0.812626 0.561364 0.757182 0.674522 0.0827428 0.789889 0.761302 0.141576 0.729366 0.00949739 -0.0308676 0.469053 0.499141 0.330543 0.784286 0.255412 0.720099 -0.154535 0.695849 0.681992 0.0277094 0.0740599 0.314705 0.074903 0.383406 0.239831 0.401787 0.0437018 0.546467 0.332535 0.597251 0.391122 -0.0198781 0.450186 0.181539 0.204476 0.373083 0.0771164 0.442433 0.190884 0.190003 0.513971 0.789943 0.829999 -0.00635501 0.763526 0.261701 0.868775 0.758081 0.0801624 0.686086 -0.0723382 0.295958 0.144657 0.11206 0.77254 0.498632 0.623444 -0.0477993 0.17897 0.116229 0.740107 0.768897 0.293971 0.34798 0.095686 0.619164 0.784959 0.247868 0.119768 0.0987818 0.522179 0.735937 -0.0279233 0.463308 -0.143873 -0.159171 -0.211577 -0.205868 1.20819 0.546142 1.17163 0.280668 0.941308 0.399516 0.40832 0.791375 0.920788 0.126574 0.857482 0.270635 0.394993 0.700283 0.0947926 0.764097 0.156519 0.358603 0.639186 0.2211 1.01967 1.10125 0.684185 0.811193 1.10578 0.921718 0.598477 1.27117 1.12105 0.728691 1.34574 1.02038 0.86818 1.15826 0.835447 0.487306 0.156129 1.01617 1.05119 0.983772 0.999613 0.746358 0.0870558 0.295954 0.392606 0.180263 1.07976 0.491075 0.528628 0.599613 0.659764 0.314488 0.489284 1.04346 0.831221 0.279107 0.628059 1.02803 1.12545 0.296137 0.323554 1.12258 0.998163 0.951374 1.05301 0.681943 0.29424 1.13161 0.597494 1.23751 0.969549 0.524422 0.898929 1.01454 0.777644 0.216377 1.09903 0.741026 0.584222 0.477222 0.204246 1.04751 0.702646 0.568159 0.97936 0.308818 0.583459 0.350973 1.06493 0.498963 0.4625 1.19953 0.504413 1.28796 1.00617 1.32823 0.695096 0.990411 1.1557 1.05719 0.594836 0.524121 -0.020689 0.301324 0.33486 0.554986 0.332105 0.280255 0.129565 0.74036 0.552492 0.127544 0.554543 -0.0565758 0.41812 0.269637 0.0286751 0.782634 0.424551 0.87231 0.0546769 0.611911 0.77893 0.199887 0.542487 0.417527 0.155097 0.908295 0.0714385 -0.0261386 0.625549 0.731204 0.561703 0.672753 0.0994364 -0.0239608 0.307141 0.495556 0.3123 0.505577 0.354811 0.0207088 0.796397 0.0496887 0.0969086 0.305803 0.38408 0.157188 0.136533 0.860372 0.0574586 0.20827 0.470554 0.876206 0.456254 0.0780686 0.349387 0.664186 0.0551207 0.506183 0.703378 0.733097 0.280221 0.329152 0.493149 0.477532 0.451255 0.923187 0.0645524 0.814829 0.499678 0.471683 0.872164 0.30574 0.516249 -0.012798 0.609568 -0.0603423 0.188801 0.794105 0.874945 0.339873 0.0880852 0.423083 0.322072 0.649963 0.608543 0.759839 0.338658 0.670498 0.269959 0.12987 0.484158 0.643228 0.528341 0.0306681 0.210988 0.0453638 -0.0170659 0.299179 -0.537159 0.102337 0.379595 0.380423 -0.589068 -0.075525 -0.610933 0.10456 -0.0513215 -0.335484 0.0335626 -0.0688729 0.100248 0.177163 0.408176 -0.540466 -0.134664 0.0547101 0.285296 0.332787 -0.115117 -0.310109 -0.385767 -0.502994 0.496853 0.313094 -0.291631 -0.184096 0.416662 -0.223964 0.162177 0.397446 0.357886 0.0699194 0.30674 0.37866 -0.386325 0.321551 0.0870763 0.156286 -0.42429 -0.316078 -0.35305 0.251435 -0.527534 -0.328195 0.331485 -0.0785795 0.342784 0.201282 -0.162855 -0.252922 0.434534 -0.0206397 -0.232949 0.39464 -0.211104 -0.033301 -0.277352 -0.265665 0.252961 0.411864 -0.353896 0.182158 0.0256917 -0.491253 0.139613 0.236126 0.402431 -0.20218 -0.0499581 -0.435315 0.0638014 0.196305 0.409737 0.0984666 0.442066 0.317039 -0.403589 0.316971 0.0432794 -0.0406336 -0.374116 0.0228641 0.4618 -0.11501 -0.0917459 -0.269767 0.326086 0.0857788 -0.069342 0.0688495 -0.0126626 0.0679639 -0.238527 -0.448995 0.124967 0.407187 0.282461 0.0370696 -0.179798 -0.12803 0.240435 0.421647 -0.391581 0.196803 0.0608975 0.577009 0.0456499 0.194254 0.435805 -0.367366 -0.305083 0.562084 0.163645 -0.310749 -0.0181181 0.600259 -0.0566825 -0.16531 0.211156 0.392416 0.415916 -0.287426 -0.0240342 -0.320224 -0.237474 0.588091 0.56905 0.541281 0.121257 -0.215106 -0.184675 -0.235248 -0.387607 -0.179337 0.358292 0.0730856 -0.200047 -0.198876 -0.330277 -0.369217 -0.175079 -0.246988 0.576464 0.368271 -0.165655 -0.0470639 0.362497 0.163783 0.177771 -0.0339768 -0.0473434 -0.00781258 0.0731023 0.317536 0.0638388 0.234931 0.309327 0.0386949 0.175396 -0.174434 0.205556 0.372881 -0.0307766 0.207083 0.58715 -0.275442 -0.315621 -0.215636 -0.0786814 -0.262625 -0.196081 0.140497 -0.112957 -0.223686 -0.0935756 0.104263 0.111594 -0.349839 -0.352037 -0.334205 -0.00816396 -0.0264904 0.0266036 0.438325 -0.348703 0.452 0.039221 0.335318 -0.135986 0.590149 0.531185 0.454267 0.349323 -0.104813 0.040788 0.309845 -0.011216 0.102375 0.241001 0.0628509 -0.0151861 -0.585093 -0.464044 0.209743 -0.478604 -0.19179 -0.296579 0.0306488 -0.141247 -0.270494 0.0889724 0.241166 0.0995799 -0.497997 0.0636101 0.142144 0.363284 -0.489992 -0.0730736 -0.339876 -0.424454 -0.103554 -0.414478 0.351847 0.214656 0.0318786 0.0185558 -0.431411 -0.502169 -0.0977312 0.2573 0.117761 -0.0749934 -0.544683 -0.00407931 0.1498 -0.0577891 0.348087 -0.179785 -0.537285 -0.293787 -0.467617 -0.672344 -0.543282 -0.282009 0.0765956 0.326692 -0.241589 0.276747 -0.141027 0.0589393 0.437128 0.37226 0.193461 0.345455 0.115336 -0.225254 -0.0453549 0.257249 -0.173512 0.385787 0.0775778 -0.542617 -0.123767 0.112268 0.0762187 -0.347513 -0.308287 0.0355585 0.0894006 -0.236886 -0.590423 0.264797 -0.258783 -0.449961 -0.341355 -0.439407 -0.456285 0.109278 0.449627 0.0299728 -0.264781 0.42434 -0.107191 0.400891 0.263941 -0.482855 -0.317982 -0.273403 0.28486 0.00784942 -0.364874 -0.101542 0.0622693 0.0886957 -0.439145 -0.337617 0.281242 -0.0434712 0.454124 0.124822 0.317936 0.470087 0.0228028 -0.311648 -0.392061 0.275389 -0.220055 -0.323373 -0.121722 -0.296498 0.171557 0.106213 -0.330343 0.621176 0.0545144 0.479959 -0.345169 0.23979 -0.29077 0.428313 -0.239365 -0.141835 -0.158642 0.331955 0.474798 -0.0689841 0.554918 0.321302 0.288043 0.421073 -0.144526 0.016197 0.28175 0.263927 0.093315 0.295758 -0.0558017 0.274421 0.36227 0.207834 0.386684 -0.0604975 -0.303518 0.453766 -0.0538099 0.138326 0.307112 -0.0215764 -0.233051 0.409433 -0.190132 -0.0716711 -0.336728 0.0432341 -0.339781 0.536769 0.375749 0.629705 0.269193 0.0410833 0.403461 0.472031 0.437608 0.0725415 0.133555 -0.0459538 -0.232881 0.508989 0.6379 0.493993 0.0535331 0.355096 -0.188074 0.138211 0.188266 0.143488 -0.349674 -0.131304 0.48525 -0.219481 -0.362414 -0.355307 0.0609131 -0.362106 0.03851 0.0755033 0.545302 -0.230652 0.043441 0.146133 0.191452 -0.172439 0.0107412 0.0116333 0.276045 0.514617 0.320478 0.892046 0.84569 0.878465 0.856875 0.467586 0.710119 1.10124 0.930927 0.201175 0.58567 0.918393 0.42982 0.350118 0.982029 0.278515 0.296556 0.375367 0.335871 0.733005 0.814341 0.15653 0.814784 0.125663 0.665251 0.2812 0.273102 -0.00827946 0.706187 0.0127288 -0.0203141 0.503619 0.837415 0.76393 0.219031 0.56116 -0.00505617 0.674887 0.422333 0.767143 0.757362 0.922365 0.522396 0.0549347 0.187931 0.443697 0.313838 0.399475 0.679546 0.444401 0.0140973 0.377431 0.638376 0.86744 0.584273 0.299786 0.231303 -0.0963867 0.426915 0.0759729 0.0410206 0.573898 0.740212 0.162363 0.573221 0.240735 0.851785 0.682792 1.00181 0.345341 0.453472 0.713451 0.203888 0.905361 0.716272 0.403161 0.343264 0.00852654 0.782993 -0.09849 0.413199 0.678044 0.259625 0.0146252 0.586718 -0.0781354 0.495037 0.0640948 0.0712481 0.216479 0.366077 0.386766 0.973493 0.273149 0.544193 0.51574 0.453065 0.354854 0.197088 0.546911 0.787501 0.497768 0.0633972 0.829032 0.487556 -0.112362 0.242094 0.827231 -0.115171 0.0106114 0.829417 0.417178 -0.109751 0.31092 0.652854 0.693343 0.392143 0.303327 0.852106 0.561405 0.57299 0.259621 -0.062228 0.519528 0.533815 0.464646 0.0605584 0.00469522 0.835976 0.266329 0.474312 0.541611 -0.0698729 0.704759 0.507667 0.546489 0.696656 -0.148848 0.496823 0.712109 -0.00160706 0.462238 0.239295 0.0026626 -0.132477 -0.00321332 0.801306 0.368288 0.402389 0.760866 0.0304863 0.0668973 0.118567 0.0647865 0.708795 0.777156 0.674121 -0.095532 -0.0779577 0.647651 0.325714 0.55159 0.351729 0.413573 0.41275 0.0152619 0.128879 0.28806 0.0484709 0.815331 0.172442 0.216633 0.440394 0.576764 0.382809 0.483464 0.736622 0.350398 0.00267715 0.287701 0.251563 0.181464 0.514409 0.533164 0.402828 0.371099 0.452597 0.227476 0.444343 0.546965 0.0418514 -0.0525353 0.272095 0.568408 0.529914 0.843404 0.741485 0.80418 0.277328 -0.0672245 0.767183 0.805503 0.510676 0.530981 0.495405 0.943937 0.0907339 0.298984 0.420767 0.234271 0.739111 0.869876 0.590844 0.455465 0.556645 0.0982299 0.912965 0.058009 0.415269 0.467677 0.749427 0.669341 0.595876 0.224244 0.371413 0.319852 0.250033 0.346286 0.309447 0.728446 0.432166 0.218247 0.451836 0.788111 0.64385 0.715288 0.635403 0.578891 -0.00551144 0.073438 0.875044 0.725811 0.853354 0.373716 0.13194 0.48279 0.595989 0.22927 0.640672 0.116343 0.720907 0.435405 0.758009 0.379034 0.678562 1.18204 0.601222 0.798446 0.313462 0.71258 0.345621 0.563158 0.743033 0.605918 0.233555 0.255912 0.320553 0.813041 0.851183 0.389995 0.979643 0.834539 0.235212 0.872129 0.234441 0.40292 0.348834 0.886211 0.618066 0.97968 0.925648 0.228851 0.279319 0.5811 0.448621 0.868495 0.606847 0.87415 0.453855 0.647799 0.316766 0.445465 0.917571 0.740059 0.819433 0.932517 0.816971 0.937606 0.5851 0.494492 0.11874 0.529541 0.291883 0.212454 0.166788 0.226595 0.410408 0.343013 0.943173 0.86119 0.118752 0.579356 0.831445 0.0460828 0.860783 0.0148369 0.672863 0.293516 0.699787 0.947866 0.754285 0.791017 0.241493 0.606452 0.530534 1.19361 0.571942 0.411219 1.08507 1.10196 0.833134 1.18331 0.446195 0.966115 1.28914 0.506434 1.1246 0.640594 0.758078 0.97533 0.39784 0.795546 0.559961 1.23175 0.914866 0.440411 1.23461 0.559231 0.6914 0.862554 0.441391 0.350846 0.626569 0.684067 0.901178 1.11615 0.675289 0.279658 0.287999 0.513451 1.1346 0.911259 0.442403 0.35988 0.592828 0.449694 0.550972 0.448809 0.809826 0.975844 1.04519 0.786053 0.379864 1.17333 0.63146 0.88659 0.29948 0.549261 1.16724 0.73369 1.18651 0.3564 0.840047 0.524938 0.75109 0.46544 0.393784 1.19158 0.487702 0.42063 0.438981 0.331109 1.00729 0.568272 0.369592 0.304178 0.707851 0.722475 0.482659 1.23189 0.353208 0.491459 0.0396775 -0.216513 0.446806 0.470861 0.462929 0.514822 -0.226495 0.394454 0.015728 -0.234865 0.572038 0.648793 0.0888442 0.0820134 -0.112313 0.237592 0.0559651 0.178962 0.484032 0.304217 0.323306 0.257682 -0.356095 0.442347 0.332688 0.118042 -0.158955 0.468843 0.0234311 -0.100259 0.379814 0.515039 0.0745776 0.228887 0.33804 -0.111655 0.107947 0.493045 -0.345282 0.502222 0.581559 0.539284 0.485072 0.00169229 0.00332429 -0.277819 -0.390057 0.408115 0.261391 0.471795 0.128527 0.013008 0.187071 0.212075 -0.0951505 -0.0301244 -0.197275 0.206759 -0.0783057 0.309408 -0.43045 -0.19035 0.299892 0.127013 0.465402 0.0351054 0.406404 -0.0294246 -0.0621958 0.457257 -0.143884 -0.0931521 0.408394 -0.250951 0.314992 -0.174693 -0.0785852 0.387664 -0.28915 -0.351331 0.295206 0.252474 0.0742276 -0.123352 -0.100481 0.405655 0.29066 0.14205 0.0723512 -0.314113 -0.0709561 0.106176 -0.098892 -0.350752 -0.340624 -0.186563 0.146228 0.5594 0.250713 0.581544 0.495933 0.58699 -0.0664199 0.350106 -0.215076 -0.303799 -0.384686 0.148117 0.514353 -0.252019 0.228294 0.233846 0.45606 -0.218747 -0.385373 -0.134268 -0.31768 0.400662 0.501468 0.249529 0.567842 -0.10235 -0.165021 -0.0565834 0.0207794 -0.032959 0.213617 -0.374546 -0.0456641 -0.105554 0.604622 -0.149958 -0.121901 -0.0671762 0.592029 0.0570005 0.026291 0.619133 0.612934 -0.0438698 -0.223262 0.244972 0.593274 -0.369349 0.406831 0.596567 -0.115524 0.471242 0.371295 -0.24003 0.0996222 0.315402 0.0480821 0.329093 -0.339293 0.472638 -0.302921 0.273305 0.493502 0.0534651 0.569538 0.486302 0.28289 -0.17072 -0.183588 0.286699 0.293702 0.245071 0.279177 0.272996 0.564951 0.421138 -0.103944 0.536571 0.434114 -0.3123 0.509631 -0.301178 0.542686 0.27038 -0.155448 0.0303822 -0.029268 0.272372 -0.267125 0.000121896 0.117015 -0.191115 -0.340964 -0.021828 0.216435 0.57314 -0.159395 -0.127645 -0.217293 0.0383651 0.529013 0.44133 -0.347645 0.258195 0.176353 -0.362927 0.0165401 0.397899 0.541152 -0.1875 0.456674 0.46599 -0.0715466 0.477977 0.165129 0.106868 -0.221575 0.293771 -0.362739 -0.284212 -0.384746 0.127419 -0.0555773 -0.184167 0.613315 -0.165575 -0.0497384 0.119046 0.209167 0.270399 0.58995 0.135283 0.0788189 0.541994 0.647514 0.438477 0.472028 -0.111217 0.14356 0.252623 0.0146183 -0.125534 0.0164224 0.234101 -0.378907 0.481224 -0.257679 -0.0772678 0.379344 0.0215888 0.212196 0.653304 0.718274 0.864892 0.970588 0.90229 0.965166 0.151808 0.079213 0.221885 0.469607 0.629379 0.363144 0.435213 0.212736 0.0449459 0.0979167 -0.120058 0.20421 0.551436 0.539295 0.661117 -0.132189 -0.1076 0.203124 -0.285191 -0.326264 0.269297 -0.0784608 0.457272 0.633674 0.522993 0.294607 0.456655 0.307113 0.179119 0.282962 0.272115 0.370956 0.427489 0.493827 0.88002 0.158214 -0.0764813 0.461354 0.47806 0.117449 0.617924 0.484733 0.391727 0.290286 0.125327 0.175247 0.207995 0.192473 0.574868 0.273825 0.231691 0.164157 0.503315 -0.137743 -0.0132667 0.180781 0.318292 -0.331449 -0.276812 -0.26895 0.216379 0.174221 0.277821 -0.236826 -0.201415 0.251855 0.0121127 -0.163602 -0.242304 0.576976 0.0011464 0.58306 0.252964 -0.319701 0.194934 -0.264323 0.205797 -0.208468 0.310813 0.148716 0.44539 -0.0859893 -0.292716 0.343173 0.187127 0.0663694 -0.107853 -0.149739 0.0863371 -0.0392231 -0.0725499 0.611056 0.436623 0.509303 -0.329296 0.527169 0.061202 -0.00628481 -0.31013 0.206926 -0.0387982 0.105631 0.202039 0.639916 0.182972 -0.237584 -0.27452 -0.2255 -0.0874565 0.416379 0.285951 -0.264179 -0.275623 0.381669 0.494965 0.294984 -0.177214 -0.26151 0.517219 0.283252 0.0949912 -0.180901 0.289132 -0.0884388 -0.261899 0.356697 -0.140438 0.1823 -0.275336 -0.115693 -0.281085 0.0218194 0.287804 0.226569 -0.0255843 -0.149753 0.391326 0.110726 0.00190257 -0.314706 -0.167751 -0.355974 -0.255396 -0.0597008 0.381079 -0.399895 -0.37355 -0.367957 -0.245224 0.508624 0.294207 0.219077 -0.319306 -0.0980361 0.446403 -0.278848 -0.420914 -0.394724 0.20197 -0.407062 -0.202968 0.234314 -0.0799765 0.409926 -0.216811 0.217846 -0.41058 0.483677 -0.360283 -0.0697066 0.525556 -0.0971522 0.0108082 -0.278284 0.279369 -0.149215 -0.230136 0.338567 -0.0894993 -0.0248376 0.310565 -0.340799 -0.308592 0.491916 0.0759345 0.612765 -0.285747 0.124012 -0.311865 0.360878 0.11526 -0.135886 -0.0143351 0.480267 -0.27305 0.213021 0.131206 -0.264304 0.0843441 0.167657 0.0498468 0.0078215 0.49481 0.492239 0.194906 0.228502 -0.221835 0.37698 -0.0635567 0.0822995 -0.23047 -0.305623 0.227717 -0.119275 0.574319 -0.361291 -0.160773 -0.360161 0.115622 -0.131518 0.318024 0.5929 0.0748611 -0.341765 0.431047 0.171516 0.23352 -0.0677453 0.290702 -0.259522 0.5145 -0.245465 0.183378 0.426035 -0.342012 -0.265378 0.00642088 -0.187275 0.482459 0.361011 0.3085 -0.352571 0.444331 -0.109013 -0.134752 0.394004 -0.0192164 0.162561 0.497867 0.483062 0.420405 0.223124 0.478804 -0.0848429 0.313753 0.3433 0.525003 -0.0194501 -0.296193 0.225589 0.133247 0.643577 0.405707 -0.281217 0.468243 0.467521 -0.149282 -0.120042 -0.328581 -0.263419 -0.362874 0.394875 -0.204525 0.506665 -0.284391 0.111638 0.356062 0.0715125 -0.350123 0.219187 -0.0827117 0.429737 -0.193537 -0.232825 -0.279648 0.478478 0.473617 0.599237 -0.180612 0.537929 0.183444 0.302439 0.534924 -0.0558574 0.36837 0.350228 -0.237769 0.584012 0.600615 -0.185305 -0.306764 0.612125 0.584485 -0.124479 0.505418 -0.31835 0.36258 0.232604 0.11547 0.380343 -0.185068 0.407254 0.189335 0.000700287 0.566654 0.292771 -0.137836 0.405458 0.267698 0.0508565 0.315204 -0.185658 -0.28013 0.210578 0.122925 0.45715 -0.0684482 0.248404 0.406929 -0.109408 0.420507 0.463456 -0.141095 0.361664 -0.298527 -0.265895 0.400375 0.421423 0.320806 -0.108526 0.162145 0.504135 -0.334259 -0.271021 -0.13536 0.58067 0.272745 -0.00441784 0.24334 -0.115565 0.405273 -0.0735647 0.0455069 0.45366 0.463556 -0.487859 0.268322 -0.247242 0.118323 0.0167081 0.0252159 -0.0784204 -0.15562 0.215038 -0.402724 -0.127409 0.256848 0.334964 -0.363246 -0.0572976 -0.395796 0.186486 -0.14067 -0.328887 0.303523 0.104807 -0.383916 0.0509598 -0.429974 0.357166 0.460856 0.490978 -0.13974 0.0764564 0.533451 -0.146375 0.135945 0.316597 0.13188 -0.237903 -0.21985 0.552861 0.0856213 0.105993 0.257204 0.182908 0.46666 0.0133179 -0.0186019 -0.426554 0.426907 0.079514 0.277837 -0.221634 0.266464 0.0863113 0.373893 0.366096 -0.421045 0.404891 0.200248 0.530941 0.427516 0.515161 0.0301822 0.324514 -0.268209 0.543462 -0.000709404 0.21172 -0.360152 0.193867 0.174701 0.14317 -0.27899 -0.150485 -0.251783 -0.381714 0.312186 0.210179 -0.341848 0.185907 -0.244307 0.39214 0.419046 0.434036 -0.113804 0.216292 0.218458 -0.0705179 0.088297 -0.125166 -0.0904125 -0.0783237 -0.220423 0.368183 0.242676 0.524676 0.895365 0.67677 0.150743 0.992922 0.267236 0.746804 0.5249 0.43471 -0.0272126 0.677597 0.374506 0.657736 0.305278 0.547277 0.478337 0.631738 0.598194 0.437461 0.621092 0.955838 0.161503 0.337085 0.418175 0.743571 0.712586 0.800072 0.108204 0.944502 0.617733 0.261638 0.390585 0.466957 0.928005 0.540728 0.439851 0.200585 0.243929 0.973103 0.648949 0.349311 0.799657 0.250085 0.242519 0.279305 0.992828 0.787398 1.0455 0.61638 0.228718 0.587294 0.493067 0.296275 0.853249 0.804639 0.966876 0.463131 0.459484 0.925572 0.240487 0.955457 1.09517 0.54609 0.335124 0.870428 0.938964 0.648849 0.932007 1.08785 0.553335 0.519919 0.276708 0.149746 0.526676 0.366514 0.276161 0.385601 1.0368 0.136799 0.835956 1.10425 0.520324 0.106259 0.194492 0.187236 0.773073 0.973129 0.445887 1.0221 0.683709 0.505302 0.770341 0.546484 0.832686 0.915191 0.259599 0.595658 0.424319 1.03182 -0.0929955 0.138442 -0.273834 0.0743581 0.163768 0.154848 0.331407 0.345711 0.475347 0.297788 0.42536 0.206191 0.255146 -0.171953 0.169141 0.331302 -0.0750348 -0.170943 0.22398 0.278646 -0.25165 -0.223273 -0.342564 0.428884 0.226952 0.375674 0.238554 0.354522 -0.162578 0.483759 0.220722 0.197447 0.0699363 0.367455 -0.320973 -0.338718 -0.0586136 0.45433 0.447993 -0.162885 0.157523 0.268397 0.443935 -0.129982 -0.399735 0.136979 -0.275059 -0.0256386 0.411464 0.361933 -0.357198 0.563885 0.566694 -0.252961 0.414497 0.197865 0.536284 0.082767 -0.0199768 -0.206125 -0.0337859 -0.410997 0.391387 0.461988 0.39324 0.508728 0.543434 -0.247654 0.363702 0.413118 0.00713998 -0.0290427 0.144612 -0.0874077 0.313256 0.157321 0.452047 0.430189 0.535399 0.280895 0.162703 -0.439724 0.228278 0.135736 -0.286282 0.0728264 -0.243987 -0.337 -0.441912 0.148249 -0.125047 -0.0266231 0.19447 -0.294118 -0.115122 0.0181356 -0.338585 -0.116702 0.250058 0.505389 -0.221231 -0.281029 -0.025223 0.406363 0.172943 -0.218013 0.144433 0.157313 0.806251 0.175388 -0.0514156 0.464387 0.266095 0.69105 0.127258 0.471888 0.185631 0.299712 0.456468 0.146137 -0.229219 -0.256764 0.452571 0.369762 -0.16618 -0.209065 -0.13765 -0.0268848 0.155793 0.548414 -0.0647232 0.385574 -0.249561 0.335681 0.237402 0.278408 0.481806 -0.360666 -0.280462 0.501009 0.0767819 -0.110952 0.191424 0.484801 -0.289508 0.431015 0.080636 0.101923 -0.114664 -0.225039 0.451803 -0.00934685 -0.136365 0.362681 -0.180783 0.165163 0.611204 0.11769 0.541321 0.176479 -0.0155309 -0.192718 -0.112 0.119926 -0.447205 0.52012 -0.19271 0.409623 0.534528 -0.138649 0.309562 -0.0389138 0.139605 -0.17932 -0.217981 0.158326 0.546493 0.129399 0.569112 -0.194688 0.283566 0.392118 0.178646 0.513261 0.0604771 0.291557 -0.105057 -0.0412919 -0.29241 -0.155137 0.531559 0.168232 0.142639 -0.0729941 -0.257949 0.110181 -0.181725 -0.0401858 -0.122202 -0.245656 0.467877 -0.177851 0.369585 -0.0229655 0.0603053 0.533263 0.489885 -0.0731739 -0.0175048 0.363849 0.0535862 0.581988 0.0181513 0.466339 0.277536 0.375041 0.0862497 0.629828 -0.17582 0.241017 -0.06264 -0.202452 -0.141757 0.499185 0.156225 0.0783377 0.106349 0.502602 0.567824 0.547361 -0.139685 0.39233 0.69839 0.499256 0.566892 -0.0639608 0.148347 0.271566 0.102858 0.432558 -0.0835826 0.395651 0.246625 0.2411 0.224121 -0.054754 0.0441252 0.650817 -0.0935946 0.159654 0.202513 0.148075 0.300363 0.377397 -0.0496128 0.708381 0.679674 0.275246 0.43171 0.494507 0.0536299 0.480675 0.107409 0.016321 0.249226 -0.0165007 0.265482 -0.232779 0.661284 0.745444 0.560958 -0.0769729 0.46423 0.153775 0.518027 0.00884298 0.418552 -0.13293 -0.0206596 0.654712 0.299742 0.420771 0.0206653 -0.164128 0.0564289 0.263865 -0.16693 0.0302775 -0.156929 0.570514 -0.16377 0.214346 0.376735 0.231551 0.536237 -0.0813635 0.514841 0.0799451 -0.0149847 0.431603 0.731007 0.446581 1.15731 0.370002 0.61378 0.778973 0.447839 0.263626 0.83649 0.637463 0.0533737 0.368859 0.142894 0.254987 0.35603 0.476095 0.903845 0.607718 1.11727 0.239808 0.821646 0.398925 0.945294 0.531119 0.944482 0.732166 0.647418 0.668606 1.06051 0.912868 0.441513 0.443558 1.12677 1.40322 0.692619 0.665675 1.14711 1.06528 0.750038 0.805372 0.447474 0.727474 1.06157 0.702728 1.05665 0.558164 1.29362 1.00526 1.22622 1.30471 1.22953 0.86626 0.537165 0.871973 1.12583 1.21372 1.36309 0.553845 0.674621 1.14993 1.21901 0.795851 1.29306 0.904106 0.771348 1.46338 1.0782 1.37308 0.999569 1.3726 0.659494 0.988824 0.59089 1.31187 1.29591 1.34098 0.554811 1.2865 1.03253 1.46045 1.31165 0.902524 0.972057 1.43797 1.40803 0.695264 1.30801 1.35614 0.809839 1.47265 0.963183 1.48425 0.69813 0.69887 0.84721 0.940098 0.640333 1.35666 0.717435 1.02037 0.00230146 -0.25975 0.378521 0.120822 -0.417742 0.185008 -0.030413 -0.348931 -0.00249336 -0.458439 -0.356353 -0.211757 -0.0713882 0.102678 -0.243029 -0.18247 0.270433 0.434734 -0.465613 -0.526317 0.301775 -0.066105 0.393129 0.4599 0.0760001 -0.33133 -0.156486 0.169134 -0.513674 0.0337294 -0.350663 0.0476825 0.308738 -0.430416 -0.219549 -0.475233 0.448672 0.376688 -0.226415 -0.0283893 0.431017 -0.0337855 0.318822 -0.0741988 -0.414025 -0.460883 0.214417 0.384977 -0.503486 0.272755 0.396512 0.341083 -0.297925 0.272372 0.263824 0.305046 -0.483588 -0.312589 0.0764929 -0.451523 0.252216 0.247626 0.0778361 0.081601 0.323387 0.334363 0.0793253 0.199176 0.120749 0.294625 -0.368804 0.0422654 -0.22272 0.437783 0.455164 -0.126485 -0.511281 0.174302 -0.248119 -0.51703 -0.0378221 -0.339059 0.36323 0.233413 -0.507676 0.179324 0.0844 -0.483577 0.38461 -0.337142 -0.447659 0.128751 0.393487 0.167824 -0.268904 0.261011 0.012854 0.341109 -0.00708794 -0.282787 0.852164 0.819809 0.929177 0.140381 0.75159 0.905006 0.526546 0.768337 0.60273 0.821194 0.778656 0.0794807 -0.0229833 0.625555 0.796801 -0.0169097 0.347624 0.430035 0.0835506 0.277087 0.64369 0.166008 0.938521 0.572838 0.86785 0.21797 0.376964 0.458932 0.138724 0.952723 0.770994 0.951493 0.756347 0.697989 0.108574 0.518368 0.613238 0.634499 0.271166 0.205223 0.429623 0.0540753 0.288351 0.445303 0.71352 0.119407 0.463013 0.0715518 0.552061 0.51361 0.320072 0.169026 0.659503 0.231521 0.710375 0.490897 0.416358 0.0638576 0.927807 0.528316 0.98224 0.651001 0.447411 0.690558 0.304657 0.47737 0.126883 0.832343 1.01841 0.322922 0.962418 0.396119 0.327458 0.201853 0.79382 0.995795 0.271785 0.205676 1.01598 0.784551 0.681193 0.293775 0.909601 0.288908 0.47892 0.57972 0.74923 0.855968 0.604846 0.627164 0.337663 0.547471 0.246327 0.734582 0.193177 0.494658 0.151924 0.257814 0.268948 0.123893 0.214388 -0.139153 0.240208 0.579593 0.057198 -0.0635029 0.38368 0.184813 -0.0761388 0.275734 -0.0166832 0.691945 0.856862 0.0440964 0.201979 0.351034 0.801672 1.04942 0.501371 0.537709 0.893867 0.856905 1.03423 0.995386 0.493699 1.19284 1.54945 0.661683 1.51005 0.779607 0.78557 1.00097 0.850344 1.10619 0.602663 1.03961 1.19917 1.29532 1.63109 1.57942 1.01327 0.820989 1.359 0.771454 0.741476 1.48639 0.966823 1.24979 1.14062 0.957929 1.31132 0.574114 0.511261 1.07675 1.32158 0.553243 0.664854 1.15146 0.594248 0.663835 1.5143 0.825415 1.27277 0.944972 1.68141 1.52118 1.65798 1.36007 1.28575 1.63284 1.08048 1.4644 1.52136 0.828727 0.75897 0.908786 0.899317 1.25722 0.412672 0.457637 0.444277 1.19647 0.538162 0.493761 0.730053 0.261666 0.463201 1.04544 0.918132 0.449281 0.296922 1.07124 1.12055 1.05738 0.615741 1.02495 0.885195 1.44076 1.6195 1.33203 0.11201 -0.126226 -0.0100972 0.0473915 0.120518 0.0133787 0.261037 0.38251 0.67126 0.311387 0.477668 -0.0962921 0.280909 -0.244947 0.162952 -0.127092 -0.140918 0.427956 -0.328662 -0.304746 -0.216436 -0.272385 0.520223 0.462505 0.345018 0.589693 -0.0886258 0.568853 0.366724 -0.170446 0.22965 -0.0674889 0.167444 -0.366113 0.413951 -0.292284 0.0687633 0.0364201 0.462514 0.0726073 -0.313058 0.268618 0.29855 0.29863 0.332564 -0.249675 0.467307 0.528884 0.512542 0.514788 0.595869 -0.317473 -0.388053 0.495649 0.502847 0.330022 0.452622 -0.166937 0.306433 0.235026 0.0849208 -0.0604394 0.573993 -0.358144 -0.0160792 0.375731 -0.220505 0.459881 -0.188312 0.588556 -0.135609 -0.168357 0.208301 0.534907 0.498341 -0.0872932 -0.329032 0.348335 -0.181715 0.549288 0.227279 -0.211285 0.611997 0.237908 -0.326433 0.520169 -0.0636606 0.50985 -0.270903 -0.333168 0.162489 0.232801 0.000387733 0.133951 0.238442 0.3519 -0.127645 0.372156 0.170621 0.0554596 0.759423 0.843745 0.703813 0.339026 0.766087 0.585508 0.63951 0.794805 0.28905 0.814568 0.692967 0.869369 0.955677 0.659636 0.468945 0.00103906 0.551432 0.806831 0.915052 0.692656 0.900974 0.508687 0.382701 0.36821 0.157283 0.143373 0.241111 0.50776 0.985518 0.878328 1.0186 0.781134 0.758727 0.762304 0.145634 0.533696 0.32917 0.776522 0.315563 0.63535 0.622729 0.0523823 0.57114 0.630963 0.76626 0.0647626 0.652636 0.336809 0.894872 0.592391 0.0506206 0.797654 0.083602 0.393295 0.111784 0.15829 0.460007 0.291518 0.633667 0.415342 0.146643 0.611286 0.134626 0.83608 0.285798 0.227811 0.305671 0.596889 0.987744 0.620616 0.242369 0.604604 0.682656 0.78985 0.208924 0.405062 0.810982 0.824955 0.707245 0.666842 0.368109 0.710196 0.419585 0.436309 0.0883509 0.527522 0.590277 0.537837 0.818594 0.194982 0.911654 0.906663 0.735291 0.00876473 0.709665 0.0189209 0.244127 0.0301082 0.628065 0.232916 0.197273 0.408746 0.378684 -0.13994 0.184897 -0.425957 0.265704 -0.0099343 0.399913 -0.0422593 -0.32879 -0.214179 -0.280417 0.110175 0.2184 -0.229909 0.569891 -0.235541 0.240901 0.341356 -0.0895822 0.138908 0.232455 -0.35556 0.140493 -0.0675711 -0.353378 0.364065 -0.0587617 0.262944 -0.413837 -0.417078 0.118154 0.407536 -0.113343 -0.2615 0.420682 -0.423668 0.147489 0.229135 -0.0548276 0.205333 0.413953 0.0273373 -0.325061 0.00253243 0.156339 -0.363133 0.15434 -0.181333 0.404605 0.497721 0.388402 0.0648495 -0.441479 -0.0466974 0.424136 -0.349528 -0.232877 -0.186596 0.343302 -0.222184 -0.170157 -0.0889397 -0.351682 0.169493 0.107232 0.509655 0.176667 -0.314065 0.142063 -0.467637 0.336652 0.0169821 0.036389 0.456582 0.46653 -0.364702 0.533 0.0630814 -0.102684 0.379023 0.00340025 -0.270688 -0.114638 0.0136552 0.12336 -0.250118 0.0979792 0.330887 0.0201792 -0.0771451 -0.414834 0.301008 0.269354 -0.339331 -0.108791 -0.191838 -0.401709 0.512131 -0.0298323 0.24797 0.581305 -0.223036 -0.242322 0.0655054 -0.341778 -0.375728 0.105264 -0.378163 0.149131 0.458827 0.423924 0.543248 0.54591 -0.297665 -0.0265526 0.129747 -0.0692791 0.532971 -0.0824372 0.373311 -0.11531 -0.0586828 0.106226 0.595044 0.0574178 0.466026 -0.131964 0.109715 0.428117 0.260108 -0.234972 0.39162 0.394325 -0.128063 -0.224895 0.418603 -0.127699 0.283321 0.442048 0.381839 0.080647 0.238995 0.334586 0.0909157 0.420871 -0.272392 -0.347107 -0.249387 -0.309096 -0.00726125 0.555868 -0.0302175 0.304749 0.0298132 -0.0786634 -0.272267 -0.133594 0.174913 0.205682 -0.338188 -0.184105 0.38345 0.471201 -0.360655 -0.332804 -0.315659 0.505543 -0.00562195 0.407214 0.378925 -0.215084 -0.0661938 0.0628598 0.550597 0.450815 -0.104356 -0.297542 0.520302 0.0539084 -0.242626 -0.116411 -0.0203956 0.0988173 -0.423044 0.388568 0.408684 -0.299751 -0.344991 -0.0131143 0.319496 -0.254692 0.214427 0.129306 -0.377084 0.257087 0.202427 -0.283678 0.165222 -0.34176 0.597163 0.0186886 -0.118521 -0.026955 0.523716 -0.120821 -0.127796 -0.123789 0.0212195 -0.186162 0.351881 0.181751 0.112299 -0.235153 -0.269297 0.142416 0.597562 0.577686 0.27091 -0.320997 -0.00640278 0.0143981 -0.164807 0.621409 0.547417 -0.133851 0.287116 0.158766 -0.0160712 -0.143226 0.162294 -0.0660713 0.224414 0.386207 0.238101 0.0830022 0.601852 0.457496 0.294142 -0.016163 0.639624 0.00466664 0.517003 0.090718 0.0994691 0.588286 0.583306 0.0317134 0.495878 0.179033 0.0528389 -0.16446 0.549621 0.245709 -0.191829 0.437822 0.446827 0.435689 -0.0528771 -0.205707 0.647596 0.453826 0.0520785 0.197696 0.182966 0.640053 0.624987 0.151682 0.446744 0.273109 0.441087 0.369092 0.565361 0.244502 -0.218314 -0.0173874 0.14111 0.674827 0.343742 -0.0245155 0.195933 -0.25941 0.142002 0.0718291 0.309145 0.26395 -0.161435 0.0854894 0.0327939 0.125364 0.205854 -0.000104657 -0.0970939 0.564821 0.50921 0.383062 0.511949 0.439328 -0.168273 0.203337 -0.0457563 0.505365 -0.119836 -0.178099 0.0625887 -0.0237099 0.128482 0.530296 -0.0255195 -0.212717 -0.190874 0.485443 -0.150733 0.287707 -0.113127 0.476776 -0.136101 0.0240806 -0.128451 0.198011 0.457843 0.385664 0.5207 -0.310767 0.295927 0.381447 0.432568 0.162715 0.171464 -0.384901 -0.225368 0.535305 0.539201 0.0946193 -0.198557 0.0599848 0.506302 0.366844 0.0106111 -0.0984401 0.581686 0.259951 -0.184915 -0.159843 -0.0709811 0.0645495 -0.290364 0.192503 0.520577 -0.00213076 -0.191708 0.379274 -0.200221 -0.255557 0.495191 0.530122 0.555002 0.355401 0.118184 0.153109 0.398496 0.312185 0.105466 0.360623 -0.182729 0.317019 -0.189115 -0.294534 0.0645855 0.206126 -0.000414805 0.0566091 -0.140147 0.208843 0.292027 0.182616 -0.314491 0.405142 -0.226762 -0.39081 -0.169993 0.00130559 0.420178 0.0603419 0.184308 0.361628 0.0301502 0.166346 0.137831 -0.432901 -0.250427 -0.0357058 0.317918 0.299496 -0.234348 -0.425532 0.0503298 0.0144593 -0.272312 0.570045 -0.332301 0.132129 0.00634595 -0.0720146 -0.216727 -0.155619 0.637384 0.00580514 -0.308522 0.043779 0.232931 0.324676 0.664286 0.0506512 0.598468 -0.079851 -0.302209 -0.130248 0.482174 0.250635 -0.101722 -0.225619 -0.259624 -0.438893 0.331763 -0.213853 -0.40233 -0.0768992 0.315275 -0.18978 -0.108284 0.370208 0.40165 0.34552 -0.263753 -0.313577 0.599542 -0.274496 -0.0295897 0.415374 -0.2398 0.184356 -0.310367 0.46517 0.507245 -0.3804 -0.232387 0.618645 -0.111932 -0.340282 0.228553 0.150409 -0.294255 0.161363 0.0796823 0.360898 0.32788 -0.0174255 -0.444908 -0.0739866 0.180607 -0.0539014 -0.204915 0.0794453 -0.310836 -0.215469 -0.0427058 -0.687735 -0.264298 0.34195 -0.536422 0.365234 0.216965 -0.132984 0.319715 0.287405 -0.0325943 0.533662 0.247179 0.197052 0.558199 -0.145854 -0.279365 0.699158 0.516342 0.258099 0.500572 0.173826 -0.311526 0.615917 -0.240762 0.489863 -0.0411505 -0.145793 -0.0905195 -0.016026 0.215988 0.49427 0.0958149 0.180334 0.826052 0.448118 0.87183 0.419373 0.769453 0.69379 0.0850427 0.0544533 0.531577 0.649245 0.628748 0.545172 0.932295 0.862003 0.616755 0.933118 0.563914 0.596454 0.584926 0.640672 0.452878 0.523886 0.438571 0.516953 0.64105 0.496025 -0.144079 0.241238 0.439244 0.42349 0.43505 0.332011 0.0166207 0.540046 0.881215 0.932609 0.244292 0.970026 0.0347961 0.743865 0.581056 0.584393 0.211466 0.361574 0.251836 0.584197 0.0128193 0.452812 -0.16814 0.235816 -0.0976804 0.196151 0.745038 0.354793 -0.172763 0.566451 0.117603 0.0487866 0.0778808 0.979771 0.773551 0.859408 0.452286 0.965184 0.44111 0.418142 0.931223 0.804765 0.471235 0.923813 0.500225 0.782771 0.4049 0.437546 0.165521 0.598243 0.183555 0.277101 0.310554 0.321326 -0.104984 0.829369 -0.0150121 0.201621 0.482767 -0.0184535 0.77711 0.578048 0.0384556 0.943872 0.525325 0.895637 0.760947 0.975041 0.707614 0.968807 0.0771862 0.423512 0.55236 -0.239461 -0.415954 0.279434 -0.442057 0.00637805 -0.0848723 -0.0479547 -0.0899268 0.433979 0.597058 0.649003 0.107425 -0.0990113 0.592422 0.147444 0.00678752 -0.0729446 0.169154 -0.207367 -0.402489 0.286412 -0.234025 0.181576 0.138261 0.441071 0.00173073 -0.321985 0.364124 0.0526159 -0.0124699 -0.184494 0.259395 0.0100588 0.530278 0.2441 0.448159 -0.115142 -0.386262 -0.235215 -0.312186 -0.431502 -0.277935 0.0963822 -0.274888 -0.42176 -0.426272 0.0430609 -0.139352 0.0807402 0.22372 -0.149598 -0.209507 0.405584 0.414373 0.302829 0.270242 -0.156917 0.429117 0.0860781 0.324568 -0.127163 0.34132 0.0238998 0.303272 0.291493 -0.303725 0.131337 -0.450998 -0.28218 0.363336 -0.271073 -0.245451 0.558424 0.280567 -0.0593717 -0.415281 0.332427 0.474849 -0.0614025 -0.106181 0.181709 0.265836 0.167642 0.0755835 0.176952 -0.0309592 -0.189771 0.472601 -0.180449 0.34843 0.29211 0.191182 0.200608 -0.216148 -0.0747569 -0.0887002 -0.120569 0.541307 -0.0429992 0.0786933 0.410366 0.154782 0.308016 0.414489 -0.102015 -0.300358 0.441866 -0.373943 0.565381 -0.222391 -0.0573669 0.172116 0.434008 0.468728 -0.413481 -0.02421 -0.175197 -0.162415 -0.0990774 0.105853 -0.3662 -0.4137 -0.296082 0.242935 -0.227158 0.0552869 0.589858 0.113631 0.0491986 -0.0220062 -0.380033 -0.128322 0.528144 0.320916 -0.342303 -0.202534 0.374719 0.483463 -0.171564 0.366951 -0.317753 0.145616 -0.0893496 0.527979 0.0482315 -0.0463454 -0.0400465 0.284851 0.221366 0.279596 -0.184175 0.275687 0.298815 -0.0673582 -0.0850342 0.46144 0.369255 -0.106791 -0.0452432 -0.18464 0.2682 -0.0160844 0.107897 0.233854 -0.248075 0.222422 0.48193 0.584845 0.172944 -0.237371 0.407486 0.307696 0.335719 -0.254853 0.263197 -0.185654 0.124907 -0.350969 0.517488 -0.249459 0.335674 -0.258457 0.441234 0.0343143 0.0584123 -0.249798 -0.112929 -0.156951 0.06232 0.27213 0.104577 -0.226934 -0.279886 -0.350996 0.450784 -0.115208 0.263115 0.323289 -0.122777 -0.144149 0.60575 -0.215899 0.671965 0.374882 -0.0358066 0.360562 0.602775 0.505402 0.407735 0.537841 0.638515 0.14136 -0.352431 0.476162 0.604662 0.180339 -0.270408 -0.0349155 0.504684 0.240813 -0.309457 0.03877 0.435615 -0.193561 0.102152 0.301216 0.124787 -0.198701 0.0530711 0.394828 0.0433432 -0.0475583 0.473472 0.00744757 0.627049 -0.265071 0.660525 0.526603 0.535359 0.386193 0.384714 0.5309 -0.117691 0.414468 0.396311 -0.154082 -0.045663 0.449502 0.152529 -0.20798 0.027108 0.157507 0.155357 -0.208733 0.3135 0.57835 0.412295 0.71835 0.641586 0.735799 0.365825 -0.0376802 -0.0348399 0.133069 0.264882 -0.119791 0.183955 0.244767 0.701506 -0.0121961 -0.103576 0.37401 -0.183905 0.0814179 0.084469 0.491729 0.201608 0.319194 0.218673 0.618703 0.370652 0.504374 0.0317614 -0.223437 0.54011 0.571764 0.592771 0.197379 0.532809 0.483821 0.163596 0.149112 0.697357 0.39949 0.566523 0.244503 0.571614 0.000833828 -0.274799 0.524067 0.0594928 -0.290069 -0.0171484 0.130843 0.0613523 0.347555 -0.108983 0.521714 -0.0675359 0.39015 0.434594 -0.404538 0.156821 -0.282022 -0.381474 -0.0204306 -0.409125 0.506199 0.482629 0.413148 0.274882 -0.0606473 -0.147413 0.266435 -0.376293 -0.306835 -0.208248 0.475822 -0.0351178 -0.204505 0.277635 0.491823 -0.033975 -0.27459 0.0910191 0.487841 -0.457056 0.460389 0.506114 -0.0444999 0.323028 0.381273 -0.0190934 -0.0525496 -0.440426 0.0754952 0.387608 -0.400179 0.049454 0.342691 0.501312 -0.201102 -0.2426 -0.183832 0.501929 -0.173748 -0.0500689 -0.246807 -0.244678 0.382223 0.0170408 -0.49163 0.369391 0.484327 -0.246533 -0.0432611 0.473976 -0.229716 -0.102445 0.43683 0.153608 -0.350541 0.222749 -0.421313 0.0333991 0.250319 0.115618 -0.0943937 0.32371 -0.37318 -0.287914 0.283953 -0.0979122 -0.0569722 -0.419036 -0.106906 0.249626 0.00848533 0.121467 0.495122 -0.105553 -0.356283 0.536756 -0.236395 -0.365047 -0.249351 0.181128 -0.44291 -0.0165087 0.534337 0.526687 -0.31562 -0.2615 0.251257 -0.221315 0.287773 0.0148973 0.400393 -0.305264 -0.146452 0.535963 -0.0817499 -0.3696 -0.0802982 0.353249 -0.285439 0.313011 0.101509 0.220973 -0.0622097 0.0993401 0.605275 0.0565419 0.0836772 -0.174276 0.156008 0.30359 0.466499 0.171408 -0.273759 0.44242 0.0639005 -0.216507 0.543938 -0.320875 -0.0947163 0.191049 0.0549633 -0.334263 0.23434 0.256599 0.556856 0.50146 0.254869 -0.159243 0.214892 0.34229 0.533271 -0.305038 -0.0701443 -0.166817 0.157968 -0.106685 0.267192 0.609971 0.0835896 -0.211714 0.283033 -0.0833332 0.327077 0.375918 -0.273809 -0.232881 0.529224 0.644098 -0.189773 -0.199927 0.180324 0.213954 -0.186128 -0.234286 -0.18151 -0.284613 0.615141 0.426232 -0.0840362 0.187193 0.1081 -0.206117 0.230403 0.389283 -0.0222138 -0.261307 0.635323 0.594305 -0.292474 0.0709274 -0.26253 0.339436 0.3462 0.416197 0.073742 0.431697 0.540537 -0.041851 0.4259 -0.299314 0.108602 -0.0418222 0.263195 0.158911 -0.0442281 0.31496 0.222969 -0.062923 0.101056 0.485271 0.455775 -0.457901 -0.379453 0.0332335 0.27392 -0.0932599 0.0750678 0.208368 -0.162297 0.142887 -0.349555 -0.047487 -0.157971 0.354792 -0.272378 0.263112 0.13447 -0.400352 -0.433642 -0.082287 -0.325646 0.0497441 0.236866 0.304653 -0.312884 -0.32863 0.0908168 0.38749 0.0680877 -0.333776 0.354433 0.022797 -0.308888 0.443294 0.501417 0.396977 -0.16941 0.0458697 0.0921859 0.138514 -0.353489 0.205783 -0.435391 -0.0126939 0.0554973 -0.208176 -0.263605 -0.34693 -0.133605 -0.225777 0.0528856 0.0206065 0.306519 -0.228964 -0.197346 0.488033 -0.0622015 0.409026 0.367871 0.506544 0.541041 0.191086 -0.0274488 -0.356508 0.0572059 -0.129172 0.482639 0.316842 0.382881 0.0386822 -0.0510466 -0.491598 -0.279604 -0.00804375 -0.0364962 0.261417 0.262166 0.184089 0.403825 -0.390439 0.436965 -0.0546986 0.129335 0.261446 0.225634 0.464543 0.246232 -0.327247 0.339473 0.0803199 -0.375365 0.335991 -0.27642 0.0865176 0.490547 0.297166 0.462539 0.481317 0.129941 0.365931 0.0398905 0.604544 0.409993 0.287335 0.115327 -0.126431 0.0397112 -0.118904 0.574209 -0.0457873 -0.00297442 0.513141 0.397417 -0.383727 0.250109 0.084338 0.526845 -0.0427567 0.219661 0.333188 0.489248 0.293561 0.104004 -0.348658 -0.216134 0.0108431 0.355795 -0.346439 -0.11613 -0.112887 0.416419 0.320704 -0.126829 0.204483 -0.00529455 0.36993 0.481682 0.434769 -0.356029 0.455387 -0.202381 0.0407452 0.366129 0.586811 0.065675 0.0200446 0.0950156 0.0162664 0.391015 -0.266822 -0.236234 0.290361 0.43449 0.275442 0.349897 -0.371795 -0.316294 0.105478 -0.319974 -0.0298875 0.383088 0.487306 -0.322615 -0.341168 0.0974447 0.071998 0.417903 -0.0283717 -0.0917127 0.46508 -0.179688 0.102613 -0.0902614 0.592589 0.0979884 0.385735 0.0255791 0.601024 -0.191624 -0.185276 -0.267516 -0.0323854 0.513019 0.569302 -0.351727 0.268882 -0.392576 -0.25965 -0.220393 -0.309953 0.110331 0.561447 0.578394 0.157957 -0.424364 -0.00715814 -0.416496 0.3261 0.332023 -0.146537 0.172156 -0.467417 0.338794 0.462583 -0.49564 -0.140877 0.270932 0.00488547 -0.103135 0.492327 0.188539 0.0124849 -0.130413 0.117351 -0.0110189 -0.12347 -0.262007 -0.0622371 0.00830837 -0.170767 -0.0475032 0.370634 -0.276409 -0.0961636 0.0050285 -0.135072 0.460695 0.212903 -0.252877 0.41662 -0.364205 0.425123 0.38797 0.374723 0.353458 0.501824 -0.161178 0.313295 -0.000462722 0.100274 0.109978 0.4714 0.510118 0.327834 -0.0480999 -0.17466 -0.371784 0.118845 0.239365 0.138896 0.525152 -0.224341 0.139908 -0.127823 0.256168 -0.307768 0.20208 0.179379 0.336674 0.401023 -0.0175307 0.342858 0.239844 -0.216155 0.185703 0.111954 -0.339129 0.397292 -0.336442 -0.190546 -0.222713 0.0352823 -0.347095 -0.326523 -0.18375 0.13875 0.0556509 0.0195651 -0.253209 -0.243801 -0.424732 -0.299858 -0.0186614 0.0969386 -0.0503659 -0.368606 0.280153 -0.351058 0.293888 0.108602 0.515212 -0.234689 -0.0521636 0.285482 0.0561694 -0.378627 -0.199308 0.131138 0.454377 -0.105766 0.449003 -0.23967 0.48188 -0.267895 0.0297293 -0.039268 0.374809 0.544803 0.354775 0.462127 -0.285933 0.317772 0.572553 0.0987078 -0.0889306 0.0463691 0.244695 -0.350459 0.119555 -0.0539048 0.213272 0.11371 0.183379 -0.367969 -0.18775 -0.355477 -0.321391 0.0512332 0.211196 0.548128 0.353248 0.0557042 -0.295899 0.252972 0.14009 0.105511 0.496506 -0.203544 -0.0430086 0.155458 0.597956 -0.0164139 -0.186412 0.501275 0.446891 0.0779293 -0.117317 0.0165772 0.120063 0.38883 0.376051 -0.254233 -0.102841 -0.0276221 -0.207253 0.135759 0.0330089 -0.107725 -0.416574 -0.368472 -0.156697 0.310791 0.0827301 -0.0737908 -0.0508564 -0.357784 0.448405 -0.137415 -0.177163 -0.202113 0.412783 -0.172756 0.206452 -0.33149 -0.231462 0.0888229 0.176098 0.0799429 0.548708 -0.262973 -0.0834258 0.371918 -0.0666591 0.279134 -0.20799 0.163697 -0.173756 0.222611 0.458854 -0.202202 0.265133 -0.283448 0.566511 -0.276803 0.0313904 -0.114759 -0.216429 -0.118052 0.168773 -0.00624121 0.0748687 -0.014669 0.246656 -0.298781 0.0478413 0.458212 0.243342 -0.249202 0.0169377 0.265019 -0.110322 0.352848 0.0627291 0.239948 0.0165737 0.168382 -0.26374 0.104856 -0.262264 -0.417935 0.374931 -0.544713 -0.292573 0.433518 -0.226997 0.349749 -0.134532 0.16878 -0.156506 -0.269439 -0.173049 0.597738 0.302001 0.679183 -0.104678 -0.0409377 0.678137 0.75126 0.236046 0.170468 0.425627 0.486215 -0.082881 -0.199439 0.0960927 0.18492 0.372716 0.216268 -0.13703 -0.317232 0.350298 -0.164224 -0.243334 -0.314793 -0.232401 -0.0217837 0.458221 0.0306183 -0.471191 -0.244599 0.156054 -0.322502 -0.411961 -0.255137 -0.302839 -0.085023 0.0707786 -0.278811 -0.150871 0.474093 0.130684 0.51258 0.262608 0.366181 -0.28568 -0.163603 0.131429 -0.235777 0.673201 0.530946 -0.112443 0.464317 -0.154383 0.00705107 0.503233 -0.0104455 0.52743 0.537466 0.599255 -0.335284 -0.204381 0.251912 -0.117444 0.72496 1.29232 1.00847 1.17657 0.927269 1.18159 1.49587 0.859626 0.824931 1.50412 1.6369 1.63531 1.68593 0.845266 1.20046 1.76372 0.865273 1.10044 1.05341 1.69823 1.3542 1.55155 1.61972 1.6999 1.48678 1.60398 1.82949 1.60078 1.90375 1.50819 1.96893 1.25847 1.46085 1.44571 1.8794 1.77437 2.02398 1.77768 2.01431 1.16439 1.55478 1.9273 1.04008 1.50026 0.995492 1.43744 1.4083 1.00852 1.77668 1.71992 2.03628 1.32989 1.55309 1.93914 1.30712 1.18295 1.61731 1.13306 1.77519 1.52653 1.68495 1.734 1.78458 2.07656 1.16694 1.66548 1.94406 2.21716 1.48415 1.92984 1.31475 1.99989 1.81245 1.38415 1.53479 1.88488 1.84295 2.01166 1.86731 1.55808 1.63944 1.83481 1.82759 1.08016 1.68096 2.03912 1.15556 1.24023 1.12991 1.90545 1.74099 1.7351 1.57561 1.45251 1.75922 1.61772 2.00601 1.47905 1.60627 1.23396 -0.465529 0.0892597 0.695219 0.432122 0.640175 0.0983068 -0.00864223 0.1315 -0.453559 -0.416272 0.283969 0.0228043 0.0135691 -0.171114 -0.29987 -0.485831 0.0408368 0.160677 -0.127385 -0.0799773 -0.42887 -0.69416 -0.50481 -0.784849 0.310924 -0.361484 0.578752 0.565795 0.603147 0.313196 1.19319 0.912524 1.09181 1.01937 0.476604 0.867927 1.43086 0.974106 0.683354 0.695897 1.26355 1.62594 1.3397 1.15286 1.27556 1.01835 0.75001 1.10122 1.01238 1.53828 0.347826 1.10587 0.224224 0.664341 0.444704 0.316922 1.1351 1.19153 0.939102 0.50742 0.394663 0.868658 1.16116 1.19247 0.33563 0.079544 0.52465 0.311894 0.753751 0.707862 0.860373 0.728059 1.31192 1.86306 1.84257 1.3368 1.90878 2.21683 2.27169 2.42828 2.18018 2.42422 2.1348 2.22936 1.71163 2.10422 2.00294 1.45481 1.84815 1.6742 1.84629 2.0618 1.46776 1.77562 2.01897 1.72056 1.87726 1.54671 1.87891 2.21785 0.824571 1.11319 0.229958 0.170045 1.0171 0.904585 0.357904 0.491648 0.677025 0.956762 0.248315 0.277792 0.874521 1.07947 1.36667 0.574591 1.26934 1.36016 1.1911 1.23769 1.24098 0.920925 1.17476 1.39167 1.48631 0.99521 1.11926 1.15889 1.37133 1.77867 1.31643 2.11836 1.85179 1.43698 2.0655 1.60124 1.93202 1.10838 1.62008 1.28827 1.69195 1.65178 1.46462 1.44446 1.57454 1.39624 1.58453 1.34688 1.36393 1.21149 1.2083 2.03766 1.74462 1.81563 1.96955 1.48493 2.0502 2.01498 1.39451 2.15283 1.41806 1.35164 1.82479 1.89286 1.51532 1.81761 1.58486 1.5763 2.00083 2.27411 1.91306 1.84775 2.11908 1.47637 1.38051 1.77841 1.85005 1.95236 1.95336 2.04487 2.00964 1.97882 2.05666 1.53405 1.73043 1.69762 1.63135 2.25145 2.15088 1.69871 2.02615 1.33025 1.78989 1.72856 2.10917 2.10934 1.25024 1.22622 1.09363 1.81318 -0.371462 0.279776 -0.0501605 0.432233 0.46169 0.0304804 -0.0901778 0.0973485 -0.228849 -0.188298 0.0960672 -0.28294 -0.290757 -0.0907988 -0.0134614 0.0364737 0.207318 0.298538 -0.0187551 0.0803839 -0.284866 -0.236387 0.196367 0.316813 0.315633 0.0910547 0.225056 0.453142 0.182641 0.294871 0.256261 0.256942 0.0133847 0.615281 0.0543409 -0.173665 -0.026288 0.337084 0.284516 0.126326 0.523194 -0.238228 0.224431 -0.361911 0.102022 -0.336764 0.141122 -0.253187 0.393298 0.526948 0.265224 0.556701 -0.248266 -0.140188 0.285795 0.455069 0.352421 -0.115038 0.223646 -0.141454 0.500214 -0.154779 0.499253 -0.0925036 -0.137053 -0.0183913 0.132899 0.250499 -0.270771 -0.131004 -0.179842 -0.293891 0.0772824 0.499498 -0.174938 -0.358056 -0.380574 0.382627 -0.188454 0.447406 0.361132 0.488538 0.357911 0.436891 -0.353023 -0.0137692 0.238949 0.357924 0.287599 -0.0667876 -0.293823 0.222755 0.214852 0.60431 0.501484 0.439009 -0.0475926 0.0574653 0.117283 0.107422 1.00054 1.01508 0.87429 0.497465 0.934461 1.11016 0.559215 0.979388 0.902506 0.76514 0.806056 0.641805 0.637181 0.620551 0.56963 0.795149 1.16237 0.325325 0.706928 0.901361 0.738024 0.836395 0.572695 1.37189 0.879321 0.515151 1.28085 1.27679 1.01393 0.805775 0.817663 0.803379 0.631511 0.493681 1.06819 1.31133 1.30454 1.35349 0.98073 0.957499 0.869228 0.588582 0.431705 1.33334 1.02384 0.751064 0.866666 0.892019 0.840789 1.31243 0.600861 1.2997 0.908999 0.839797 1.3653 1.42314 1.01765 1.25244 1.30015 0.60766 0.610382 0.650243 0.941091 0.774142 0.685368 0.587491 0.678053 0.617958 1.53096 1.27047 1.19336 1.05602 1.53185 1.26104 1.01984 1.18144 0.619763 1.51116 0.643999 0.990666 1.36405 0.770776 0.854853 0.787924 1.13175 0.675303 0.62884 0.533005 1.29711 1.3418 0.558815 1.3638 1.439 0.943894 0.569127 0.55571 0.935614 0.649835 0.549282 0.907393 0.430891 0.274048 -0.532722 0.379891 -0.0785293 -0.0934781 -0.0542991 -0.0255131 -0.164612 0.0965474 -0.570507 -0.33097 -0.638371 -0.217425 0.0193832 0.0248189 -0.0444615 0.119057 0.0121952 -0.245 -0.0141105 0.107167 -0.366723 -0.0739656 -0.420398 -0.234603 0.09274 0.125968 0.0390171 0.244841 -0.36168 -0.00792098 0.109582 -0.27831 0.015512 -0.363159 0.255792 -0.403626 0.257496 -0.268871 0.310582 0.336147 0.120715 0.39036 -0.177271 -0.291491 -0.100212 0.310783 0.274866 -0.540452 -0.430571 -0.17307 0.159654 -0.138777 0.414008 0.346157 0.288991 0.118583 0.152269 -0.0603472 -0.0738976 0.282814 0.364798 0.449195 0.368143 -0.224347 -0.531401 0.0345788 -0.189074 0.166765 0.226584 -0.423577 0.0500003 -0.197218 0.462402 0.290318 -0.0351914 -0.140625 0.129483 -0.18266 -0.121281 0.271422 0.200114 0.585316 -0.349375 0.146232 0.459681 0.44132 -0.268409 0.0143201 -0.221973 0.138641 -0.224276 -0.314117 0.135425 -0.256317 0.0392691 0.190006 0.372055 0.437819 0.0125037 0.226351 -0.34173 0.546251 0.536197 0.571284 0.324747 -0.0700629 -0.118276 -0.16347 0.161948 0.170844 0.513166 -0.248436 0.0909823 0.532763 0.214638 -0.0739124 0.275075 0.334279 0.337044 0.529487 -0.0688045 -0.435194 -0.363358 -0.498526 -0.258703 0.161571 0.161919 -0.421974 0.0883263 -0.389535 0.297934 0.199574 -0.368386 0.228197 0.180557 0.306579 0.525181 0.391561 0.501001 -0.00418508 -0.154564 0.273774 -0.030798 0.238574 0.0966879 0.563898 0.481845 -0.224619 0.280118 0.255117 -0.277404 -0.331165 0.270436 -0.140973 -0.31665 -0.466168 -0.484698 0.341941 -0.346585 0.148317 -0.492414 0.40413 -0.160231 -0.401326 0.1198 0.45307 0.343136 0.0380361 0.18878 0.154535 0.35757 0.432495 -0.174757 -0.251828 0.0994238 0.36364 -0.187128 0.137996 -0.329339 -0.412771 -0.110969 -0.0672187 -0.198393 -0.289658 0.345948 0.0198243 -0.239228 0.401977 -0.152619 -0.12681 0.0217668 -0.128939 -0.17914 0.353509 -0.0939167 0.321562 0.144525 -0.36235 0.573954 0.639522 1.11345 0.413525 0.482793 0.335763 0.739494 1.22431 1.62553 1.23871 1.25684 0.931816 1.35781 1.46786 1.03372 1.42628 1.71419 1.06525 1.10301 0.881032 1.65973 1.22669 0.747574 0.875925 1.1821 0.908232 0.296173 0.320607 0.49121 1.01811 0.636398 0.888414 0.324212 0.300651 0.880593 0.613572 0.429914 0.20505 0.413978 0.360576 0.76856 0.796251 0.352687 0.270736 0.271394 0.611636 0.255162 0.411673 1.44644 0.823437 0.842882 1.5264 1.08164 0.819948 0.339235 0.699436 0.180609 0.653477 0.119348 0.72545 1.06057 0.962728 1.16717 0.759463 1.882 1.29224 1.57148 1.27953 1.37649 0.919521 1.36236 0.936017 1.14844 0.42464 0.630145 0.338594 -0.217854 0.58447 0.42733 -0.264961 -0.00962572 -0.210164 1.19933 0.322626 1.13057 0.933679 1.44752 1.44976 0.663157 0.531307 1.06087 1.33662 1.06043 0.526859 0.553674 1.20263 1.24464 1.43792 0.673213 0.73527 0.538919 0.550585 0.267538 0.57454 -0.0222852 0.105173 0.173461 0.077749 0.037724 -0.0818725 0.110648 0.219784 -0.239669 -0.0364437 0.0900488 0.307682 0.263443 -0.0205987 0.109885 0.39218 -0.0164432 -0.188233 0.341221 -0.304323 -0.0911282 0.334941 0.36368 -0.464966 0.142045 -0.497496 -0.241468 0.114159 -0.450997 0.418149 0.123049 -0.216972 -0.130845 0.547229 0.125666 0.0520567 -0.347527 0.428736 0.430914 -0.330745 -0.365544 -0.0975658 0.385698 0.371516 0.270838 -0.0533182 0.182196 -0.249755 0.216228 0.042388 -0.0267017 -0.227979 0.0617314 -0.0123275 -0.10228 -0.230723 0.0613589 0.264856 -0.475148 0.183377 0.277048 0.166856 0.529887 -0.400863 0.222751 0.105523 0.195102 0.321461 0.0179384 0.049105 0.298712 -0.0627627 0.159578 -0.0197437 -0.390791 -0.107715 0.316448 0.208903 0.0343452 0.0349262 -0.296911 -0.523277 0.288191 0.259026 -0.103401 -0.334017 -0.523358 -0.537383 -0.529745 -0.46017 0.180964 0.226486 0.136896 0.0999009 0.190335 -0.282399 -0.12211 -0.0116971 -0.355435 0.149378 0.298035 0.316357 0.457554 -0.10172 -0.265271 0.502409 0.224068 0.559589 0.216706 -0.208363 0.123946 0.502692 -0.150958 -0.0155529 0.332724 0.380863 0.286056 0.478031 0.522465 0.400139 -0.332938 0.345675 0.276003 0.496936 0.127079 0.165045 -0.0904211 0.396974 0.540976 -0.0572029 -0.0688348 0.22113 -0.359554 -0.224008 0.507254 -0.233607 -0.334277 0.12021 -0.28949 0.27387 0.306212 0.236974 0.189912 0.567894 -0.366943 -0.0752616 0.349688 0.32065 -0.196847 0.263388 0.115996 -0.138795 0.0014104 -0.22676 -0.266703 0.513763 0.317912 0.032251 0.301355 0.259532 0.377354 -0.362574 -0.115978 0.420325 -0.182618 -0.203796 0.588767 -0.112386 0.332199 -0.2777 0.581415 0.0441417 0.355173 0.159483 -0.000226223 0.386804 0.483783 -0.249389 0.114487 -0.305854 0.422194 -0.371176 -0.045393 -0.179483 -0.206611 0.0844012 -0.265642 0.522617 0.530867 0.445104 0.199066 0.320582 0.491107 0.48568 0.136559 -0.293514 -0.355393 0.0978659 0.0132821 0.419982 0.279836 0.0108134 -0.0920099 0.0722152 0.600763 0.3109 -0.199168 0.432115 0.330648 0.239897 0.435932 0.139958 0.289734 -0.17445 0.39703 0.491368 0.324516 -0.459178 0.407862 0.240046 0.377131 0.00616423 -0.0285152 0.276336 -0.108381 0.503138 0.389716 -0.0132865 0.0771495 -0.179302 -0.178298 -0.270164 0.235496 0.108628 0.1915 0.201316 -0.183163 0.440452 0.101665 -0.338103 0.196389 0.0484291 0.329833 -0.0214288 0.340864 0.175055 -0.115862 0.0988182 0.0987959 -0.27553 -0.226135 -0.0450936 0.266046 0.266614 -0.237872 -0.359557 0.22832 0.588996 0.095436 -0.227701 -0.155449 0.323569 -0.0700054 0.508756 -0.114472 0.542886 0.214634 0.150052 0.419397 0.649072 0.0863158 -0.0998509 -0.0373619 -0.277459 0.18676 -0.343666 0.290277 0.495929 0.175004 -0.180398 0.554553 0.285679 0.0790782 0.165114 -0.104867 0.206668 0.157895 0.501675 0.14289 -0.417444 -0.386919 0.389525 0.300317 -0.0940437 0.28258 -0.446585 -0.201467 -0.257689 0.142421 0.686387 0.0375494 0.739449 0.0567287 0.3119 0.679598 0.499981 0.188148 0.244061 0.259142 0.668133 0.231964 0.0893171 0.142254 -0.331592 -0.38946 -0.517639 0.443192 0.350935 0.854096 0.363989 0.917008 0.153253 0.430525 0.696606 0.600137 0.241692 0.871675 0.976556 0.538546 0.281736 0.862573 0.621363 1.07873 1.08538 1.21645 1.12334 0.926871 0.665569 0.399444 0.252492 0.292829 -0.0438535 0.66143 -0.0507258 0.0503603 0.704174 -0.127315 -0.100149 0.445473 -0.17927 0.301067 0.210015 -0.148255 0.675165 -0.0135661 0.439819 0.818805 0.530773 -0.105804 -0.0555154 0.31026 0.51737 0.305405 0.205631 0.485206 0.308235 0.156717 0.197501 -0.215382 0.554543 0.543432 0.252859 0.754285 0.358514 0.320555 -0.0567254 0.0344297 0.19135 -0.207544 -0.387974 0.108117 0.295062 0.153454 0.297133 0.314583 0.218136 -0.169257 0.306058 -0.145106 0.0102225 0.550496 0.621152 0.0848857 0.419561 0.660168 0.236371 -0.098032 -0.320027 0.275231 -0.00534359 -0.459652 0.051161 0.472616 0.4538 -0.461137 -0.0350216 -0.343473 0.0296164 -0.264507 -0.0107208 0.126439 0.241655 -0.38619 0.534978 -0.278828 0.172256 -0.0295325 -0.173568 -0.182031 0.258211 0.233558 -0.314443 0.187882 -0.43839 0.32306 -0.195147 -0.310932 -0.366562 -0.0845882 -0.517676 0.210144 0.0178794 0.198049 0.290695 0.0895027 0.282285 -0.28225 0.110575 -0.363549 -0.261747 0.367342 0.125865 0.361285 0.448621 0.101465 -0.422621 0.142031 -0.353553 0.0786779 0.543496 0.515271 -0.141569 -0.247762 0.207798 -0.128116 -0.424627 -0.516216 0.150598 -0.202899 -0.00574561 0.292845 -0.395505 -0.461139 -0.149686 0.276536 0.0703499 -0.408638 -0.48558 -0.318817 -0.248713 -0.189763 -0.356516 0.462618 -0.295505 -0.340536 0.16778 -0.092348 0.366651 0.353283 0.402948 0.33926 0.296649 -0.333739 0.506891 -0.062612 0.0470971 -0.417102 -0.0667916 -0.237662 -0.0456846 0.487718 0.497963 -0.0496911 0.502658 -0.160423 -0.252504 0.693847 0.519781 0.405077 0.937874 0.864335 0.720172 1.07303 0.79772 0.91162 1.19825 0.423297 0.238803 0.971418 0.217132 1.09724 0.766695 0.97221 1.23021 0.731701 0.347754 0.723419 0.777608 0.810238 0.954463 1.24919 0.763048 0.913346 0.663138 0.743053 1.21922 0.869802 1.28213 0.485973 0.974662 0.824008 1.02217 0.382194 0.693366 0.678496 1.12072 0.778707 0.934488 1.07101 0.414423 0.752977 0.875894 0.936149 0.54075 0.954161 0.477095 0.657501 0.406117 0.918754 0.105765 0.990909 0.814175 0.579864 0.627178 0.233937 1.00092 0.473725 0.704514 0.814059 0.63964 0.320616 0.44507 0.516794 0.580792 1.06245 1.00897 0.491607 0.525038 0.498507 0.262486 0.685029 0.188822 0.116891 0.506613 0.605135 0.872945 0.814017 0.14306 0.188986 0.678771 0.235231 0.144501 0.454291 0.671173 0.629845 0.516 0.486375 0.966412 1.0635 0.22669 0.662703 0.499121 0.947785 1.27718 1.25148 0.974755 0.991345 0.397995 0.892936 0.271115 0.349305 0.482878 0.368326 0.425855 0.0234169 0.0137795 0.330481 0.766439 0.112152 0.453919 0.733252 0.56871 0.973165 1.21198 1.33824 0.545871 0.677147 0.713365 1.28598 0.527871 0.796969 0.790292 0.896165 1.38319 0.674707 0.653447 0.931483 1.53003 0.95439 0.921453 0.743688 1.29971 1.30781 1.16652 0.727311 0.351243 1.14935 1.08824 1.16754 0.336021 0.553463 0.539091 0.531178 1.06284 0.553813 0.610103 1.47105 0.820452 0.827139 1.25415 0.82021 1.11214 0.465052 1.13474 0.730989 0.473986 1.12538 1.11472 0.435582 0.469354 0.348669 0.666977 0.317656 0.374698 0.609451 0.812794 0.439104 0.465202 0.681677 0.422536 0.685643 1.10852 0.92203 1.12057 1.1398 1.09073 1.37707 1.07097 1.36676 0.714088 0.902952 0.794601 1.41714 0.958367 1.43073 0.848961 1.05867 1.26834 0.731865 1.35763 0.665675 1.02967 1.00756 0.840809 1.30921 1.43029 1.02708 1.12908 0.24105 0.419867 0.261038 0.602816 0.20544 0.77479 0.311699 0.868002 0.399695 0.194823 0.45432 0.274932 0.424454 0.795544 0.510447 0.292155 0.193432 0.46699 0.640105 0.836598 0.254208 0.861752 0.66489 0.391563 0.310658 0.0769853 0.644794 0.0373546 0.900653 0.49715 -0.11862 -0.0840145 0.635515 -0.0270547 0.323822 0.700854 0.693148 0.609831 0.597622 0.0246829 0.778393 -0.0380728 0.281196 0.135464 0.785577 0.745507 0.428088 0.895009 1.03066 0.866579 0.533953 0.250668 0.778997 0.264663 0.734328 1.1493 0.30326 0.30656 0.108617 0.248023 0.881731 0.183877 0.321611 0.696725 0.287384 0.83777 0.607421 0.153771 0.588894 0.274379 0.166377 0.34526 0.211633 0.432712 0.522597 0.946241 0.123714 0.79284 0.708277 0.122772 0.741381 0.295352 0.501225 0.449767 0.48864 1.06326 0.417795 0.70942 0.324967 0.496098 0.983434 1.16111 0.6675 1.27253 0.87725 0.990073 1.12815 0.43308 0.175781 -0.201722 -0.103266 -0.470648 0.44135 0.300801 0.157609 -0.00785867 0.226343 0.26105 -0.209602 -0.0359425 0.409552 0.41827 -0.0384053 -0.457988 -0.619783 0.147479 0.214458 -0.464727 -0.35845 -0.625552 -0.0760345 -0.586119 0.304923 0.270149 -0.668265 -0.204873 -0.132576 0.117812 -0.133675 -0.396388 -0.490399 0.268379 -0.27076 -0.59649 0.10431 0.327915 -0.119632 -0.218308 0.0441132 0.0565658 0.114414 -0.17807 -0.0881093 -0.285502 0.0247104 0.00314224 0.461994 -0.0950739 0.131054 -0.240191 -0.0282048 -0.23701 -0.0915785 -0.00515526 -0.222884 -0.00924902 -0.382074 0.452425 -0.0718787 0.246288 -0.155162 0.181751 0.260876 0.202573 0.116064 -0.188763 -0.050737 0.469242 0.079703 -0.49668 -0.00177153 -0.330295 -0.263936 0.289672 -0.221772 0.197286 -0.283354 -0.239402 -0.379566 -0.548282 0.149962 0.187787 -0.245295 -0.453911 -0.329112 0.0497885 0.0429679 -0.282967 -0.0422941 -0.573242 -0.597936 0.187258 -0.0422776 0.0268968 -0.243745 -0.426596 -0.648709 0.243482 1.04993 1.41077 1.49798 1.36756 1.15194 0.598882 0.738244 0.244659 -0.402696 -0.447484 0.400246 0.128234 0.041917 0.264994 0.161449 0.570424 0.586584 0.476651 0.317647 0.337124 0.828412 0.829689 -0.290029 0.266336 -0.180098 0.114394 -0.653598 -1.14024 -1.29413 -0.904237 -0.675152 -1.2264 -1.30742 -0.586061 -1.37439 -0.591349 -1.21122 -0.469733 -0.825884 -0.791588 0.398053 0.237899 0.483108 0.966328 0.545392 1.0735 1.23675 1.31413 1.4062 1.08626 1.01705 0.999359 0.711541 1.29694 0.76867 1.23648 1.12123 0.285431 0.418447 1.40998 1.10351 1.49023 1.05938 1.3642 1.66824 1.42684 0.876884 1.15328 0.535348 0.912716 -0.0138859 0.182956 0.394689 0.46765 0.0785461 0.358687 -0.0190407 0.553211 0.00595384 0.0251851 0.814659 1.26904 1.99725 1.93091 2.22346 1.76365 2.0129 1.93253 1.38719 1.76984 2.25493 2.5134 2.59488 1.94627 2.57298 2.45043 2.39886 2.05004 2.28939 2.89951 -0.358483 0.106023 -0.0921829 0.153598 -0.296511 0.190531 -0.256556 -0.118025 -0.0389973 -0.15557 -0.0275626 0.284056 0.556416 -0.284296 -0.0216566 0.355887 0.102381 -0.250861 0.0823459 0.48621 0.544121 -0.247594 0.365312 0.164092 -0.290219 -0.0645796 0.614179 0.283873 0.156938 -0.0129959 0.316008 0.2214 0.533429 0.620237 -0.28323 0.54881 0.0899127 -0.233006 -0.259735 0.373409 -0.0385362 0.0897966 0.0680618 -0.0336318 0.226513 0.416553 -0.324906 -0.33781 0.482228 0.0552436 0.458828 0.325032 0.0894282 0.142733 -0.198474 0.142507 0.416617 -0.242165 -0.218224 -0.0624515 0.148553 0.439057 0.510891 -0.0232515 0.335019 0.547354 -0.148976 -0.197818 -0.287736 -0.0192693 0.616244 0.0661793 0.446235 -0.0247027 0.304002 -0.0115816 -0.305961 0.318125 -0.0251659 0.530741 -0.252103 -0.189629 0.22055 0.198946 0.300194 0.387286 -0.299536 0.095186 0.525106 -0.14484 0.407474 0.00707593 0.661724 0.273384 0.350268 0.348135 0.137121 0.50047 0.444869 0.158283 -0.387085 0.146249 0.293452 0.322068 0.379541 -0.108883 -0.399875 0.38163 -0.431757 -0.0472115 0.315825 -0.351413 0.103356 -0.13713 0.227717 -0.209487 -0.38269 0.247845 0.172874 0.447791 0.370485 -0.121511 -0.232293 0.348852 0.42675 0.366714 -0.0817033 -0.138035 0.159434 -0.312525 0.364853 0.299983 0.442632 0.263052 0.291988 0.41576 -0.207672 0.469107 0.349637 -0.182704 -0.135646 0.107037 -0.0674564 0.44089 0.370326 0.481907 0.524883 0.373686 0.0801784 0.108836 0.187953 -0.109342 0.379289 0.377522 -0.34575 0.310582 0.311456 0.174318 -0.115396 0.126116 0.509396 -0.233531 -0.110513 0.341763 0.360977 -0.498635 0.0718803 -0.51863 0.373697 -0.144979 -0.182498 -0.304007 0.423939 0.101513 0.447248 0.173451 -0.0485585 0.409417 -0.0157681 0.515507 -0.00109357 -0.302368 -0.058881 -0.0355882 -0.37444 0.143387 -0.235984 0.399172 -0.321811 -0.042191 -0.114274 -0.342684 0.174527 0.227835 -0.486287 0.127898 0.293944 0.0938542 0.107955 0.118818 0.582896 0.483722 0.364537 0.36978 -0.0572018 0.218992 -0.0496076 0.317947 0.0411719 0.347626 0.270453 0.491248 0.517212 -0.349984 -0.117132 0.585006 0.221473 0.145184 0.475278 0.5066 -0.290914 -0.076947 -0.274399 0.465621 -0.266633 -0.239852 0.101392 0.562361 0.4061 -0.21602 0.237825 0.345758 -0.386159 -0.0249688 0.110124 -0.0327719 0.612644 0.457267 -0.314643 0.0569011 0.197237 0.320725 -0.0847211 0.0715338 0.346053 0.182476 0.044358 -0.0487189 -0.29548 -0.0997846 -0.162791 -0.19933 0.228272 -0.0305715 -0.325913 0.351015 0.120236 0.177925 0.320235 -0.0851308 0.326816 -0.0634571 -0.358382 0.355893 0.334188 0.149932 -0.297404 0.310888 -0.0392718 -0.243234 -0.265312 0.546131 0.476239 0.0484093 0.0304638 0.206282 0.623115 0.449211 0.53222 -0.299054 -0.273147 -0.252156 -0.115219 0.316225 0.067516 -0.0968114 0.00597083 0.536063 0.433597 -0.320132 -0.191 0.13793 -0.0137768 -0.186486 -0.166447 -0.339528 0.307998 -0.0774187 0.356769 -0.339825 0.446083 0.861125 0.979981 0.310177 0.302754 0.385304 0.942508 0.33831 0.163645 0.752366 0.315751 0.246185 0.751525 0.448244 0.740456 0.112323 0.748493 0.218749 0.180189 0.605945 0.343435 0.370119 0.100612 0.673141 0.482825 0.280709 0.722987 0.220006 0.628158 0.462809 0.251199 0.0742935 0.31641 0.231683 0.417758 0.654662 0.656704 0.31594 0.989655 0.896126 0.30105 0.498288 0.367892 0.225571 1.09592 0.294745 0.659207 1.08556 0.800457 0.93196 0.761523 1.14708 1.27126 0.878042 0.721753 0.733919 1.03472 0.392241 0.824131 0.641269 0.812074 0.121679 0.843293 0.285173 0.617923 0.411419 1.19063 0.413318 0.849299 1.16079 0.0735689 0.774261 0.210524 0.1766 0.760994 0.163673 0.362658 0.150579 1.02242 0.856302 0.888209 0.569332 0.88556 0.963187 1.20891 0.386489 0.477099 1.16967 0.74322 0.34218 0.87368 0.600962 0.547811 0.697757 0.842558 0.975995 1.02209 0.870016 1.33195 0.728133 -0.0682644 0.417049 0.561054 0.229211 -0.316234 0.339011 0.403826 0.0200793 0.467918 0.367776 -0.190188 0.172402 -0.274027 0.395596 -0.181898 -0.313017 0.541936 0.0719206 -0.344668 0.0376074 0.151485 0.222643 0.334194 0.3717 -0.406938 -0.128215 0.0264171 0.190958 0.361117 -0.111788 0.514625 -0.199278 -0.19632 0.461271 0.388701 -0.147498 0.203932 0.22902 0.308411 0.0644109 0.00122392 0.531432 0.685657 0.191583 0.386199 -0.0550067 0.3103 0.357316 0.408535 0.344795 -0.205436 0.0122803 0.0080745 0.546933 -0.234452 -0.00592661 -0.180503 0.245668 0.659337 0.603578 0.587534 0.54132 -0.215498 -0.249824 0.342216 0.526807 -0.0428785 -0.118666 0.0710785 0.580609 0.237773 0.372397 0.433264 0.232066 -0.0943995 0.145182 0.513606 0.528965 -0.190022 0.256349 0.205641 -0.0784703 0.542348 0.501386 -0.275838 -0.35653 -0.193838 -0.121517 0.204779 -0.214591 -0.188834 0.10991 -0.338589 -0.0916922 0.126256 0.272048 -0.318779 0.375119 0.436843 0.0780149 0.627815 0.378027 0.130695 0.373869 -0.144347 0.272 0.793538 0.700147 0.0555851 -0.175065 0.155885 0.539206 0.0750441 0.0921134 0.462525 0.20251 0.167575 0.697499 0.471185 0.753042 -0.0804144 0.748456 0.261697 -0.0933336 -0.14222 -0.2972 0.524565 0.0318197 0.597526 0.458287 0.498746 0.241089 -0.0512803 -0.127055 -0.0623377 0.0976504 0.479303 -0.052424 0.177737 0.950011 0.17792 0.597496 0.818614 0.541473 1.03328 0.531261 1.00989 0.382924 0.445143 0.720293 0.30114 0.439576 0.431665 0.667143 0.35272 0.532502 0.698721 0.272886 -0.0701077 0.549305 -0.0250998 0.810363 0.251585 0.297485 0.159073 0.506348 0.775831 0.87609 0.698361 0.970841 0.727989 0.781152 0.305136 0.333264 0.244952 0.373658 0.969856 0.208716 0.746247 0.300215 0.830431 0.987036 0.676712 0.294741 0.60964 0.0854495 0.90245 0.375032 0.51682 1.00167 1.06028 0.54521 0.866336 0.320084 0.796756 0.876768 0.75093 0.487618 0.779354 0.395918 -0.246514 -0.193711 0.508776 0.209998 0.306684 -0.247569 0.583402 0.190418 -0.133474 0.198179 0.344505 0.54313 0.013261 -0.133352 -0.322073 0.558268 -0.0875051 0.526959 -0.122606 0.256562 0.345052 -0.210034 -0.3412 0.0784298 -0.0219381 0.372937 -0.125309 0.574373 -0.275372 0.404545 -0.246341 -0.105619 0.627948 0.613916 0.435627 0.249277 -0.321278 0.350592 -0.222791 -0.106467 -0.0970967 0.484551 -0.180957 0.310822 -0.242418 -0.110813 0.270487 0.0347166 -0.245969 0.479072 0.620773 0.466156 0.629072 0.636548 -0.122436 -0.0538164 0.357801 0.122462 -0.105943 0.427958 -0.109577 -0.025036 0.66388 -0.158823 -0.0837848 0.432784 0.442595 -0.0551774 0.0849348 0.496549 0.0961336 0.288098 0.306213 0.23972 -0.0696558 0.358643 0.437158 0.493021 0.691078 0.502261 0.271011 0.606947 0.258917 0.209778 0.534215 0.455797 0.455851 0.201612 -0.113238 -0.32546 -0.0401346 0.090688 -0.0511039 -0.0968122 0.189375 0.132206 0.617825 -0.0831106 0.360776 0.0200748 -0.30643 -0.242819 -0.415433 0.288505 0.297878 -0.167113 -0.0388424 0.023389 -0.33465 -0.00987813 -0.0893016 0.282476 -0.0276618 0.502317 -0.0763785 -0.0722605 0.34437 0.686488 0.297728 0.435533 0.493769 0.523313 -0.178503 -0.176287 -0.105623 0.471122 0.348149 -0.197155 -0.380702 0.00940233 0.123711 -0.289803 0.161056 0.126321 0.469162 -0.0800086 0.56577 -0.0115688 0.477366 0.568512 0.34202 0.728499 0.231523 0.639655 0.544551 0.330112 0.728642 0.09666 0.206834 0.368963 -0.304117 -0.0465391 0.0453308 -0.18022 0.196658 0.372166 -0.246062 -0.0412237 0.616892 -0.156108 0.397789 0.14199 0.0175092 0.0661655 -0.145849 -0.0419336 0.33308 0.54282 -0.0840558 -0.0715038 0.228985 -0.497016 0.0828722 -0.153313 0.53023 -0.154286 0.311556 0.405939 0.117889 -0.205063 0.0396873 0.229015 0.280624 -0.27119 0.631799 -0.173788 0.364393 -0.320639 0.0471514 0.301052 -0.132931 -0.138738 -0.155837 0.199621 0.375908 0.0834727 0.512541 0.05488 -0.0106831 -0.0247407 0.540854 -0.240956 0.0338136 -0.0122692 -0.0161405 -0.0740647 0.20292 -0.265712 -0.247482 -0.294576 -0.113572 0.179396 0.303112 0.44615 0.214438 0.320446 0.717339 0.0821843 0.497636 0.234339 -0.156357 -0.19341 0.537445 0.154283 0.472725 0.246468 0.553658 0.331438 0.649339 -0.108955 0.679952 0.55092 -0.00742712 0.0162411 -0.181307 0.260585 0.249234 0.343523 0.318607 0.320807 0.336799 0.518475 -0.172128 0.0172997 0.36732 0.403643 0.689008 0.351175 -0.259318 0.457093 -0.169496 -0.149585 0.556216 0.68598 0.3395 0.337266 0.24484 0.205994 -0.000114413 0.21947 0.445858 -0.0148746 0.0651541 0.72791 0.277296 0.192739 0.320588 -0.150731 -0.13124 -0.0533379 0.456151 0.513075 -0.235639 0.590412 -0.158235 0.426062 0.303847 -0.154368 0.105969 0.369514 0.600011 0.245343 0.507876 0.44543 0.225907 0.14611 0.115169 -0.206226 0.684207 0.395072 0.262426 0.346644 0.591556 0.580304 0.335183 0.148253 0.0318635 -0.116516 0.235834 0.149755 -0.101684 -0.229048 -0.261216 -0.0721092 -0.35508 -0.137886 -0.364766 0.196295 -0.0270548 -0.00718596 -0.188904 -0.171727 0.526033 -0.365906 0.61184 0.0521374 0.0644549 -0.0454962 0.0280209 -0.0623561 0.511693 0.528787 0.519817 0.370869 0.394294 0.135106 -0.200366 -0.290335 0.240605 0.246486 0.05531 -0.422736 0.510258 0.305053 0.0760613 -0.346736 -0.256722 0.227743 0.343867 0.114838 0.581549 0.544419 0.308307 0.477842 0.567634 0.310512 -0.101091 -0.00189938 -0.372837 0.355897 0.292782 -0.473374 0.224437 0.227093 0.359053 0.110722 -0.153683 -0.404663 0.267949 -0.396153 0.309324 -0.205024 -0.317099 0.31632 -0.370316 0.198594 0.368573 -0.338992 -0.319961 0.0289287 0.113181 -0.32911 0.0371699 -0.111275 -0.389975 -0.00728584 -0.409668 -0.0725953 0.398504 -0.374135 -0.317423 0.173273 -0.334569 0.477069 -0.0475057 0.49859 0.021962 0.258786 -0.461139 -0.236129 0.391741 0.441762 0.18049 -0.388941 0.324247 0.315353 0.261004 0.15507 0.455471 0.508327 -0.199052 0.1479 -0.259362 0.295354 0.487396 -0.174794 -0.234201 0.558741 0.246995 -0.333717 -0.288062 0.452634 0.387706 -0.130788 0.38292 -0.213739 -0.219249 -0.103605 0.5366 -0.140678 0.213473 0.426355 -0.194291 -0.14298 0.505486 0.561672 -0.40078 0.242151 0.173641 0.499602 0.195376 0.388584 0.0763497 0.382701 0.144216 0.0156365 -0.34093 0.3444 0.00951128 0.328559 0.440771 0.125437 0.173877 0.188482 0.339228 -0.0486944 0.382691 0.576467 0.299896 0.358004 -0.108414 -0.0400439 0.217625 0.10687 0.21568 0.130121 0.0680611 0.230167 -0.229561 -0.33388 0.13653 0.38969 0.476404 -0.362621 0.213844 0.0506621 0.0805773 0.284253 -0.198619 0.49814 0.0222607 -0.350976 0.0659323 -0.351599 0.289137 -0.163267 0.0114285 0.0707435 -0.18917 -0.266896 -0.124885 0.132989 0.127121 0.515534 -0.35898 -0.248647 0.02911 0.121657 0.386003 0.24623 0.246279 0.00677379 0.136838 0.21396 0.140901 -0.186198 -0.263133 -0.309265 -0.435397 0.000688783 -0.414187 -0.0148832 0.0402902 0.0723398 0.0651328 -0.230653 0.333278 -0.490401 0.287122 -0.391858 -0.246682 -0.365731 0.204952 0.294195 -0.38207 0.343941 0.49197 0.0641854 -0.145377 0.326633 -0.220365 -0.413574 -0.130632 0.415202 0.337223 0.491201 -0.266655 0.531196 0.583971 -0.320709 -0.15964 -0.401165 0.190176 0.486957 0.294867 -0.228754 -0.159604 0.210569 -0.150711 0.613814 0.296416 0.0477111 -0.282816 -0.012735 -0.176997 -0.262155 -0.294473 -0.254359 0.21098 0.0256322 0.544703 0.464209 0.00268294 -0.252692 0.229392 -0.265247 -0.331143 0.352931 -0.351744 -0.345291 0.444573 -0.0182763 -0.307651 -0.033655 -0.190547 0.364903 0.0945823 -0.0704887 -0.096206 0.306868 -0.0335893 0.583218 -0.257912 -0.0129843 -0.191947 -0.197039 -0.0150169 -0.132033 -0.107101 0.539724 0.234444 -0.21841 0.374845 -0.306062 -0.00526616 0.0264068 -0.148418 0.0419642 -0.290995 -0.163326 0.00440445 0.499534 0.177385 0.139149 -0.0271683 0.471574 -0.0111526 0.508343 -0.161688 0.281148 0.323397 0.256513 0.197253 0.27419 0.423235 0.369779 0.462332 -0.199861 0.632004 -0.261128 -0.14538 0.381802 0.040178 0.591146 0.248472 0.194263 -0.26935 0.401377 0.529616 -0.171996 -0.367566 -0.0345519 -0.216436 0.246773 0.578814 0.141455 0.0751297 -0.112876 0.0103247 0.30594 0.531638 0.536343 -0.291208 0.0232715 0.159048 0.565823 -0.181881 -0.0283941 -0.225251 -0.134693 0.160066 -0.110718 0.412275 0.326644 -0.35465 0.109362 0.0103387 -0.126839 -0.0121418 -0.0158058 0.179969 0.113102 0.404861 0.359586 -0.297368 0.326761 -0.0971719 0.261123 -0.340566 0.258936 -0.187271 -0.496322 0.0531651 -0.0641872 -0.0229963 -0.337149 -0.0914108 0.175034 0.00946614 0.0434716 0.447178 -0.453131 0.403483 0.378225 0.348216 0.391616 -0.152638 -0.278416 -0.361662 0.21183 0.0792161 0.146635 -0.326645 -0.126738 -0.102417 -0.199453 -0.429675 0.109842 0.313231 -0.426612 -0.212134 -0.29696 -0.378059 0.365167 0.103357 0.0598853 -0.494925 -0.407678 -0.106587 0.161824 0.875212 0.455194 0.84894 0.733411 0.346617 0.72878 0.694339 0.687815 1.00533 0.839381 0.346726 0.473666 0.333657 0.407249 0.661631 0.585299 0.635792 0.786673 0.262134 0.499958 0.958699 0.560901 0.763957 1.12611 0.547198 0.498019 0.883087 0.657591 0.723723 1.26539 1.28253 1.44184 0.538644 0.949662 0.917979 0.594338 0.346661 1.31833 1.01125 1.0608 0.82197 1.05876 1.24076 0.948032 1.21538 0.718728 0.366718 0.653677 0.333553 0.42767 0.966238 1.0315 0.753005 0.430783 0.877465 0.919215 0.497957 1.24404 1.03349 0.700171 0.955389 0.814559 0.697459 1.10684 0.46367 1.33342 0.491085 0.554452 1.39452 1.15009 1.20216 0.84935 0.819999 1.10944 0.44899 0.75178 0.542573 0.527962 1.12248 0.56946 0.70798 0.82251 1.28519 1.061 0.79699 0.736702 0.557954 0.97887 0.689473 1.32332 0.509492 0.483051 1.00632 0.919864 1.33763 1.10084 0.956334 1.42499 1.19134 0.81611 0.0817606 0.0212484 0.331348 0.548013 -0.229203 0.397219 -0.0918082 -0.0700951 0.528611 -0.362188 0.114989 -0.193693 0.0652205 0.0462493 0.522983 0.539023 0.456102 -0.25917 0.173397 -0.220052 -0.286429 0.238096 -0.191322 0.220243 -0.36562 0.597436 -0.22303 -0.00160591 0.482112 0.483424 0.350816 0.00683608 -0.048003 0.0701695 -0.0483423 0.121389 -0.111355 0.280786 0.452418 -0.191183 0.314029 -0.0257977 0.0251299 -0.249796 0.394438 -0.0906969 0.639463 0.201408 -0.0377243 0.14034 0.29184 0.00999534 -0.33148 0.417126 0.519973 -0.339352 0.356523 -0.338999 0.0247479 0.168157 0.480638 -0.311057 0.487237 -0.266171 0.0980004 -0.229876 0.199635 0.270698 0.336652 -0.0555962 0.420705 -0.0136865 0.288451 -0.236365 0.0610746 -0.0297899 -0.0294256 0.00236451 0.461014 0.250663 0.422654 0.0622246 0.538748 0.451188 -0.195001 0.442526 0.486029 0.585871 0.497363 -0.0874272 0.153378 0.401176 0.0235301 0.0662157 0.497496 0.447486 0.191378 0.102085 0.146052 -0.0748822 0.505499 -0.0459802 0.285148 0.0715453 -0.00562218 -0.370275 0.284273 0.19803 -0.119161 0.0474424 -0.232839 -0.35585 0.446087 -0.342701 0.461737 -0.343898 0.503954 0.346497 -0.390656 0.400092 -0.356224 0.181234 0.220857 0.102131 -0.290921 0.242012 0.115885 0.410832 -0.205696 -0.353379 -0.295971 -0.333866 0.00229084 0.420975 0.209311 0.433853 0.534742 -0.021234 0.124997 -0.153837 0.482245 0.323949 -0.131273 0.285549 0.296321 -0.316093 0.266394 0.168051 0.378554 0.28395 -0.000825639 0.487056 -0.128649 -0.3977 -0.0401841 -0.0171871 0.243765 0.444188 -0.239649 0.467877 -0.486477 -0.0945198 -0.42801 -0.0744311 -0.25513 0.163001 -0.248526 -0.38386 0.484236 0.200658 -0.219428 0.253373 -0.175153 0.00883881 -0.116126 0.494916 0.0369271 -0.462263 0.0558335 -0.142466 0.274138 0.479242 -0.243618 -0.394557 -0.450343 0.208403 0.0885052 0.288442 0.147839 0.337841 0.261856 0.173769 -0.254831 0.32226 -0.390861 0.00173571 0.0145171 -0.141865 0.125285 -0.0173329 -0.283396 -0.440295 -0.922036 -0.80387 -0.786782 -0.566973 -0.535382 0.0633011 -0.187087 0.0548241 0.533134 0.65995 1.35083 1.04078 1.04838 1.43145 1.08743 0.935363 1.80419 2.01206 1.84891 1.33938 1.1912 0.811119 0.547812 0.933104 0.433905 0.496675 0.606399 -0.123807 0.248059 1.03697 1.8156 1.06593 2.04117 2.18111 2.33339 1.96971 1.38548 1.57624 1.05623 1.19522 1.5462 1.87142 1.49152 0.785041 1.12238 1.30001 0.301434 0.592716 1.45332 1.63271 0.99032 0.495616 -0.0525551 0.79674 0.545108 0.3569 -0.123355 -0.00390139 0.376361 0.208579 0.440677 0.635114 1.22301 1.03849 0.823658 0.376367 1.57495 1.64796 1.62565 0.955626 1.70714 1.76822 2.21495 2.25586 1.89557 2.25906 3.23071 2.72671 2.341 2.94504 2.60237 3.0389 2.70377 2.17846 1.85892 1.8588 0.701401 -0.100722 -1.03181 -0.663738 -0.221579 -0.193869 -1.20958 -1.09693 -0.509908 -0.613011 -0.0335201 -0.738541 -0.565137 -0.156298 -0.504405 -0.322521 0.195841 0.476048 -0.318519 -0.494029 0.172303 -0.386361 -0.02227 0.276226 0.274344 0.27024 -0.0181804 0.136516 -0.390023 -0.369187 -0.179346 -0.422257 -0.172821 0.101073 0.220151 0.468959 -0.187438 0.50023 -0.159112 -0.0143127 -0.506852 -0.48003 -0.0264913 -0.472027 -0.0162421 0.0485264 -0.218927 -0.313345 0.0252922 -0.0155642 -0.301141 -0.312454 0.0732329 0.123804 0.433239 -0.120906 -0.0998904 -0.0776852 -0.465105 0.0519523 0.147876 -0.0970125 0.217547 0.479302 0.516312 -0.0843822 0.44241 -0.22698 -0.143225 -0.271202 0.173783 -0.154679 -0.238318 -0.323132 -0.114579 0.21993 0.178257 0.140607 0.40316 -0.271909 -0.36005 -0.389885 -0.152469 0.169504 0.218886 -0.18031 -0.386931 -0.319728 0.285927 -0.345701 0.221113 -0.112839 0.0278489 -0.113741 -0.120991 0.031506 0.293067 -0.268567 0.161247 0.505933 -0.200301 -0.241791 -0.259269 -0.0500288 -0.212508 0.0297189 -0.419073 0.43458 -0.310968 0.472868 -0.34747 -0.2214 -0.340017 0.152187 0.603698 0.378434 0.481786 -0.302347 0.531504 0.247517 -0.167193 0.259004 -0.358363 0.349362 0.618469 -0.0716593 -0.202126 0.340189 0.0987655 0.442083 0.331439 0.390062 -0.314797 0.588427 -0.149651 0.0258737 0.172363 -0.0160336 0.0127857 0.362808 -0.0260737 0.181694 -0.343621 0.00581628 -0.289892 0.634245 -0.241048 0.551922 -0.303073 -0.336961 0.165141 -0.110612 0.277634 0.16868 0.607611 0.284523 0.48615 -0.221667 -0.00582147 -0.0566754 0.566432 -0.327341 -0.328535 0.608796 0.608042 -0.116332 -0.00508889 0.149813 0.237842 0.379876 -0.101382 0.581284 -0.0581003 -0.0770765 -0.0488834 0.000875818 -0.0934608 0.0628169 -0.0766371 -0.0314742 0.0955157 0.44723 0.209751 -0.275547 -0.0265259 0.174844 0.369538 -0.186789 0.306875 -0.282285 0.109008 0.238064 -0.243676 0.156912 0.22109 -0.252391 0.415104 0.594346 0.275806 0.0392519 0.35208 0.538429 -0.0252969 -0.354227 -0.204425 0.273793 -0.00529963 0.0672343 -0.285153 0.27841 0.402576 0.159464 0.74483 0.63193 0.839214 0.997218 1.03898 0.502174 1.16715 0.749161 0.590559 0.58509 0.221033 0.612144 0.999274 0.776785 0.66972 0.741054 0.663605 0.262657 0.0872197 0.365204 0.0691449 0.350029 0.251718 0.204492 0.0267535 0.69664 0.703207 0.0968102 0.255662 0.398664 0.580726 0.729455 0.780101 0.202184 0.520275 0.638848 0.620186 0.528663 0.33743 1.09679 0.954024 0.365701 0.438049 0.736176 0.94113 1.00926 0.311466 0.457319 0.0148602 0.219095 0.575322 0.0278477 0.55638 -0.0707276 0.323343 0.567579 0.598379 0.0289824 0.631522 -0.0922414 0.407105 0.195435 0.615142 0.218854 0.52563 0.257361 0.0715516 0.167247 0.832382 0.255263 0.0615619 0.604778 0.440503 0.445966 0.26118 0.284881 0.387207 0.598011 0.771839 0.512494 -0.073045 0.520351 0.633384 0.533556 0.464058 0.0625424 0.253126 0.262196 0.352859 0.135103 0.555476 0.158168 0.797644 0.507913 0.728346 0.509333 0.915245 0.843932 0.69114 0.773349 0.0997353 0.831443 0.388095 0.57422 0.36798 0.83475 0.0755085 0.886212 0.573144 0.952526 0.406488 0.499101 0.48621 0.230746 0.306953 0.246013 0.657063 0.794256 0.81212 1.18421 1.17101 0.404458 0.385791 0.875807 0.850219 1.0314 0.273865 0.65957 0.810814 0.958498 0.431095 0.892545 0.751874 0.845213 0.46759 1.08414 0.590221 0.447626 0.962316 1.19996 0.454918 0.433538 0.650263 0.859823 0.587193 0.910274 1.1407 1.20687 0.706019 0.802771 1.3254 0.705137 1.01368 0.426716 1.40655 0.680408 1.31734 1.4581 1.14982 0.853972 1.13706 1.26457 1.47083 0.638604 0.813945 0.627112 1.29111 1.07207 0.72476 0.936383 0.978629 0.885986 1.04881 1.39778 0.463776 0.377178 1.11315 1.37871 1.4121 0.544344 0.825989 1.24383 0.753521 0.445999 1.32232 0.704069 0.69643 1.12158 0.662746 1.28873 1.43244 1.24329 1.07331 1.3682 1.27134 1.24568 1.27639 1.03941 0.767781 0.546411 -0.299503 0.474434 0.166718 0.331609 0.464195 0.2671 0.335544 0.130425 0.18295 0.24082 0.158197 -0.411069 0.094275 0.533431 -0.298639 0.007982 -0.185989 -0.0964031 -0.400155 -0.0568402 -0.356009 0.505086 -0.343247 0.125794 0.279891 0.41273 -0.134757 0.12929 0.0264607 0.225142 0.263001 0.133507 0.111797 -0.159537 -0.0870607 0.00842715 0.56902 -0.317288 0.574789 0.174802 0.361655 0.179187 0.234646 -0.118073 0.108931 0.26289 0.191167 0.268732 0.509301 0.194997 0.571389 0.530487 0.0395252 -0.385409 0.0391431 -0.258079 0.473746 0.345268 0.317493 -0.078744 -0.00205186 0.00745725 0.472913 0.515732 0.259482 -0.23085 -0.10536 0.164384 -0.223319 -0.194642 -0.324009 0.470915 0.351589 0.252092 -0.331416 -0.228518 -0.182125 0.21398 0.398707 -0.30329 -0.225607 0.375743 -0.38611 0.242484 0.418218 0.103461 0.441245 0.325564 -0.103043 0.195162 -0.314145 0.312819 -0.368399 -0.406044 0.263632 0.309519 -0.211365 -0.403271 -0.0858528 0.00953076 -0.211807 -0.0264156 -0.100715 -0.417735 -0.333384 -0.000878927 -0.248946 -0.108594 -0.37509 -0.408747 0.010367 -0.179223 0.349477 0.0449392 -0.469243 0.274865 -0.307247 0.463133 0.0816025 0.0190687 0.0609152 0.177429 -0.324325 0.0519798 0.1151 0.349318 -0.198874 0.352018 0.426864 0.164684 -0.211008 -0.331928 -0.40345 0.133129 -0.290438 -0.281339 -0.390716 -0.0427753 0.0722242 -0.330084 0.0452372 -0.366954 0.0873996 -0.0306257 0.236482 0.0835973 -0.356393 0.307576 -0.151416 0.103094 -0.331187 0.3549 -0.267398 -0.101533 -0.0787946 -0.628904 -0.232973 0.251604 0.242062 -0.315542 -0.113857 -0.466799 -0.12467 0.0209291 0.26066 0.144199 0.367245 0.419971 -0.322401 -0.0182492 -0.299602 0.246161 0.153868 0.212401 -0.33825 -0.163027 -0.274683 -0.220863 -0.408566 0.114583 0.428853 -0.130515 0.0632449 -0.257396 0.34491 -0.383463 -0.263614 -0.257028 0.474316 -0.395656 0.0136613 -0.00774256 -0.26949 -0.499029 -0.381407 -0.420683 0.257723 -0.463377 -0.39615 0.489328 0.0767907 -0.259338 0.15858 -0.366407 0.35417 0.213144 -0.145018 0.483039 0.410776 -0.0997878 0.0800064 0.301133 0.222731 -0.416824 0.503917 0.0404846 -0.314958 -0.28523 0.249472 -0.362257 -0.205486 -0.213347 0.159705 0.0965445 -0.0980727 0.392997 0.266284 -0.317122 0.347728 0.258746 -0.420852 -0.0678326 -0.472798 0.260512 0.0909659 0.388265 0.024679 0.502954 0.44921 -0.0457067 -0.0220385 0.0545317 -0.254028 -0.356247 0.0499791 -0.323331 0.0911542 0.160236 -0.169552 -0.192047 0.242081 0.0582487 0.0383998 -0.137381 -0.389011 0.343231 -0.397924 0.252656 0.346505 -0.568244 -0.0315134 -0.580601 -0.137874 -0.00137719 0.186763 -0.546932 -0.0569726 -0.28047 0.46495 -0.175897 0.0665509 -0.221154 0.238194 0.245983 -0.153493 -0.280761 0.359442 0.403863 0.336356 -0.372755 -0.3535 0.0456623 0.153202 0.144771 0.37174 0.231811 -0.0421913 -0.503524 0.0221449 -0.10521 -0.445164 -0.372913 -0.0495751 0.0126156 0.338234 -0.153994 0.144985 -0.21248 0.0513477 0.124423 0.536016 0.101876 0.88868 0.326086 0.903454 0.298891 0.61341 0.821536 0.257043 0.508996 0.00414488 0.465933 0.115403 0.721475 0.175541 0.0500433 0.512188 0.689354 0.0966275 0.0734248 0.122421 0.159513 0.208747 0.582115 0.681703 0.939493 0.823265 0.251044 0.157598 0.32302 0.827696 0.729706 0.461858 0.748079 0.0828229 0.387756 0.0653952 0.714951 0.227982 0.349499 0.25026 0.262332 0.842124 0.394749 0.0136781 0.0503358 0.480244 0.564533 0.782725 0.623025 0.68575 0.949385 0.826439 0.936572 0.57058 0.547255 0.911973 0.430117 0.833241 0.101488 0.787288 0.692596 0.864972 0.27982 0.471685 -0.0186391 0.70269 0.575876 0.73519 -0.0319687 0.963289 0.0240312 0.270415 0.848422 0.460219 0.323276 0.937053 -0.0224572 0.922247 0.750734 0.63153 0.639962 0.733701 0.491884 0.612915 0.342038 0.0775499 0.564032 0.812084 0.951394 0.708508 0.63934 0.689498 0.61449 0.962924 0.199071 0.634993 0.700454 0.812491 0.406387 1.19347 1.29751 0.86759 0.410805 1.04375 1.31175 0.536879 0.833587 1.02196 0.375551 0.76945 0.958728 0.310472 0.527786 0.589895 1.07055 1.29015 0.972482 0.865594 1.05928 0.7482 1.47002 0.0300678 0.896315 0.299906 -0.229876 0.218436 0.299929 0.779477 -0.00879325 0.544284 0.378266 0.94342 0.273439 1.2135 1.21131 1.44697 2.23041 1.7742 1.6807 1.96348 2.38318 2.12611 1.62525 2.06037 2.1036 2.36167 1.94512 1.60067 1.5475 2.01269 1.55988 1.01957 0.921295 1.09335 1.40884 0.334178 0.85 -0.126208 -0.218592 0.358229 0.430604 0.31307 0.356385 -0.30123 -0.18244 0.2012 0.201607 0.134835 0.470482 0.574778 0.61411 0.309559 0.31224 0.61338 0.00577399 -0.209134 0.309059 0.00753624 -0.220994 0.352298 0.105328 0.439848 -0.426447 0.284886 0.0169616 0.60563 0.63231 0.000563592 0.846755 1.33892 1.31437 1.43622 1.11208 1.50855 1.82949 1.50197 1.56186 0.881439 1.57837 -0.257541 -0.0292715 -0.293084 -0.142193 0.0904229 0.365147 -0.0869087 0.189965 -0.0138359 0.505292 0.550841 -0.191203 0.0785528 0.445543 -0.15374 -0.226837 -0.124791 -0.283926 -0.330439 0.0165186 -0.29887 0.589006 -0.0981131 0.507508 0.0692692 0.410435 0.342017 -0.299534 0.103453 0.351399 0.400183 0.196764 -0.329925 0.461726 0.407102 0.114274 0.181144 -0.328113 -0.336675 0.522623 0.537562 0.569942 -0.31514 -0.0331085 0.366754 -0.124331 0.0891163 0.587544 -0.0664169 0.0960959 -0.0615395 -0.0247053 0.020364 0.188149 -0.167875 0.446281 -0.0468725 0.522162 0.495503 0.405506 0.229875 0.257862 -0.0296331 0.26357 0.0824097 -0.263538 -0.251127 0.634886 -0.221004 -0.236589 0.502869 0.657533 -0.32352 0.539044 -0.0240475 0.392108 -0.236494 0.409127 0.32074 0.0419952 -0.150424 0.609552 0.365609 0.22413 0.150203 0.550752 0.0213596 0.458085 0.425026 -0.129691 0.219333 0.00590141 0.482617 0.535919 0.613549 -0.0935419 0.613743 -0.306116 -0.123916 -0.271767 0.709739 0.633966 0.50262 0.58397 1.21252 0.656026 1.02752 0.185838 0.400075 0.812177 0.932027 0.829287 1.10523 0.742836 1.58543 1.68527 0.662843 0.8913 1.25195 1.25971 0.824752 0.708031 0.306589 0.453592 0.257757 0.131849 0.552506 0.196442 0.154956 0.773783 0.258196 0.276983 0.803836 0.306734 0.698291 1.02815 1.23671 0.834352 1.36679 1.40232 1.46819 0.835835 0.725383 0.907213 0.902919 1.59151 1.00603 1.04948 0.878339 0.696568 0.564114 1.15487 0.749803 0.595328 1.0241 0.662176 0.167884 0.34556 0.619692 0.29354 -0.000812319 -0.2227 0.511629 -0.148816 0.115277 -0.0919472 0.540518 -0.23207 0.204677 0.362198 0.806395 0.206572 0.791405 0.987134 0.358919 -0.110643 0.532675 0.396354 -0.284243 -0.482909 0.20266 -0.172255 0.310026 -0.306554 0.25683 0.386699 0.381725 -0.428049 0.130414 0.433953 0.477777 0.581824 0.889203 0.445914 1.05874 0.421397 0.885473 0.998476 0.607511 1.34743 -0.198472 -0.345451 -0.20099 0.594706 -0.353717 0.368376 -0.301542 -0.368479 0.213527 0.113548 -0.144144 0.123537 -0.332758 -0.206258 0.4373 0.433016 -0.305147 0.367466 0.555897 0.119811 0.0880785 0.138099 -0.19931 -0.141507 0.457028 0.568593 -0.0126793 -0.0564665 0.166044 0.176587 -0.136133 0.358968 0.217146 0.0533572 0.34311 0.25543 -0.188235 0.428697 0.269601 0.413675 -0.0553842 0.524393 -0.0552137 -0.0131557 -0.301064 -0.238205 -0.198669 -0.236017 0.480542 -0.295741 0.227975 -0.060402 0.216358 0.410886 0.175757 0.0562204 0.367566 0.557464 0.389598 -0.079737 0.121528 -0.345675 -0.312015 -0.248011 0.121439 0.437998 0.415804 0.343112 0.280326 0.102032 0.184074 -0.365483 0.0414114 0.524553 0.0169234 0.124692 -0.339109 0.191167 0.25905 0.540522 0.292108 -0.110906 -0.120241 -0.0925144 -0.299637 0.462893 0.366925 0.464533 0.41087 0.155732 -0.204431 -0.0515599 0.235209 -0.110753 0.0944545 -0.258884 -0.291996 -0.0987949 0.480859 0.384945 0.639034 0.284383 0.579829 -0.00378541 0.0980774 -0.0548906 0.412681 0.0871684 0.458461 0.0530431 0.085228 0.216527 0.39201 0.341075 0.486182 0.469269 0.201407 0.268618 0.319329 -0.0166478 -0.212965 0.496004 0.278752 0.368483 -0.280982 -0.247218 0.544247 -0.122151 0.0698951 0.38026 0.601289 -0.156849 -0.205411 0.386802 0.0532207 0.137433 0.57832 -0.239266 0.551163 0.367713 0.186502 -0.0988276 -0.182318 -0.213749 0.408217 0.515088 0.498573 -0.126096 0.00415368 0.0365067 0.0901716 0.0763267 -0.178641 0.677637 -0.286316 -0.181987 -0.320618 0.491663 -0.111518 0.00545004 0.035721 -0.288667 0.0327776 0.111143 0.381226 0.398311 -0.415926 0.291146 -0.487389 0.433897 -0.0551499 -0.0786549 -0.459435 0.0120341 -0.0998494 0.199847 -0.259398 -0.362677 0.316443 0.0688675 0.0069074 -0.278708 -0.52859 0.141805 -0.260858 -0.446396 0.341216 -0.198142 0.491758 -0.295593 0.31093 0.0603168 0.0043122 -0.0592462 -0.182712 -0.026614 -0.0669915 -0.0766584 -0.220641 -0.0676207 -0.195856 0.190935 0.340244 -0.112177 -0.238335 -0.16375 -0.310437 0.126168 0.112583 0.634886 -0.189095 -0.288715 -0.0486956 -0.12109 0.479238 0.286557 0.0353045 0.380805 0.64774 0.0165582 0.562933 0.408505 0.487365 -0.066216 -0.283371 -0.337413 0.284352 0.0198952 -0.0498082 0.415871 0.27495 0.122859 -0.0291628 -0.0110721 0.380065 0.0907984 0.190661 0.433423 0.61526 -0.320754 0.435405 -0.228223 -0.262083 -0.26033 0.00364453 0.538787 0.353146 0.359198 0.255916 0.332951 -0.30817 0.130626 0.025627 0.518702 0.394294 0.0989186 0.539443 0.0271711 0.474602 -0.150077 -0.156114 0.17262 0.388497 0.194382 0.550355 0.169073 -0.298548 0.140956 0.00476218 0.668724 0.18062 -0.192834 -0.203966 0.26389 -0.0928411 0.171486 0.167645 0.605017 -0.14671 -0.263065 0.225503 -0.129254 0.186148 0.623162 -0.232096 -0.024439 0.111801 -0.310854 0.3689 -0.0492966 -0.0998269 0.54896 0.448396 -0.375708 0.06242 0.319783 0.122423 0.0937246 -0.210946 0.445143 0.568931 0.76929 1.07387 0.709497 0.393511 0.304448 0.239687 0.910903 0.273231 0.443538 0.973231 0.835947 0.609696 0.486997 0.738887 0.692752 0.781939 0.223306 0.7385 0.518835 0.551972 1.03583 0.481445 0.415154 0.0853802 0.969186 0.210227 0.664613 0.534376 0.422318 0.540008 1.03035 1.05583 0.448964 0.509991 0.266506 0.527646 0.55356 0.00992703 0.662289 0.894274 0.876865 0.391501 0.403271 0.241586 0.0563963 0.0429404 0.987785 0.252043 0.748888 0.512547 0.791894 0.840513 0.994816 0.21695 0.857442 0.87955 0.283681 0.347653 0.240862 0.540376 0.745732 0.139243 0.519617 1.1098 0.619372 0.765573 0.668098 0.226998 0.791619 0.332955 1.06468 0.582212 0.652178 0.41619 0.823291 0.721772 0.430873 0.799739 0.940691 1.15649 0.233603 0.665129 0.851796 1.08345 0.716821 0.552378 0.821907 0.852962 0.774998 0.929078 0.258638 0.388793 0.935116 0.643384 0.36925 0.410806 0.257632 0.87628 0.467643 0.372856 0.556133 -0.126314 -0.167655 0.0840488 0.150578 0.509163 -0.352819 0.421464 0.139168 0.387376 0.368953 0.151941 -0.148791 0.0671007 0.0933503 0.412709 0.408111 -0.306778 0.0633335 -0.0148683 0.443651 0.132202 0.177032 0.197697 0.607307 0.381628 0.442357 -0.288971 0.110113 -0.232531 0.43535 0.024215 -0.000631673 0.621753 0.457356 0.496651 0.488952 0.483275 0.300587 -0.0221814 0.230407 0.0242442 0.529071 0.482467 0.449597 0.00142833 0.285915 0.243225 0.0700931 -0.279307 0.600663 -0.118435 0.235837 0.16458 0.45481 0.227619 -0.0768881 0.286564 0.306878 0.426832 0.429882 0.0851736 -0.237883 -0.269063 0.0456731 0.546102 0.565986 -0.133096 0.353068 0.214059 0.231104 -0.0431829 0.592902 0.123405 -0.185984 0.443807 0.496766 0.477677 0.0434219 -0.101538 0.528158 -0.0247038 0.140508 0.128402 0.498918 -0.0420371 -0.294196 -0.221808 0.58459 0.335208 0.495795 0.284189 -0.259458 0.595608 0.383259 0.154331 0.5044 0.319051 0.397183 0.0273363 -0.327927 -0.0620443 0.512945 -0.021026 0.596027 0.0184892 0.902529 0.724021 0.964716 0.171694 0.72153 0.371171 0.266661 -0.119178 -0.264826 -0.0174361 0.153047 -0.259848 0.0721627 0.274433 0.644781 0.412968 0.1993 -0.248172 0.0819525 0.459576 0.057369 -0.20522 0.176296 0.0824058 0.598835 0.577079 0.348191 0.449111 0.756173 0.126996 0.484009 0.656039 0.714218 0.282808 -0.0763267 0.484825 -0.0470756 0.644913 -0.0320247 0.514518 0.31688 0.826431 0.751078 1.02924 0.499684 0.928427 0.555406 0.875921 0.997607 0.990393 0.821101 0.726125 1.36339 1.67591 1.07136 1.24376 1.48225 1.59704 0.842163 1.28547 0.840233 1.42905 1.16572 0.763231 0.963101 1.33789 1.5588 1.44473 1.3586 1.0604 1.05082 1.8471 1.88463 1.86591 1.71653 1.25582 1.46589 1.83829 1.60302 1.88186 1.31654 1.98096 2.03225 1.01863 1.82635 1.35246 1.5782 1.56286 1.17618 1.30677 0.898604 0.979257 1.05232 0.387152 0.16808 0.488731 0.194717 0.238953 0.179833 -0.181313 0.364514 0.316476 0.652578 0.231718 0.0780893 0.270094 0.3614 0.47884 0.143144 0.0135186 0.401736 0.465555 -0.0829568 0.324493 0.495493 -0.274462 0.611785 -0.0112622 0.294176 -0.210893 -0.343282 0.528492 0.196061 0.0912397 0.316948 -0.248108 -0.0345457 -0.107896 0.342446 0.529204 0.0807608 0.139627 0.225374 0.14027 -0.280212 0.663381 -0.262245 0.397128 0.385683 0.114935 0.641783 0.0140138 -0.148313 -0.202851 0.613432 0.607292 -0.155164 0.520742 -0.0738469 0.440683 -0.357241 -0.101492 0.338731 0.23303 0.446707 0.127519 0.44566 -0.0802293 0.517397 0.305479 -0.112838 0.0655371 -0.169813 0.541097 0.577936 -0.0628815 0.536675 0.622961 0.637956 0.171228 0.0211214 0.486897 0.451778 0.120022 -0.359801 0.406795 0.103044 -0.156813 0.326884 0.402125 -0.297174 0.37654 -0.248775 -0.458021 0.0973969 -0.320238 0.0866168 -0.0607256 -0.0451216 -0.0447962 -0.402759 0.156 0.309662 -0.130488 0.134237 0.329768 0.0806253 -0.0528047 0.248909 0.00635115 0.458736 0.605655 -0.0866438 0.347565 0.186742 -0.0120438 0.186385 -0.327471 0.25812 -0.0292147 -0.392121 0.515345 -0.116761 -0.0963247 0.5309 0.454303 0.0544388 0.0680255 -0.135111 0.52523 0.563787 -0.00821936 0.204812 0.356061 0.201653 -0.350645 0.0320755 -0.394834 -0.0528077 -0.389845 -0.0275373 -0.221093 -0.385054 0.277676 0.48935 0.183948 -0.318179 0.0962358 0.306883 0.395721 0.487945 0.349438 0.319192 -0.177303 -0.317799 0.290651 -0.325923 0.139121 -0.22983 -0.0657804 0.00959325 -0.330876 0.288318 0.543468 0.405293 -0.128133 -0.361979 -0.12431 -0.0630745 0.0675419 -0.00347705 0.407799 0.310389 0.0835144 0.177052 0.279906 -0.279852 0.326146 -0.149488 0.505827 0.180701 -0.176792 0.321824 -0.0283167 0.0483891 0.40282 -0.355578 0.0994035 -0.0828424 -0.213694 0.426729 0.316322 -0.141427 0.115541 0.297073 -0.281571 0.442831 0.401533 0.0501612 -0.215026 -0.159162 0.42428 -0.366544 0.227235 0.569861 0.706712 0.779429 0.508076 0.402203 -0.0731384 0.360611 -0.130438 0.0832369 -0.0756218 0.138008 0.432961 0.723452 0.26766 0.0181679 0.108774 0.436651 0.953269 0.954649 0.964822 0.615371 0.939756 1.21392 0.700248 0.830843 0.811609 0.972194 1.24547 0.745934 1.1874 1.33231 1.25983 0.932306 1.03858 0.664485 1.20247 1.01719 1.13485 1.27045 1.26288 1.25495 0.568746 0.887508 1.26167 1.06614 1.18884 1.57966 0.73489 1.19504 1.70169 1.70416 0.859764 1.43483 1.67895 1.16463 0.909308 1.1088 1.7724 1.66456 1.32539 1.34144 1.29673 0.839757 1.44574 0.700403 0.851419 1.10652 1.16775 1.39644 0.763272 0.861059 1.05183 0.791855 1.24112 0.744427 1.41712 0.902941 0.86686 1.54361 1.48341 1.76969 1.45087 1.50764 1.29424 1.25016 0.819752 1.38682 1.54906 1.73784 1.09756 0.952988 0.958159 1.45444 0.787489 0.680838 0.450947 1.01837 1.21832 1.0387 -0.00944437 0.529771 0.43517 0.452031 -0.267232 0.0674872 0.572174 0.395786 0.224662 -0.361072 0.177802 -0.0556381 0.60062 -0.219763 -0.436518 0.125428 0.263168 -0.371017 -0.195424 0.0955629 -0.362491 0.225769 0.370082 0.129487 0.208172 -0.246968 0.45256 0.288101 0.361626 0.162862 -0.211445 -0.303029 0.00461824 -0.421279 0.494599 0.114236 -0.0169388 0.428503 -0.118888 -0.389525 0.450554 0.394181 -0.0999216 0.460347 -0.404425 -0.0851635 0.0311949 0.289983 0.00538885 0.256625 -0.145672 0.0939926 -0.0615879 -0.365419 -0.394385 0.529665 -0.238645 0.413175 0.169159 0.522487 -0.0825995 0.332918 -0.413183 0.380326 0.386187 -0.426794 0.00726322 -0.0942839 -0.432373 0.424021 0.0246839 -0.483147 0.290563 0.414305 0.469507 0.392772 -0.155135 0.0194981 0.206486 0.334569 -0.223554 0.508264 -0.101984 0.163379 -0.394261 -0.0274511 0.159709 -0.171268 -0.145451 -0.196447 -0.156994 0.314699 -0.3007 -0.0166024 0.256104 -0.389746 0.0609606 -0.260691 -0.00232911 0.101249 -0.335686 0.544732 0.164611 0.499374 0.494211 0.142377 0.382505 -0.170331 -0.339971 0.100107 -0.329861 -0.0811915 0.0887219 0.0317115 0.595846 0.195735 0.501287 0.204734 0.470784 -0.200776 0.442214 -0.266524 0.505344 0.52232 0.0818976 0.147231 0.523581 0.570052 0.320691 -0.0555858 0.0556988 0.334121 -0.165799 -0.420009 0.217398 -0.274297 0.132129 0.00334256 -0.0109321 0.205818 0.536729 0.0674472 0.517016 0.000206561 0.443002 0.422458 0.505449 0.288961 -0.0367809 0.315203 0.441047 -0.223597 0.429079 0.341163 -0.310674 -0.0920694 -0.121083 0.602374 -0.127118 0.593984 -0.0340533 0.381071 0.372705 0.224036 0.374366 -0.0129323 0.350016 -0.0951266 0.394347 -0.290547 0.478391 0.273605 0.126331 0.363361 -0.367232 -0.0477029 0.15143 0.51291 -0.389822 0.509567 0.206389 0.42138 -0.351245 0.0054765 0.13389 -0.279035 0.284411 0.388903 -0.295786 0.544615 0.35845 0.0161673 0.263374 0.0884898 -0.407238 0.00919519 0.449617 0.318301 0.298894 0.220637 0.938856 0.681756 0.457432 0.487043 0.48964 0.485 0.817628 1.01405 0.359584 0.811763 0.891731 0.962039 0.566163 0.896711 0.237858 0.0320956 1.00621 1.00856 0.965841 0.193998 1.08172 0.806046 0.700702 