0.36399 0.439246 0.551427 -0.0988404 0.565908 0.262262 0.417139 0.909831 1.25219 0.36914 0.778406 0.705876 0.852816 1.05758 0.388108 0.469108 0.822089 0.93948 -0.0904808 0.100094 -0.36859 -0.260356 -0.15735 -0.0594328 0.370638 0.448476 0.365927 0.0616748 -0.00916176 0.569351 0.524401 0.456235 0.4469 0.616609 0.79505 -0.0556361 0.752075 0.852105 0.633368 0.781997 -0.0760637 0.128807 -0.0476121 0.403333 0.171069 0.749698 -0.0218685 0.589795 0.420686 0.27989 0.119122 0.555666 0.206149 -0.108169 0.27163 0.381831 0.297666 0.210782 -0.0780057 -0.468123 -0.415941 -0.672625 0.55204 0.697439 0.77339 0.596675 -0.330586 0.448505 0.39926 0.335978 0.0784502 0.218756 0.336599 0.340419 -0.157826 -0.60663 0.0330737 0.156269 0.168318 -0.553209 -0.138121 -0.173029 0.247878 0.19772 -0.219241 0.0302335 0.182726 -0.402977 0.195345 0.0613395 -0.446167 0.208058 0.000852524 -0.43325 0.486488 0.00882126 0.604487 0.698823 -0.32107 -0.00856646 0.0790986 0.308249 -0.244066 -0.0714281 0.153122 0.197177 -0.0688498 -0.253438 -0.0635182 -0.176823 -0.0814865 0.068171 -0.100114 -0.291208 -0.158516 0.344043 0.406798 0.566334 0.456436 -0.322584 -0.305808 -0.364774 0.512192 0.147033 -0.354015 0.320813 0.485701 0.381817 0.119296 0.577901 -0.210595 -0.410375 0.283708 -0.0548724 -0.0602011 -0.139481 0.559358 0.256055 0.00426349 -0.12301 0.456184 0.286212 0.290947 -0.273876 0.357252 0.479124 0.433878 0.131196 0.381597 0.236186 0.170362 0.477299 0.270624 0.0641224 0.0362426 0.338799 -0.18647 -0.0875156 0.107071 0.344564 -0.0993434 0.307942 0.347156 0.592468 -0.331658 -0.321089 -0.153744 0.620434 0.331324 0.233493 -0.0942084 0.19645 -0.0844017 0.584879 0.280107 -0.348762 0.442454 0.106023 0.200027 0.272586 -0.215665 -0.228917 0.158461 0.472243 0.218245 0.53952 0.145653 0.394233 -0.192163 -0.377155 0.0856052 0.0633948 0.279052 -0.197165 0.0356926 0.32669 -0.138061 0.251074 0.293932 0.53555 -0.160734 0.551343 0.121047 0.144545 0.554531 -0.18736 0.217993 0.390501 0.30759 -0.229331 0.0449483 0.484786 -0.116024 0.508538 0.241409 0.471485 0.408616 -0.221428 0.23893 -0.395002 -0.217519 -0.252789 0.0647805 0.472035 -0.036616 0.530348 0.247618 0.270482 0.198815 -0.0377616 0.241797 0.489194 -0.0413063 -0.244549 0.059065 -0.0840794 -0.00154994 -0.336024 -0.305791 -0.329249 -0.213628 0.0608049 0.497577 0.0760076 -0.030326 0.13967 -0.0847639 -0.239933 0.28793 -0.424907 -0.201605 0.523312 -0.212616 0.342144 0.431657 0.172059 0.273235 0.103661 -0.130332 -0.0525181 -0.446691 -0.418941 -0.0684312 0.000922534 -0.175636 0.420469 0.332834 0.212205 0.457684 0.413258 0.239145 -0.370623 -0.138857 0.133437 0.136892 0.265888 -0.290779 0.48639 0.470587 0.452829 0.495985 -0.319288 0.385446 -0.298333 0.469396 0.308727 0.36769 0.228898 -0.111447 -0.291562 -0.340094 -0.0764832 -0.241005 0.0232269 0.378277 0.0504117 -0.0921515 0.167018 -0.279966 -0.157998 1.87365 2.28107 1.63705 2.0818 1.77617 1.25703 1.90547 2.02748 2.15494 1.70252 1.75981 2.08218 1.72216 1.53356 0.970038 1.44184 0.977427 1.67261 1.06035 1.38085 0.974557 1.24658 1.84895 1.21169 1.86188 1.77894 1.93629 1.3329 1.76296 2.34934 2.04258 2.43355 2.40542 2.43619 2.25007 1.92359 2.51571 1.92518 1.76759 2.53727 2.51851 2.41828 2.28851 1.97786 1.62524 2.35587 1.70275 2.06466 2.55677 2.05086 1.64041 1.58135 2.46696 1.73349 2.00884 2.3112 2.37857 1.71711 2.25425 1.61406 1.53418 1.75173 1.41075 1.32947 1.41626 2.00277 1.49039 1.25035 1.26725 1.655 1.34196 1.29499 1.65083 1.27249 1.79913 1.79785 1.18273 1.98623 1.46202 2.24012 1.58082 1.62386 1.421 1.48478 2.01444 2.03715 2.57415 2.06725 2.54331 2.60848 2.4279 2.71405 2.06971 2.67345 2.94169 2.47274 2.79559 2.59268 2.85193 3.03817 -0.270817 0.549805 -0.280689 0.19173 -0.363346 0.418308 -0.12093 -0.326358 0.261727 0.0934993 -0.312283 0.570517 0.4203 -0.287963 -0.382122 -0.19775 0.122224 0.434986 0.128817 -0.195498 0.188937 -0.280618 -0.336226 0.324431 0.461785 -0.371508 -0.179227 0.145201 0.10074 -0.416561 0.105562 0.254263 0.536431 0.186379 -0.224592 0.521014 -0.0663356 0.0259241 -0.426609 -0.409844 0.495592 -0.391542 -0.483763 0.315086 -0.24067 -0.394524 -0.419706 0.299345 0.465557 0.12628 0.530247 0.0670898 0.290878 -0.352554 -0.165765 0.159584 -0.309518 0.0796784 -0.286816 0.20028 0.079499 0.239952 -0.115983 0.059236 -0.124567 0.132349 0.0303421 0.272341 -0.35894 0.102063 0.349222 -0.377566 0.163247 0.321574 0.409449 0.387922 0.411062 0.466344 0.17529 0.338672 0.0326088 0.124861 -0.157095 -0.24992 0.209415 0.107134 0.339531 0.311631 -0.407381 0.474919 -0.0619724 0.0968434 0.137576 0.232569 0.581728 0.434873 -0.212431 0.0424233 0.131836 -0.167076 1.16491 0.518853 0.445421 0.735148 0.237939 0.284301 0.581632 1.09835 0.148834 1.11459 0.718273 0.535926 0.510893 0.891203 0.593891 0.100691 0.370548 0.327898 0.832687 0.397635 0.270036 0.208134 0.952967 0.835365 0.902314 0.960106 0.701389 0.0863913 0.431332 0.262016 0.406036 0.434543 0.618876 0.679263 0.978988 0.675811 0.804833 0.391267 0.588339 0.796732 0.377665 0.271282 0.284295 0.894429 0.207989 0.958862 1.08171 0.633656 0.381413 0.977254 1.0968 0.644687 1.13276 0.97343 0.408009 0.975037 0.850694 1.01648 0.923553 1.13465 1.11866 0.156785 0.376734 0.557821 0.658683 0.216532 1.12685 0.332141 0.460643 0.552084 1.00357 0.700037 0.678543 1.11825 0.387214 0.6462 0.83411 0.257621 1.09087 0.989683 1.06649 0.994331 0.459539 1.01283 0.788435 0.665363 0.804682 0.471658 0.511384 0.583731 0.481121 0.520357 0.64347 0.76117 0.990795 1.19978 0.944708 1.04296 0.428873 1.24873 0.317945 1.14581 0.697374 0.872108 1.1883 1.01114 0.476723 0.934866 1.09039 0.335013 0.654876 0.920575 1.10803 0.911613 0.688134 0.629165 0.277168 0.216472 0.777418 0.500675 0.477133 0.963221 0.7196 0.841717 0.442741 0.425557 0.748268 1.0276 0.160257 0.905572 1.04499 0.315698 0.923243 0.538669 1.07542 0.91617 0.399996 1.27918 0.583357 1.26799 0.364885 1.02073 0.908322 1.20469 0.661893 0.431191 0.584324 0.724283 0.389802 0.235199 0.0766911 0.79695 0.143025 0.768737 0.579358 0.51463 0.0482205 0.22168 0.472424 0.161999 0.128657 0.442424 0.502727 0.994672 1.00995 0.415715 0.723678 1.09114 0.335713 0.967384 1.00358 0.412403 0.742601 0.744982 0.501821 1.24881 1.052 0.994558 0.80505 0.285333 0.925877 0.676004 0.760792 0.88021 0.261978 0.304887 0.392404 0.376765 0.648399 0.917695 0.668416 0.803567 0.358135 0.992368 0.635711 0.147967 0.190871 0.150745 1.07899 0.403951 0.669948 0.601733 0.345153 0.224202 0.164579 0.60346 0.246886 -0.047268 0.337722 0.850631 -0.0102628 0.159089 0.401442 0.788108 0.134803 0.773683 0.271322 0.614781 0.265987 0.911933 0.517625 0.814801 0.56438 0.760198 0.677969 0.0861892 0.793668 0.765081 0.145826 0.733616 0.0145671 -0.0257978 0.474 0.504088 0.33532 0.789063 0.259785 0.724472 -0.149837 0.700547 0.686233 0.031951 0.0779867 0.318631 0.0790418 0.387545 0.243892 0.405848 0.0482154 0.55098 0.336595 0.601311 0.394675 -0.0163247 0.453445 0.184798 0.206991 0.375598 0.0785798 0.443896 0.191948 0.191067 0.513949 0.789921 0.829633 -0.00671953 0.7633 0.261475 0.869073 0.758379 0.0809646 0.68689 -0.0709748 0.297324 0.145461 0.112864 0.773315 0.499407 0.623953 -0.0472899 0.179096 0.116355 0.739306 0.768096 0.293547 0.347556 0.0965542 0.620033 0.786258 0.249167 0.121252 0.100265 0.524887 0.738645 -0.0236192 0.467611 -0.138828 -0.154126 -0.206974 -0.201265 1.20582 0.543775 1.16924 0.278259 0.939057 0.397265 0.406106 0.789161 0.919001 0.124787 0.85593 0.269083 0.393153 0.698443 0.0926776 0.761982 0.154453 0.356537 0.637144 0.219058 1.01725 1.09883 0.681714 0.808722 1.10363 0.919552 0.595968 1.26865 1.11838 0.726035 1.34317 1.01781 0.865616 1.15568 0.833048 0.484907 0.153994 1.01405 1.04939 0.98197 0.997787 0.744532 0.0850121 0.293911 0.390583 0.17824 1.07768 0.489003 0.526304 0.597289 0.657232 0.311956 0.48671 1.04088 0.828582 0.276468 0.625525 1.02549 1.12307 0.293749 0.320825 1.11984 0.995373 0.948584 1.05073 0.679671 0.291987 1.12933 0.595185 1.23518 0.96718 0.522053 0.896815 1.01241 0.77573 0.214463 1.09739 0.739351 0.582584 0.475584 0.202497 1.04575 0.700703 0.566216 0.977578 0.307036 0.581875 0.349389 1.06325 0.497261 0.460598 1.19765 0.502433 1.28597 1.00425 1.32631 0.693134 0.988449 1.15382 1.05531 0.598705 0.52799 -0.0174501 0.304564 0.337684 0.55781 0.335473 0.283623 0.13326 0.744055 0.556055 0.131107 0.557372 -0.0537486 0.420019 0.271536 0.0299354 0.783896 0.42531 0.873069 0.0551626 0.612397 0.779942 0.200899 0.543519 0.418559 0.156472 0.90967 0.073452 -0.0241251 0.628248 0.733903 0.564082 0.675132 0.101793 -0.0216055 0.309148 0.497563 0.314039 0.507316 0.356468 0.0223661 0.798167 0.0514593 0.0991828 0.308077 0.386526 0.159634 0.138387 0.862226 0.0587726 0.209586 0.472066 0.877718 0.457697 0.079511 0.350393 0.665192 0.0554986 0.50656 0.703478 0.733197 0.279754 0.328685 0.492191 0.476574 0.450415 0.922347 0.0640257 0.814303 0.499556 0.471561 0.872371 0.305947 0.516316 -0.0127307 0.609359 -0.060552 0.188289 0.793593 0.874022 0.33895 0.0866431 0.42164 0.320772 0.648663 0.608171 0.759467 0.338944 0.670784 0.2705 0.130411 0.48527 0.64434 0.530403 0.0327314 0.213605 0.0479802 -0.0144769 0.301768 -0.535911 0.103585 0.380811 0.381639 -0.587823 -0.0742801 -0.609689 0.105804 -0.0500841 -0.334245 0.0347846 -0.0676509 0.101444 0.178359 0.409308 -0.539334 -0.133577 0.0557991 0.286422 0.333913 -0.113978 -0.30897 -0.384628 -0.501855 0.497987 0.314228 -0.290531 -0.182996 0.417794 -0.222832 0.163324 0.398593 0.359062 0.071095 0.307947 0.379867 -0.385122 0.322754 0.088328 0.157539 -0.423015 -0.314803 -0.351772 0.252713 -0.526314 -0.326975 0.332645 -0.0774213 0.343825 0.202323 -0.161852 -0.251919 0.435541 -0.0196325 -0.232045 0.395544 -0.210282 -0.0324776 -0.276493 -0.264806 0.253826 0.412729 -0.353071 0.182983 0.0265029 -0.490444 0.140434 0.236947 0.403202 -0.201409 -0.0491597 -0.434516 0.0646057 0.197109 0.410643 0.0993745 0.443044 0.318017 -0.402561 0.317999 0.0442748 -0.0396382 -0.373177 0.0238023 0.462747 -0.114063 -0.0908312 -0.268852 0.327001 0.0866928 -0.0684076 0.0697839 -0.0116406 0.0689859 -0.237495 -0.447963 0.125968 0.408188 0.283429 0.0380367 -0.178361 -0.126593 0.241824 0.423036 -0.390186 0.198198 0.0624022 0.578515 0.0472238 0.195827 0.43731 -0.365861 -0.30375 0.563417 0.164904 -0.30949 -0.0169631 0.601414 -0.055476 -0.164103 0.212494 0.393754 0.417408 -0.285934 -0.0224775 -0.318666 -0.235797 0.589768 0.570833 0.543064 0.123165 -0.213198 -0.182763 -0.233336 -0.385732 -0.177462 0.360135 0.0749284 -0.198243 -0.197072 -0.328499 -0.367439 -0.173286 -0.245195 0.57826 0.370067 -0.163858 -0.0452665 0.364172 0.165458 0.179298 -0.032451 -0.0458834 -0.00635249 0.0745591 0.318991 0.0652068 0.236301 0.310644 0.0400121 0.176736 -0.173094 0.206881 0.374206 -0.0294897 0.20837 0.588438 -0.274154 -0.314297 -0.214312 -0.0772433 -0.261185 -0.19461 0.141968 -0.111502 -0.222231 -0.0921768 0.105662 0.112995 -0.348438 -0.350621 -0.332789 -0.00681901 -0.0251457 0.0279863 0.439707 -0.347218 0.453485 0.0407215 0.33682 -0.134474 0.591661 0.532777 0.455859 0.350998 -0.103138 0.0425021 0.311562 -0.0094315 0.104159 0.242845 0.0646935 -0.0133817 -0.583287 -0.462108 0.211679 -0.476705 -0.189891 -0.294723 0.0325043 -0.139386 -0.268633 0.0907095 0.242902 0.101307 -0.49627 0.065277 0.14381 0.364979 -0.488297 -0.0713598 -0.338161 -0.422747 -0.101847 -0.412834 0.353491 0.216241 0.033463 0.0201375 -0.42983 -0.500557 -0.0961207 0.258968 0.119429 -0.073286 -0.542975 -0.00233298 0.151547 -0.0560605 0.349817 -0.178075 -0.535575 -0.292027 -0.465857 -0.670581 -0.541519 -0.280364 0.0782395 0.328094 -0.240187 0.277981 -0.139793 0.0601755 0.438365 0.373381 0.194582 0.34651 0.116391 -0.224218 -0.0443184 0.258262 -0.172499 0.386763 0.0785535 -0.541608 -0.122758 0.113221 0.0771721 -0.346564 -0.307338 0.0366278 0.0904699 -0.235807 -0.589344 0.265995 -0.257585 -0.448779 -0.340173 -0.438268 -0.455146 0.110332 0.450681 0.0309746 -0.263779 0.425376 -0.106155 0.401848 0.264898 -0.481886 -0.317013 -0.272408 0.285855 0.00898369 -0.36374 -0.100283 0.06353 0.0900395 -0.437802 -0.336384 0.282475 -0.0416906 0.455904 0.126578 0.319692 0.471792 0.0245078 -0.309753 -0.390166 0.277328 -0.218116 -0.321539 -0.119888 -0.294738 0.173317 0.107787 -0.328769 0.622678 0.0560148 0.481543 -0.343585 0.24152 -0.28904 0.430205 -0.237473 -0.13978 -0.156587 0.334222 0.477065 -0.0666629 0.55724 0.323647 0.290388 0.423303 -0.142296 0.0184608 0.284013 0.266284 0.0956723 0.298081 -0.0534812 0.276588 0.364437 0.209951 0.388801 -0.0583499 -0.301368 0.455932 -0.0516422 0.140422 0.309208 -0.0196352 -0.23111 0.411241 -0.188324 -0.0698742 -0.334929 0.0449739 -0.338042 0.538458 0.377438 0.631411 0.270899 0.0428053 0.405183 0.473718 0.439295 0.0742055 0.135219 -0.0442766 -0.231202 0.51065 0.639561 0.495761 0.0553001 0.356901 -0.186269 0.139965 0.19002 0.145203 -0.347959 -0.129672 0.486882 -0.217937 -0.36087 -0.353694 0.0625256 -0.360494 0.0401251 0.0771262 0.546924 -0.228935 0.0451587 0.147998 0.193317 -0.170517 0.0126641 0.0135577 0.277969 0.516581 0.322442 0.890855 0.844499 0.877341 0.855751 0.466401 0.708934 1.10017 0.929858 0.200173 0.584668 0.917479 0.428906 0.349328 0.981239 0.277765 0.295806 0.374709 0.335213 0.732356 0.813692 0.156026 0.81428 0.12514 0.664728 0.280624 0.272526 -0.00873272 0.705734 0.0123001 -0.0207428 0.503121 0.836917 0.763418 0.218519 0.560444 -0.0057738 0.674137 0.421583 0.766508 0.756727 0.921727 0.521758 0.0542352 0.187231 0.443117 0.313258 0.398992 0.679063 0.444188 0.0138847 0.377315 0.63826 0.867413 0.584246 0.299913 0.23143 -0.0962361 0.427063 0.0759717 0.0410194 0.57385 0.740164 0.162226 0.573084 0.240668 0.851718 0.682641 1.00167 0.345059 0.45319 0.713211 0.203648 0.905045 0.715956 0.402916 0.343019 0.00837227 0.782838 -0.0985303 0.41316 0.678181 0.259762 0.0147225 0.586816 -0.078093 0.495081 0.0642132 0.0713665 0.216484 0.366082 0.386524 0.973251 0.272892 0.543936 0.515338 0.452663 0.354274 0.196508 0.546355 0.786945 0.496843 0.0624739 0.828186 0.48671 -0.113131 0.241325 0.8264 -0.116002 0.00972778 0.828533 0.416311 -0.110618 0.310175 0.652109 0.692688 0.391488 0.302785 0.851564 0.560962 0.572547 0.259196 -0.0626523 0.519032 0.533319 0.46402 0.0599319 0.00396117 0.835241 0.26557 0.473553 0.540826 -0.0706598 0.704063 0.506971 0.545853 0.69602 -0.149512 0.496159 0.711441 -0.00227629 0.461633 0.23869 0.00209883 -0.133039 -0.0037606 0.800758 0.367723 0.401824 0.760356 0.0299733 0.0664061 0.118077 0.0643339 0.708341 0.776784 0.673749 -0.0958599 -0.0782856 0.64741 0.325473 0.551372 0.351511 0.413348 0.412525 0.0150503 0.128667 0.287808 0.0482182 0.815067 0.172178 0.216411 0.440172 0.576547 0.382592 0.483334 0.736492 0.350312 0.00259368 0.287624 0.251486 0.18142 0.514365 0.533097 0.402761 0.371021 0.452519 0.227401 0.444268 0.546844 0.0417318 -0.052712 0.271917 0.568068 0.529574 0.842996 0.741077 0.803763 0.276911 -0.0676565 0.76675 0.811163 0.516336 0.535745 0.500169 0.946869 0.093666 0.301944 0.423727 0.236703 0.741543 0.871993 0.592961 0.456599 0.557779 0.0994191 0.914155 0.0595626 0.416822 0.468486 0.750236 0.669575 0.59611 0.22367 0.370839 0.320144 0.250325 0.344957 0.308118 0.725231 0.428951 0.215709 0.449298 0.787734 0.643473 0.71696 0.637075 0.579769 -0.00463391 0.0735594 0.875165 0.72591 0.853453 0.372065 0.130289 0.4784 0.591599 0.222771 0.634173 0.110251 0.714815 0.428865 0.751469 0.371204 0.670732 1.17253 0.591709 0.789879 0.304895 0.705048 0.338089 0.556036 0.735911 0.599181 0.226818 0.248943 0.313584 0.807188 0.84533 0.383829 0.973477 0.828912 0.229585 0.867331 0.229643 0.397763 0.343677 0.880163 0.612018 0.971947 0.917915 0.222445 0.272913 0.574702 0.442223 0.859844 0.598196 0.864741 0.444446 0.638961 0.307928 0.438967 0.911073 0.733482 0.812856 0.926176 0.81063 0.932518 0.580012 0.488706 0.112954 0.521404 0.283746 0.206128 0.160462 0.220857 0.40467 0.336922 0.937082 0.854249 0.111811 0.572223 0.824312 0.0404518 0.855152 0.00996589 0.667993 0.290612 0.696883 0.946896 0.753315 0.791204 0.24168 0.605979 0.530061 1.19006 0.568377 0.40631 1.08015 1.09625 0.827404 1.17676 0.439654 0.960656 1.28368 0.501477 1.11963 0.6363 0.753784 0.972568 0.395078 0.79216 0.556575 1.22894 0.91206 0.437568 1.23175 0.556059 0.688228 0.860083 0.43892 0.348465 0.624188 0.682412 0.899523 1.1161 0.675247 0.280564 0.288905 0.515287 1.13645 0.912598 0.443742 0.361377 0.594325 0.451613 0.552891 0.450409 0.811426 0.977997 1.04736 0.787912 0.381723 1.1754 0.633518 0.889723 0.302613 0.552764 1.17076 0.737294 1.19012 0.360623 0.84427 0.528858 0.75501 0.469392 0.397736 1.19504 0.491149 0.422925 0.441276 0.332279 1.00848 0.56706 0.36838 0.302164 0.705837 0.719537 0.479721 1.22827 0.349608 0.492602 0.0408211 -0.215367 0.447952 0.471992 0.46406 0.515953 -0.225364 0.395594 0.0168653 -0.233692 0.573211 0.649952 0.0900037 0.0831952 -0.111129 0.238814 0.0571875 0.1802 0.48527 0.305467 0.324556 0.258893 -0.354884 0.443512 0.333853 0.119164 -0.157833 0.469948 0.0245362 -0.099095 0.380979 0.516271 0.0758115 0.230141 0.339294 -0.110381 0.109221 0.49429 -0.344037 0.503438 0.582775 0.54044 0.486228 0.00278609 0.00441809 -0.276792 -0.38903 0.409088 0.262364 0.472754 0.129486 0.013933 0.187997 0.213001 -0.0942261 -0.0291756 -0.196327 0.207716 -0.0773498 0.310356 -0.429502 -0.1894 0.300842 0.127959 0.466348 0.0360487 0.407346 -0.0285008 -0.061272 0.458152 -0.142989 -0.0922288 0.409317 -0.250053 0.31589 -0.173801 -0.0776912 0.388622 -0.288192 -0.350321 0.296216 0.253468 0.07522 -0.122399 -0.0995274 0.406565 0.29157 0.142944 0.0732444 -0.313208 -0.0700516 0.107111 -0.0979565 -0.349729 -0.339601 -0.185457 0.147334 0.560493 0.251806 0.583264 0.497653 0.588567 -0.0648419 0.351744 -0.213438 -0.302041 -0.382928 0.149896 0.516132 -0.250262 0.230051 0.235515 0.457729 -0.217171 -0.383797 -0.132866 -0.316278 0.401925 0.502731 0.250723 0.569036 -0.10101 -0.163681 -0.055108 0.0222548 -0.031356 0.21522 -0.372801 -0.0439183 -0.103732 0.606444 -0.148226 -0.120169 -0.0655861 0.593617 0.0585613 0.0278518 0.620662 0.614463 -0.0423303 -0.221722 0.246566 0.594868 -0.367718 0.408462 0.598139 -0.113952 0.472821 0.372874 -0.238562 0.101092 0.316747 0.0494274 0.330321 -0.338065 0.473805 -0.301754 0.274487 0.494684 0.0546463 0.570719 0.487546 0.284134 -0.169429 -0.182297 0.288023 0.295026 0.246389 0.280495 0.274354 0.566309 0.422551 -0.102531 0.537976 0.435519 -0.311013 0.510918 -0.299982 0.543882 0.271461 -0.154367 0.0314334 -0.0282168 0.273421 -0.266076 0.00128858 0.118183 -0.189842 -0.339691 -0.0204948 0.217771 0.574602 -0.157933 -0.126066 -0.215714 0.0399014 0.530548 0.442938 -0.346037 0.261089 0.179247 -0.360041 0.0194262 0.400769 0.544022 -0.184599 0.459575 0.468906 -0.0686326 0.480929 0.168081 0.109948 -0.218495 0.296941 -0.359569 -0.281056 -0.38159 0.130581 -0.0524163 -0.181012 0.61647 -0.162506 -0.04667 0.12198 0.212101 0.273288 0.592839 0.1382 0.0817414 0.545093 0.650613 0.441727 0.475278 -0.107828 0.146949 0.255973 0.0179684 -0.122285 0.0196708 0.237285 -0.375723 0.484259 -0.254644 -0.0743622 0.38225 0.0243322 0.214938 0.6559 0.72087 0.86742 0.973116 0.904781 0.967657 0.154331 0.0817355 0.224494 0.472216 0.631936 0.365701 0.437807 0.21533 0.047561 0.100532 -0.117504 0.206764 0.553944 0.541803 0.663482 -0.129824 -0.105267 0.205457 -0.282785 -0.323858 0.271733 -0.0760232 0.459755 0.636157 0.525652 0.297266 0.459375 0.309833 0.181825 0.285668 0.274857 0.373698 0.43014 0.496478 0.882589 0.160783 -0.073765 0.46407 0.480921 0.12031 0.62103 0.487839 0.394929 0.293488 0.128468 0.178388 0.209883 0.194361 0.57667 0.275627 0.233558 0.166024 0.505298 -0.13576 -0.0113417 0.182708 0.320137 -0.329604 -0.275007 -0.267145 0.218111 0.175953 0.279436 -0.235211 -0.200027 0.253243 0.0133213 -0.162394 -0.24095 0.57833 0.002726 0.584639 0.254635 -0.31803 0.196691 -0.262566 0.207658 -0.206607 0.312571 0.150474 0.446936 -0.0844432 -0.291188 0.344701 0.18866 0.0679017 -0.106373 -0.148259 0.087841 -0.0377192 -0.0710067 0.612599 0.43805 0.51073 -0.327957 0.528508 0.0624871 -0.00499958 -0.308959 0.208097 -0.0377093 0.10672 0.203044 0.640921 0.184021 -0.236535 -0.273521 -0.224501 -0.0864584 0.417378 0.286996 -0.263134 -0.274497 0.382795 0.496019 0.296038 -0.176076 -0.260372 0.518447 0.28448 0.096181 -0.179709 0.290337 -0.0872355 -0.260778 0.357818 -0.139355 0.183383 -0.274349 -0.114706 -0.280109 0.0227948 0.28899 0.227755 -0.0243549 -0.148525 0.392585 0.111985 0.00330429 -0.313305 -0.16615 -0.354373 -0.253844 -0.0581489 0.382711 -0.398263 -0.372844 -0.367251 -0.244533 0.509315 0.294896 0.219766 -0.318619 -0.0973496 0.447095 -0.278156 -0.420189 -0.393999 0.202713 -0.406319 -0.202187 0.235095 -0.0791852 0.410718 -0.216006 0.218651 -0.409766 0.484491 -0.359495 -0.0689178 0.52628 -0.0964293 0.0115338 -0.277559 0.280101 -0.148483 -0.229334 0.339369 -0.0886948 -0.0240331 0.311413 -0.339951 -0.307735 0.492773 0.0767693 0.613601 -0.284969 0.12479 -0.311167 0.361576 0.115909 -0.135237 -0.0137363 0.480865 -0.272517 0.213554 0.131705 -0.263805 0.0848483 0.168164 0.0503762 0.00835081 0.495322 0.492751 0.195422 0.229018 -0.221336 0.377479 -0.0630664 0.0827898 -0.229991 -0.305144 0.228194 -0.118798 0.57477 -0.36084 -0.160308 -0.359696 0.116083 -0.131057 0.318497 0.593373 0.0753731 -0.341251 0.431633 0.172102 0.234107 -0.0671592 0.291308 -0.258916 0.515083 -0.244882 0.183879 0.426536 -0.341534 -0.2649 0.0069686 -0.186728 0.483075 0.361627 0.309204 -0.351867 0.445046 -0.108298 -0.134098 0.394658 -0.0176531 0.164124 0.499325 0.48452 0.421936 0.224655 0.48047 -0.0831781 0.315464 0.345011 0.526743 -0.0177096 -0.294549 0.227233 0.134843 0.645173 0.407228 -0.279696 0.469689 0.468967 -0.14791 -0.11867 -0.327191 -0.262029 -0.361347 0.396402 -0.202901 0.508289 -0.282765 0.113264 0.357791 0.0732406 -0.348349 0.220961 -0.0810536 0.431395 -0.191936 -0.231224 -0.278087 0.480039 0.47519 0.60081 -0.179027 0.539514 0.185027 0.304022 0.536496 -0.0542862 0.369852 0.35171 -0.236458 0.585323 0.601893 -0.184027 -0.305523 0.613366 0.585627 -0.123337 0.506542 -0.317226 0.363713 0.233737 0.116609 0.381482 -0.183869 0.408453 0.190574 0.00193872 0.567919 0.294036 -0.13654 0.406754 0.269013 0.052172 0.316469 -0.184393 -0.278819 0.211889 0.124252 0.458477 -0.0671379 0.249713 0.408126 -0.108211 0.421715 0.464664 -0.139684 0.363075 -0.297064 -0.264432 0.401836 0.422884 0.322437 -0.106895 0.163912 0.505902 -0.332565 -0.269327 -0.133591 0.582439 0.273447 -0.00371778 0.243998 -0.114907 0.405923 -0.0729153 0.0461856 0.454338 0.464251 -0.487164 0.269053 -0.246511 0.119061 0.0174455 0.0259682 -0.0776681 -0.15485 0.215808 -0.401939 -0.126624 0.257634 0.33575 -0.362479 -0.0565325 -0.395037 0.187245 -0.139927 -0.328144 0.304276 0.10556 -0.383137 0.0517373 -0.429183 0.357957 0.461672 0.491794 -0.13891 0.0772857 0.534259 -0.145567 0.136717 0.317369 0.132575 -0.237208 -0.219179 0.553532 0.0862423 0.106611 0.257784 0.183488 0.467202 0.0138604 -0.0180648 -0.426017 0.427423 0.0800316 0.278368 -0.221103 0.266977 0.0868227 0.374375 0.366578 -0.420547 0.405389 0.200759 0.531452 0.428028 0.515673 0.0306867 0.325021 -0.267708 0.543963 -0.00019214 0.212237 -0.359619 0.1944 0.175288 0.143757 -0.278384 -0.149879 -0.251181 -0.381112 0.312758 0.210751 -0.341281 0.186474 -0.243761 0.392686 0.419558 0.434548 -0.113254 0.216842 0.219055 -0.0699198 0.0889536 -0.12451 -0.0897174 -0.0776286 -0.219789 0.368817 0.241944 0.523944 0.894442 0.675847 0.149831 0.99201 0.266328 0.745896 0.523879 0.433689 -0.0284879 0.67632 0.373083 0.656313 0.303688 0.545687 0.476671 0.630072 0.596704 0.435971 0.619692 0.954438 0.160162 0.335744 0.416878 0.742274 0.711287 0.798773 0.106966 0.943264 0.616476 0.260381 0.389207 0.465579 0.926615 0.539338 0.438383 0.199117 0.242146 0.97132 0.647077 0.347439 0.797824 0.248252 0.240525 0.277311 0.990734 0.785304 1.04335 0.61423 0.226486 0.585062 0.490742 0.29395 0.850924 0.802314 0.964621 0.460876 0.457198 0.923286 0.238222 0.953192 1.09304 0.543951 0.333006 0.86831 0.936836 0.646721 0.929735 1.08558 0.550985 0.517569 0.274322 0.14736 0.524224 0.364062 0.273479 0.382919 1.03407 0.134078 0.833284 1.10155 0.517417 0.103352 0.191589 0.184333 0.77044 0.970496 0.443406 1.01961 0.681242 0.502835 0.767737 0.54388 0.830279 0.912784 0.257151 0.59321 0.421846 1.02934 -0.0919275 0.139512 -0.272788 0.0754039 0.164846 0.155926 0.332526 0.34683 0.476507 0.298948 0.426536 0.207367 0.256318 -0.170781 0.170329 0.33249 -0.0738055 -0.169715 0.225227 0.279893 -0.250396 -0.222019 -0.341311 0.430137 0.228169 0.376891 0.239748 0.355716 -0.161379 0.484958 0.221996 0.198721 0.0712603 0.368781 -0.31963 -0.337375 -0.0572545 0.455689 0.449329 -0.161549 0.158773 0.269647 0.445148 -0.128769 -0.398526 0.138188 -0.27387 -0.0244499 0.412588 0.363057 -0.356129 0.564954 0.567728 -0.251927 0.415474 0.198842 0.537245 0.0837267 -0.019027 -0.205175 -0.0328422 -0.410056 0.392349 0.46295 0.394194 0.509682 0.544398 -0.24669 0.364628 0.414044 0.00806158 -0.0281209 0.145571 -0.0864465 0.314221 0.158286 0.453034 0.431176 0.536361 0.281857 0.163603 -0.438824 0.229126 0.136584 -0.285382 0.0737242 -0.243121 -0.336134 -0.441071 0.14909 -0.124173 -0.0257496 0.195367 -0.293221 -0.114122 0.019138 -0.33748 -0.115597 0.251108 0.506439 -0.218767 -0.278565 -0.0227127 0.408872 0.175693 -0.215263 0.147345 0.160225 0.809338 0.178475 -0.0484135 0.467385 0.268968 0.693923 0.129967 0.474597 0.18827 0.302351 0.459248 0.148917 -0.226416 -0.253961 0.45557 0.372761 -0.163213 -0.206098 -0.134705 -0.0239386 0.158797 0.551418 -0.0615247 0.388771 -0.246565 0.338677 0.240305 0.281311 0.484661 -0.357811 -0.277608 0.503863 0.0795788 -0.108157 0.194261 0.487638 -0.286628 0.433895 0.0834332 0.104721 -0.112113 -0.222488 0.45425 -0.00689838 -0.134041 0.365005 -0.178603 0.167343 0.613415 0.119901 0.543433 0.178591 -0.0133218 -0.190509 -0.109744 0.122182 -0.444799 0.522526 -0.190179 0.412154 0.536927 -0.13625 0.311693 -0.0367841 0.141792 -0.177133 -0.215874 0.160433 0.548837 0.131743 0.571521 -0.192279 0.285904 0.394456 0.180777 0.515392 0.0628203 0.293901 -0.102184 -0.0384187 -0.289465 -0.152192 0.534369 0.171042 0.145427 -0.0702052 -0.255192 0.112938 -0.17888 -0.0373405 -0.119293 -0.242747 0.470587 -0.175141 0.372396 -0.0201553 0.0631821 0.536143 0.492852 -0.0702074 -0.0144368 0.366919 0.0566237 0.585029 0.0211757 0.469363 0.280611 0.378116 0.0894158 0.632996 -0.172607 0.24423 -0.0593537 -0.199165 -0.138475 0.502467 0.159485 0.0815984 0.109551 0.505804 0.571114 0.550651 -0.136239 0.395776 0.701925 0.502791 0.570361 -0.0604877 0.151822 0.275041 0.106288 0.435988 -0.0802088 0.399026 0.249909 0.244384 0.227446 -0.0514303 0.0474726 0.654164 -0.0904825 0.162767 0.205442 0.151004 0.303245 0.380279 -0.0467584 0.711234 0.682535 0.278107 0.434499 0.497296 0.0564462 0.483491 0.110269 0.0191825 0.252163 -0.0135665 0.268422 -0.229839 0.664047 0.748207 0.56383 -0.0741007 0.467214 0.156759 0.520904 0.0117184 0.421417 -0.130065 -0.0178821 0.657489 0.302439 0.423468 0.0233985 -0.161396 0.0592305 0.266665 -0.164194 0.0330121 -0.154287 0.573156 -0.161003 0.217113 0.379524 0.23434 0.539239 -0.0783606 0.517937 0.0830411 -0.0118629 0.434724 0.730509 0.446083 1.15684 0.369548 0.613395 0.778588 0.44741 0.263197 0.836145 0.637118 0.0530857 0.36857 0.142762 0.254855 0.356008 0.476073 0.903819 0.607692 1.11719 0.239719 0.821466 0.398745 0.945087 0.530912 0.944302 0.731986 0.647286 0.668474 1.06034 0.912699 0.441237 0.443282 1.12641 1.40286 0.692282 0.665338 1.14684 1.06501 0.749914 0.805248 0.447436 0.727436 1.06162 0.702781 1.05679 0.558304 1.29377 1.00541 1.2264 1.30489 1.22971 0.86644 0.537377 0.872185 1.12602 1.21391 1.36324 0.554012 0.674798 1.15007 1.21921 0.796033 1.29322 0.904277 0.771548 1.46356 1.07841 1.37329 0.999815 1.37281 0.659742 0.989072 0.591144 1.31212 1.29621 1.34128 0.555158 1.28683 1.0329 1.46082 1.31202 0.902904 0.97246 1.43834 1.40838 0.695625 1.30824 1.35637 0.810084 1.4729 0.963463 1.48456 0.698392 0.699132 0.84743 0.940318 0.640594 1.35692 0.717735 1.02068 0.00302018 -0.259032 0.37928 0.121581 -0.417007 0.185743 -0.0296765 -0.348194 -0.00178864 -0.457733 -0.355652 -0.211056 -0.0706856 0.103381 -0.242306 -0.181747 0.271126 0.435427 -0.464878 -0.525582 0.302488 -0.0653931 0.393827 0.460598 0.076691 -0.330642 -0.155763 0.169857 -0.512906 0.0344984 -0.349837 0.0485107 0.309617 -0.429537 -0.218619 -0.474303 0.449649 0.377665 -0.225459 -0.0274336 0.431941 -0.0328594 0.319679 -0.0733446 -0.413206 -0.460064 0.215174 0.385734 -0.502823 0.273418 0.397089 0.34166 -0.297327 0.27297 0.26447 0.305692 -0.482976 -0.311977 0.0770638 -0.450955 0.252824 0.248234 0.078514 0.0822789 0.324124 0.3351 0.0800594 0.199912 0.121527 0.295403 -0.368038 0.0430306 -0.221906 0.438597 0.455927 -0.125722 -0.510572 0.175011 -0.247376 -0.516287 -0.037097 -0.338333 0.363942 0.234125 -0.506953 0.180047 0.0851013 -0.482873 0.385243 -0.336509 -0.446965 0.129445 0.394234 0.168571 -0.268068 0.261847 0.013729 0.341983 -0.00620414 -0.281902 0.852348 0.819993 0.929779 0.140983 0.752234 0.90565 0.527126 0.768917 0.603301 0.821765 0.779528 0.0803524 -0.021499 0.62704 0.798402 -0.01531 0.348886 0.431297 0.084397 0.277935 0.644496 0.166814 0.9393 0.573617 0.868725 0.218845 0.377988 0.459956 0.139839 0.953838 0.771839 0.952338 0.75695 0.698592 0.109159 0.518953 0.614034 0.635295 0.272293 0.20635 0.431168 0.0556208 0.289991 0.446943 0.715318 0.121205 0.464673 0.0732097 0.553875 0.515424 0.322174 0.171128 0.661695 0.233713 0.712357 0.492879 0.418321 0.0658212 0.929939 0.530448 0.984535 0.653296 0.449664 0.692811 0.306929 0.479642 0.1294 0.83486 1.02103 0.325545 0.96499 0.398691 0.329913 0.204308 0.796303 0.998278 0.274547 0.208438 1.01887 0.787451 0.684114 0.296696 0.912779 0.292086 0.481995 0.582795 0.751767 0.858505 0.607355 0.629673 0.339925 0.549733 0.248406 0.736661 0.195086 0.496567 0.153919 0.259809 0.271146 0.126091 0.211258 -0.142283 0.236765 0.57615 0.0537509 -0.06695 0.380331 0.181464 -0.0793144 0.27256 -0.0199995 0.688628 0.853473 0.0407092 0.198564 0.347619 0.79786 1.04562 0.497266 0.533604 0.88958 0.852618 1.03031 0.991476 0.489779 1.18889 1.54558 0.65781 1.50605 0.775608 0.781355 0.996749 0.845771 1.10163 0.597412 1.03435 1.19398 1.29013 1.62613 1.57446 1.00849 0.816228 1.35466 0.767119 0.737708 1.4826 0.963223 1.2462 1.13726 0.954564 1.30794 0.570722 0.507663 1.07317 1.31787 0.549501 0.661251 1.14784 0.590619 0.660206 1.51103 0.822128 1.26937 0.941558 1.67776 1.51753 1.65403 1.35612 1.28144 1.62853 1.0764 1.46032 1.51726 0.82463 0.754947 0.904763 0.895447 1.25337 0.409182 0.454147 0.440701 1.19288 0.53439 0.489989 0.726285 0.257898 0.459586 1.04182 0.915011 0.44616 0.293561 1.06785 1.11681 1.05364 0.611499 1.02071 0.880735 1.43629 1.61488 1.32741 0.114196 -0.12404 -0.00811796 0.0493708 0.122525 0.0153858 0.263162 0.384635 0.673476 0.313603 0.479835 -0.0941268 0.282912 -0.242944 0.164909 -0.125135 -0.138827 0.430047 -0.326419 -0.302503 -0.214164 -0.270113 0.522581 0.464863 0.347349 0.592024 -0.0864223 0.571054 0.368924 -0.168246 0.231955 -0.0651825 0.169614 -0.363943 0.416013 -0.290222 0.0706458 0.0383026 0.464488 0.0745826 -0.31119 0.270486 0.300371 0.300451 0.334505 -0.247734 0.4694 0.530977 0.514625 0.516871 0.597887 -0.315455 -0.385927 0.497775 0.504944 0.332119 0.45459 -0.164969 0.308319 0.236912 0.0867785 -0.0585817 0.575848 -0.356289 -0.0141809 0.377629 -0.218716 0.46167 -0.186744 0.590124 -0.13414 -0.166888 0.209982 0.536588 0.49991 -0.0857251 -0.327411 0.349956 -0.179924 0.551079 0.228963 -0.209601 0.613556 0.239467 -0.324749 0.521853 -0.0616072 0.511905 -0.26864 -0.330905 0.164734 0.235046 0.00262064 0.136183 0.24078 0.354238 -0.125253 0.374548 0.172977 0.0578165 0.759975 0.844297 0.704413 0.339626 0.76672 0.586141 0.640133 0.795428 0.289602 0.81512 0.693483 0.869885 0.956052 0.660011 0.469284 0.00137983 0.551836 0.807235 0.915482 0.693086 0.901202 0.508915 0.382711 0.36822 0.157196 0.143286 0.241081 0.50773 0.985587 0.878397 1.01881 0.78135 0.75888 0.762457 0.145924 0.533986 0.329607 0.776959 0.316003 0.63579 0.623026 0.0526799 0.571347 0.63117 0.766386 0.0648884 0.652732 0.336905 0.894915 0.592434 0.0506476 0.797681 0.0835784 0.393272 0.111843 0.158349 0.460002 0.291513 0.633622 0.415297 0.146647 0.61129 0.134671 0.836125 0.285858 0.227871 0.305789 0.597007 0.988043 0.620915 0.242734 0.604969 0.68301 0.790204 0.209303 0.405441 0.811411 0.825384 0.70769 0.667287 0.368557 0.710644 0.420113 0.436837 0.0890333 0.528205 0.590953 0.538513 0.819131 0.195519 0.912167 0.907176 0.735834 0.00930749 0.710165 0.0194194 0.244544 0.0305239 0.62836 0.233211 0.19792 0.409393 0.379218 -0.139406 0.185442 -0.425412 0.266284 -0.00935335 0.400526 -0.0416478 -0.328179 -0.213568 -0.279872 0.11072 0.218967 -0.229342 0.570518 -0.234914 0.241544 0.341999 -0.0889319 0.139556 0.233135 -0.35488 0.141122 -0.0669433 -0.352805 0.364638 -0.0581818 0.263522 -0.413242 -0.416483 0.118712 0.408094 -0.112795 -0.260952 0.42118 -0.42317 0.148006 0.229652 -0.0543327 0.205831 0.41443 0.0278147 -0.324545 0.00304733 0.156921 -0.362551 0.15495 -0.180723 0.40518 0.498296 0.388992 0.0654405 -0.440867 -0.0460886 0.424703 -0.348961 -0.232367 -0.186086 0.343784 -0.221702 -0.169681 -0.0884619 -0.351233 0.169942 0.107663 0.510086 0.177027 -0.313705 0.142402 -0.467298 0.337023 0.0173516 0.0367821 0.456974 0.466922 -0.36431 0.533429 0.063512 -0.102266 0.379441 0.00378634 -0.2703 -0.114222 0.0140705 0.1239 -0.249578 0.0986048 0.331513 0.0207892 -0.0765351 -0.414206 0.301636 0.270061 -0.338624 -0.108102 -0.191149 -0.401025 0.512815 -0.0290336 0.248769 0.582129 -0.222212 -0.241469 0.0663571 -0.340892 -0.374842 0.106106 -0.377321 0.149959 0.459655 0.424799 0.544123 0.546817 -0.296758 -0.025602 0.130697 -0.0683411 0.533909 -0.0815357 0.374216 -0.114454 -0.0578279 0.107062 0.59588 0.0582561 0.466864 -0.131124 0.110555 0.429034 0.261025 -0.234025 0.392567 0.395308 -0.12708 -0.223898 0.4196 -0.126752 0.284268 0.442961 0.382752 0.0815005 0.239847 0.335418 0.0917482 0.421686 -0.271577 -0.346318 -0.248598 -0.308317 -0.006483 0.556627 -0.0294554 0.305503 0.0305687 -0.077878 -0.271482 -0.132817 0.17569 0.206438 -0.337432 -0.183386 0.384169 0.471925 -0.359931 -0.332079 -0.314934 0.506295 -0.00487053 0.407979 0.37969 -0.214347 -0.0654585 0.0635571 0.551294 0.451542 -0.103629 -0.296783 0.521061 0.0546899 -0.241846 -0.115583 -0.0195661 0.099653 -0.422207 0.389365 0.409481 -0.299032 -0.344272 -0.0123862 0.320225 -0.253952 0.215167 0.130087 -0.376303 0.257853 0.203193 -0.28293 0.16597 -0.339078 0.599845 0.0211114 -0.116098 -0.0245449 0.526125 -0.118397 -0.125372 -0.121353 0.0236549 -0.183768 0.354275 0.184203 0.114751 -0.232533 -0.266677 0.145128 0.600274 0.580392 0.273616 -0.318372 -0.00377677 0.0171101 -0.162095 0.624135 0.550143 -0.131314 0.289653 0.16118 -0.013657 -0.140775 0.164745 -0.0635345 0.22695 0.38873 0.240624 0.0853167 0.604167 0.459718 0.296364 -0.013974 0.641811 0.00702139 0.519357 0.0932943 0.102045 0.590941 0.585961 0.0344307 0.498595 0.181746 0.0555492 -0.161703 0.552378 0.248552 -0.188986 0.440555 0.44956 0.43835 -0.0502155 -0.203137 0.650166 0.45634 0.054591 0.200212 0.185482 0.642315 0.627249 0.153745 0.448807 0.275123 0.443101 0.371234 0.567503 0.246714 -0.216102 -0.0151192 0.143377 0.677182 0.346097 -0.0221065 0.198343 -0.257048 0.144364 0.0741775 0.311495 0.266665 -0.15872 0.0884794 0.0357839 0.128416 0.208906 0.00308763 -0.0939018 0.568099 0.512488 0.386276 0.515163 0.442532 -0.165069 0.203887 -0.045207 0.505894 -0.119307 -0.177571 0.0631176 -0.023146 0.129046 0.530852 -0.0249658 -0.212166 -0.190323 0.48601 -0.150166 0.288287 -0.112547 0.477373 -0.135504 0.0246591 -0.127874 0.198571 0.458403 0.386211 0.521247 -0.310228 0.296466 0.381995 0.433116 0.163241 0.17199 -0.384352 -0.224819 0.535882 0.539778 0.0952125 -0.197964 0.060604 0.50692 0.367421 0.0111882 -0.0978796 0.582246 0.260486 -0.18438 -0.15931 -0.0704489 0.0650745 -0.28984 0.193002 0.521076 -0.00164385 -0.191224 0.379761 -0.199734 -0.255091 0.495657 0.530609 0.555489 0.355863 0.118646 0.153551 0.398938 0.31262 0.105901 0.361076 -0.182276 0.317479 -0.188655 -0.294072 0.0650446 0.20658 3.90955e-05 0.0570475 -0.13971 0.20927 0.292454 0.183067 -0.31404 0.405611 -0.226293 -0.390312 -0.169495 0.00185949 0.420732 0.0609017 0.184867 0.362138 0.030661 0.166842 0.138327 -0.432382 -0.249908 -0.0352019 0.318422 0.300029 -0.233815 -0.425007 0.0508546 0.0149834 -0.271787 0.570946 -0.3314 0.132924 0.00714111 -0.0711999 -0.215911 -0.154754 0.638249 0.00664913 -0.307677 0.0446359 0.233785 0.325604 0.665214 0.0515936 0.599408 -0.0789231 -0.301285 -0.129287 0.483135 0.251569 -0.100788 -0.224672 -0.258677 -0.437963 0.332693 -0.212994 -0.401471 -0.0760971 0.316076 -0.188893 -0.107397 0.371163 0.402605 0.346439 -0.262834 -0.312714 0.600405 -0.273638 -0.0287332 0.416199 -0.238975 0.185248 -0.309475 0.466137 0.508212 -0.379408 -0.231395 0.619622 -0.110955 -0.339403 0.229432 0.151307 -0.293357 0.162321 0.0806391 0.361827 0.328809 -0.016555 -0.444041 -0.0731119 0.181482 -0.053031 -0.204045 0.0802946 -0.309985 -0.214711 -0.0419474 -0.687045 -0.263608 0.342665 -0.535707 0.365987 0.217718 -0.132212 0.320487 0.288224 -0.0317763 0.534495 0.248012 0.197901 0.559048 -0.144978 -0.278489 0.700089 0.517273 0.259133 0.501606 0.17497 -0.310382 0.6171 -0.239579 0.491103 -0.0399099 -0.144501 -0.089227 -0.0147442 0.217269 0.49546 0.0970037 0.179471 0.825189 0.447333 0.871045 0.418607 0.768687 0.69301 0.0842627 0.0536501 0.530775 0.648427 0.62793 0.544307 0.93143 0.86115 0.615902 0.932277 0.563073 0.59564 0.584112 0.63986 0.452066 0.523137 0.437822 0.51623 0.640327 0.495307 -0.144797 0.240552 0.438558 0.422786 0.434346 0.331347 0.0159574 0.539456 0.880625 0.931978 0.243661 0.969385 0.034154 0.74329 0.580481 0.583849 0.210922 0.360929 0.251191 0.583584 0.0122079 0.452225 -0.168727 0.235292 -0.0982034 0.195659 0.744546 0.354313 -0.173243 0.565972 0.117124 0.0483474 0.0774416 0.979479 0.773259 0.859099 0.451977 0.964813 0.440739 0.417745 0.930826 0.804382 0.470852 0.923448 0.49986 0.782399 0.404528 0.437211 0.165186 0.597865 0.183177 0.276667 0.31012 0.320789 -0.105521 0.828742 -0.0156391 0.200992 0.482138 -0.019052 0.776512 0.577506 0.0379131 0.943316 0.524769 0.89504 0.76035 0.974409 0.706982 0.968203 0.0765825 0.422974 0.551822 -0.238669 -0.415162 0.280162 -0.441329 0.00702515 -0.0842251 -0.0472098 -0.0891819 0.434767 0.597846 0.649766 0.108188 -0.0982322 0.593203 0.148224 0.00756527 -0.0720873 0.170012 -0.206487 -0.401609 0.287317 -0.23312 0.18244 0.139125 0.441887 0.00254666 -0.321198 0.364911 0.0534002 -0.0116856 -0.18366 0.260229 0.0109057 0.531124 0.244912 0.448971 -0.114321 -0.385441 -0.234347 -0.311318 -0.430656 -0.277089 0.0972178 -0.274052 -0.420854 -0.425366 0.0440273 -0.138387 0.0816724 0.224652 -0.148779 -0.208688 0.406376 0.415165 0.303677 0.27109 -0.156094 0.42994 0.0868641 0.325355 -0.126381 0.342102 0.0247155 0.304087 0.292229 -0.302989 0.132032 -0.450303 -0.281517 0.363999 -0.270389 -0.244767 0.559143 0.281286 -0.0585973 -0.414508 0.333229 0.475651 -0.0605927 -0.105374 0.182498 0.266625 0.168455 0.0763954 0.177776 -0.0301337 -0.188839 0.473533 -0.179425 0.349454 0.293174 0.192246 0.201679 -0.215077 -0.0735971 -0.0875404 -0.119423 0.542453 -0.0419569 0.0797356 0.411008 0.155424 0.308606 0.415079 -0.10145 -0.299793 0.442448 -0.373361 0.565977 -0.221795 -0.0567119 0.172771 0.434688 0.469408 -0.41283 -0.0235607 -0.17453 -0.161748 -0.0984173 0.106513 -0.365582 -0.413082 -0.295471 0.243546 -0.226554 0.0558908 0.590426 0.114199 0.0498002 -0.0214046 -0.379421 -0.12771 0.528757 0.321529 -0.341676 -0.201907 0.375371 0.484115 -0.170927 0.367588 -0.317128 0.146241 -0.0887459 0.528581 0.0488475 -0.0457294 -0.0394765 0.285422 0.221879 0.280109 -0.183707 0.276155 0.299258 -0.0669131 -0.0846205 0.461855 0.369676 -0.10637 -0.0448568 -0.184254 0.268534 -0.0157494 0.108293 0.23425 -0.247643 0.222854 0.482386 0.585301 0.173398 -0.236917 0.407922 0.308132 0.336145 -0.254427 0.263614 -0.185237 0.125385 -0.350491 0.518027 -0.24892 0.336274 -0.257857 0.441941 0.0350225 0.0591592 -0.249052 -0.11225 -0.156272 0.0629622 0.272773 0.105233 -0.226278 -0.279211 -0.350321 0.451448 -0.114544 0.263804 0.323978 -0.122089 -0.143461 0.611453 -0.210196 0.677261 0.380178 -0.0307417 0.365626 0.60815 0.510777 0.413362 0.543468 0.64399 0.146835 -0.347472 0.481121 0.609629 0.185306 -0.264844 -0.0293508 0.510675 0.246804 -0.303559 0.0446694 0.441027 -0.188149 0.10755 0.306614 0.130441 -0.193047 0.0589475 0.400704 0.0496916 -0.0412099 0.479744 0.0137207 0.63349 -0.25863 0.667064 0.533142 0.54207 0.392904 0.391308 0.537494 -0.11098 0.421179 0.403488 -0.146905 -0.0386631 0.456504 0.159261 -0.201248 0.0335804 0.163981 0.161565 -0.202525 0.319819 0.584669 0.418709 0.724764 0.647945 0.742158 0.371995 -0.0315092 -0.0288928 0.139017 0.270585 -0.114088 0.189613 0.250425 0.707065 -0.00663897 -0.0977246 0.379861 -0.177845 0.0874799 0.0907041 0.497966 0.207872 0.325458 0.225472 0.625502 0.377277 0.510999 0.0382009 -0.216997 0.546614 0.578268 0.599959 0.204567 0.540399 0.491411 0.171431 0.156947 0.705091 0.407224 0.574319 0.252299 0.57904 0.00825668 -0.267981 0.530885 0.0599843 -0.28958 -0.0166694 0.131325 0.061838 0.34804 -0.108499 0.522198 -0.0670179 0.390669 0.435135 -0.403997 0.157358 -0.281485 -0.380939 -0.0198946 -0.40857 0.506754 0.483175 0.413694 0.275435 -0.0600931 -0.14684 0.267008 -0.375719 -0.306261 -0.20768 0.47639 -0.0345279 -0.203916 0.278222 0.49241 -0.033378 -0.273992 0.0916373 0.488458 -0.456403 0.461042 0.506748 -0.0438652 0.323616 0.381861 -0.0185305 -0.0519867 -0.43987 0.076051 0.388065 -0.399722 0.0499084 0.343147 0.501767 -0.200647 -0.242157 -0.183389 0.502346 -0.173331 -0.0496724 -0.246412 -0.244323 0.382578 0.0173916 -0.491281 0.369773 0.484709 -0.246103 -0.0428326 0.474426 -0.229266 -0.102019 0.437256 0.154038 -0.350111 0.223168 -0.420894 0.0338078 0.250729 0.116097 -0.0939165 0.324211 -0.372679 -0.28731 0.284557 -0.097174 -0.056234 -0.418275 -0.106145 0.250293 0.00914979 0.122072 0.495727 -0.104964 -0.355694 0.5374 -0.235751 -0.364395 -0.248699 0.18176 -0.442278 -0.0159275 0.534917 0.528294 -0.314013 -0.260055 0.252702 -0.219897 0.289191 0.0163827 0.401878 -0.3037 -0.144888 0.537495 -0.0802171 -0.36825 -0.0789478 0.354607 -0.284081 0.314466 0.102964 0.222487 -0.0606953 0.100873 0.606808 0.05804 0.0851753 -0.172742 0.157542 0.305208 0.468117 0.173085 -0.272082 0.44423 0.065712 -0.214644 0.545801 -0.31905 -0.0928912 0.192842 0.0567559 -0.3324 0.236203 0.258386 0.558643 0.503266 0.256675 -0.15736 0.216775 0.344097 0.535078 -0.303382 -0.0684893 -0.165284 0.159501 -0.10513 0.268747 0.611521 0.0851368 -0.210149 0.284598 -0.0818035 0.328608 0.377403 -0.272324 -0.231508 0.530597 0.645446 -0.188425 -0.198499 0.181752 0.21536 -0.184722 -0.232918 -0.180142 -0.28312 0.616634 0.427777 -0.0824915 0.188827 0.109734 -0.204421 0.232099 0.390914 -0.0205833 -0.259745 0.636885 0.595953 -0.290826 0.0727407 -0.260717 0.341341 0.348105 0.418196 0.0757402 0.433594 0.542434 -0.0400513 0.427701 -0.297581 0.110335 -0.0402255 0.264792 0.159456 -0.0436839 0.315519 0.223528 -0.0624003 0.101578 0.485801 0.456305 -0.457384 -0.378936 0.0337613 0.274449 -0.0927545 0.0755732 0.208882 -0.161783 0.143422 -0.34902 -0.046956 -0.157441 0.355322 -0.271848 0.263627 0.134985 -0.39981 -0.4331 -0.0817362 -0.325095 0.0503099 0.237432 0.305246 -0.312291 -0.32808 0.091367 0.388034 0.0686328 -0.333238 0.354971 0.0233112 -0.308375 0.443761 0.501884 0.397436 -0.168951 0.0463673 0.0926835 0.138929 -0.353074 0.206184 -0.43499 -0.0122737 0.0559175 -0.207753 -0.263182 -0.346559 -0.133234 -0.225397 0.053265 0.0209628 0.306876 -0.228599 -0.196981 0.488431 -0.0618024 0.409428 0.368273 0.507002 0.541499 0.191574 -0.0269606 -0.356052 0.0576606 -0.128764 0.483047 0.317293 0.383332 0.0391952 -0.0505336 -0.491073 -0.279079 -0.00742592 -0.0358784 0.262171 0.26292 0.184854 0.40459 -0.389757 0.437647 -0.0540424 0.129992 0.262116 0.226304 0.465221 0.24691 -0.326536 0.340184 0.0809908 -0.374695 0.336608 -0.275803 0.0876789 0.491707 0.298177 0.46355 0.48234 0.130964 0.367017 0.0409777 0.605685 0.411134 0.288414 0.116406 -0.125394 0.040746 -0.117941 0.575172 -0.0447623 -0.00194963 0.514172 0.398448 -0.382637 0.251199 0.0854343 0.52794 -0.0416026 0.220813 0.334411 0.490471 0.2948 0.105243 -0.347376 -0.214852 0.0121965 0.357149 -0.345108 -0.114799 -0.11153 0.417776 0.322086 -0.125447 0.205782 -0.00399579 0.371164 0.482916 0.43603 -0.354768 0.456663 -0.201105 0.041938 0.36732 0.587909 0.0667699 0.0211394 0.0961104 0.0173845 0.392134 -0.265731 -0.235143 0.291405 0.435534 0.276446 0.350901 -0.370798 -0.315297 0.106462 -0.31899 -0.0288531 0.384122 0.488342 -0.321579 -0.34016 0.0984518 0.0731616 0.419068 -0.0271175 -0.0904585 0.46631 -0.178458 0.103818 -0.0890551 0.593778 0.0991764 0.386878 0.0267218 0.602219 -0.190429 -0.183966 -0.266206 -0.0310022 0.514401 0.570702 -0.350327 0.270147 -0.391311 -0.258435 -0.219178 -0.308742 0.111542 0.562575 0.579522 0.158396 -0.423925 -0.00669582 -0.416033 0.326552 0.332475 -0.146095 0.172598 -0.467002 0.339209 0.462995 -0.495228 -0.140442 0.271367 0.00531323 -0.102708 0.492742 0.188954 0.0128823 -0.130015 0.117802 -0.010567 -0.123005 -0.261542 -0.0617641 0.00878147 -0.170293 -0.0470316 0.371154 -0.275889 -0.0956115 0.00558047 -0.134539 0.461228 0.213436 -0.252344 0.417151 -0.363674 0.425624 0.388471 0.375205 0.35394 0.50231 -0.160692 0.313768 1.26381e-05 0.100705 0.110409 0.47182 0.510538 0.328277 -0.0476564 -0.174198 -0.371322 0.119279 0.239799 0.139352 0.525608 -0.223869 0.14038 -0.127371 0.25662 -0.30727 0.202578 0.179877 0.337172 0.40154 -0.017015 0.343406 0.240392 -0.215616 0.186242 0.112473 -0.33861 0.397867 -0.335867 -0.189948 -0.222115 0.0358809 -0.346496 -0.325892 -0.183119 0.139445 0.0563463 0.0203357 -0.252439 -0.243085 -0.424016 -0.299183 -0.0179864 0.0976357 -0.0496688 -0.367877 0.280882 -0.350332 0.294614 0.109314 0.515924 -0.234023 -0.051497 0.28615 0.0568356 -0.378052 -0.198733 0.131736 0.454975 -0.105122 0.449647 -0.239008 0.482542 -0.267274 0.03035 -0.0387059 0.375372 0.545331 0.355303 0.462686 -0.285374 0.318361 0.573142 0.0993266 -0.0883118 0.0469702 0.245297 -0.349745 0.120269 -0.0532051 0.213972 0.114417 0.184086 -0.367208 -0.186989 -0.354659 -0.320573 0.0520395 0.212002 0.548887 0.354007 0.0565081 -0.295095 0.253762 0.14088 0.106256 0.497251 -0.202775 -0.0422391 0.15627 0.598768 -0.0156365 -0.185633 0.50198 0.447596 0.0785991 -0.116648 0.0172704 0.120756 0.389544 0.376765 -0.253533 -0.102141 -0.0269707 -0.206602 0.136378 0.0336265 -0.107144 -0.415993 -0.367874 -0.156099 0.311366 0.0833044 -0.0731978 -0.0502634 -0.357062 0.449127 -0.136661 -0.176409 -0.201408 0.413488 -0.172042 0.207166 -0.330811 -0.230783 0.0894628 0.176738 0.0806616 0.549426 -0.262171 -0.0826236 0.372734 -0.0658416 0.279871 -0.207253 0.16444 -0.173013 0.223354 0.459597 -0.201439 0.265896 -0.282744 0.567215 -0.276332 0.0318606 -0.114286 -0.215956 -0.117573 0.169252 -0.00575013 0.0753598 -0.0141929 0.247133 -0.298306 0.0483193 0.458682 0.243812 -0.248769 0.0173691 0.265465 -0.109876 0.353318 0.0632002 0.240445 0.0170704 0.168901 -0.263221 0.105413 -0.261707 -0.417385 0.375481 -0.544137 -0.291997 0.434114 -0.226401 0.350353 -0.133928 0.16942 -0.155866 -0.268775 -0.172385 0.598378 0.302641 0.679796 -0.104065 -0.0403686 0.678709 0.751807 0.236593 0.170993 0.426152 0.486764 -0.082331 -0.198849 0.0966815 0.185502 0.373298 0.216873 -0.136425 -0.316627 0.350903 -0.16363 -0.24274 -0.314193 -0.231801 -0.0211496 0.458854 0.0312557 -0.470554 -0.243982 0.156671 -0.321865 -0.411324 -0.254483 -0.302185 -0.0844058 0.0713958 -0.278178 -0.150238 0.474758 0.131349 0.513264 0.263292 0.366893 -0.284968 -0.162809 0.132223 -0.234941 0.674037 0.531692 -0.111697 0.465026 -0.153674 0.00776674 0.503948 -0.00971138 0.528164 0.538217 0.600006 -0.334561 -0.203658 0.252587 -0.116769 0.710945 1.27833 0.993709 1.16182 0.910886 1.16521 1.47976 0.843511 0.805956 1.48515 1.61591 1.61432 1.66608 0.82543 1.17996 1.74322 0.844392 1.07958 1.03269 1.67751 1.3338 1.53115 1.60005 1.68023 1.46759 1.58479 1.80928 1.58057 1.88297 1.48741 1.94639 1.23593 1.43756 1.42242 1.85473 1.7497 1.99987 1.75357 1.98997 1.14005 1.53084 1.90336 1.01741 1.47759 0.97245 1.41439 1.38474 0.984954 1.75286 1.6961 2.01419 1.3078 1.53066 1.91671 1.28485 1.16068 1.59435 1.1101 1.75165 1.50299 1.66128 1.71033 1.76091 2.05289 1.14333 1.64187 1.9212 2.1943 1.46138 1.90707 1.29211 1.97725 1.79066 1.36236 1.51381 1.8639 1.824 1.99271 1.8503 1.54107 1.62329 1.81866 1.81214 1.06471 1.66675 2.02491 1.14018 1.22485 1.1126 1.88814 1.72231 1.71642 1.55625 1.43315 1.73884 1.59734 1.98527 1.45831 1.58717 1.21486 -0.422595 0.132193 0.741474 0.478377 0.686456 0.144587 0.0392159 0.179358 -0.403642 -0.366355 0.333479 0.0723129 0.0619879 -0.122694 -0.256593 -0.442554 0.0791546 0.198994 -0.0823948 -0.0349877 -0.375136 -0.640426 -0.445581 -0.72562 0.375163 -0.297245 0.642935 0.629978 0.672053 0.382102 1.2642 0.983537 1.1636 1.09116 0.545721 0.937044 1.50061 1.04386 0.743255 0.755798 1.31386 1.67625 1.38894 1.2021 1.32351 1.0663 0.792671 1.14387 1.05668 1.58258 0.395013 1.15305 0.268068 0.708185 0.489163 0.361381 1.17791 1.23434 0.982907 0.551225 0.438667 0.912662 1.20838 1.23969 0.380693 0.124607 0.565851 0.353095 0.793401 0.747512 0.89593 0.763616 1.34614 1.89728 1.88171 1.37594 1.95011 2.25816 2.30919 2.46578 2.22077 2.46481 2.1783 2.27286 1.75677 2.14936 2.04805 1.49992 1.89021 1.71626 1.88026 2.09577 1.50096 1.80882 2.04777 1.74936 1.90238 1.57183 1.90178 2.24072 0.826695 1.11531 0.2326 0.172687 1.01939 0.906864 0.36013 0.493874 0.679049 0.958786 0.249037 0.278514 0.875419 1.08038 1.36689 0.574808 1.26932 1.36014 1.18971 1.2363 1.23912 0.919094 1.17325 1.39016 1.4841 0.992995 1.11658 1.15621 1.36947 1.77681 1.314 2.11593 1.84869 1.43388 2.06202 1.59776 1.92941 1.10577 1.61769 1.28588 1.68926 1.64909 1.46124 1.44108 1.57108 1.39278 1.58055 1.3429 1.3609 1.20846 1.20487 2.03423 1.74034 1.81135 1.96568 1.48106 2.04703 2.01181 1.39165 2.14997 1.41538 1.34896 1.822 1.89007 1.51315 1.81544 1.58296 1.5744 1.99879 2.27207 1.9103 1.84499 2.11703 1.47432 1.3797 1.7776 1.85043 1.95274 1.95533 2.04684 2.01186 1.98104 2.05882 1.53621 1.73213 1.69932 1.63244 2.25254 2.15073 1.69856 2.02502 1.32912 1.78892 1.72759 2.10749 2.10766 1.24745 1.22343 1.09211 1.81166 -0.370966 0.280272 -0.0496406 0.432752 0.462215 0.0310063 -0.0896366 0.0978897 -0.228287 -0.187736 0.096608 -0.2824 -0.290208 -0.0902512 -0.0129328 0.0370023 0.20787 0.29909 -0.0181216 0.0810174 -0.284212 -0.235733 0.196991 0.317437 0.316264 0.0916846 0.225722 0.453808 0.183348 0.295578 0.256943 0.257624 0.0141049 0.616002 0.0551054 -0.172897 -0.0255333 0.337837 0.285254 0.127064 0.523916 -0.237506 0.225158 -0.361184 0.10277 -0.336016 0.141881 -0.252428 0.394092 0.527742 0.266026 0.557503 -0.247493 -0.139415 0.28657 0.455844 0.353184 -0.114275 0.224356 -0.140744 0.500937 -0.154056 0.499991 -0.0917663 -0.136352 -0.0176929 0.133565 0.251165 -0.270126 -0.130359 -0.179188 -0.293237 0.0779337 0.500151 -0.17432 -0.357438 -0.379955 0.383246 -0.187794 0.448066 0.361846 0.489252 0.358706 0.437686 -0.352204 -0.0129476 0.239734 0.358709 0.288323 -0.0660626 -0.293131 0.223447 0.215558 0.605016 0.50218 0.439705 -0.0469034 0.0581545 0.117998 0.108137 0.995071 1.00961 0.868868 0.492043 0.928606 1.10431 0.553126 0.973299 0.89622 0.758854 0.800046 0.635795 0.630831 0.614201 0.563016 0.788535 1.15522 0.318182 0.699786 0.894219 0.73078 0.829151 0.564955 1.36414 0.871549 0.507379 1.27298 1.26892 1.00639 0.798243 0.809618 0.795334 0.622819 0.484989 1.05956 1.3027 1.297 1.34595 0.973549 0.950318 0.862051 0.581405 0.42444 1.32608 1.01662 0.743861 0.859662 0.885015 0.833586 1.30522 0.59309 1.29192 0.901169 0.831967 1.35739 1.41523 1.00985 1.24464 1.29234 0.59986 0.602572 0.642433 0.933398 0.766449 0.677778 0.579901 0.670075 0.60998 1.52313 1.26264 1.18527 1.04793 1.5237 1.25289 1.01225 1.17385 0.612701 1.5041 0.6372 0.983867 1.35701 0.763747 0.847876 0.780947 1.12509 0.66864 0.622331 0.526496 1.29025 1.33494 0.552072 1.35705 1.43256 0.937479 0.562606 0.549189 0.928776 0.642997 0.543366 0.901477 0.431425 0.274582 -0.532126 0.380487 -0.0779204 -0.0928692 -0.0536959 -0.0249099 -0.164025 0.097134 -0.569915 -0.330378 -0.63777 -0.216824 0.0199351 0.0253708 -0.0438219 0.119695 0.0129275 -0.244269 -0.0133704 0.107909 -0.366041 -0.0732832 -0.419733 -0.233938 0.0934432 0.126673 0.0397282 0.245554 -0.360931 -0.00717287 0.110331 -0.277561 0.0162977 -0.362375 0.25661 -0.402808 0.258288 -0.268079 0.311377 0.336942 0.121514 0.391159 -0.176422 -0.290642 -0.0993118 0.311683 0.275763 -0.539555 -0.42973 -0.172229 0.160466 -0.137965 0.414773 0.346922 0.289744 0.119336 0.152954 -0.0596623 -0.0731773 0.283534 0.365515 0.449912 0.368783 -0.223707 -0.530783 0.0351975 -0.188493 0.167346 0.227159 -0.423002 0.0505767 -0.196643 0.462996 0.290912 -0.0345848 -0.14002 0.130144 -0.181999 -0.120519 0.272184 0.200991 0.586193 -0.34845 0.147157 0.460535 0.442174 -0.2676 0.0151261 -0.221176 0.139438 -0.223515 -0.313356 0.136186 -0.255556 0.0400364 0.190772 0.372774 0.438538 0.0135114 0.22736 -0.34086 0.547121 0.537027 0.572114 0.325545 -0.0692653 -0.117541 -0.162735 0.162745 0.171641 0.514024 -0.247578 0.0919724 0.533755 0.215711 -0.0728401 0.276206 0.33541 0.338183 0.530626 -0.0675039 -0.433892 -0.362084 -0.497252 -0.257576 0.162698 0.163045 -0.420848 0.0895731 -0.388288 0.299239 0.200879 -0.367055 0.229528 0.181829 0.307851 0.52648 0.39286 0.502204 -0.00298158 -0.153394 0.274944 -0.0295995 0.239773 0.0978901 0.565102 0.483009 -0.223455 0.281184 0.256183 -0.276431 -0.330192 0.271511 -0.139898 -0.315619 -0.465137 -0.483757 0.342882 -0.345718 0.149184 -0.491579 0.404965 -0.159355 -0.40045 0.12074 0.45401 0.34399 0.0388878 0.189606 0.155361 0.358458 0.433383 -0.173828 -0.250899 0.100367 0.364581 -0.186209 0.138915 -0.328453 -0.411885 -0.110131 -0.0663823 -0.197564 -0.288829 0.346863 0.0207394 -0.238272 0.402933 -0.151752 -0.125943 0.0226042 -0.128101 -0.178259 0.35439 -0.0930465 0.322433 0.145464 -0.361411 0.579674 0.645242 1.1194 0.419473 0.488732 0.341702 0.745267 1.23008 1.63085 1.24403 1.25999 0.934946 1.36257 1.47262 1.04243 1.43499 1.71883 1.06989 1.10153 0.879534 1.65695 1.22391 0.748 0.876351 1.18307 0.909211 0.296432 0.320866 0.49175 1.01864 0.639228 0.891244 0.327678 0.304117 0.882381 0.61536 0.428735 0.203871 0.41402 0.360618 0.769997 0.797688 0.354515 0.272564 0.271776 0.612018 0.24955 0.406061 1.43985 0.816855 0.837545 1.52107 1.08127 0.819582 0.343248 0.703449 0.189822 0.66269 0.132018 0.73812 1.07181 0.973966 1.178 0.77027 1.89397 1.30421 1.58401 1.29206 1.39052 0.933529 1.38003 0.953682 1.16814 0.444343 0.647737 0.356186 -0.202018 0.600306 0.440082 -0.252209 0.000535659 -0.200001 1.20461 0.327926 1.13477 0.937866 1.45602 1.45826 0.674449 0.542599 1.07592 1.35167 1.07606 0.5425 0.56514 1.2141 1.25653 1.44981 0.686421 0.748478 0.540427 0.552093 0.268977 0.575979 -0.0209757 0.106484 0.174691 0.0789785 0.0389805 -0.080616 0.112037 0.221173 -0.238077 -0.0348501 0.0917979 0.30943 0.265221 -0.0188189 0.111834 0.394129 -0.0144131 -0.186203 0.343346 -0.302198 -0.0890346 0.337034 0.365614 -0.463032 0.143918 -0.495623 -0.239392 0.116235 -0.448861 0.420285 0.125042 -0.214979 -0.129001 0.549073 0.127607 0.0540004 -0.345682 0.430581 0.432733 -0.328926 -0.363719 -0.0957416 0.387454 0.373272 0.272458 -0.0516979 0.183701 -0.24825 0.217601 0.0437611 -0.0253807 -0.226657 0.0630301 -0.0110288 -0.10106 -0.229503 0.062488 0.265983 -0.473999 0.184526 0.278283 0.168091 0.531142 -0.399608 0.223846 0.106618 0.196135 0.322494 0.0189413 0.0501079 0.299869 -0.0616057 0.160825 -0.0184959 -0.389536 -0.10646 0.317642 0.210097 0.0354085 0.0359895 -0.295845 -0.522211 0.289393 0.260228 -0.102113 -0.332729 -0.522061 -0.536086 -0.528502 -0.458927 0.182238 0.22776 0.138304 0.101309 0.191885 -0.280849 -0.121503 -0.0110905 -0.354836 0.149977 0.298634 0.316956 0.458168 -0.101106 -0.264631 0.503049 0.224727 0.560248 0.217374 -0.207695 0.124607 0.503353 -0.15025 -0.0148442 0.333491 0.38163 0.28684 0.478815 0.52326 0.400934 -0.332145 0.346468 0.276779 0.497712 0.127838 0.165804 -0.0896775 0.397719 0.541742 -0.0564367 -0.0680382 0.221927 -0.358753 -0.223207 0.508034 -0.232827 -0.333513 0.120974 -0.288725 0.274635 0.307001 0.237763 0.190743 0.568725 -0.366101 -0.0744172 0.350515 0.321477 -0.196056 0.264179 0.116753 -0.138038 0.00215156 -0.226019 -0.265993 0.514473 0.318623 0.0329618 0.302043 0.26022 0.378031 -0.361897 -0.115331 0.420972 -0.181975 -0.203153 0.589351 -0.111802 0.332753 -0.277146 0.581969 0.0446941 0.355751 0.160061 0.000348091 0.387378 0.484412 -0.24876 0.115146 -0.305195 0.422865 -0.370505 -0.044756 -0.178847 -0.206 0.085012 -0.265026 0.523233 0.531503 0.44574 0.199731 0.321247 0.491767 0.48634 0.137192 -0.292881 -0.353303 0.0999575 0.0151657 0.421864 0.281761 0.0127382 -0.0901158 0.0741093 0.602572 0.312709 -0.197418 0.433865 0.332526 0.241775 0.43805 0.142076 0.291979 -0.172205 0.399465 0.493803 0.326971 -0.456723 0.410274 0.242458 0.379452 0.00848574 -0.0263286 0.278524 -0.106118 0.505401 0.392126 -0.0108757 0.0796887 -0.176762 -0.175904 -0.26777 0.237546 0.110678 0.193521 0.203337 -0.181011 0.442604 0.103895 -0.335873 0.198557 0.0505977 0.33194 -0.0193218 0.34288 0.177071 -0.114084 0.100599 0.100439 -0.273887 -0.224569 -0.0435274 0.267638 0.268206 -0.236308 -0.357993 0.229851 0.590527 0.0969935 -0.226145 -0.153921 0.325097 -0.0685855 0.510177 -0.1131 0.544258 0.21589 0.151308 0.420628 0.650303 0.0875635 -0.0986032 -0.0362002 -0.276297 0.18796 -0.342466 0.291509 0.497161 0.176102 -0.1793 0.555657 0.286783 0.0804085 0.166446 -0.103377 0.208158 0.159321 0.503101 0.144434 -0.4159 -0.38526 0.391184 0.301998 -0.0923629 0.284369 -0.444796 -0.198852 -0.255074 0.145017 0.688983 0.04011 0.742012 0.0593408 0.314514 0.682245 0.502628 0.190893 0.246806 0.261941 0.670932 0.234781 0.0921356 0.145226 -0.32862 -0.386302 -0.514481 0.446428 0.354171 0.857336 0.367229 0.920245 0.15649 0.4337 0.699781 0.603219 0.244774 0.874768 0.979649 0.541691 0.284881 0.865759 0.624549 1.08195 1.0886 1.21963 1.12652 0.929958 0.668656 0.402469 0.255517 0.295996 -0.0406877 0.664694 -0.047461 0.0536528 0.707468 -0.124 -0.0968352 0.448758 -0.175985 0.304283 0.213231 -0.145052 0.678368 -0.0103958 0.442988 0.821997 0.533965 -0.10267 -0.0523835 0.313342 0.520452 0.308371 0.208597 0.488143 0.311172 0.159583 0.200367 -0.212569 0.557356 0.546275 0.255702 0.757165 0.361394 0.323535 -0.0537466 0.0374307 0.194353 -0.204459 -0.384889 0.111239 0.298184 0.15638 0.300059 0.317434 0.220987 -0.166314 0.309001 -0.142146 0.0131818 0.553484 0.62414 0.0878381 0.422512 0.663096 0.239299 -0.0968271 -0.31882 0.276266 -0.00431197 -0.458602 0.052211 0.473738 0.454922 -0.46002 -0.0339058 -0.342354 0.0307343 -0.263307 -0.00952354 0.127668 0.242884 -0.384957 0.536211 -0.27756 0.173524 -0.0283018 -0.172337 -0.180751 0.259491 0.234811 -0.31319 0.189164 -0.437108 0.324315 -0.193892 -0.309613 -0.365243 -0.0832566 -0.516344 0.211391 0.0191277 0.199117 0.291763 0.0905712 0.283353 -0.281174 0.111651 -0.362426 -0.260624 0.368459 0.126982 0.362375 0.449711 0.102508 -0.421578 0.142982 -0.352602 0.0795887 0.544404 0.516146 -0.140694 -0.24691 0.20865 -0.127309 -0.42382 -0.515359 0.151455 -0.202057 -0.00490303 0.293638 -0.394712 -0.460346 -0.148893 0.277311 0.0711263 -0.407902 -0.484844 -0.318151 -0.248047 -0.189121 -0.355874 0.463262 -0.294861 -0.339891 0.168425 -0.0916474 0.367351 0.353938 0.403603 0.339892 0.297281 -0.333016 0.507614 -0.0618114 0.0478977 -0.416301 -0.0659915 -0.23684 -0.044865 0.488609 0.498854 -0.0487089 0.503638 -0.159406 -0.251487 0.708306 0.53424 0.416689 0.949486 0.874724 0.730561 1.08142 0.806098 0.921762 1.20841 0.433452 0.248958 0.980795 0.226509 1.1043 0.773731 0.983583 1.24156 0.743799 0.359852 0.732219 0.786408 0.816001 0.960226 1.25405 0.767887 0.915837 0.665629 0.743405 1.21959 0.867071 1.27939 0.486954 0.975643 0.828804 1.02695 0.385651 0.696823 0.679339 1.12155 0.775421 0.931202 1.06618 0.409603 0.749791 0.872708 0.931528 0.536129 0.950874 0.473808 0.65382 0.402436 0.917452 0.104463 0.989076 0.812333 0.579966 0.62728 0.233638 1.00063 0.474096 0.704885 0.817337 0.642918 0.323012 0.447466 0.520929 0.584927 1.06497 1.01149 0.487966 0.521397 0.49764 0.261619 0.685847 0.18964 0.120191 0.509913 0.608856 0.876666 0.818195 0.147238 0.197645 0.68743 0.244212 0.153482 0.461333 0.678215 0.637055 0.52321 0.495665 0.975702 1.07184 0.235045 0.669073 0.505491 0.950875 1.28024 1.2493 0.972587 0.990612 0.397262 0.893432 0.271611 0.349407 0.48298 0.368251 0.42578 0.023172 0.0135346 0.329294 0.765252 0.111335 0.453102 0.732172 0.56763 0.971631 1.21045 1.33634 0.543951 0.675738 0.711956 1.28331 0.525206 0.794409 0.787732 0.894458 1.38151 0.672725 0.651465 0.929079 1.52764 0.951343 0.918406 0.740721 1.29674 1.30567 1.16438 0.725027 0.348959 1.14757 1.08646 1.16566 0.334139 0.551783 0.537411 0.529289 1.06097 0.551887 0.608177 1.47005 0.819454 0.828612 1.25562 0.822419 1.11436 0.467916 1.1376 0.73512 0.478117 1.12948 1.11882 0.439636 0.473408 0.353448 0.671756 0.322368 0.37941 0.613743 0.817086 0.44364 0.469738 0.685599 0.426458 0.689549 1.11244 0.925621 1.12417 1.14352 1.09445 1.38169 1.07559 1.37237 0.719695 0.90876 0.800409 1.42214 0.963354 1.43497 0.85323 1.06354 1.27321 0.736803 1.36258 0.669241 1.03322 1.00952 0.842758 1.31106 1.43214 1.03894 1.14094 0.252412 0.431229 0.271377 0.613155 0.213412 0.782762 0.31883 0.875133 0.409902 0.20503 0.46506 0.285672 0.43645 0.80754 0.523639 0.305347 0.207316 0.480874 0.653546 0.850039 0.266289 0.873833 0.676663 0.403336 0.32233 0.0886546 0.655011 0.0475754 0.910222 0.506719 -0.106813 -0.0722075 0.648442 -0.014129 0.336664 0.713696 0.703047 0.61973 0.606209 0.0332711 0.785804 -0.0306613 0.288993 0.143261 0.794068 0.753998 0.436025 0.902946 1.03779 0.873712 0.541552 0.258267 0.788022 0.273688 0.743721 1.15871 0.312688 0.315988 0.117722 0.257128 0.892792 0.194938 0.333332 0.708446 0.299303 0.849689 0.619349 0.165699 0.599167 0.284652 0.174908 0.353791 0.220229 0.441308 0.530543 0.954187 0.133173 0.802299 0.718617 0.133112 0.752791 0.306762 0.511664 0.460206 0.496935 1.07154 0.428048 0.719673 0.336245 0.507376 0.994889 1.17257 0.677802 1.28284 0.885856 0.998675 1.13508 0.440012 0.177477 -0.200026 -0.101781 -0.469163 0.442699 0.30215 0.158984 -0.00648416 0.227705 0.262412 -0.208216 -0.0345594 0.410832 0.41955 -0.0370289 -0.456612 -0.618334 0.148928 0.215844 -0.463341 -0.357082 -0.624184 -0.0745241 -0.58461 0.306485 0.271711 -0.666679 -0.203287 -0.131068 0.11932 -0.132229 -0.394942 -0.488876 0.269902 -0.269263 -0.594993 0.105826 0.329431 -0.118124 -0.2168 0.0455795 0.0580321 0.115808 -0.176676 -0.086711 -0.284101 0.0260632 0.00449522 0.463289 -0.0937778 0.132266 -0.238979 -0.0271408 -0.235946 -0.0906959 -0.00427271 -0.222217 -0.00857945 -0.381455 0.453044 -0.0713363 0.246831 -0.154692 0.182221 0.261335 0.203032 0.116587 -0.18824 -0.0502173 0.469762 0.0802572 -0.496125 -0.00121116 -0.329733 -0.263355 0.290253 -0.221073 0.197985 -0.282555 -0.238603 -0.378908 -0.547624 0.150341 0.188166 -0.244925 -0.453541 -0.328591 0.0503092 0.0436765 -0.282259 -0.0415836 -0.572534 -0.597146 0.188048 -0.0413363 0.0278381 -0.242705 -0.425556 -0.647708 0.244483 1.03069 1.39153 1.47442 1.344 1.13064 0.577588 0.723394 0.229809 -0.416412 -0.4612 0.379325 0.107313 0.0184224 0.241499 0.132887 0.541862 0.553203 0.44327 0.273866 0.293343 0.786041 0.787318 -0.326366 0.229999 -0.218142 0.0763467 -0.689409 -1.17605 -1.32694 -0.937043 -0.703545 -1.25478 -1.33728 -0.615929 -1.40788 -0.624825 -1.24679 -0.505317 -0.857645 -0.823349 0.364632 0.204478 0.446666 0.929886 0.501115 1.02922 1.1865 1.26388 1.35918 1.03924 0.97783 0.960126 0.677263 1.26266 0.739441 1.20725 1.0942 0.258405 0.392606 1.38413 1.07875 1.46547 1.03011 1.33493 1.64089 1.39949 0.857837 1.13423 0.518642 0.89601 -0.0268042 0.170038 0.389704 0.462665 0.0712358 0.351376 -0.0292317 0.543019 -0.00681135 0.0124198 0.795089 1.24946 1.96913 1.90279 2.18824 1.72843 1.98162 1.90125 1.35779 1.74044 2.2228 2.48127 2.56015 1.91154 2.53614 2.41359 2.35691 2.00809 2.24421 2.85433 -0.354529 0.109977 -0.0888613 0.156917 -0.293458 0.193584 -0.253516 -0.114985 -0.0362925 -0.152863 -0.0248107 0.286806 0.559086 -0.281626 -0.0189339 0.358609 0.105258 -0.247984 0.0852789 0.489143 0.547004 -0.244711 0.368504 0.167284 -0.286969 -0.0613313 0.617383 0.287077 0.160019 -0.00991409 0.318948 0.22434 0.536268 0.623076 -0.280419 0.551621 0.092902 -0.230016 -0.256683 0.376461 -0.0356706 0.0926622 0.0707567 -0.0309369 0.229111 0.419151 -0.322258 -0.335162 0.484738 0.0577527 0.461102 0.327306 0.091511 0.144814 -0.196768 0.144213 0.418107 -0.240675 -0.216749 -0.0609773 0.149707 0.440211 0.511835 -0.0223091 0.336184 0.548519 -0.147565 -0.196407 -0.286303 -0.0178371 0.617751 0.0676842 0.44772 -0.0232207 0.30543 -0.0101534 -0.304607 0.319479 -0.0235969 0.532308 -0.250719 -0.188245 0.221696 0.200092 0.301295 0.388387 -0.298138 0.096583 0.526863 -0.143083 0.409425 0.00902754 0.663547 0.275207 0.352067 0.349934 0.139079 0.502428 0.446793 0.160207 -0.38647 0.146864 0.29408 0.322696 0.380139 -0.108285 -0.399267 0.382238 -0.431137 -0.0465904 0.316477 -0.350761 0.104051 -0.136435 0.228453 -0.208751 -0.381916 0.248619 0.173647 0.448564 0.371244 -0.120752 -0.231582 0.349563 0.427461 0.367425 -0.0809844 -0.137317 0.160157 -0.311802 0.365575 0.300705 0.443376 0.263796 0.292766 0.416538 -0.20688 0.469899 0.350418 -0.181923 -0.134888 0.107795 -0.0666792 0.441666 0.371151 0.482732 0.525729 0.374532 0.0810129 0.109672 0.188752 -0.108543 0.380043 0.378276 -0.345011 0.311321 0.312193 0.175055 -0.114643 0.126869 0.510166 -0.232761 -0.109725 0.342551 0.361768 -0.497844 0.0726478 -0.517861 0.37447 -0.144206 -0.181771 -0.30328 0.424624 0.102198 0.447943 0.174146 -0.0478491 0.410126 -0.0150616 0.516213 -0.000348649 -0.301624 -0.0580751 -0.0347823 -0.373615 0.144212 -0.235196 0.39996 -0.321068 -0.0414487 -0.113529 -0.341939 0.175262 0.22857 -0.485553 0.128632 0.294705 0.0946155 0.10872 0.119583 0.583548 0.484374 0.365063 0.370306 -0.0567051 0.219487 -0.0491542 0.318399 0.041644 0.348098 0.270911 0.491706 0.517689 -0.349507 -0.116718 0.58542 0.221886 0.145597 0.47574 0.507062 -0.290483 -0.0765174 -0.273888 0.466132 -0.266087 -0.239306 0.101955 0.562924 0.406636 -0.215484 0.238298 0.346231 -0.385673 -0.0244833 0.110627 -0.0322697 0.613154 0.457777 -0.31414 0.0574042 0.197716 0.321204 -0.0842751 0.0719798 0.346483 0.182906 0.0448179 -0.048259 -0.295045 -0.099351 -0.162437 -0.198976 0.228568 -0.0302752 -0.325657 0.351271 0.120403 0.178092 0.320329 -0.0850355 0.326877 -0.0633974 -0.358269 0.356006 0.334336 0.15008 -0.29723 0.311062 -0.0391026 -0.243064 -0.265082 0.546361 0.476451 0.0486256 0.0306388 0.206456 0.623276 0.449372 0.5324 -0.298874 -0.272988 -0.251997 -0.115078 0.316366 0.06767 -0.0966574 0.00616163 0.536253 0.433824 -0.319905 -0.190746 0.138184 -0.0135281 -0.186235 -0.166153 -0.339234 0.308346 -0.0770685 0.357091 -0.339503 0.473087 0.888129 1.00598 0.336175 0.323025 0.405575 0.96188 0.357682 0.183043 0.771764 0.338282 0.268716 0.779554 0.476273 0.772413 0.14428 0.781636 0.251892 0.212847 0.638603 0.374216 0.4009 0.128324 0.700852 0.508579 0.306463 0.746472 0.243491 0.649472 0.484123 0.272745 0.0958417 0.3389 0.254173 0.441967 0.678871 0.682935 0.342171 1.01478 0.921247 0.320938 0.518176 0.388174 0.245853 1.12097 0.319792 0.681187 1.10752 0.818204 0.949707 0.779514 1.16508 1.28729 0.894081 0.733747 0.745913 1.04704 0.404568 0.838108 0.655246 0.826896 0.136501 0.861162 0.303042 0.641988 0.435484 1.21348 0.436169 0.869702 1.18118 0.0901835 0.790878 0.224739 0.190815 0.776058 0.178737 0.377862 0.165783 1.03764 0.871516 0.906089 0.587212 0.903737 0.981364 1.22512 0.402697 0.492557 1.18514 0.75733 0.35629 0.887564 0.614846 0.55823 0.708176 0.852407 0.985844 1.03102 0.878954 1.33994 0.73613 -0.0662351 0.419079 0.562623 0.23078 -0.31478 0.340465 0.40512 0.0213721 0.469295 0.369153 -0.188728 0.173862 -0.272508 0.397115 -0.180417 -0.311536 0.54341 0.0733928 -0.343045 0.0392331 0.153095 0.224253 0.336051 0.373557 -0.404879 -0.126156 0.0284444 0.192985 0.363004 -0.109901 0.516418 -0.197485 -0.194481 0.46311 0.390678 -0.145521 0.205799 0.230887 0.310188 0.066188 0.00294188 0.533151 0.687249 0.193175 0.387682 -0.0535236 0.311818 0.358834 0.410043 0.346303 -0.204081 0.0136339 0.00924435 0.548103 -0.233507 -0.0049805 -0.179835 0.246336 0.659802 0.604043 0.588105 0.541891 -0.2148 -0.249126 0.342809 0.5274 -0.0421313 -0.117919 0.0719554 0.581486 0.238744 0.373368 0.434214 0.233016 -0.0935993 0.145979 0.514269 0.529628 -0.189342 0.257029 0.206228 -0.0778839 0.542791 0.501829 -0.275409 -0.356101 -0.193198 -0.120877 0.205665 -0.213705 -0.188115 0.110629 -0.337819 -0.090922 0.127259 0.273051 -0.317631 0.376267 0.438021 0.0791912 0.630602 0.380814 0.133397 0.376571 -0.141844 0.274503 0.796043 0.702652 0.0589195 -0.17173 0.160242 0.543563 0.0797096 0.0967789 0.467731 0.207716 0.173337 0.703261 0.477119 0.758976 -0.0747176 0.754152 0.267346 -0.0876846 -0.136911 -0.291891 0.530004 0.0372578 0.602921 0.463682 0.503985 0.246328 -0.0457001 -0.121477 -0.0563223 0.103665 0.486012 -0.0457147 0.184472 0.956746 0.184566 0.604142 0.825674 0.548533 1.04088 0.538856 1.01741 0.390443 0.452279 0.727429 0.307765 0.446201 0.437141 0.672619 0.357776 0.537558 0.704313 0.278478 -0.0641692 0.555244 -0.0192164 0.816247 0.258186 0.304086 0.166078 0.513353 0.78254 0.882799 0.704811 0.977291 0.733915 0.787078 0.310249 0.338377 0.249726 0.378432 0.975042 0.213902 0.75159 0.305558 0.836468 0.993073 0.683199 0.301228 0.615404 0.0912134 0.907699 0.380281 0.521576 1.00642 1.06522 0.550141 0.871292 0.32504 0.80141 0.881422 0.755866 0.492554 0.784528 0.401092 -0.243629 -0.190826 0.511121 0.212343 0.30876 -0.245493 0.585411 0.192427 -0.131483 0.20017 0.346892 0.545517 0.0156665 -0.130947 -0.319364 0.560977 -0.0847701 0.529693 -0.119809 0.259359 0.347945 -0.207141 -0.338033 0.0815994 -0.0186052 0.37627 -0.122197 0.577485 -0.272247 0.40767 -0.24329 -0.102568 0.631019 0.616987 0.438578 0.252228 -0.318376 0.353494 -0.219832 -0.103508 -0.0943381 0.48731 -0.178328 0.313451 -0.239995 -0.10839 0.272793 0.0370205 -0.243573 0.481468 0.622985 0.468368 0.630843 0.638319 -0.12076 -0.0521398 0.359398 0.124059 -0.104576 0.429325 -0.10824 -0.023698 0.665273 -0.15743 -0.0824362 0.434133 0.443924 -0.0538476 0.0865432 0.498157 0.0977125 0.289679 0.307542 0.241049 -0.0686315 0.359668 0.438111 0.493974 0.692046 0.503229 0.271769 0.607705 0.259746 0.210607 0.535034 0.456616 0.456892 0.202653 -0.111983 -0.324205 -0.0387557 0.0920669 -0.0496602 -0.0953685 0.191016 0.133847 0.619759 -0.0811761 0.362686 0.0219852 -0.305993 -0.242382 -0.415018 0.28892 0.298296 -0.166695 -0.0384174 0.023814 -0.334156 -0.00938575 -0.0887544 0.283024 -0.0271014 0.502877 -0.0757721 -0.0716541 0.345002 0.68712 0.298348 0.436153 0.494409 0.523953 -0.177876 -0.17566 -0.104999 0.471746 0.348801 -0.196503 -0.380035 0.0100662 0.124381 -0.289133 0.161764 0.127029 0.469921 -0.0792489 0.566566 -0.0107745 0.478206 0.569352 0.342837 0.729316 0.232338 0.64047 0.545377 0.330938 0.729467 0.0974855 0.207629 0.369758 -0.303369 -0.0457898 0.0460402 -0.179512 0.197328 0.372836 -0.245378 -0.040538 0.617635 -0.155365 0.398533 0.142734 0.0182971 0.0669534 -0.145029 -0.0411122 0.333876 0.543616 -0.0832687 -0.0707167 0.229755 -0.496246 0.0835985 -0.152588 0.530946 -0.15357 0.312282 0.406665 0.11864 -0.204312 0.040466 0.229792 0.281413 -0.270401 0.632578 -0.173009 0.365134 -0.319898 0.0478478 0.30175 -0.132235 -0.138042 -0.15513 0.200328 0.376572 0.0841373 0.5132 0.0555373 -0.00999386 -0.0240515 0.545988 -0.235822 0.0381956 -0.00788721 -0.0118952 -0.0698194 0.206908 -0.261724 -0.243698 -0.290792 -0.109313 0.183655 0.308013 0.451051 0.219766 0.325774 0.722444 0.087291 0.502289 0.238992 -0.151507 -0.18856 0.542825 0.159663 0.47841 0.252153 0.559161 0.336941 0.654597 -0.103697 0.685243 0.556211 -0.00253505 0.0211331 -0.17662 0.265272 0.253982 0.348271 0.323422 0.325622 0.341417 0.523093 -0.167912 0.0215162 0.37134 0.407663 0.692766 0.354933 -0.255572 0.460839 -0.166277 -0.146366 0.559429 0.689193 0.342432 0.340198 0.247497 0.208651 0.00211071 0.221696 0.448011 -0.0127202 0.0675597 0.730314 0.279623 0.195066 0.322955 -0.148364 -0.12859 -0.0506883 0.45837 0.515294 -0.233905 0.592146 -0.156815 0.427482 0.305333 -0.152882 0.107319 0.370864 0.601362 0.246694 0.508894 0.446448 0.227335 0.147538 0.116892 -0.204503 0.686542 0.397407 0.265192 0.34941 0.594827 0.583575 0.338555 0.151625 0.0352754 -0.113104 0.239144 0.153065 -0.101174 -0.228538 -0.260756 -0.0716497 -0.354623 -0.137429 -0.364252 0.196809 -0.0265024 -0.00663356 -0.188289 -0.171112 0.526689 -0.36525 0.612531 0.0528293 0.0651339 -0.0448172 0.0287242 -0.0616528 0.51242 0.529514 0.520513 0.371565 0.395021 0.135833 -0.199627 -0.289596 0.241315 0.247196 0.0560772 -0.42197 0.511063 0.305858 0.0768967 -0.345901 -0.255848 0.228617 0.344773 0.115744 0.582438 0.545308 0.309154 0.478689 0.568481 0.311359 -0.100247 -0.00105378 -0.372072 0.356662 0.293548 -0.472608 0.225216 0.227872 0.359785 0.111454 -0.152881 -0.403861 0.268791 -0.395311 0.310178 -0.20417 -0.316196 0.317223 -0.369412 0.199498 0.369419 -0.338146 -0.319144 0.029746 0.113929 -0.328362 0.0379198 -0.110525 -0.389214 -0.00652492 -0.408907 -0.0718314 0.399295 -0.373344 -0.316594 0.174102 -0.33371 0.477928 -0.0466447 0.499452 0.0228024 0.259626 -0.460339 -0.235329 0.392538 0.442559 0.181283 -0.388148 0.325034 0.31614 0.26177 0.155836 0.456223 0.509079 -0.198425 0.148527 -0.258854 0.295862 0.487897 -0.174293 -0.233704 0.559238 0.247413 -0.333299 -0.287612 0.453084 0.388254 -0.13024 0.383465 -0.213194 -0.218731 -0.103087 0.537085 -0.140193 0.213989 0.426871 -0.193733 -0.142422 0.506067 0.562253 -0.400242 0.242689 0.174122 0.500083 0.19585 0.389058 0.0767778 0.383129 0.14466 0.0160802 -0.340441 0.344889 0.0100035 0.329052 0.441259 0.125925 0.174329 0.188934 0.339668 -0.0482537 0.383128 0.576904 0.300331 0.358439 -0.108012 -0.039641 0.21799 0.107235 0.21601 0.130451 0.0683882 0.23049 -0.229277 -0.333596 0.136792 0.389952 0.476644 -0.362381 0.214083 0.0508996 0.0808492 0.284526 -0.198317 0.498442 0.0225151 -0.35072 0.0661281 -0.351404 0.289291 -0.163113 0.0115706 0.0708856 -0.188948 -0.266674 -0.124655 0.133219 0.127321 0.515734 -0.358767 -0.248434 0.029388 0.121937 0.386366 0.246593 0.246711 0.00720632 0.137327 0.214449 0.141395 -0.185704 -0.262639 -0.308771 -0.434919 0.00116438 -0.413652 -0.0143489 0.0407683 0.0728179 0.0655964 -0.230188 0.333778 -0.489901 0.287621 -0.391359 -0.24612 -0.365169 0.205563 0.294806 -0.381424 0.344587 0.492637 0.0648516 -0.144679 0.327331 -0.219677 -0.412886 -0.130002 0.415832 0.337881 0.491859 -0.265981 0.53187 0.584671 -0.320009 -0.15893 -0.400455 0.190901 0.487682 0.295646 -0.227975 -0.158795 0.211378 -0.149933 0.614592 0.297152 0.0484489 -0.282136 -0.0120543 -0.176289 -0.261447 -0.293795 -0.253681 0.21168 0.0263337 0.545424 0.46493 0.00339513 -0.251978 0.23007 -0.264569 -0.330433 0.353641 -0.350986 -0.344533 0.445315 -0.0175355 -0.30685 -0.0328562 -0.189784 0.365666 0.0952741 -0.0697969 -0.0955613 0.307512 -0.032964 0.583843 -0.257305 -0.0123767 -0.191329 -0.196421 -0.0144253 -0.13144 -0.106468 0.540357 0.235129 -0.217725 0.375529 -0.305378 -0.0045562 0.027117 -0.147721 0.0426631 -0.290349 -0.16268 0.00503942 0.500169 0.17801 0.139774 -0.0265872 0.472157 -0.0105521 0.508944 -0.161081 0.281755 0.323865 0.256981 0.197618 0.274555 0.423566 0.37011 0.462667 -0.199526 0.632318 -0.260814 -0.144998 0.382184 0.0406044 0.591574 0.248896 0.194687 -0.268986 0.401741 0.529945 -0.171667 -0.367211 -0.034196 -0.216036 0.247173 0.57925 0.141891 0.0755469 -0.112458 0.0106705 0.306287 0.53198 0.536685 -0.290839 0.0236395 0.159444 0.566219 -0.181475 -0.0279874 -0.224787 -0.134229 0.160536 -0.110248 0.412702 0.327071 -0.354267 0.109745 0.0107193 -0.12646 -0.0117476 -0.0154116 0.180379 0.113512 0.405251 0.359976 -0.297018 0.327111 -0.0968441 0.261452 -0.340292 0.25921 -0.187024 -0.496075 0.0534279 -0.0639244 -0.0227334 -0.336886 -0.0911017 0.175344 0.00974082 0.0437463 0.447433 -0.452876 0.403709 0.378451 0.348411 0.391811 -0.152413 -0.278191 -0.361381 0.212111 0.0795074 0.146929 -0.326388 -0.126481 -0.10216 -0.199196 -0.42938 0.110137 0.313654 -0.426189 -0.211645 -0.296471 -0.377567 0.365659 0.103857 0.0603859 -0.494434 -0.407187 -0.106118 0.162293 0.888479 0.468461 0.860171 0.744642 0.356392 0.738555 0.702198 0.695674 1.01225 0.846322 0.355223 0.482163 0.341899 0.415491 0.670052 0.59372 0.644557 0.795438 0.272557 0.510381 0.970396 0.572598 0.775155 1.1373 0.558343 0.509164 0.895136 0.66964 0.735571 1.27722 1.29283 1.45214 0.549102 0.96012 0.93092 0.607279 0.360281 1.33196 1.02401 1.07356 0.834983 1.07179 1.25425 0.961507 1.22793 0.731294 0.380024 0.666983 0.345704 0.439821 0.979497 1.04476 0.766002 0.44378 0.890196 0.931946 0.51133 1.25743 1.04626 0.712947 0.967772 0.826942 0.709996 1.11938 0.476281 1.34604 0.503415 0.566782 1.40576 1.16133 1.21396 0.861148 0.833597 1.12303 0.460962 0.763752 0.554332 0.539721 1.13494 0.581929 0.722309 0.836839 1.30199 1.0778 0.81533 0.755042 0.576157 0.997073 0.706738 1.34056 0.525618 0.499177 1.02091 0.934462 1.35062 1.11383 0.967706 1.43637 1.20303 0.827808 0.0834776 0.0229654 0.332653 0.549318 -0.228031 0.398391 -0.0905506 -0.0688375 0.529936 -0.360863 0.116432 -0.19225 0.0667673 0.0477961 0.524556 0.540596 0.457572 -0.2577 0.1748 -0.218649 -0.285114 0.239411 -0.18986 0.221705 -0.364132 0.598924 -0.221508 -8.38289e-05 0.483552 0.484864 0.352316 0.0083369 -0.0463451 0.0718274 -0.046591 0.123139 -0.109635 0.282506 0.454242 -0.189359 0.315898 -0.0239282 0.026887 -0.24804 0.396099 -0.0890332 0.641108 0.203053 -0.0360271 0.142037 0.293472 0.0116266 -0.329818 0.418788 0.521549 -0.337776 0.358022 -0.3375 0.0262638 0.169672 0.482049 -0.309646 0.488612 -0.264796 0.0993074 -0.228568 0.200909 0.271972 0.33791 -0.0543382 0.421918 -0.0124722 0.289641 -0.235175 0.0622373 -0.0286272 -0.0282489 0.00354112 0.462356 0.252005 0.424117 0.0636887 0.540231 0.452671 -0.193549 0.443978 0.487702 0.587544 0.499295 -0.0854934 0.155421 0.403219 0.0255435 0.0682291 0.499592 0.449582 0.193428 0.104135 0.148008 -0.0729245 0.506347 -0.0451336 0.28593 0.0723284 -0.00487901 -0.369534 0.284966 0.198723 -0.118468 0.0481365 -0.232053 -0.355064 0.446883 -0.341905 0.462541 -0.343094 0.504799 0.347342 -0.389807 0.400941 -0.355403 0.182055 0.221685 0.102959 -0.290096 0.242837 0.116731 0.411678 -0.204837 -0.35252 -0.295145 -0.33304 0.00313494 0.421818 0.210196 0.434738 0.535643 -0.0203324 0.125884 -0.15295 0.483105 0.324809 -0.130457 0.286365 0.297116 -0.315298 0.267172 0.168829 0.379299 0.284695 -7.45614e-05 0.487807 -0.127933 -0.396984 -0.0395477 -0.0165507 0.244381 0.444804 -0.23905 0.468476 -0.485864 -0.0939075 -0.427398 -0.0738164 -0.25457 0.163561 -0.247982 -0.383316 0.484782 0.201204 -0.218831 0.25397 -0.174507 0.00948306 -0.115531 0.495511 0.0374589 -0.461732 0.0563715 -0.141929 0.274742 0.479846 -0.242886 -0.393825 -0.449553 0.209193 0.0892955 0.289233 0.148574 0.338576 0.262537 0.17445 -0.254185 0.322906 -0.390248 0.00234993 0.0151247 -0.141257 0.125914 -0.0167051 -0.267917 -0.424816 -0.909239 -0.791073 -0.775408 -0.555599 -0.523256 0.075425 -0.174866 0.0670447 0.547562 0.674378 1.36551 1.05546 1.05948 1.44255 1.09562 0.943546 1.81215 2.02002 1.85747 1.34794 1.20192 0.821862 0.560483 0.945775 0.447935 0.510705 0.620725 -0.109481 0.262349 1.05128 1.83181 1.08214 2.05787 2.19781 2.34922 1.98554 1.401 1.59176 1.07434 1.21333 1.56315 1.88837 1.50674 0.80027 1.13911 1.31674 0.318937 0.610219 1.47182 1.65121 1.00942 0.514716 -0.0361073 0.813188 0.561633 0.373425 -0.107177 0.0122761 0.390765 0.222983 0.453492 0.647929 1.2341 1.04958 0.833838 0.386547 1.58499 1.658 1.6354 0.965364 1.71671 1.77779 2.22475 2.26566 1.90561 2.2691 3.24163 2.73763 2.35437 2.95841 2.617 3.05353 2.7179 2.19259 1.87573 1.87561 0.72067 -0.0814544 -1.01087 -0.642796 -0.20006 -0.17235 -1.18757 -1.07492 -0.490206 -0.593309 -0.0148705 -0.71989 -0.563458 -0.154619 -0.502874 -0.32099 0.197158 0.477365 -0.317283 -0.492793 0.173477 -0.385187 -0.0210665 0.277431 0.275547 0.271443 -0.0169023 0.137794 -0.388698 -0.367862 -0.177988 -0.420899 -0.171587 0.102307 0.22138 0.470188 -0.186133 0.501535 -0.157752 -0.0129531 -0.50556 -0.478738 -0.0253254 -0.470862 -0.0150256 0.0497429 -0.217625 -0.312043 0.0265917 -0.0142647 -0.29991 -0.311223 0.0744717 0.125042 0.4344 -0.119745 -0.0988369 -0.0766317 -0.464155 0.052903 0.148805 -0.0960826 0.218377 0.480132 0.517076 -0.0836177 0.443001 -0.226389 -0.142822 -0.270799 0.174273 -0.154189 -0.23772 -0.322534 -0.114023 0.220486 0.178752 0.141102 0.403612 -0.271457 -0.359529 -0.389364 -0.151891 0.170082 0.219484 -0.179712 -0.386391 -0.319188 0.286464 -0.345164 0.221736 -0.112216 0.0285625 -0.113028 -0.120084 0.0324127 0.294156 -0.267478 0.162409 0.507095 -0.199248 -0.240738 -0.258167 -0.0489296 -0.211456 0.0307708 -0.418135 0.435518 -0.310013 0.473823 -0.346528 -0.220458 -0.338776 0.153428 0.604712 0.379448 0.482805 -0.301328 0.532594 0.248607 -0.166068 0.260129 -0.357114 0.350611 0.619837 -0.0702919 -0.200767 0.341548 0.100067 0.443386 0.332725 0.391348 -0.313587 0.589637 -0.148391 0.0271354 0.173717 -0.0146803 0.0141715 0.364197 -0.0248082 0.182959 -0.34236 0.00707682 -0.288443 0.635694 -0.239405 0.553565 -0.301356 -0.335244 0.166831 -0.108922 0.279296 0.170342 0.609108 0.28602 0.487597 -0.22022 -0.0044103 -0.0552643 0.567883 -0.32589 -0.327145 0.610186 0.609404 -0.11497 -0.00392307 0.150978 0.238984 0.381018 -0.100259 0.582407 -0.0570031 -0.0759793 -0.047811 0.00194811 -0.0924029 0.0638748 -0.0756135 -0.0304506 0.0965694 0.448285 0.210865 -0.274433 -0.0254132 0.175957 0.370603 -0.185724 0.30797 -0.28119 0.11012 0.239176 -0.242521 0.158067 0.222312 -0.251169 0.416312 0.595554 0.277097 0.0405432 0.35349 0.539839 -0.0237044 -0.352634 -0.202685 0.275533 -0.00345594 0.0690778 -0.283337 0.280226 0.404338 0.161226 0.743573 0.630673 0.838301 0.996305 1.03813 0.501333 1.16624 0.748244 0.589694 0.584225 0.220322 0.611433 0.998659 0.77617 0.669183 0.740517 0.6631 0.262152 0.0867203 0.364705 0.0687551 0.349642 0.251294 0.204068 0.0262746 0.696162 0.702773 0.0963753 0.255248 0.39825 0.580327 0.729056 0.779769 0.201852 0.519931 0.638504 0.619673 0.52815 0.336769 1.09611 0.953469 0.365146 0.437558 0.735685 0.940729 1.00883 0.311104 0.456957 0.014577 0.218812 0.575258 0.0277826 0.556359 -0.0707502 0.323441 0.567677 0.598573 0.0291767 0.631604 -0.0921593 0.407104 0.195434 0.615164 0.218876 0.525703 0.257434 0.0716223 0.167318 0.832503 0.255384 0.0617299 0.604945 0.440609 0.446072 0.261205 0.284906 0.387217 0.598021 0.771761 0.512416 -0.0732343 0.520161 0.633088 0.53326 0.463621 0.0621033 0.252365 0.261435 0.352168 0.134412 0.554748 0.15744 0.796843 0.507112 0.727611 0.508598 0.91459 0.843277 0.690663 0.772872 0.100064 0.831771 0.388468 0.574593 0.368412 0.835182 0.0758071 0.88651 0.573358 0.95274 0.406654 0.499267 0.486392 0.230928 0.307166 0.246226 0.657218 0.794411 0.812232 1.18432 1.17114 0.404577 0.385856 0.875872 0.850405 1.03161 0.274054 0.659759 0.811049 0.958733 0.431293 0.892743 0.75199 0.845329 0.467677 1.08424 0.590379 0.447784 0.962405 1.20004 0.454946 0.433566 0.65027 0.85983 0.587198 0.910279 1.14067 1.20684 0.706035 0.802787 1.3255 0.705238 1.01381 0.426851 1.40667 0.680545 1.31745 1.45821 1.14992 0.85408 1.13716 1.26467 1.47091 0.638683 0.81398 0.627147 1.29121 1.07217 0.724829 0.936452 0.978615 0.885972 1.0488 1.39777 0.463816 0.377218 1.11322 1.37878 1.41219 0.544443 0.826136 1.24399 0.7537 0.446178 1.32259 0.704323 0.696577 1.12173 0.662747 1.28873 1.43228 1.24313 1.07312 1.36801 1.27112 1.24546 1.27617 1.03919 0.767629 0.546259 -0.298998 0.474939 0.167202 0.332093 0.464665 0.26757 0.336019 0.1309 0.183413 0.241283 0.15864 -0.410626 0.0947249 0.533882 -0.298201 0.00842342 -0.185549 -0.095964 -0.399741 -0.056424 -0.35561 0.505485 -0.342867 0.126174 0.280264 0.413103 -0.134382 0.129665 0.026821 0.225503 0.26336 0.133866 0.112175 -0.159159 -0.0866887 0.00879908 0.569417 -0.316891 0.575201 0.175214 0.362067 0.179599 0.235051 -0.117668 0.109317 0.263276 0.191529 0.269094 0.509675 0.195371 0.571738 0.530836 0.0398386 -0.385097 0.0394317 -0.25779 0.474017 0.345539 0.317771 -0.0784682 -0.00173536 0.00777375 0.473235 0.516054 0.259774 -0.230558 -0.105061 0.164683 -0.223021 -0.194344 -0.323734 0.47119 0.351875 0.252378 -0.331097 -0.228199 -0.181777 0.214328 0.399053 -0.302944 -0.225251 0.376099 -0.385702 0.242892 0.418625 0.103868 0.441664 0.325983 -0.102613 0.195592 -0.313714 0.31325 -0.367965 -0.40561 0.264056 0.309943 -0.21095 -0.402856 -0.0854394 0.00994415 -0.210827 -0.0254355 -0.0998975 -0.416917 -0.332514 -6.90094e-06 -0.247955 -0.107603 -0.373943 -0.4076 0.0116417 -0.177949 0.350729 0.0461906 -0.468063 0.276045 -0.306144 0.464236 0.0826565 0.0201227 0.0619617 0.178474 -0.323071 0.0532349 0.116404 0.350622 -0.197685 0.353207 0.428052 0.165872 -0.209769 -0.330689 -0.402165 0.134414 -0.289059 -0.27996 -0.389405 -0.0414663 0.0736683 -0.328638 0.0466919 -0.365501 0.0888239 -0.0292014 0.237848 0.0849636 -0.355045 0.308924 -0.149963 0.104547 -0.32981 0.356277 -0.266081 -0.100216 -0.0775315 -0.627639 -0.231735 0.252842 0.243215 -0.314389 -0.112727 -0.465669 -0.123552 0.0220494 0.261806 0.145345 0.36829 0.421016 -0.32133 -0.0171776 -0.298494 0.247269 0.154993 0.213526 -0.337144 -0.161921 -0.273503 -0.219683 -0.407381 0.115768 0.429969 -0.129399 0.0643757 -0.256265 0.345992 -0.382381 -0.26245 -0.255864 0.475658 -0.394314 0.0151782 -0.00622549 -0.267908 -0.497447 -0.379764 -0.41904 0.259449 -0.461651 -0.394433 0.491045 0.0777461 -0.258382 0.159532 -0.365455 0.355107 0.214081 -0.144068 0.483989 0.411676 -0.0988866 0.0809218 0.302047 0.223638 -0.415917 0.504789 0.041357 -0.314087 -0.284359 0.250333 -0.361396 -0.204659 -0.21252 0.160484 0.0973261 -0.0973191 0.393749 0.266998 -0.316408 0.348426 0.259444 -0.420187 -0.067169 -0.472142 0.261168 0.0916411 0.388942 0.0254465 0.503722 0.449984 -0.0449335 -0.021245 0.0553252 -0.253216 -0.355435 0.0507847 -0.322526 0.0919095 0.160992 -0.168797 -0.191292 0.242782 0.0589515 0.0390332 -0.136749 -0.388456 0.343786 -0.3974 0.25318 0.347031 -0.567718 -0.030924 -0.580014 -0.137285 -0.000787 0.187284 -0.546411 -0.0564368 -0.279934 0.465403 -0.175444 0.0669558 -0.22075 0.238607 0.246396 -0.153005 -0.280273 0.359994 0.404415 0.336919 -0.372192 -0.352949 0.0462141 0.153828 0.145397 0.372345 0.232416 -0.0415828 -0.502914 0.0227374 -0.104618 -0.444513 -0.372262 -0.048936 0.0132547 0.338796 -0.153432 0.145554 -0.211911 0.0518821 0.124959 0.53792 0.10378 0.890515 0.327921 0.905059 0.300496 0.61452 0.822646 0.257951 0.509904 0.00517549 0.466964 0.116569 0.722641 0.17673 0.0512326 0.513409 0.690575 0.0976943 0.0744916 0.123253 0.160345 0.209302 0.58267 0.682228 0.940018 0.823955 0.251734 0.158168 0.32359 0.82806 0.73007 0.462245 0.748466 0.0833176 0.388251 0.0660049 0.715561 0.228437 0.349954 0.250648 0.26272 0.842502 0.395127 0.0140207 0.0506784 0.480634 0.564923 0.783138 0.623438 0.686086 0.949721 0.826775 0.936908 0.570926 0.547601 0.912357 0.430501 0.8338 0.102047 0.787874 0.693182 0.865292 0.28014 0.471857 -0.0184657 0.702897 0.576083 0.735506 -0.0316525 0.96349 0.0242323 0.270658 0.848665 0.460587 0.323644 0.937452 -0.0220588 0.922598 0.751085 0.631956 0.640388 0.734287 0.49247 0.613483 0.342606 0.0781567 0.564641 0.81252 0.95183 0.708794 0.639626 0.689814 0.614806 0.963091 0.199238 0.635095 0.700556 0.812626 0.406522 1.19305 1.29709 0.86813 0.411345 1.04616 1.31416 0.541233 0.837941 1.02676 0.380342 0.774034 0.963312 0.315739 0.533053 0.596443 1.07707 1.29803 0.980344 0.874819 1.0685 0.758103 1.47993 0.04387 0.910117 0.315019 -0.214763 0.234565 0.316058 0.795239 0.00697098 0.560335 0.394317 0.960259 0.290278 1.22979 1.2276 1.46088 2.24432 1.7877 1.6942 1.9772 2.3969 2.13901 1.63815 2.07305 2.11628 2.37525 1.9587 1.615 1.56183 2.02843 1.57562 1.03784 0.939574 1.11331 1.4288 0.356142 0.871964 -0.104706 -0.19709 0.379991 0.452366 0.335279 0.378594 -0.277872 -0.159082 0.225146 0.225553 0.161267 0.496914 0.60369 0.643022 0.339972 0.342653 0.644901 0.0372933 -0.178502 0.339691 0.0380179 -0.190515 0.381505 0.134535 0.468283 -0.398012 0.313152 0.0452285 0.634787 0.661467 0.0298681 0.876057 1.36687 1.34232 1.46423 1.14009 1.5367 1.85764 1.5309 1.59079 0.910924 1.60786 -0.256807 -0.0285362 -0.292401 -0.14151 0.0911551 0.365878 -0.0860921 0.190782 -0.0129111 0.506217 0.551813 -0.190231 0.0794686 0.446457 -0.152921 -0.226018 -0.124024 -0.283159 -0.329661 0.017296 -0.298102 0.589774 -0.0972585 0.508364 0.0701546 0.41132 0.342898 -0.298653 0.104372 0.352318 0.401078 0.197659 -0.328985 0.462666 0.408099 0.115271 0.182125 -0.327132 -0.335691 0.523607 0.538534 0.570914 -0.314197 -0.0321661 0.367661 -0.123424 0.0899995 0.588429 -0.065546 0.0969668 -0.0606749 -0.0238407 0.0212236 0.18901 -0.167025 0.447131 -0.0460499 0.522984 0.496323 0.406326 0.230661 0.258648 -0.0288454 0.264358 0.0831719 -0.262777 -0.25039 0.635623 -0.220249 -0.235834 0.503658 0.658322 -0.32274 0.539824 -0.0232561 0.392901 -0.235676 0.409945 0.321585 0.0428402 -0.149571 0.610405 0.366421 0.224942 0.150991 0.55154 0.0221413 0.458868 0.425894 -0.128823 0.220242 0.00681071 0.483534 0.536836 0.614492 -0.0926019 0.614651 -0.305208 -0.123017 -0.270868 0.703218 0.627445 0.497207 0.578557 1.20822 0.651747 1.02582 0.184128 0.398446 0.810548 0.92889 0.82615 1.10222 0.739848 1.58271 1.68255 0.662117 0.890574 1.25358 1.26134 0.828082 0.711361 0.311489 0.458492 0.263665 0.137757 0.557916 0.201852 0.159037 0.777864 0.263095 0.281882 0.810167 0.313065 0.70284 1.0327 1.23934 0.836991 1.37032 1.40585 1.47163 0.839264 0.72731 0.90914 0.904739 1.5933 1.00871 1.05216 0.882193 0.700422 0.568273 1.15903 0.75426 0.599785 1.0292 0.667273 0.174444 0.35212 0.625789 0.299637 0.00581403 -0.216073 0.51802 -0.142425 0.121856 -0.0853705 0.547294 -0.225294 0.212668 0.370189 0.814184 0.214361 0.799857 0.995586 0.369033 -0.100529 0.542692 0.406371 -0.273749 -0.472415 0.212697 -0.162218 0.318971 -0.297609 0.265118 0.394987 0.390767 -0.419007 0.138548 0.442087 0.485307 0.589354 0.896498 0.453209 1.06637 0.429039 0.892753 1.00576 0.615318 1.35522 -0.19794 -0.344919 -0.200517 0.595179 -0.353207 0.368886 -0.30097 -0.367907 0.214186 0.114207 -0.14346 0.124221 -0.332133 -0.205633 0.437888 0.433604 -0.304561 0.368052 0.556451 0.120365 0.0886334 0.138653 -0.198665 -0.140862 0.457705 0.56927 -0.0120067 -0.0557939 0.166728 0.177271 -0.135437 0.359664 0.217894 0.0541057 0.343892 0.256212 -0.187469 0.429463 0.270355 0.414429 -0.0546767 0.525102 -0.05455 -0.012492 -0.300398 -0.237539 -0.198022 -0.23537 0.481183 -0.2951 0.228638 -0.0597392 0.217026 0.411554 0.1764 0.0568626 0.368191 0.558089 0.390247 -0.079088 0.12214 -0.345063 -0.31144 -0.247436 0.121992 0.438551 0.416379 0.343687 0.280938 0.102644 0.184689 -0.364868 0.0420622 0.525204 0.0175848 0.125354 -0.338423 0.191853 0.259774 0.541246 0.292831 -0.110183 -0.119578 -0.0918511 -0.299001 0.463529 0.367563 0.465171 0.411555 0.156417 -0.20371 -0.0508376 0.235912 -0.11005 0.0951585 -0.25818 -0.291307 -0.0981077 0.481523 0.385609 0.642436 0.287785 0.583084 -0.000527418 0.101229 -0.0517385 0.415791 0.0902791 0.461537 0.0561202 0.0884739 0.219772 0.395344 0.344409 0.489598 0.472685 0.204703 0.271914 0.322538 -0.0134402 -0.209843 0.499126 0.281657 0.371388 -0.278091 -0.244327 0.547322 -0.119076 0.0732529 0.383617 0.604627 -0.153511 -0.202028 0.390185 0.0567637 0.140976 0.581943 -0.235643 0.554741 0.371291 0.190108 -0.0952212 -0.178651 -0.210082 0.41183 0.518701 0.502016 -0.122653 0.00747093 0.0398239 0.0934905 0.0796456 -0.175381 0.680897 -0.283267 -0.178938 -0.317585 0.494696 -0.108529 0.00843727 0.0385649 -0.285823 0.0356685 0.114033 0.384189 0.401274 -0.41285 0.294222 -0.484481 0.436805 -0.0524872 -0.0759922 -0.456851 0.01462 -0.0972198 0.202476 -0.257003 -0.360282 0.318752 0.0711762 0.00937179 -0.276244 -0.526043 0.144352 -0.258277 -0.443815 0.34382 -0.195538 0.494491 -0.29286 0.313602 0.0629887 0.00708911 -0.0564692 -0.180082 -0.0239855 -0.0644675 -0.0741344 -0.218243 -0.0652213 -0.195057 0.191734 0.340986 -0.111435 -0.23758 -0.162995 -0.309574 0.127031 0.113605 0.635908 -0.188045 -0.287665 -0.0477188 -0.120112 0.480213 0.287532 0.036233 0.381734 0.64862 0.0174367 0.563868 0.40944 0.488397 -0.0651844 -0.282241 -0.336283 0.285436 0.0209789 -0.0487283 0.416954 0.27611 0.124019 -0.0279498 -0.00985904 0.381285 0.0920213 0.191875 0.434637 0.616382 -0.319632 0.43644 -0.227188 -0.261089 -0.259336 0.00460844 0.539749 0.35411 0.360162 0.256876 0.333911 -0.307229 0.131567 0.0266504 0.519725 0.395351 0.0999747 0.540482 0.0282109 0.47561 -0.149069 -0.155156 0.173578 0.389403 0.195288 0.551195 0.169913 -0.297677 0.141827 0.00573341 0.669697 0.18165 -0.191804 -0.202931 0.264925 -0.0918228 0.172504 0.168757 0.606129 -0.145566 -0.261921 0.226626 -0.128131 0.187211 0.624225 -0.231087 -0.0234334 0.112798 -0.309857 0.369957 -0.0482413 -0.0987421 0.550046 0.449443 -0.374661 0.0634879 0.320853 0.123502 0.0948038 -0.209866 0.446223 0.569182 0.769541 1.07397 0.709582 0.393434 0.304371 0.239459 0.910675 0.273032 0.443339 0.973148 0.835864 0.609536 0.486837 0.738753 0.692618 0.781981 0.223348 0.738788 0.519123 0.552336 1.03619 0.481683 0.415392 0.0855931 0.969398 0.210501 0.664887 0.534679 0.422621 0.540336 1.03068 1.05615 0.449273 0.510289 0.266804 0.527809 0.553723 0.00996352 0.662324 0.89439 0.876981 0.391678 0.403448 0.241689 0.0564968 0.0429755 0.987821 0.252116 0.748961 0.512646 0.791993 0.840651 0.994954 0.217104 0.857596 0.879569 0.2837 0.347571 0.24078 0.540329 0.745685 0.139231 0.519605 1.10981 0.619394 0.765624 0.668149 0.227075 0.791696 0.333015 1.06471 0.582191 0.652157 0.416061 0.823162 0.721606 0.430707 0.799582 0.940534 1.15636 0.233483 0.66515 0.851817 1.08343 0.716786 0.552251 0.82178 0.852845 0.774881 0.928922 0.258482 0.388723 0.935046 0.643276 0.369142 0.410622 0.257448 0.875956 0.467319 0.375308 0.558585 -0.124066 -0.165407 0.0863879 0.152918 0.511762 -0.35022 0.424386 0.14209 0.390267 0.371844 0.154778 -0.145954 0.0698608 0.0961104 0.415214 0.410616 -0.304238 0.0658746 -0.0122778 0.446242 0.134964 0.179794 0.200659 0.610269 0.384429 0.445158 -0.285939 0.113145 -0.229237 0.438644 0.0274233 0.00257664 0.624863 0.460466 0.499624 0.491925 0.486244 0.303556 -0.0193249 0.233261 0.0268396 0.531666 0.484931 0.452061 0.00382393 0.288311 0.245661 0.0725298 -0.276874 0.603096 -0.115923 0.238349 0.16723 0.45746 0.230183 -0.0743226 0.288989 0.309303 0.429184 0.432234 0.0874563 -0.235602 -0.266881 0.0478552 0.548341 0.568225 -0.130689 0.355475 0.216545 0.23359 -0.040547 0.595536 0.126142 -0.183247 0.446728 0.499687 0.480645 0.0463906 -0.0986749 0.531021 -0.0219134 0.143298 0.131137 0.501653 -0.0392723 -0.29143 -0.218966 0.587432 0.338099 0.498686 0.287122 -0.256525 0.598609 0.38626 0.157509 0.507578 0.322282 0.400414 0.0465306 -0.308735 -0.0440932 0.530897 -0.00428614 0.612768 0.0348344 0.918875 0.739945 0.98064 0.188669 0.738505 0.387712 0.283202 -0.103789 -0.249437 -0.000967247 0.169515 -0.24024 0.0917733 0.29515 0.665498 0.432642 0.218974 -0.227547 0.102579 0.481508 0.0793013 -0.182404 0.199112 0.105131 0.621561 0.600697 0.371809 0.472358 0.77942 0.149516 0.506529 0.678336 0.736515 0.305959 -0.0531765 0.507612 -0.0242887 0.668046 -0.00889324 0.536799 0.339161 0.848425 0.773072 1.05187 0.52231 0.950921 0.5779 0.897437 1.01913 1.01078 0.841488 0.746025 1.3833 1.69612 1.09157 1.26412 1.50261 1.6182 0.86333 1.30665 0.861406 1.45115 1.18782 0.784777 0.984647 1.35838 1.57929 1.46365 1.37752 1.07917 1.06959 1.86598 1.90351 1.88561 1.73623 1.27538 1.48545 1.85783 1.62256 1.90061 1.33529 1.99761 2.0489 1.03349 1.84121 1.36638 1.59212 1.57621 1.18953 1.3219 0.913724 0.992914 1.06597 0.388292 0.16922 0.489806 0.195792 0.240208 0.181088 -0.179894 0.365933 0.31797 0.654072 0.233146 0.0795155 0.271459 0.362765 0.480107 0.144411 0.0146701 0.402889 0.46669 -0.0818248 0.325682 0.496682 -0.27315 0.613097 -0.00986746 0.295571 -0.209384 -0.341773 0.530022 0.197591 0.0929046 0.318612 -0.246474 -0.0329113 -0.106348 0.343994 0.53068 0.0822358 0.141124 0.226871 0.141775 -0.278707 0.664805 -0.260821 0.398502 0.387057 0.116187 0.643035 0.0152739 -0.14705 -0.201616 0.614667 0.60858 -0.153876 0.522115 -0.072473 0.441989 -0.355935 -0.100318 0.339905 0.234147 0.447824 0.128629 0.44677 -0.0791588 0.518468 0.306518 -0.111799 0.0666415 -0.168709 0.542274 0.579113 -0.0616583 0.537897 0.624171 0.639166 0.172457 0.0223519 0.488203 0.453084 0.121292 -0.358531 0.408081 0.10433 -0.155502 0.328195 0.403516 -0.295783 0.377963 -0.247352 -0.456612 0.0988049 -0.318811 0.0880445 -0.059238 -0.043634 -0.0432923 -0.401256 0.15755 0.311212 -0.129209 0.135516 0.330989 0.0818453 -0.0515841 0.250129 0.00757453 0.459958 0.60687 -0.0854322 0.348704 0.187881 -0.0109074 0.187522 -0.326387 0.259204 -0.0281882 -0.391096 0.51645 -0.115656 -0.095245 0.531979 0.455366 0.0555004 0.0691138 -0.134022 0.526373 0.56493 -0.00700546 0.206024 0.357311 0.202903 -0.349388 0.0333329 -0.393539 -0.0515132 -0.388487 -0.026181 -0.219728 -0.383689 0.279076 0.49075 0.185405 -0.316722 0.0976872 0.308333 0.397038 0.489262 0.350722 0.320476 -0.176096 -0.316592 0.291797 -0.324777 0.140176 -0.228775 -0.0647605 0.0106131 -0.329867 0.289327 0.544497 0.406322 -0.127087 -0.360933 -0.123262 -0.0620257 0.0686142 -0.00240492 0.408884 0.311474 0.0845334 0.178073 0.280858 -0.2789 0.327092 -0.148542 0.506818 0.181692 -0.175817 0.322799 -0.0273076 0.0493982 0.403927 -0.354471 0.100609 -0.0816377 -0.212483 0.42794 0.317458 -0.140291 0.116569 0.298101 -0.280532 0.44387 0.40259 0.0512178 -0.213948 -0.158084 0.425317 -0.365507 0.225984 0.56861 0.706632 0.779349 0.508049 0.402176 -0.0733698 0.36038 -0.130981 0.0826934 -0.0767763 0.136853 0.431346 0.721837 0.265649 0.0161569 0.106293 0.43417 0.950237 0.951617 0.961568 0.612117 0.936192 1.21039 0.696566 0.827161 0.807999 0.968584 1.24198 0.742448 1.18378 1.32869 1.25626 0.928725 1.03524 0.66117 1.19909 1.01381 1.13118 1.26678 1.25892 1.25099 0.564549 0.883311 1.25745 1.06192 1.1846 1.57542 0.730756 1.19093 1.69748 1.69995 0.855352 1.43043 1.67413 1.15981 0.904342 1.10385 1.76749 1.65965 1.32046 1.33651 1.29157 0.834614 1.44041 0.695074 0.846049 1.10116 1.16204 1.39073 0.757436 0.855223 1.04581 0.78582 1.23509 0.738405 1.4111 0.896924 0.860829 1.53759 1.47748 1.76376 1.44513 1.5019 1.28869 1.24461 0.81425 1.38132 1.54367 1.73245 1.09217 0.947594 0.953005 1.44929 0.782505 0.675854 0.446107 1.01355 1.21353 1.03391 -0.00796995 0.531246 0.436578 0.453439 -0.265845 0.0688746 0.57355 0.397162 0.226032 -0.359702 0.179177 -0.0542611 0.601973 -0.21841 -0.435174 0.126772 0.26446 -0.369725 -0.19412 0.096866 -0.361199 0.227061 0.371303 0.130708 0.209434 -0.245706 0.453924 0.289465 0.36306 0.164296 -0.20998 -0.301564 0.00605797 -0.419838 0.4961 0.115737 -0.015424 0.430019 -0.117337 -0.387974 0.452144 0.395771 -0.0982826 0.461983 -0.402813 -0.0835515 0.0326254 0.291414 0.00678036 0.258017 -0.144346 0.0953175 -0.0603506 -0.364181 -0.393194 0.530856 -0.237519 0.414301 0.170337 0.523665 -0.0814251 0.334095 -0.411964 0.381545 0.387371 -0.42561 0.00840726 -0.0931397 -0.431186 0.425208 0.0258133 -0.482017 0.29168 0.415422 0.470656 0.393921 -0.154009 0.0206226 0.207662 0.335745 -0.222377 0.509441 -0.100723 0.16464 -0.392893 -0.0260813 0.161032 -0.169945 -0.144174 -0.19517 -0.155815 0.315878 -0.299551 -0.0154537 0.257298 -0.388552 0.0621549 -0.259495 -0.00117639 0.102402 -0.334303 0.546115 0.165923 0.500686 0.495675 0.143841 0.384165 -0.168671 -0.33838 0.101698 -0.328344 -0.0796719 0.0902112 0.0332008 0.597222 0.197111 0.502614 0.206061 0.472185 -0.199375 0.443674 -0.265064 0.506953 0.523929 0.0835358 0.14887 0.525165 0.571636 0.322298 -0.0539778 0.0574955 0.335919 -0.164063 -0.418273 0.219044 -0.272651 0.13363 0.00484301 -0.00936216 0.207389 0.538322 0.0690378 0.518562 0.00175148 0.444554 0.42401 0.506903 0.290415 -0.0353302 0.316658 0.442492 -0.222152 0.430403 0.342487 -0.309322 -0.0907182 -0.119839 0.603618 -0.125927 0.595175 -0.0329722 0.382152 0.373638 0.224969 0.375224 -0.012074 0.350957 -0.0941881 0.395403 -0.289491 0.479587 0.274801 0.127641 0.364671 -0.365958 -0.0464272 0.152654 0.514134 -0.388561 0.510828 0.207691 0.422682 -0.349918 0.00680201 0.135251 -0.277674 0.285843 0.390335 -0.294276 0.546125 0.359972 0.0176894 0.264879 0.0899942 -0.40576 0.0106723 0.451135 0.319819 0.300385 0.222128 0.938827 0.681727 0.457314 0.486925 0.48947 0.48483 0.817446 1.01387 0.359402 0.811581 