14.0376 15.4591 10.4646 1.70014 7.9934 12.6394 17.3391 36.595 31.1243 1.61681 13.1132 12.5606 21.7845 13.2809 -4.15324 1.01398 16.1078 4.78161 7.24381 12.4783 -2.87998 -9.68889 -7.07674 -6.43009 -4.066 -3.05653 -4.18029 -2.12279 -1.71799 -3.84994 -6.23989 -8.89656 -8.98726 1.69294 3.94481 -1.44271 -6.8928 -3.19676 -7.2288 -10.2211 -4.18424 -2.72718 -1.56671 1.91264 2.49668 2.4496 -2.22414 -2.95691 -4.23563 -4.8959 -3.14956 9.04094 10.0733 14.3163 11.3387 14.135 -6.03008 -16.2522 -4.81365 3.66838 18.4234 5.8754 4.74083 -1.62313 3.41921 12.1254 13.8848 19.3991 14.8926 16.6788 -0.369136 6.8782 6.73936 -0.528815 -7.63754 -6.28424 -5.10378 -6.2528 -12.4626 -12.5051 -6.48441 -7.35254 -6.07803 -3.2153 -1.59264 -3.59867 -5.1618 -6.73692 -6.20806 -1.62319 -3.83159 -4.99558 -6.36257 -8.35799 -4.28947 -5.22249 -6.95957 -7.73229 -9.44639 -9.5695 7.41709 9.64783 -8.06088 -12.5721 -9.40486 4.42914 9.79044 12.4011 2.13057 -23.2579 -10.0764 -5.53454 6.8335 9.40234 -5.38212 -5.55638 -0.0701728 -7.05208 -3.56706 -7.43314 2.77711 -2.28116 -2.70604 -5.74709 -5.10061 -2.86212 -1.26778 -3.20904 -2.80013 -1.64918 -3.93 -1.96208 8.98949 7.12436 3.8226 3.61321 3.01246 1.65044 -4.91305 -5.2486 4.06077 -1.94818 -1.57029 1.44778 2.98646 2.71066 -2.07509 -2.81968 -2.46528 -6.15744 1.92452 -1.30437 5.96359 11.5165 11.6204 16.468 13.6309 -7.53335 -16.063 -8.26634 -7.9913 -7.8334 0.649357 -3.34184 -10.8011 -0.82734 5.3476 9.90079 0.531434 5.32271 -3.3249 -6.01111 -2.74973 -6.3351 -6.20878 -5.23845 -3.49459 4.97972 6.11823 2.84626 -1.61558 -3.44523 -4.4974 -0.850128 0.00786432 -2.41937 -3.11072 -0.611859 -2.56063 -1.78801 1.66076 -0.271622 0.353309 -3.76877 -2.58258 -1.07584 -0.70655 -3.44433 -5.88914 -7.9941 -0.315078 -4.71251 2.87557 16.3311 11.986 5.15509 21.9706 25.1682 13.84 -23.2097 -17.435 -5.95248 0.437323 5.1768 0.0048337 0.145414 -4.12589 -13.2554 -2.29543 1.79018 4.80315 1.60358 -2.53038 -4.80491 -4.14666 0.240252 2.69293 -1.62949 -5.22009 -2.60451 -13.3384 -7.05429 5.40926 5.34069 1.33616 -0.398182 -1.97962 -6.56315 -5.48615 1.99596 4.20916 -4.6905 -2.2855 0.72714 2.15915 2.98185 -0.52723 -1.54229 -1.80365 -2.48581 15.635 3.45128 4.93208 14.0837 9.74335 1.77975 8.36765 -13.7311 -23.2728 -8.26488 -5.20523 -8.47099 3.56804 3.25971 0.156142 10.1135 7.88099 -1.17778 -4.36656 -2.60659 -2.4578 -7.37018 -10.2858 -13.7316 -13.6097 -10.5063 -0.983791 10.4466 10.5221 6.57772 -2.15324 -3.52727 -3.61273 -3.65567 -0.0817363 -2.16048 -2.37249 -0.0322083 -3.68142 -3.63038 2.17717 -1.11633 -1.03613 0.316495 0.141875 -2.27192 -2.71706 -4.19677 -5.34512 -5.92214 -1.7726 6.29825 3.91474 10.8325 3.96859 -9.77585 12.0799 25.0322 10.8303 -6.16641 -6.84092 5.49439 2.47145 1.17572 3.22485 7.88577 5.79279 0.420489 12.2479 11.1814 4.76316 2.50631 -2.73235 -5.11186 -4.3814 -2.52748 3.41053 0.200068 -5.67371 -2.3174 -14.7102 -7.52993 -1.87588 3.4235 -0.240537 -8.22972 -10.0898 -11.2836 -5.54581 -0.328454 -4.25217 -10.6435 -8.09702 -7.8436 -8.00366 1.20823 1.41 1.39829 1.80641 1.98982 19.0775 8.12036 5.83156 11.7286 7.99402 -1.28211 0.394822 -9.71841 -8.41237 4.69401 -0.932424 -0.31046 14.7215 8.01873 -5.19667 10.446 12.4116 1.63586 -10.4845 -10.9972 2.26718 -4.06606 -9.43716 -6.17219 -4.53067 0.763569 6.54385 3.3186 4.07211 3.10797 -0.040427 -0.779707 -2.4718 1.52424 1.7621 -2.13703 -1.03707 -0.731144 -1.27194 0.491661 3.92882 1.36912 -1.15385 -0.883547 0.587813 -0.309733 0.883905 1.8499 2.13975 2.31997 -6.65034 1.70031 0.610697 -8.71887 -9.52907 -1.48326 1.45763 3.64484 -19.4197 -23.2607 -5.73446 13.4375 3.99056 -4.0951 9.06584 23.7955 8.80082 3.69828 15.8854 17.3424 4.60862 5.76296 3.05957 -4.63889 -9.82199 -6.70023 2.9486 3.43473 -5.8271 -5.68267 9.79243 -6.27995 -3.60536 -3.67129 2.58782 -1.15219 -12.0218 -2.38441 2.97087 5.51488 -9.28232 -13.6208 -10.0442 -8.8094 -7.93433 -3.35012 -6.41792 -3.87918 -6.30473 -5.56117 1.65757 -7.96185 -8.57026 1.09345 2.74007 5.69222 7.03199 2.90084 2.13507 17.3648 -12.528 -6.05561 23.6527 28.0853 11.3557 6.50849 7.62376 -14.1801 -26.6799 -27.0792 -0.944214 -7.52344 -16.4123 -16.7357 -13.5324 -8.35796 -6.18878 -2.84448 0.154835 0.266031 0.376291 -2.63336 -1.44763 -0.776489 -1.44105 -5.50379 -5.44081 -4.61443 -4.55051 -1.01822 -1.68136 -2.31075 -2.88736 -3.56673 -0.13541 -2.26644 -2.23435 -1.97855 -0.585701 1.11796 -8.27267 -7.36538 -7.5008 -10.7278 -20.4366 -19.6647 -8.60706 1.5767 8.38757 -2.72254 0.807307 1.31484 -12.9425 -16.193 -11.0717 -3.68999 -4.073 5.55347 18.3469 18.1633 -3.12235 -3.16858 -2.10589 -2.02469 -1.62738 -1.22796 -1.64706 -2.54578 -1.85296 -2.39474 15.9673 6.10869 0.516148 0.632721 4.79003 1.72608 1.73318 7.32929 1.84658 2.26878 4.37571 7.71664 8.68274 3.14718 -1.44662 -1.27001 2.2784 9.0388 9.96863 -8.36664 -2.78098 -3.67823 -3.00946 -1.08164 -1.27357 -2.32535 -2.8426 -2.28083 -1.05724 -0.24781 -1.70864 -3.32281 -3.51452 -2.21989 -1.73745 -2.34988 -1.7101 -2.70584 -3.47689 -5.04843 -20.1369 -12.7333 -8.23181 -8.3414 -5.91205 -4.13132 -6.73405 -10.4995 -11.3048 -12.3409 -0.296574 -3.93618 -3.49331 -1.65744 5.92662 9.72006 8.79148 10.8166 12.4126 11.8722 -21.9128 -7.72015 -3.21392 -5.10506 5.39557 7.24193 -0.0151744 -2.45679 9.42686 22.61 -3.94729 -0.779746 -9.3877 -2.2344 5.84115 -3.03749 -5.89612 3.61902 7.81065 -12.0315 0.857992 -1.81266 -12.2665 2.14828 4.87858 -11.5154 -15.4541 -13.9514 -5.95892 4.42082 -2.26922 -1.66216 -1.82247 -1.74456 -1.88115 -1.76113 -1.54655 -1.41131 -2.32649 -1.65707 9.39472 -2.67889 -7.08896 -6.44413 -3.64824 0.416828 -1.59946 4.15301 -2.6394 -2.45307 -5.98814 -3.28935 -8.01122 -16.887 -12.814 -11.5722 -8.34423 1.85486 -7.68177 -17.5396 -4.88893 -4.08739 -6.13944 -4.87297 -2.2568 -2.30187 -4.6099 -4.98092 -4.31129 -5.45799 -3.215 -3.36669 -3.57698 -2.57403 -2.16038 -2.15826 -2.30025 -3.20211 -4.55138 -5.85605 -12.5594 -8.75385 -4.62834 -1.95736 -1.61744 -2.62253 -4.40498 -6.96771 -5.78539 -3.22459 5.78223 1.62814 0.584593 2.0046 5.14658 6.3071 1.67671 1.80525 9.02928 10.8694 -18.7251 -7.33131 -2.18229 -8.51245 -2.90648 7.26473 2.01542 0.021956 7.94441 9.77898 18.8858 7.87483 -8.8715 4.60769 7.37712 7.32655 6.13451 13.3769 14.086 3.66032 0.257837 -18.959 -16.4129 3.86689 14.2929 -0.843979 -16.9025 -2.84783 -1.70308 -9.50955 -1.77133 -1.34892 -1.70284 -1.90086 -2.03937 -2.63096 -1.80066 -1.59776 -2.19165 -1.72477 5.3459 -11.6528 -10.9242 -4.88101 -8.35634 -6.85078 0.64736 3.79716 -4.89775 -6.84352 -5.02763 2.8239 -1.31826 -10.779 -5.24381 -7.93273 -7.29654 0.713366 -2.25194 -6.62505 -2.16334 -1.39299 -3.87427 -1.57179 1.86059 1.53779 -2.54149 -4.97829 -5.60385 -5.30933 -3.22061 -2.47668 -2.40456 -2.52388 -2.05028 -1.70554 -0.96665 -2.66467 -3.954 -4.71047 -6.87743 -5.35745 -2.41833 -1.13714 -1.291 -1.60203 -0.961075 -4.76227 -3.16472 1.71285 4.66374 1.50088 0.803981 -0.366383 3.47684 2.33331 -1.3235 -3.55333 -4.59555 -3.24655 -7.53081 -2.96361 -4.64273 -14.5197 -12.5092 -0.994587 7.34157 5.68774 -1.62659 -9.02537 10.6776 8.12182 -8.24862 -3.9137 -2.98753 -2.04318 0.669269 7.58702 0.61251 -6.09106 11.4033 -1.85517 -0.106621 -4.10069 -26.7595 -9.34471 -13.4664 8.15681 0.870774 -8.50637 -1.21126 -1.03152 -1.44531 -1.61199 -1.46898 -1.29721 -1.37904 -0.923187 -1.32236 -1.47586 -2.52533 -14.8024 -2.50078 2.15258 -5.68133 -12.4193 -1.75963 4.87193 -3.29369 -12.974 -1.74457 -1.73587 1.35767 7.4129 1.14606 -6.22749 -0.227347 4.09547 -1.34641 -4.51703 -1.77931 -2.79584 -2.47026 1.41158 2.47778 -1.20061 -3.94122 -4.63324 -3.63644 -3.95439 -2.83025 -1.65294 -1.77713 -1.95026 -1.70853 -0.786523 -0.443083 -1.46869 -4.85357 -4.24644 -1.64708 1.15937 -0.477542 0.556858 0.215438 0.351998 -0.565951 -3.76777 -3.14299 3.66568 1.3883 3.38706 -0.642403 -2.8806 -0.390531 -1.62071 -1.55521 -0.341336 -4.00269 -6.61045 -6.18963 -7.87804 -22.5636 -11.014 -2.93094 6.2047 11.647 -5.27115 0.0579088 -4.13745 -16.6436 -10.6233 -12.4299 -2.26444 2.82968 -2.68922 -8.62017 -4.76522 -5.93588 -4.85627 8.23647 -0.849166 -7.08472 -7.53562 -23.8498 -30.0901 -4.59464 0.573178 13.9288 14.9227 -3.09503 -2.46828 -2.28236 -2.53509 -1.9882 -1.73908 -1.82818 -1.60528 -3.10627 -2.84911 -23.0522 -17.6584 -15.1123 -9.75415 -13.8759 -15.3739 -13.5743 -7.97409 -13.6782 -22.536 -19.0144 -17.8796 -4.37869 6.39344 3.52092 -4.91814 -4.69325 -5.03419 -8.4251 -7.45548 -0.810386 -0.99781 0.358405 1.47291 1.28509 -1.93312 -3.32353 -3.82312 -3.47007 -2.4202 -2.42627 -1.8991 -1.86604 -1.27414 -0.524337 0.279713 -0.33675 -1.17253 -3.68291 -3.43489 0.604297 1.57824 2.39881 3.69244 3.99782 1.75935 0.379564 -2.0843 0.237005 9.92291 2.74727 0.619499 -1.99741 -1.6571 -3.61948 -5.51904 -5.24454 -4.02464 -4.59853 -3.25403 -11.1701 -19.8229 -24.5104 -7.85956 -1.42137 5.39098 4.93244 -2.67706 1.16037 1.70652 7.19437 -1.13158 0.138368 -3.82092 -9.8045 -11.7274 -9.33189 -7.38577 -6.10668 -5.86969 1.15002 -1.83008 -6.4815 -2.48431 -0.638847 2.32368 3.56756 1.71312 1.24283 -4.0809 4.62823 3.6942 2.89484 2.3658 2.49419 2.36737 1.85273 2.92724 4.22439 3.77742 -2.99688 -2.52855 -2.23453 -2.74155 -2.65829 -2.22821 -2.9349 -2.70927 -3.18484 -3.28251 -1.52365 -9.21092 -16.4717 -14.3084 -7.69656 -8.02355 -8.56606 -3.6905 -4.20019 -12.621 -3.40581 -3.18944 -2.21975 -2.67074 -2.7385 -2.21857 -3.31239 -3.32332 -2.9268 -2.24835 -1.13498 -0.661737 -1.73248 -1.30248 -2.03464 -2.15277 -2.20269 -3.41037 -3.34639 -3.70622 -1.20033 -1.55614 -3.68755 -5.80672 -7.56564 -6.63068 -5.14483 -2.25928 -2.92038 -4.41295 -3.1349 -4.2176 -4.8039 -3.1208 3.46623 -2.54394 -10.3979 -8.82795 -5.07903 -6.27282 -12.1378 -7.86356 -5.39767 -8.78703 -9.96561 -7.80887 -7.84368 -9.89178 -11.6224 -12.888 12.7918 3.27512 2.53526 -0.458922 -1.37208 -5.21459 -2.22554 -4.12557 -5.63081 -1.57748 0.500795 -0.208371 -2.11182 2.4552 5.58229 8.90056 9.47719 7.66284 4.19041 -0.235884 2.74148 2.84424 2.21327 0.595221 0.0529612 0.0328993 0.975653 3.08855 3.49703 3.56217 -2.67328 -3.03909 -2.81559 -2.76168 -3.06592 -2.64099 -2.10028 -2.80242 -3.30784 -3.23485 -4.98672 -9.49512 -12.4944 -5.61312 2.30355 1.90276 -1.48499 -0.295729 -4.69387 -8.80132 -2.71074 -2.40607 -2.51225 -2.44776 -2.3839 -2.48704 -2.95648 -2.97074 -2.61491 -2.34438 -1.50625 -1.88111 -1.58195 -1.40528 -2.26331 -1.9462 -1.21468 -3.13509 -4.44185 -3.70602 -0.121037 -0.799718 -2.36717 -2.881 -4.20318 -3.57662 -2.5759 -0.270338 0.0362362 -2.77646 2.94318 0.820068 0.346814 2.38311 5.7899 2.83469 -3.08399 0.423186 1.73596 -1.252 -7.07933 0.768148 2.05094 -2.55754 -4.90754 -3.33692 -4.83532 -2.55349 -1.06973 -8.16228 7.6337 4.15656 1.72886 -0.507691 0.32098 -2.2652 0.187347 -3.54104 -4.31434 -5.0497 -1.91849 3.65312 5.50808 1.43697 4.06612 6.57557 3.56198 4.41533 4.61834 -3.46612 1.66905 1.7036 1.43124 1.35039 -0.0478556 0.886902 1.18854 1.91458 2.71127 2.26247 -3.43428 -2.93788 -2.20784 -2.02576 -2.41921 -2.93742 -2.00939 -2.31597 -3.15975 -2.57973 2.05645 -2.02239 -1.83944 -3.81241 -1.33872 -2.77456 0.41584 5.96062 -4.98041 -11.88 -2.60162 -2.42376 -2.27181 -2.28539 -2.31825 -2.83817 -2.93374 -3.08999 -3.35771 -3.32821 -1.58702 -1.71083 -0.99873 -1.63741 -2.614 -2.55053 -2.61943 -3.58125 -4.48219 -4.21603 0.524181 -1.83381 -0.315928 -2.96477 -3.26275 -2.9721 -2.84187 -1.22428 -1.0796 -3.0713 1.65106 -1.97973 -2.8234 -0.369457 4.60496 7.88594 3.3276 0.602255 -0.79425 -3.73324 -0.910329 0.872575 0.0675617 -3.48374 -3.91188 -4.04357 -1.77882 0.0856655 0.473007 -2.80722 4.45904 -0.813487 -1.67623 -5.04489 -4.2257 1.78379 6.34162 0.569041 -3.13868 -7.68391 -2.79392 0.0620322 0.759019 0.0837672 0.622354 -0.57778 1.4581 3.52427 1.63985 -1.99205 1.9059 1.50126 1.70912 0.243127 0.153349 0.431648 1.19115 2.06277 2.10211 1.89646 -2.47439 -2.2775 -1.94932 -2.05825 -2.1355 -2.02782 -1.76839 -1.88759 -2.15881 -2.39134 4.7665 -2.28108 -5.7768 -4.99958 0.343888 -3.02558 -2.52018 -3.83147 -8.43634 -14.6906 -2.81876 -2.88296 -2.16793 -3.04395 -2.99632 -3.59017 -3.51739 -3.65482 -2.44384 -3.41057 -0.940476 -0.939701 -1.62159 -2.02442 -1.89733 -2.82448 -3.73371 -4.73503 -4.22115 -4.54913 1.64604 0.975051 -0.273978 -1.78428 -1.24167 -2.30336 -2.13452 -1.72786 -1.77288 -3.15742 2.29511 -1.16099 -2.93202 0.0347452 2.03462 7.74916 3.43905 -1.92279 -6.20511 -4.85747 3.84706 5.25028 0.295748 -3.18205 -3.16906 0.0495728 2.49728 4.89421 5.18114 2.20856 -0.120285 -2.23307 -2.42939 -10.9529 -11.3497 -4.04533 0.24452 -0.561421 -3.64821 -3.15712 8.74317 3.7881 5.50358 7.62651 5.44723 4.06031 8.6588 12.1495 8.36006 8.69196 3.26928 3.71553 1.98183 1.03032 1.09712 1.06138 0.591421 1.73806 0.684182 -0.334128 -2.36668 -1.78852 -1.80374 -2.3657 -1.45428 -1.69157 -0.654514 -0.650503 -0.709772 -0.968292 17.085 2.2079 -5.17529 3.06038 2.7882 3.83033 10.1767 4.70867 -6.03217 -12.8339 -1.85098 -1.68861 -1.81846 -2.11046 -2.39453 -2.73821 -3.34171 -2.70104 -3.19937 -5.0154 -1.51044 -1.14452 -2.19182 -2.31965 -2.91022 -2.942 -3.15659 -3.59524 -3.99921 -3.94076 1.2496 -1.12707 -1.96381 -2.60954 -3.17849 -4.24934 -5.39351 -3.88315 -5.44969 -5.3123 1.29071 -2.66405 -2.579 -0.420439 -1.0257 2.6888 -1.45541 -7.85161 -9.85795 -8.63216 0.237317 1.74915 -0.276008 -4.44919 -3.65335 -3.86474 -4.31842 -1.79723 0.405952 0.21764 1.79046 1.15377 5.98494 6.21956 3.47965 1.74059 2.60665 -1.1017 -2.91015 1.77619 -5.44471 5.31962 4.67737 3.5418 -1.26456 -3.92032 -4.0249 -3.91522 -5.24265 -12.3636 8.01375 4.01095 12.3905 13.9423 5.60704 -3.39537 0.652075 13.4753 7.41671 -1.10596 -9.20947 -4.48667 0.591813 0.753122 -0.117116 -3.46914 -5.25436 -0.418374 0.46902 0.55395 -1.09513 -3.10156 -3.94724 -3.85094 -3.19839 -1.7512 -2.39918 -3.17552 -1.71591 -1.81374 7.91067 11.284 4.08392 5.28634 13.0894 8.58002 -1.98579 -12.279 -0.368182 8.28388 -2.42166 -2.75686 -2.45702 -2.11432 -2.92634 -2.86728 -2.48195 -2.90043 -2.94085 -4.33341 -2.64891 -3.02485 -2.5457 -2.82145 -2.26725 -1.31262 -1.20474 -1.39713 -1.11751 -1.21087 -0.402428 -0.511718 -0.968744 -0.812465 -0.634639 -0.818138 -1.20671 -1.8211 -2.45033 -2.22134 -2.24424 -1.97372 -2.67979 -2.86266 -1.86508 -2.10124 -1.55928 -2.0845 -1.85766 -0.644218 1.2092 -0.864807 1.71825 3.8491 1.53374 -0.115877 -1.26068 -4.41772 -2.98201 2.08819 4.91168 11.3159 11.0536 3.68784 0.554606 4.23574 3.55 5.63206 7.65794 -5.54366 2.28931 -1.00951 3.76765 2.83269 -3.9122 0.1652 2.31445 4.87218 6.18247 -4.07557 -10.4131 -3.67088 0.250472 -1.3101 -2.3417 -5.21627 -6.22868 0.300661 -0.934572 -0.521167 -0.632435 -2.01997 -3.13974 -2.63829 -2.73895 -2.36033 -2.40227 -2.43713 -3.26331 -2.08258 10.7891 15.6881 16.1573 1.44897 5.55876 3.99444 0.30216 -8.64678 -8.51436 10.5116 -2.66319 -2.92465 -2.5833 -2.14015 -2.02871 -2.59854 -2.08465 -2.56555 -3.40257 -3.15692 -1.58397 -2.30415 -2.25252 -2.79478 -2.30258 -2.02367 -1.36991 -0.618624 -0.0922857 -0.444291 -1.12477 -1.38571 -0.824368 -0.477881 -0.111114 -0.309225 -0.666282 -2.10157 -2.39499 -2.9704 -0.920731 -0.586606 -1.16597 -1.12934 -0.673773 -0.552185 -1.17363 -1.18188 -0.897899 -1.67118 -7.81708 -11.2641 -8.59697 -6.15762 -6.21514 -4.92103 -1.85383 -0.512166 1.08952 -0.410009 4.37359 17.0212 7.1978 2.80857 3.30105 10.1824 6.05723 10.7835 15.5326 5.98449 3.11331 7.96929 12.6235 5.94082 -1.95344 4.76199 10.6118 11.3268 8.51919 -2.52244 -5.72042 -2.94475 0.192992 0.0580104 -1.73821 -4.86061 -7.18473 -2.833 -3.01076 -0.596509 -0.535851 -2.08135 -2.88315 -4.08468 -4.58739 -2.12355 -1.42694 -2.27403 -3.61941 -4.10151 -8.57426 6.83856 7.54695 -12.0563 -10.5281 -7.57661 -11.975 -19.2807 -17.4127 14.5343 -2.46808 -2.58189 -2.52969 -2.05162 -2.12171 -2.42672 -2.67431 -2.28123 -2.45831 -3.23915 -1.39716 -2.32185 -2.06282 -2.93319 -2.66585 -2.93958 -2.39063 -0.915455 -1.12807 -0.485145 -1.64226 -1.31992 -1.38703 -0.886163 -1.37902 -1.55439 -1.06052 -2.36435 -2.46199 -2.83278 -1.28696 -0.805431 -1.09649 -1.71024 -1.62751 -0.865386 -1.06607 -1.39179 -0.439982 -1.27938 -5.81995 -8.85148 -9.61135 -9.04246 -7.01498 -6.61961 -3.20889 -1.55365 -3.48006 -5.68853 -5.64472 7.32334 2.43271 3.82987 3.36836 3.63447 4.70331 8.61488 12.0545 7.70783 6.64291 9.33922 7.17646 2.31335 -0.656085 5.06618 9.60555 10.8603 8.1205 -2.82899 -3.2142 2.06246 1.90264 -2.95101 -0.98799 -1.90433 -4.7276 -4.32551 -7.01226 -5.35571 -1.82038 -1.54531 -2.34409 -4.36258 -4.44002 -2.84413 -2.34976 -3.71177 -3.25654 -3.9287 -10.0126 3.29235 2.85466 -4.75928 -1.13653 2.67474 -5.73055 -6.03556 -9.66179 19.1491 -2.12085 -1.96715 -2.17133 -2.37203 -2.44541 -2.27369 -3.04167 -2.44498 -3.18603 -3.73882 -1.13146 -3.01203 -3.62261 -3.63739 -4.6751 -3.98677 -3.77619 -2.68707 -1.76579 -2.12038 -2.24019 -1.71313 -1.84965 -2.23557 -2.82398 -2.76836 -2.39441 -2.98021 -2.98982 -3.06995 -2.60551 -2.60322 -2.02085 -2.5276 -2.74344 -2.12835 -2.14354 -1.89067 -1.34558 -1.30777 -6.40438 -7.59224 -7.39483 -8.28831 -5.4451 -7.54142 -10.1298 -9.57922 -6.55668 -7.89366 9.09951 13.6437 4.72301 8.26327 5.62013 2.37117 6.73949 5.77283 3.87843 2.63099 7.3457 1.2088 -7.54638 -3.25927 2.67757 2.7161 -1.17047 -2.07204 1.34327 -4.33548 -11.5721 -0.0835297 3.79574 -0.940577 1.56002 1.28753 -2.82447 -2.75948 -4.97064 -6.20274 -3.06568 -1.64461 -0.884739 -2.60515 -3.52359 -1.43285 -1.14994 -2.87182 -3.04307 -2.93918 2.09808 3.92521 3.4475 5.66345 14.02 22.1673 8.37309 13.1948 13.1638 32.688 -2.11411 -1.24617 -1.80142 -1.79926 -2.1828 -2.67401 -3.11384 -3.29172 -3.89908 -4.12204 -2.05373 -2.90496 -3.30199 -4.24412 -3.91857 -4.33892 -4.67613 -2.78153 -3.16487 -1.83588 -1.67114 -2.20005 -2.12861 -2.58266 -2.29525 -2.57188 -2.27992 -2.96098 -3.80152 -4.25966 -3.47766 -2.91335 -2.42629 -3.38913 -3.28839 -2.74333 -2.08004 -1.76393 -2.02112 -2.76163 3.84101 3.2811 1.58574 0.549736 2.23371 4.09575 3.80975 2.51186 1.08209 -0.775502 -1.50766 -1.28644 -2.27083 -2.63595 -1.89373 -2.89708 -3.21729 -3.41128 -2.32085 -1.48783 -4.80699 3.34578 11.3497 -0.916775 -7.49109 2.35584 12.113 2.43847 4.30359 5.9285 -0.5913 -3.02402 -0.461772 -1.12335 -1.58726 -0.068133 1.47682 -3.74226 -6.33221 -6.33906 -0.305087 -2.05275 -1.97777 -4.18882 -2.46961 -2.34104 -5.7102 -6.87137 -6.72055 -8.40296 -10.2781 -4.62613 -0.774864 1.26996 1.17333 -1.75945 -7.48019 -8.84369 -5.78239 0.335359 -0.173022 -2.62319 -3.2843 -1.96128 -1.82819 -1.50206 -0.398737 -0.82761 -0.680856 -0.856318 -2.5391 -2.27056 -3.39502 -4.69077 -4.76955 -4.07394 -3.47833 -2.20738 -0.657716 -1.96736 -0.802022 -0.729026 -0.81974 -0.457692 -0.5032 -0.821168 -0.80769 -0.525039 -0.905211 -2.11879 0.58582 0.677108 0.270753 0.806511 1.52516 0.490615 -0.315989 -0.278036 -1.42202 -2.4579 2.43001 1.24437 0.102362 -0.027596 1.54155 3.74862 4.48621 1.50903 0.0579979 -1.28659 -1.59878 -2.17046 -2.74821 -2.67618 -1.97833 -2.71551 -3.25115 -3.81148 -3.24955 -2.03668 -8.48711 7.05604 9.45216 -0.708964 -8.60816 7.01245 14.7853 -17.9098 -20.0116 -15.8517 -5.77483 -6.28073 -3.54019 -2.51705 -1.85133 0.602483 -0.372512 -3.06097 -4.84647 -5.01215 0.586659 -1.28771 -1.14556 -2.43442 -2.31993 -2.45541 -3.92631 -5.2327 -7.12727 -7.84814 -9.4217 -8.43629 -5.365 -3.9635 -7.02309 -9.54248 -10.9501 -10.7957 -5.90915 -3.83836 -2.80273 -4.0157 -4.07545 -2.93075 -2.98569 -3.06533 -1.99003 -1.03195 -1.65966 -1.60935 -1.34271 -2.17151 -1.7419 -2.14655 -2.81506 -2.56604 -1.60333 -1.80808 -1.75064 -1.29331 -2.06838 -1.97874 -2.46367 -1.55358 -1.45601 -1.25768 -0.925009 -0.964587 -1.93744 -2.69067 -0.241544 -1.21044 -1.01723 -0.775153 -0.456962 -1.47847 -1.81684 -1.64326 -1.51345 -2.8879 0.0971785 -1.11597 -1.09207 0.211352 1.19325 2.76954 2.31217 1.53808 0.715222 -1.95806 -2.46205 -2.27134 -1.67451 -2.11897 -2.07848 -2.76454 -3.49941 -3.00836 -3.45978 -2.65724 4.59376 12.0254 13.8249 9.62978 10.4997 24.4546 18.5674 -4.04051 -10.0762 -14.1473 -5.76407 -4.51329 -4.05778 -2.1693 -0.37692 -0.107109 -2.31098 -2.33631 -3.90406 -3.97123 0.333723 -1.34321 -1.10597 -1.02441 -2.05919 -3.08344 -4.31489 -5.67049 -6.83423 -7.7189 -4.84325 -6.28685 -4.58758 -4.69764 -5.15787 -5.33855 -6.08883 -7.37997 -5.15788 -4.48962 -3.74879 -3.35393 -3.34173 -3.44994 -3.99966 -3.2039 -1.76862 -2.15198 -2.72444 -2.87999 -1.38818 -2.123 -2.2355 -2.37214 -1.46232 -1.09821 -0.984944 -1.86174 -1.34659 -1.55544 -2.41912 -3.10097 -2.56405 -2.15117 -1.33864 -2.16474 -1.34672 -1.10648 -1.84607 -2.60669 -2.73161 -3.64336 -2.17146 -2.21411 -2.41477 -3.30439 -3.12678 -3.14062 -2.81357 -2.68886 0.383562 -0.254874 -0.0337105 1.00303 0.384836 0.647829 2.47972 3.01325 2.44451 0.80847 -1.86439 -2.11678 -1.95312 -1.02316 -1.37373 -1.86244 -2.56702 -2.89813 -2.25435 -2.14361 -3.43469 1.36414 5.52597 -0.351419 3.46359 13.4319 12.9208 12.6245 5.52975 -21.5229 -4.16943 -2.63426 -4.63297 -1.60773 0.595832 -2.70795 -5.03005 -4.43184 -4.05316 -3.31354 1.64982 -0.156378 -0.804989 -0.522229 -1.36114 -1.85425 -2.25264 -4.96681 -6.38174 -6.67262 -5.98139 -0.811943 -1.24906 -5.26705 -4.61827 0.333438 -2.35288 -3.93984 -3.83394 -4.92005 -3.44278 -3.04839 -2.26932 -2.92446 -2.48617 -1.81553 -2.69107 -3.03273 -2.7121 -2.12063 -2.34685 -1.00529 -1.36971 -1.82528 -1.7884 -2.24058 -2.10828 -1.82083 -1.72623 -1.25338 -3.42648 -3.09426 -2.67782 -2.80526 -2.1156 -2.14466 -2.18614 -1.4865 -2.45027 -3.42428 -3.71999 -4.37455 -4.55408 -4.95301 -4.91311 -4.85453 -5.14563 -4.48602 -4.2635 -4.2989 0.626797 -0.371743 -0.297986 -0.401656 0.00347822 0.554739 3.21459 4.87377 3.84451 1.16571 -1.60817 -1.71496 -1.01662 -0.751056 -0.996624 -1.88193 -2.22413 -1.25307 -1.86463 -1.83744 -3.73888 12.7178 3.47173 -12.2543 -10.1617 14.014 31.4498 17.9554 -0.453254 -6.83579 -4.40234 -4.53169 -3.30962 -0.727288 2.0615 1.17493 -1.52761 -1.72895 0.500812 0.975419 3.25961 1.14055 0.0899591 -0.706134 -1.07064 -2.1313 -5.36559 -7.23669 -6.49102 -5.88358 -2.35514 1.2546 3.41028 -2.97201 0.144375 4.46259 4.10145 1.04167 1.61267 1.66457 -4.11716 -3.45643 -2.3289 -2.39612 -2.08291 -1.53194 -1.68299 -2.26858 -2.56508 -1.55858 -4.02786 -3.02257 -2.37214 -2.30751 -3.11115 -2.61087 -2.89111 -2.43723 -2.80754 -2.90996 -5.12667 -4.43577 -3.17952 -2.87696 -3.05774 -2.15494 -2.21606 -1.42462 -2.11089 -2.85713 -4.30399 -4.56622 -4.45 -4.73175 -5.05895 -5.77662 -4.60977 -4.51329 -4.63303 -4.05828 -3.44643 -2.98132 -2.40532 -2.37242 -2.76012 -1.93032 -2.34847 -1.8889 -2.27109 -3.15681 -1.56447 -1.39143 -2.38804 -3.30755 0.0227741 0.820856 1.4034 -0.264276 -2.18821 -2.85116 -4.93505 -7.25809 -4.39502 -0.919286 -2.56431 -8.08769 -7.55788 -3.59316 -3.21268 -3.51019 -0.0552943 -0.525472 -0.434608 -1.53491 -1.23185 -1.30017 -5.09256 -4.24044 -3.75552 -5.14697 -1.58217 -1.5679 -1.00782 -1.69561 -1.83606 -1.86025 -1.26425 -1.59471 -1.37074 -1.93214 2.48824 3.41331 1.09566 -0.725638 -3.17822 -2.58225 -0.127092 0.348119 2.29844 0.375884 -1.72906 -2.9389 -3.81437 -1.99991 -3.05675 -3.82756 -3.38925 -3.03722 -2.00092 -1.60882 -4.47136 -6.59608 -8.43016 -7.66339 -6.65833 -4.81472 0.158237 0.29734 -3.53471 -8.96659 7.61454 3.77346 3.52959 7.37193 6.04882 8.74848 3.94129 -3.51413 -2.16565 -1.10243 -2.13776 -3.75459 -1.9021 -2.85827 -4.13524 -5.67396 -4.85609 -4.02887 -4.36748 -2.59174 -3.06644 -2.86087 -3.22555 -2.75705 -2.66614 -2.79707 -2.31892 -2.34706 -2.26554 -3.19254 -1.51337 -3.04055 -3.46479 -5.34605 -1.73426 -1.09445 -1.32126 -3.01588 -5.51044 -5.86387 -0.00941336 -2.71701 -2.50277 -1.99824 -1.99562 -4.47033 -2.30217 0.770336 -0.596656 -0.285513 -1.701 -1.0333 -1.09632 -1.33533 -2.76661 -2.04313 -4.88806 -3.60179 -3.68472 -6.54371 -2.39525 -2.42589 -2.07463 -2.34429 -2.60719 -2.35485 -2.86493 -2.68852 -2.06776 -2.05075 1.18291 0.187793 1.64627 -3.08491 -3.54931 -3.08259 -1.89229 -3.5707 -4.90098 -6.88205 -1.29337 -3.35089 -4.78513 -2.09674 -1.0757 -2.54445 -2.8678 -2.44504 -0.606489 -0.539679 0.935367 1.55807 -2.56799 -5.07107 -7.93801 -6.63324 -1.50536 -0.99321 -2.7162 -8.1028 -2.2022 -11.1445 -7.04471 5.94899 1.50532 6.8146 2.34635 -5.92639 7.68302 6.37417 -0.879021 -1.95276 -1.41651 -3.57409 -4.27579 -5.02566 -5.28145 -3.57397 -2.28524 -1.89947 -2.9522 -2.90012 -2.59866 -2.31423 -2.43686 -3.0664 -2.66456 -2.71835 -2.31784 -3.27681 -2.18808 -4.77279 -5.36506 -2.22882 1.0228 -1.88079 -4.21901 -4.60781 -6.18306 -5.23543 1.51855 -2.87654 -3.04955 -0.74505 -2.44464 -3.89152 -3.4989 -1.02521 -0.46144 -1.57207 -2.54968 -0.385302 -1.9702 -1.80662 -2.98264 -3.44231 -3.05819 -5.01294 -4.64661 -5.11159 -2.00449 -2.53769 -2.13148 -1.80028 -2.88031 -2.54461 -2.95462 -2.64347 -2.38164 -2.3047 0.347206 -0.297636 -1.76501 -3.75944 -6.89193 -4.92879 -4.93779 -5.13747 -8.04055 -6.45898 -1.33961 -3.66365 -4.93425 -1.66712 -1.25584 -3.03422 -3.89036 -1.63291 0.0172508 0.0757069 1.47052 0.958242 -1.22244 -3.54125 -4.79154 -1.4092 -3.29857 -2.04711 0.880581 -2.12482 -6.24219 2.09614 5.38961 9.23792 9.61962 13.4662 14.7538 3.73208 3.07735 -1.8148 0.950875 -1.54689 -2.79805 -2.97522 -2.2677 -2.00955 -4.27971 -4.52658 -1.59128 -0.7742 -2.94285 -3.48082 -2.6841 -2.82409 -2.78429 -2.398 -2.31562 -2.85202 -3.02444 -2.82223 -1.16351 -2.93196 -4.10382 -3.34941 -0.0566255 -2.26525 -4.35604 -4.79455 -6.3819 -4.16704 -1.30913 -3.64142 -2.57275 -2.34664 -6.26636 -8.247 -6.48519 -4.06173 -2.57551 -3.02074 -1.25296 1.0332 -0.0833893 -0.443878 -0.425159 -3.01993 -4.04285 -4.53021 -5.43071 -4.89647 -2.06602 -1.98883 -1.92847 -1.7223 -2.43857 -3.03857 -2.91694 -1.63867 -1.7941 -1.8568 -4.09089 -4.38345 -3.52856 -5.89549 -5.78158 -4.52467 -5.20336 -5.94235 -6.90074 -7.42647 -0.54901 -3.28944 -5.9386 -2.10646 -1.22757 -2.46915 -3.52011 -3.43714 -1.6305 -0.651653 -0.961331 -1.92499 -5.03931 -3.94721 -1.63595 1.6873 -2.47414 -1.65556 -1.36668 1.50482 1.36454 6.81415 4.09099 4.35663 -7.75044 -1.78669 -1.19354 -1.33049 -3.4555 -0.0519326 -0.201246 -2.85883 -4.19462 -2.02307 -0.243987 -0.843547 -2.57059 -4.15353 -2.16613 -0.783262 -3.03181 -3.22866 -2.4647 -3.2538 -2.83961 -2.84535 -3.24842 -3.23167 -2.85681 -3.11805 1.55022 -1.02681 -3.38395 -5.33693 -2.52165 -2.04006 -1.37698 -1.84288 -2.21807 -2.16096 -0.645755 -3.46583 -2.30022 -4.38762 -8.55201 -13.1923 -9.29497 -4.40598 -1.75635 -3.26437 0.613271 2.30539 2.46308 2.17363 0.804494 -0.487873 -2.40351 -3.70858 -4.18824 -3.30147 -1.60162 -1.38537 -0.765946 -0.788086 -0.645079 -1.7362 -1.23463 -1.02134 -0.397919 -0.471713 -8.79927 -7.36673 -7.56824 -9.97228 -8.37607 -4.48602 -5.03073 -8.13238 -8.73558 -8.9553 -3.16536 -4.70406 -4.89411 -2.59056 -3.29954 -3.10557 -5.01542 -5.89565 -4.69429 -1.39705 0.0312057 0.911758 -4.36958 -4.19378 -2.50325 -0.634365 -2.66429 -2.30325 -1.09726 -0.659952 5.99766 7.69927 5.97198 2.29859 -4.96865 -1.83315 2.79694 -0.0857855 7.76973 14.819 1.19222 1.05133 -0.970881 0.386951 1.36977 1.79151 -1.05898 -1.83259 -0.527244 -0.507659 -6.64471 -4.39292 -2.85323 -3.29201 -5.65185 -7.33898 -7.47761 -7.04969 -6.61076 -6.82043 -8.05253 -6.27135 -7.40161 -7.70872 -7.0296 -9.57088 -7.68367 -7.47873 -7.8659 -8.46948 -8.55123 -7.02095 -6.61214 -10.1732 -14.0999 -15.0276 -12.3498 -7.31908 -0.240656 5.11678 -4.17494 -1.95528 -2.18668 -2.91416 -3.31735 -2.54457 -1.62251 -1.23757 -0.940151 -2.53079 -4.82524 -3.91213 -2.75697 -2.89274 -3.32699 -3.01385 -1.94642 -2.08651 -4.00165 -3.04361 1.5965 3.16582 3.39641 1.90795 1.1019 0.820804 0.375246 2.87989 5.06516 8.06514 -3.85269 -3.65582 -2.40104 -2.69009 -1.46183 -1.97527 -2.75442 -3.90161 -2.58574 -1.22436 -3.92105 10.6429 12.3495 7.87693 3.88615 -1.65678 -5.67008 0.0580603 4.40025 -0.590165 -2.09492 -2.3273 -1.6119 -1.84317 -2.67662 -2.04606 -2.19717 -2.79531 -1.9283 -2.63371 -1.84489 -1.81895 -1.04532 -1.45063 -2.05694 -1.14073 -2.35394 -2.72507 -3.23784 -5.3793 -2.62334 -1.44253 -1.01888 -1.70444 -1.41429 -3.09717 -3.7108 -3.58764 -4.74275 -5.66457 -5.9893 -6.29958 -5.8929 -5.04725 -3.2892 -4.57964 -3.96258 -3.56644 -5.42376 -3.65414 6.34746 4.64497 1.59229 -0.833371 -2.19143 -7.10274 -10.0513 -5.10634 -1.12977 6.18874 -1.82849 0.367193 0.337313 -1.26198 -3.06846 -2.51535 -4.10234 -3.89022 -1.99683 -2.962 -3.82288 -3.18702 -2.34287 -2.07155 -1.36961 -2.0199 -1.60225 -2.44609 -2.66335 -2.65466 1.12099 -0.355231 -1.87948 -4.91278 -1.9442 1.66654 1.32234 3.82136 6.13532 7.14588 -1.73626 -1.75982 -0.570794 -1.45556 -1.61743 -2.14387 -3.59953 -3.8382 -3.30534 -2.71055 -12.311 -2.15407 5.51645 -0.441425 -10.7031 -8.74739 -4.31108 1.79601 5.10411 -2.36615 -1.50769 -1.83293 -1.24833 -1.96392 -1.7647 -1.77566 -1.58763 -1.43977 -1.63212 -1.63809 -1.94027 -0.828283 -0.247249 -1.28464 -2.08786 -1.95076 -3.33375 -2.99872 -2.77857 -3.99138 -2.00902 -1.49957 -0.73766 -0.432157 -2.56026 -4.0633 -3.10221 -3.83699 -4.82159 -3.22854 -5.10033 -2.10368 -1.94561 0.90377 0.7886 5.19275 5.09618 6.39708 2.18631 -0.33204 6.19225 7.13589 3.91018 3.65123 0.808337 -3.85564 -3.43885 -1.12273 5.634 6.75637 -0.806108 0.267277 0.764224 -1.06254 -2.23926 -0.60351 -1.66666 -2.55659 -1.48251 -1.55216 -2.30337 -1.65608 -0.576623 -1.26201 -1.12176 -1.0274 -1.31951 -1.15903 -1.76059 -2.0458 7.94533 1.57225 -4.5843 -7.37829 -2.72553 1.0822 0.845234 4.11522 2.76199 2.46439 -0.712308 -0.117127 1.41845 -0.78113 -0.478496 -0.245704 -0.86479 -3.90807 -3.44667 -1.52982 -5.5233 4.62214 6.44539 -0.831215 -2.63744 -7.19388 -3.83954 1.62267 2.93668 -4.72792 -1.75962 -0.893219 -1.63799 -1.84347 -1.50644 -2.12444 -1.90686 -1.28641 -1.41062 -1.80507 -3.55294 -1.17089 -0.0720828 -2.24095 -3.83508 -2.60869 -2.04277 -2.15761 -3.05321 -3.00458 -1.78064 -2.11213 -1.70688 -1.75791 -2.49588 -2.97351 -2.54968 -3.96632 -3.30135 -1.89838 -3.98658 -5.63521 -4.25928 -5.65622 -3.0604 0.535832 1.31416 2.29929 -0.39523 -1.19828 -3.81899 -3.70072 -4.88148 -8.47792 -7.54341 -6.7306 -4.71947 -5.41101 1.12543 5.65559 -0.390792 -0.191582 -0.115671 -2.24006 -1.24283 -1.27953 -2.94495 -2.88862 -1.84696 -3.50537 -4.66196 -3.51204 -2.89496 -2.16305 -2.22242 -2.65219 -2.72678 -2.95846 -2.95614 -3.41407 15.7066 6.12552 -3.77741 -2.82156 0.329465 1.39881 2.20268 3.06616 3.92312 7.85584 -3.78978 -2.95088 -1.97171 -2.63374 -1.91524 -0.58195 -2.03117 -3.49381 -5.14049 -4.47769 -6.47171 1.32079 0.184203 -7.00221 -8.22222 -3.31588 -2.11433 -1.30439 -5.12578 -3.71935 -2.06412 -2.38379 -1.49988 -1.82617 -2.51627 -1.71848 -2.19167 -1.53463 -2.45721 -2.59453 -2.99793 -1.82472 -1.34029 -3.41757 -3.45267 -1.9156 -2.50351 -3.12302 -4.50949 -5.16772 -0.0910106 0.279713 0.0927335 -0.739193 -1.23506 -1.01578 -1.11761 -3.32064 -3.51524 -2.00606 -3.64906 -3.06436 -5.8411 -6.97309 -4.537 -4.11985 -3.60317 -0.944711 -2.76498 -5.2703 -8.96458 -5.32861 -10.5537 -18.9724 -15.3624 -12.3655 -11.4572 -12.5758 -5.46203 -1.64733 -0.886402 -1.21037 -3.15031 -2.97726 -2.6154 -1.46592 -4.50129 -2.48381 -3.15312 -6.11494 -4.42395 -4.99264 -4.04221 -2.95894 -2.67925 -2.58844 -3.24752 -4.20474 -3.92625 -4.93519 22.4959 12.0105 4.06772 5.9893 4.75888 3.61841 7.82451 7.96038 8.45104 12.864 -3.07065 -3.6118 -4.53276 -2.96656 -2.0087 -1.82336 -1.49216 -1.87376 -3.37992 -5.84149 -10.9659 -6.67059 -6.84372 -16.7536 -18.9562 -12.0996 -14.8339 -16.3694 -10.9879 -8.545 -2.11475 -1.43976 -1.63634 -1.55744 -1.88227 -1.48133 -1.46031 -1.54699 -1.3402 -2.02875 -1.23009 -0.515546 0.217355 -2.77216 -2.33519 -2.19093 -2.57662 -2.61059 -1.94671 -3.09224 8.42646 8.39866 3.27276 0.45515 0.205389 -1.51125 -3.52344 1.27063 5.91387 7.9948 17.5214 5.65918 1.32824 3.13221 5.48196 7.14635 3.00143 -2.76738 6.66823 11.9018 -4.93756 -4.28344 -4.96833 -5.90676 -5.60181 -5.29911 -4.54111 -3.21932 -4.13249 -4.51288 -5.25403 -4.91032 -5.07189 -4.77351 -5.35351 -4.99903 -5.05161 -5.73004 -3.52688 -3.59215 -3.07334 -3.0043 -2.79669 -2.72854 -2.6835 -1.98297 -1.75779 -2.49257 -1.25072 -2.3291 -3.74842 -2.23688 -2.23405 -2.6575 -2.96414 -2.50202 -3.03491 -3.99933 -3.54545 -4.15413 -2.58469 -3.48757 -3.92005 -3.9586 -3.70792 -3.08672 -3.44209 -3.06395 -3.43324 -4.01457 -5.74704 -7.73818 -6.99502 -5.80109 -5.59635 -4.44653 -3.29364 -3.19757 -4.70955 -5.03917 -5.59394 -2.01724 -1.32705 -2.99246 -0.693103 -0.914028 -0.145362 -0.0860275 -0.976049 -3.2333 -14.0752 -13.1857 -15.1166 -2.50322 7.19413 4.7225 15.6036 -2.73367 -27.2776 -16.0098 -5.0312 -2.40698 -5.086 -9.07916 -9.10286 -3.95387 -5.46 -0.445708 1.80443 -0.199373 13.557 5.64041 9.6952 14.1199 4.8612 0.285495 -0.594722 1.89675 8.26419 5.51754 -3.85622 -2.81926 -4.35856 -4.77353 -4.84716 -4.17989 -3.56743 -2.72295 -3.2243 -3.79712 -4.29811 -3.29785 -4.2777 -2.8322 -2.64845 -3.84301 -3.06062 -4.5829 -5.01622 -2.64221 -2.53812 -2.61834 -2.84445 -2.37045 -1.95126 -2.44019 -1.92198 -2.79109 -2.73392 -2.90251 -4.17022 -2.68074 -1.9045 -2.42313 -2.65085 -2.2933 -2.68253 -3.43529 -3.54467 -3.84892 -2.7008 -3.78102 -3.49019 -2.33114 -2.45414 -3.1713 -3.2258 -3.28908 -2.35088 -3.2178 -3.26681 -5.01593 -6.27045 -5.12678 -4.33158 -3.29062 -2.65244 -1.67784 -3.6983 -4.0979 -7.01195 -7.14728 -4.59823 -3.85148 -4.34339 -2.29778 -2.47814 1.86001 0.941843 -2.46983 -0.820497 -7.79939 -1.48927 -1.96191 3.04519 12.4693 0.29445 -9.2754 -15.1825 -3.05746 -14.415 -8.50504 -9.3972 -10.133 -7.38882 -3.09169 -4.75484 -0.436033 -3.38854 -8.23106 8.2806 3.64984 0.306479 7.47238 7.59454 3.99207 -4.54047 -2.77385 6.40771 8.1337 -3.90366 -2.99028 -3.19278 -3.68277 -2.97032 -2.61205 -2.40216 -2.31291 -1.94461 -3.16355 -4.52091 -5.43935 -8.3066 -4.82615 -4.97325 -6.79563 -4.88936 -2.12047 -1.20341 -1.46406 -3.13872 -2.41096 -2.89883 -1.95479 -2.26286 -2.82335 -2.2546 -2.2994 -3.81228 -2.99038 -3.30339 -2.34449 -2.28201 -1.96275 -2.5633 -1.89042 -1.88054 -2.37416 -2.44386 -3.81472 -3.06292 -2.19692 -2.19522 -2.10124 -1.63994 -2.0962 -1.47368 -1.53765 -2.29754 -2.997 -1.13025 -2.89221 -2.39543 -1.15134 -1.46612 -2.98307 -1.48653 0.345427 -0.59367 -2.38004 -6.93044 -7.02272 -8.81397 -7.66362 -6.72618 -5.96172 -2.22462 3.70398 1.20914 -1.19855 1.94957 -9.34209 1.25769 1.38085 5.56677 0.199094 -15.0752 -6.73993 -7.59687 -4.621 -13.1067 -8.13103 -5.93617 -7.69142 -7.30257 -4.94149 -4.05261 -2.57304 -4.88507 -7.69928 6.51391 -2.53115 -0.493121 5.8911 4.17577 2.09872 -1.63662 -0.462601 10.3045 13.3411 -3.84005 -2.35708 -2.54746 -2.14536 -3.04531 -2.52147 -1.99952 -2.20512 -2.31405 -3.17368 0.777105 -2.66564 -5.31705 -2.50803 -1.99355 -4.03525 -4.33938 -3.41537 -2.57537 -2.70319 -2.94993 -2.32364 -2.61194 -2.96004 -3.04439 -3.28653 -3.15513 -3.58 -3.718 -2.84105 -2.99745 -3.13285 -2.33604 -3.03796 -2.91325 -1.16331 -1.70583 -2.82382 -3.18156 -3.69146 -2.13652 -1.71679 -1.67257 -1.36126 -1.33426 -2.32552 -1.59036 -2.20647 -2.40338 -2.78057 0.457691 -1.00169 0.618529 1.44274 -0.527705 -0.203085 0.320832 -0.299805 -1.27065 -2.97243 -6.82867 -5.04312 -5.92662 -5.61798 -5.58612 -5.99833 -1.46924 4.80551 2.50003 0.137294 -3.14387 -0.855616 -9.86506 -8.63667 2.4563 -12.8768 -4.56096 1.58096 5.89643 9.93568 -12.0042 -8.21999 -2.81774 -2.68056 -5.84396 -4.23439 -2.13535 -2.632 -6.38669 -1.49306 -0.716237 -2.23542 -1.9591 -2.81325 -4.92852 -0.502241 0.910247 -2.88331 -1.73149 -7.74193 -4.92789 -3.87129 -4.01766 -3.63636 -3.75191 -3.44514 -3.94166 -4.22529 -4.15096 -4.29595 2.88747 2.5852 -0.228581 2.95646 3.03301 1.46778 1.6131 1.50676 -0.322711 2.6497 -1.33968 -2.27582 -2.13556 -3.05941 -2.62139 -2.87631 -3.78817 -3.84807 -1.93266 -2.31826 -3.5255 -3.24988 -3.22499 -3.99155 -3.58402 -2.72113 -2.99256 -3.57947 -4.09333 -4.97006 -2.14135 -1.982 -1.9968 -1.92573 -1.59466 -2.3858 -2.46808 -2.68357 -4.19832 -4.51776 -1.63683 -1.43358 -1.01478 -1.55617 -2.28651 -1.86141 -1.96614 -2.47435 -2.04683 -2.33863 -5.84738 -4.6174 -4.05551 -3.63393 -3.436 -4.81262 -2.15163 3.70146 1.24189 -2.34142 5.56137 12.0683 -8.79721 -11.048 1.24371 -12.7772 -4.84421 -4.76343 3.70913 21.6065 -2.95457 -2.1592 -2.51939 -2.24472 -2.32213 -2.27651 -2.75214 -3.48858 -3.48079 -2.67355 -5.00993 -3.66518 -2.13682 -2.03728 -2.63992 -2.94183 -2.32631 -2.6853 -2.17658 -2.08075 -3.97759 -3.06118 -3.55356 -4.04901 -3.40577 -5.31087 -4.81134 -2.94203 -3.07086 -3.91443 -3.35511 -3.43872 -2.97743 -3.56276 -2.57505 -1.64654 -1.93288 -2.60081 -2.25796 -2.88019 -8.42705 -3.06957 -5.25363 -5.07884 0.0482274 -2.17827 -3.34537 -5.68681 -3.41429 -4.11178 -8.5775 -4.49665 -3.25024 -3.11359 -5.49907 -1.83843 0.473426 -0.694064 -1.37092 -4.90058 -2.25432 -2.42053 -1.44504 2.13978 2.9419 -2.90762 -7.9079 -8.36861 -5.5522 -7.51928 -2.87014 -3.28856 -3.00682 -3.13337 -3.3178 -3.90735 -2.94568 -2.64585 -2.73346 -2.90145 4.44502 3.10699 0.969543 -1.52359 -2.11888 -4.20175 1.30834 3.67654 2.7577 2.35572 7.69274 1.65087 4.71037 5.85382 -5.74744 -5.79093 -2.32583 1.81256 -2.11988 -0.0933794 -3.01143 -2.80012 -1.92264 -2.68088 -2.07479 -2.51149 -2.97037 -3.20867 -2.63689 -2.43117 -5.65447 -4.30007 -3.09764 -2.29773 -2.87368 -2.84034 -2.68617 -2.54197 -2.6459 -2.78814 -3.58869 -3.06531 -3.36594 -3.99051 -3.57149 -3.73117 -3.19366 -1.29145 -0.742327 -1.70193 -2.9131 -2.69163 -2.03302 -1.98579 -2.61576 -2.2923 -3.20321 -2.62679 -1.86155 -1.36661 -5.08504 2.7278 -0.34734 -1.00911 4.08276 0.403288 0.35547 -0.00166141 1.61737 0.0341666 -3.75542 2.39219 0.057966 -2.55294 -7.84835 -4.86092 -5.62074 -1.88897 -0.79181 -6.27608 -2.19204 -2.25461 -2.49928 1.40263 1.59643 -3.70691 -5.11409 -4.99193 -4.3085 -6.23262 -3.28119 -3.36777 -2.36279 -2.91802 -3.59286 -4.05937 -2.96478 -2.44607 -3.17937 -3.28107 5.40441 3.70584 -0.541771 -1.2145 -4.08174 -5.92751 -1.3257 2.16669 1.98896 4.42372 -3.16432 -6.52511 0.515822 6.98616 0.806474 -5.94956 -0.622758 2.73519 1.38459 8.49156 -2.33494 -2.16257 -1.78346 -1.54921 -2.11538 -2.65349 -2.14213 -2.99383 -2.15331 -3.09045 -6.81948 -5.10832 -3.23357 -3.04622 -3.50175 -2.42122 -2.6579 -2.209 -2.61366 -3.30236 -2.71317 -1.82904 -2.50513 -2.08508 -1.89314 -1.20512 -0.364433 -0.965397 -0.351754 -1.3397 -1.94263 -1.86926 -1.58793 -2.18667 -3.41921 -3.30671 -2.84333 -2.25569 -1.88526 -1.02554 -5.20223 0.620224 2.16568 1.18032 4.52052 2.27043 3.52379 8.36926 9.28068 8.76085 1.54364 3.57593 -1.02486 -6.20035 -8.6361 -1.67593 -0.859238 -1.22041 -0.941302 -6.11306 -3.89559 -5.01792 -4.90632 -2.49823 -3.27483 -4.08421 -2.68288 -0.455306 -2.92576 -5.79175 -1.72472 -2.24225 -1.98659 -3.31721 -3.16256 -3.48678 -2.97644 -3.1991 -2.46867 -3.39475 5.63311 1.48115 -1.76618 -0.0561595 0.416978 0.385685 0.232489 2.17031 4.71212 5.13045 7.01286 1.83709 -5.33871 0.0644793 1.80889 -7.94173 -2.09319 -3.81312 -3.44698 4.90378 -2.22782 -2.68834 -1.65178 -1.88426 -2.44612 -2.17789 -2.00869 -2.1526 -2.2301 -2.07428 -4.13335 -3.53783 -4.14445 -3.97463 -3.40317 -2.919 -3.4666 -2.45574 -2.64579 -4.54241 -4.59012 -3.49928 -3.28154 -3.57957 -1.47775 -0.604518 -1.92051 -4.25939 -2.00051 -2.28405 -1.60608 -1.96424 -2.66425 -3.32858 -3.32783 -4.22401 -2.94332 -2.78362 -1.94045 -1.91294 -10.0894 -4.26843 -4.11275 -6.30638 -2.83582 -9.0973 -2.5353 1.39573 1.3961 3.40405 -0.37741 -3.05345 0.463012 -3.98675 -5.80658 -0.108183 -0.65577 -2.6422 -2.63611 -7.61981 -2.38774 -3.60759 -5.02294 -5.03137 -3.66373 -3.15859 -1.28622 -0.0319257 -1.64703 -4.29923 -1.603 -1.23787 -2.33865 -2.94902 -3.18231 -2.4595 -2.74357 -2.36022 -2.52001 -2.08958 -1.24899 -3.28586 -4.05606 -0.0133349 2.73501 6.12985 6.8594 9.02376 7.8388 6.46328 26.1972 1.0555 -10.713 5.38918 7.90573 -8.59094 -19.1198 -9.45993 -6.59459 8.9988 -3.00187 -2.96253 -2.85282 -2.97767 -3.06283 -2.77652 -3.3403 -2.56162 -3.10331 -2.58485 -4.06441 -4.1423 -4.61282 -5.66156 -5.69489 -5.41222 -4.90253 -3.57247 -5.17541 -5.33701 -7.37799 -7.54634 -6.9003 -4.15105 -4.39477 -3.22326 -5.15218 -5.98054 -3.87187 -5.34801 -2.1786 -2.5048 -3.25795 -3.83249 -4.00583 -4.1429 -4.91615 -3.15914 -2.45601 -3.81703 -16.1312 -11.1398 -13.1087 -12.6972 -12.4743 -19.09 -10.8389 -12.5249 -12.4563 -10.3582 -7.14421 -6.93005 -4.54713 -4.43966 -2.89222 -0.799271 -4.27137 -3.60126 -4.34892 -11.4481 -1.33205 -3.25888 -2.99461 -3.23748 -3.74451 -1.6065 -1.44969 -3.72907 -1.928 -0.807931 -1.21703 -1.50814 -0.946796 -2.13021 -2.46996 -2.29116 -2.42901 -3.0319 -2.56298 -3.29638 -3.35514 -4.9066 -4.35642 -1.73246 1.63288 7.73053 11.565 13.7538 11.0287 10.8367 3.08137 -0.848674 -9.01632 -3.73723 -7.43582 -20.1355 -32.0138 -25.8034 -20.5561 -14.3721 1.07975 -2.34683 -5.50134 -7.13004 6.31618 2.60675 -8.56014 -0.0969724 2.17659 19.314 -2.16609 -2.22117 -2.44935 -3.27535 -3.335 -2.95339 -2.22747 -2.76402 -1.68609 -1.20766 -5.88977 -4.69396 -3.90213 -1.98269 -3.9092 -2.49915 -1.95369 -2.69909 -1.77439 -1.68055 -1.74841 -2.09822 -1.97691 -1.15076 -1.82683 -1.74353 -1.78569 -2.39007 -2.31694 -2.21643 -1.54247 -1.61009 -1.83278 -2.10118 -2.44207 -1.93119 -1.89827 -1.79642 -2.35832 -2.05367 -2.53269 -1.39086 -2.74446 -3.47813 -3.23029 -2.25724 -2.3508 -1.58093 -2.99715 -3.44255 -3.5962 -3.72914 -3.11436 -1.11422 -1.35666 -2.24745 -1.80058 -0.0995065 0.152647 0.700775 -3.9896 -6.6001 -16.0649 -26.5251 -9.73088 23.3469 17.9877 5.96916 0.032852 -10.7266 -3.89936 -0.203701 -5.85668 -10.7146 -8.17767 -6.71426 -4.26252 -16.2395 -8.50905 2.00858 -2.63873 -7.39527 -5.56613 5.3685 -1.97341 -12.6004 -22.728 -16.5881 -10.2029 -11.7912 9.72013 1.47724 -7.05315 -10.4015 1.60751 -1.63439 -5.85096 -2.09608 -15.0352 -2.09899 -1.29634 -1.09747 -3.07832 -3.80933 -3.55484 -2.91733 -2.62149 -3.43021 -2.25708 -1.48766 -3.15718 -4.18672 -2.66192 -0.709991 -2.12524 -2.10607 -1.85176 -2.59638 -1.55598 -0.925837 -1.91531 -2.3469 -2.44025 -1.89107 -1.3374 -1.74329 -2.61437 -2.33828 -2.08327 -2.69927 -1.60551 -1.82144 -2.2194 -2.94179 -2.80067 -2.55647 -2.42598 -2.92628 -2.40479 -2.94745 -2.23899 -2.27984 -3.07523 -4.00235 -4.85307 -3.53494 -3.09792 -2.0454 -2.29604 -3.09469 -3.86711 -3.83115 -2.72884 -1.63663 -0.80904 -1.88176 -2.14358 -2.01395 -1.27635 -0.579898 -4.01969 -3.98381 -18.7676 -13.7358 -1.69006 -5.32694 11.8378 14.2593 10.074 -3.32148 -15.1169 -4.88345 3.03434 -3.58009 -11.3503 2.12945 11.1291 0.836598 -4.67256 -0.157304 19.9035 18.7389 13.1343 10.5254 2.61045 3.34439 16.9983 9.7255 10.3095 10.0752 -4.69658 -7.811 -2.47779 3.50261 -0.785669 -4.28908 -2.03911 1.61999 -0.71168 -0.533479 -0.592934 -2.27341 -3.95608 -3.50492 -3.14296 -2.29791 -3.13126 -3.12442 -1.49431 -0.882612 -3.32858 -2.95653 -3.44166 -2.88986 -3.37344 -4.06731 -3.52232 -1.91933 -0.279976 -0.390456 -2.75754 -2.4972 -2.17142 -1.82108 -2.49163 -2.27087 -2.34239 -2.1934 -2.01602 -3.11675 -1.95293 -2.31296 -2.30745 -2.42408 -2.50203 -3.17734 -2.29887 -2.72054 -2.29328 -2.00305 -1.91733 -3.17581 -3.1411 -2.85727 -4.38128 -4.1753 -4.03389 -2.9208 -1.50479 -2.06769 -3.08214 -3.2867 -3.62405 -2.62983 -2.07837 -3.08944 -4.12035 -4.4868 -2.65433 -2.10687 -16.8444 -11.8355 -16.3439 -0.572876 2.56117 -15.7987 -19.1105 -6.19717 1.39235 -0.825325 -7.92666 -5.23777 7.99031 3.67351 -7.35904 -2.1941 5.32265 0.713075 -12.9073 -10.0783 18.3462 18.867 14.531 -6.46238 -18.1982 -13.2551 16.3506 13.1676 12.6857 13.9678 0.768747 -5.76432 -5.20759 -0.14126 -2.03128 -2.75936 -7.12911 -7.71157 -8.7377 -3.97378 -1.34063 -2.70559 -3.37655 -3.32265 -3.1009 -3.04426 -3.12472 -3.0724 -2.30003 -1.84871 -0.892009 -2.97945 -4.22484 -5.29252 -5.18157 -5.91643 -5.28287 -2.94321 -0.590808 0.0656836 -2.39843 -2.46069 -2.6105 -2.15272 -2.37561 -3.03408 -2.0053 -3.27848 -2.67464 -2.7944 -2.01525 -2.06447 -2.08501 -2.94535 -2.50977 -2.71699 -2.5022 -2.07821 -1.6796 -1.85721 -2.65202 -2.5454 -2.4105 -3.88587 -4.31665 -3.16878 -2.15287 -2.46574 -2.95114 -2.34644 -1.98264 -2.14647 -2.35782 -1.62414 -2.17561 -2.42695 -4.0804 -5.15867 -2.77039 -2.47468 -9.86102 -5.03558 -15.8566 -2.14438 10.5466 -1.08865 -11.5473 -15.3337 -5.61364 -6.22416 5.42376 9.21816 4.93181 -8.88615 -15.8042 -6.36307 12.1232 2.36074 -1.99557 -6.93152 12.6176 -3.43015 1.75957 -5.36318 -10.4555 3.7219 15.559 11.3054 11.6696 11.2871 -5.30514 -7.98041 -10.4556 0.495429 -2.77347 -3.36071 -7.58461 -9.56428 -6.03061 -12.5041 -2.8846 -2.39065 -2.23873 -1.84906 -1.4786 -1.85423 -2.01298 -2.87118 -1.77116 -1.30318 -0.995254 -2.29043 -3.26085 -4.58617 -6.00161 -5.79485 -5.04403 -3.94224 -4.03282 -2.53787 -3.0319 -2.62407 -2.74572 -2.99208 -2.21101 -2.08423 -2.06901 -2.86523 -3.01746 -3.45833 -2.50325 -2.89156 -3.15755 -2.83308 -3.0484 -2.62698 -2.15059 -1.30091 -1.79387 -2.21439 -1.69761 -0.590599 -1.26861 -2.97291 -3.40398 -1.80375 -0.458035 -2.60689 -3.44109 -3.28581 -1.5604 -2.01877 -1.9506 -1.99992 -2.3647 -3.48221 -4.88008 -4.32046 -3.39721 -2.2937 -4.60602 -3.95677 -13.688 -16.8341 3.50829 27.6783 17.6289 -0.125484 4.91859 5.28517 8.11754 8.45431 8.83377 5.62146 -3.16402 -0.135525 5.96566 2.36047 -8.44687 -6.04009 -14.0204 -19.7088 4.46451 -0.439923 -5.51303 0.198826 -2.62507 -10.732 -13.3633 -26.1399 13.6563 -0.273987 3.27219 7.57367 3.49173 8.22476 2.98857 1.57194 0.469955 -4.54445 -3.81623 -3.31557 -2.62822 -2.78376 -3.5814 -3.92607 -3.35923 -3.28028 -2.31294 -1.82579 -9.17874 -16.3547 -16.5901 -16.6523 -13.8933 -14.2255 -12.7709 -13.7342 -12.5926 -7.03811 1.36914 1.60013 1.61807 1.12344 1.24728 0.953082 1.66183 2.10313 2.14784 1.81999 -3.19703 -3.94213 -3.79293 -2.93034 -2.89033 -3.44758 -3.52755 -3.38634 -3.20078 -3.81406 -2.69519 -2.65019 -2.37921 -2.36654 -2.65827 -2.72589 -3.02143 -2.57672 -3.2295 -3.35634 -3.56275 -3.27831 -3.4294 -3.03639 -3.10442 -2.55045 -1.98215 -1.97593 -2.83249 -3.21637 -3.91251 -4.72935 -4.17127 -3.66608 -3.48322 -2.87003 -2.00785 -3.09119 -3.68969 -2.84251 16.6305 -1.76826 -6.36508 0.838115 1.99608 -1.44112 13.6698 6.69723 1.21753 -1.52429 5.02429 4.91731 5.2945 4.75385 3.0995 2.05864 3.61926 2.74449 2.91762 -0.772574 -1.1994 -6.78886 -7.81527 -10.0158 -12.9303 1.83823 2.75045 0.12077 -5.47489 -15.8811 -2.54533 -2.02282 -1.36823 -2.11222 -2.07683 -1.54393 -2.35754 -2.1279 -1.86877 -0.17218 3.65126 -5.79259 -8.09151 -5.08163 -1.4124 0.79977 -3.33751 -5.3214 -3.26192 -2.21696 2.29062 1.46386 1.57379 2.1183 2.6853 3.00625 4.07853 3.37458 2.32052 1.2804 -1.71613 -1.37905 -2.47485 -2.06136 -2.53991 -2.05035 -2.0701 -2.57641 -1.92248 -1.87891 -0.726388 -1.51817 -1.37569 -1.24935 -1.92264 -1.84804 -1.61122 -2.31716 -1.80393 -1.93157 -1.89642 -1.92138 -1.80914 -1.50525 -2.38942 -1.29057 -0.762515 -0.817123 -1.5137 -1.51452 -2.19399 -1.06943 -1.61985 -1.24243 -0.602826 0.293791 -0.556591 -1.53765 -2.24103 -1.51449 -0.198134 -14.8838 -10.7424 -1.7426 0.386255 -3.14155 15.1677 12.5639 3.60994 -10.1654 3.68215 3.68986 3.0386 2.30875 2.49145 4.7206 2.96929 6.01767 7.63135 2.06712 -1.93568 -4.92145 -11.701 -8.4725 -10.2777 -8.97568 -1.97857 -6.82842 -7.09206 -15.048 -4.78043 -3.51069 -2.82982 -3.38376 -3.68796 -3.28687 -3.13441 -2.5763 -2.66878 -2.0397 9.79946 2.26318 1.33536 5.75153 9.32091 9.84302 9.46769 10.5946 6.79198 4.978 0.965458 0.472285 1.31617 1.78462 1.6757 1.64506 2.60783 1.08129 0.280408 0.144094 -1.96888 -1.67188 -2.07755 -2.35873 -2.24221 -2.42962 -2.78396 -2.6482 -2.82314 -2.24697 -2.7165 -2.08693 -3.20727 -2.79097 -2.88585 -3.08668 -2.40582 -2.414 -2.61444 -2.89089 -3.11344 -2.68545 -2.65528 -2.55877 -3.13673 -3.34795 -2.61988 -2.8557 -2.45262 -3.05589 -1.31464 -1.77377 -0.994251 -0.0928662 -0.159395 -1.3239 -1.33537 -2.42882 -2.92533 -1.61873 14.6987 0.681784 -7.19718 -22.2566 -13.3372 -11.4367 -0.349859 -0.832552 -10.0852 -5.19336 0.903655 0.253405 -1.10718 -1.2 1.438 2.61258 2.83805 4.84653 8.445 2.54434 -1.50794 0.03442 -4.64397 -2.17984 -7.30882 -7.13973 4.73481 4.6462 2.79613 -7.85675 -3.86801 -2.92982 -1.59357 -1.94472 -1.39175 -1.19987 -1.19827 -1.03653 -1.05407 -0.887608 3.07357 -1.1306 -0.291957 3.68116 3.58517 3.80332 2.51663 1.76443 3.29311 3.8698 1.7562 2.58316 2.43967 2.10331 3.28847 2.59025 1.92972 0.801809 1.71857 2.8167 -2.00483 -1.92872 -1.97523 -1.99548 -1.92809 -2.18626 -1.94736 -2.25637 -2.43586 -2.62082 -1.91775 -1.34346 -1.71635 -1.43444 -1.09381 -1.84166 -1.45283 -1.48094 -2.08091 -1.11448 -2.01506 -2.11618 -1.69499 -1.52345 -1.90189 -1.54823 -1.50592 -1.6466 -1.50074 -1.37605 -1.03689 -1.10234 0.455887 0.179576 -0.153016 -1.26148 -1.82231 -2.74056 -3.07961 -2.54433 -3.36866 -6.76048 -7.52639 -9.68208 -7.85716 -2.62039 -1.99804 -13.0586 -21.3262 -4.16871 8.08344 3.33409 -0.285532 -0.436649 2.70772 4.08568 2.93205 4.70134 6.17814 2.80502 12.213 13.0487 2.97116 -2.32468 -3.22281 3.00254 18.8507 14.3744 15.0201 3.34216 -2.54413 -1.98071 -2.03035 -2.84512 -2.01366 -0.850891 -1.37417 -1.87193 -1.93071 -1.5593 -8.84173 -8.19867 -6.57657 -7.52534 -5.90586 -4.91124 -1.79521 -0.880207 -2.05256 0.148823 1.36127 1.58722 1.55894 1.61843 1.12435 0.631057 0.0465779 0.599659 2.44965 3.31739 -3.94388 -4.54429 -3.73824 -4.23975 -3.71667 -4.00556 -3.4325 -3.91781 -3.69255 -3.62843 -2.52412 -2.67022 -3.52478 -3.16226 -2.55358 -2.54491 -2.96581 -3.43934 -3.05122 -3.30818 -3.01998 -3.48348 -2.57056 -2.82347 -3.4116 -3.13164 -2.8135 -3.00449 -3.54328 -3.77698 -3.43678 -3.16494 -2.72848 -2.07686 -1.91716 -2.41407 -4.1868 -4.10869 -5.4175 -4.45055 -23.0766 -17.9328 -12.8006 -1.94357 -3.96208 4.77711 3.41201 -12.534 -18.1361 -1.68591 7.49679 7.34461 6.22619 6.24485 9.51323 9.7206 7.53818 8.28652 6.08584 5.05798 -9.10353 -7.74538 -9.22328 -6.91111 -5.44537 -4.95317 -3.67092 -2.4875 -4.29287 -5.04181 8.40492 7.07798 7.12286 7.77653 5.88616 2.78218 5.72683 6.50945 8.46297 10.7563 -3.92663 -3.53945 -3.5329 -2.43157 -2.84422 -2.81384 -1.70835 -2.07387 -2.41569 -2.45558 -2.62914 -1.18116 -0.881684 -1.57932 -0.940002 -0.0879207 -0.778278 -2.01157 -1.26557 -0.00264228 -2.28356 -2.71727 -3.57685 -2.78462 -2.66342 -2.8423 -2.61067 -2.28125 -2.2132 -1.47336 1.65205 -1.15132 -2.10724 -1.37283 -1.25605 -2.01429 -1.64614 -0.676207 -0.335154 -0.482128 -4.48269 -3.34544 -3.1594 -2.82441 -2.52507 -3.12353 -2.96524 -2.9263 -1.83993 -3.18739 -4.65785 -5.6819 -4.09711 -1.34995 1.30339 2.45263 4.04761 -3.15352 -6.98421 -5.03377 -4.49774 -26.7127 -44.1553 -31.6599 -27.0882 -15.5818 -11.6921 -22.0227 -2.35068 0.0516073 20.4773 20.3839 15.5245 -15.2247 12.4954 9.71768 -5.0104 1.15484 10.8 20.0397 -1.41303 -1.31848 -4.49239 -4.32038 -4.9454 -5.7298 -5.05838 -5.99388 -7.39187 -6.98373 3.76339 4.51382 1.7849 -1.99756 -4.05418 -3.5201 0.111503 0.625209 0.423552 2.06368 -4.73635 -4.25439 -3.9354 -3.13303 -3.59703 -3.57291 -2.99771 -3.15105 -3.66269 -3.03873 -2.95553 -1.43607 -1.68884 -2.22244 -2.65766 -3.31832 -2.46134 -4.61286 -3.01822 -2.77598 -2.7698 -2.77509 -2.97811 -2.51676 -3.00028 -3.45255 -3.16742 -2.1248 -2.0409 -2.59329 0.734114 -2.11716 -0.518029 -0.747598 -0.316332 -2.19845 -2.25872 -0.279537 -0.34938 -1.00165 -4.10384 -2.52638 -2.72165 -3.21679 -2.08438 -2.87034 -3.70987 -3.19861 -3.94941 -3.62241 -2.23111 -1.7028 -0.536564 0.298688 2.88263 4.4784 2.61213 -3.88885 -3.09237 -2.27652 2.6968 19.0257 13.8175 12.6777 12.6482 1.30463 -6.37733 -28.8427 -14.0901 -1.37997 -9.58664 -15.5646 -3.80786 -18.6456 -23.2466 -3.23439 11.777 -18.1025 -22.0493 -7.44342 4.30685 4.59928 -0.078473 -2.0606 -1.2222 -0.329583 -1.98269 -4.4344 -8.18348 -7.75424 1.66641 1.93184 -0.211573 -5.14523 -4.61987 -1.79831 -2.0669 0.121411 1.00282 0.358993 -3.70569 -3.38636 -3.66627 -3.46349 -3.25051 -3.95267 -3.87152 -3.55705 -3.45273 -3.32791 -2.37924 -2.24802 -1.37411 -0.991735 -2.26926 -2.91003 -2.67142 -3.82446 -3.04261 -3.10615 -2.61217 -3.11115 -3.16366 -2.59504 -2.75365 -2.52565 -2.3822 -1.66456 -1.36104 -1.74055 -0.679863 -4.39881 -2.11269 -1.1473 -1.38518 -3.50781 -3.98208 -2.35604 -2.29533 -1.38828 -2.52995 -3.32963 -4.62766 -3.5731 -2.76443 -3.36274 -2.99436 -2.71798 -2.82045 -2.81397 -1.17578 -0.248072 0.356626 -1.5857 -3.27607 -3.08032 -3.05029 -2.55122 -4.95686 -0.969777 -17.3683 -3.50458 -3.55637 -10.8042 3.04969 -9.95988 1.4181 -17.9954 -30.6794 -19.0325 -14.9667 -3.82741 4.68329 6.48551 -10.3949 -3.40145 7.49359 -11.7327 -23.3213 1.21596 0.826869 5.63887 4.28497 -0.308182 1.84679 2.51672 1.04314 2.03818 1.7657 0.324004 0.836628 -1.4699 -6.08981 -5.96971 -4.53944 -3.43413 -4.28779 -2.5971 -2.52413 -2.92115 -1.3315 -1.69969 -2.13278 -1.76934 -1.25376 -2.23737 -3.14496 -2.90097 -2.75284 -1.69942 -2.72825 -2.33397 -1.70226 -0.934559 -0.893283 -2.63262 -2.88758 -3.84419 -3.14879 -3.69361 -2.08724 -2.00284 -2.58661 -2.79342 -2.32913 -1.99469 -2.22507 -1.55301 -0.0440284 -0.690035 -2.51179 -4.16594 -2.51885 -1.78421 -4.86353 -7.51897 -6.7412 -4.14221 -4.54869 -4.3972 -0.046475 -2.48561 -3.64541 -3.95637 -1.51695 -1.40836 -0.347484 -0.484353 -1.11662 -3.39706 -2.53046 -0.281936 -3.27472 -4.87198 -3.66806 -5.96184 -7.02268 -6.99261 -5.70697 -2.37905 -2.33702 -0.867929 -0.0969111 -6.26539 -8.12846 -15.2561 20.3883 25.9371 -4.50312 5.91895 16.5702 4.88701 8.11654 -4.03555 -10.7672 -13.7617 -24.4407 1.68091 -8.56824 8.5662 -4.92679 -3.15382 -2.54184 -3.04509 -3.95612 -2.61846 -0.766644 -0.489645 -1.34019 -1.22861 -4.56131 -9.58691 -14.2461 -9.5398 -5.98786 -7.51938 -7.36827 -4.24683 -5.62753 -5.60098 -3.17583 -2.79717 -2.08781 -2.89221 -2.27691 -2.42408 -2.78805 -3.67246 -3.03765 -3.3202 -4.20375 -4.013 -3.39289 -2.08297 -2.26316 -3.01065 -3.14359 -2.87042 -2.75235 -3.42884 -3.13657 -2.36479 -2.83866 -3.75373 -3.73453 -3.00471 -1.93893 -1.45039 -1.46421 -1.99268 -6.52731 -9.39929 -7.81176 -7.24274 -7.31042 -9.3173 -7.48188 -6.03187 -5.88589 -7.36067 -1.43742 -4.01633 -6.63441 -5.38731 -4.0666 -3.0651 -1.89343 -2.1181 -2.62853 -6.3593 -1.05135 0.432721 -1.13845 -4.26038 -2.70822 -6.43905 -7.79506 -9.14182 -9.8697 -6.72956 22.7844 9.26146 -7.90361 -12.9028 -25.4177 -18.3139 8.0453 13.0866 13.0908 6.84383 -41.8456 -50.1765 2.58998 16.3439 -12.328 -31.6679 -18.4719 -4.6004 -9.17545 -12.9838 3.28284 2.38553 0.092829 0.27035 0.555794 -1.50395 -0.345998 0.372197 3.02961 6.52817 -2.60694 -1.65686 -2.20047 -3.45026 -3.98448 -3.71955 -4.93469 -5.56048 -3.45725 -2.05938 7.88807 8.48841 7.80325 4.92852 -0.074912 -2.25123 3.25179 0.245388 7.22446 12.3808 -3.48865 -3.36733 -3.46183 -2.92062 -2.8323 -1.90399 -1.06756 -1.44538 0.699533 -0.652326 -3.39976 -2.57119 -2.96717 -2.18025 -2.03806 -2.07754 -2.31446 -2.15105 -3.0243 -2.65739 -3.44832 -2.78874 -1.06841 -0.375135 -1.89484 -2.89265 -3.52484 -3.74949 -2.00181 -1.01034 -1.36214 -7.17355 3.40499 -3.52868 -4.28871 -0.899442 -2.02074 4.11057 3.05799 -5.55924 -3.93467 -24.1684 -41.5267 -49.908 -3.47755 29.5622 -4.03972 -19.3979 -26.3164 -25.1741 -3.64886 2.29379 -4.62427 -4.15485 4.15076 -12.2681 2.60495 10.92 -9.22822 -1.56657 -1.19427 -4.28475 -8.77827 -6.6255 -5.47908 -4.20772 -2.19882 -1.55993 3.03723 2.50208 -3.76809 -1.59535 -1.94808 -1.32107 -2.1311 -4.09072 -2.7032 -2.6204 -0.428189 0.845048 -1.78211 -0.585773 -1.2262 -1.77754 -2.50583 -3.84862 -3.60221 -4.09246 -1.71731 -0.479643 1.4903 -2.97646 -1.18348 -0.27086 -0.152976 -2.11469 1.3568 -1.94731 0.962693 7.59389 -4.14701 -6.65172 -6.82669 -5.79502 -4.84049 -3.70868 -1.53528 -2.90737 -2.68259 -3.17028 -3.27734 -2.25076 -2.4056 -2.76177 -2.26204 -2.53912 -2.32646 -2.77228 -2.52186 -2.71038 -3.24398 -3.2459 -1.30543 -1.64885 -1.86421 -2.81667 -4.80511 -3.0208 -3.73281 -2.95919 -4.23019 2.0203 13.9498 6.61251 -6.3386 -4.80703 -4.46798 2.02155 4.04633 1.64614 21.491 5.03497 -0.994883 -6.49185 -2.28127 9.58317 -16.7596 -22.4224 -13.4911 -14.6099 -5.77791 9.10707 3.65417 -2.19991 8.23354 -5.36669 -0.308563 12.1778 6.17573 23.0781 -3.01829 -4.7629 -7.15481 -3.54251 -2.97368 -3.70115 -4.22276 -3.33796 1.2222 -0.968058 -6.21061 -7.91075 -6.36417 -3.74714 -5.90363 -6.95444 -2.71751 -1.89752 -2.21638 -1.62894 -2.79933 -1.99387 -1.69976 -1.62561 -2.72101 -4.02196 -3.8953 -3.40905 -1.56538 -0.4356 1.50199 -3.80692 -2.20695 0.219423 0.925497 -1.125 1.96358 1.46937 2.89485 4.85245 -2.17264 -4.9316 -5.5963 -5.18112 -3.5616 -1.59534 -0.243899 -1.45459 -2.88515 -5.22867 -2.4258 -2.19948 -2.07418 -2.17546 -2.2026 -2.71298 -2.17864 -2.83809 -2.82091 -2.22583 -3.3347 -2.77874 -1.30544 -2.42588 -1.92709 -2.36838 -3.45903 -1.98706 -2.84678 -2.11112 -1.96638 -5.28371 1.69705 1.11713 2.81021 -7.19556 -9.32831 -1.71201 -1.42914 -0.830917 -1.04802 -12.2682 -1.31569 -0.666368 -4.39024 1.20887 7.98389 -3.82518 7.09255 10.4753 -12.5277 0.818357 -1.32616 3.07335 2.26221 -4.54425 -11.7955 0.571767 3.94719 6.19769 -3.34349 -3.07857 -4.4113 -1.18366 0.184345 -2.65798 -4.87392 -3.02202 -0.538016 -3.41497 -6.14874 -9.24869 -9.6808 -8.35056 -7.3004 -9.65286 -5.07027 -2.70427 -3.66436 -2.95995 -4.49895 -3.89926 -3.72852 -3.93465 -4.29377 -4.30018 -5.15429 -2.58378 -0.968545 0.621296 -0.972001 -1.828 2.07265 6.40431 4.46921 -2.54522 -4.73014 -4.87814 3.16676 5.58018 0.648178 -3.045 -4.33189 -4.15622 -2.6689 0.0132134 -0.0639188 -2.10762 -4.27157 -5.81521 -3.74137 -2.81589 -2.9324 -2.78447 -2.03648 -2.38182 -2.50103 -2.46589 -2.69695 -3.14792 -4.40264 -3.84213 -1.81079 -1.92741 -2.69387 -2.77207 -2.0402 -1.43231 -1.03596 -1.81016 9.19433 -10.6644 -8.19126 -1.46916 3.00645 -16.8406 -11.9333 -1.96848 -4.6486 -6.38913 -9.12135 1.11649 -4.64252 0.389214 -4.56574 -6.32581 11.3886 -9.44478 5.18895 18.4571 -1.21812 1.24422 1.11869 6.48713 16.7066 -0.697375 0.509055 1.34734 -3.58197 -3.66408 -2.95716 -3.80582 -3.29112 -1.02442 -0.201398 -5.43353 -5.82707 -3.41606 -1.46229 -3.38987 -5.39663 -8.80565 -9.45857 -4.12726 -1.6986 -5.39644 -6.21283 -8.26527 -7.26827 -3.56559 -3.86431 -3.33135 -3.23975 -4.44835 -3.95588 -3.82031 -3.55177 -1.74738 0.265099 0.987331 1.58516 5.30222 4.93323 7.65529 8.81585 2.3629 -2.93021 -4.6873 0.539628 0.820014 4.22826 0.403137 -0.825007 -0.723786 -1.53376 0.232192 0.530497 -1.1233 -1.43667 -1.93225 -2.87529 -2.40332 -1.77218 -2.17586 -1.99499 -1.87765 -1.92169 -2.39381 -1.85961 -2.54706 -2.87457 -2.33342 -1.5648 -1.62286 -2.00565 -3.44735 -2.61576 -1.51026 -0.490258 -0.612085 -0.80276 -13.2652 -14.816 -18.6779 -4.02591 -11.338 -11.6111 -9.95989 -7.31257 -14.082 10.8924 23.458 10.6882 4.0937 -12.6725 -17.0201 -11.5286 -21.8189 -16.7959 2.2673 6.59018 7.01942 -10.8707 -3.20225 5.48896 5.2824 0.802107 5.87279 6.97725 1.57327 -2.51496 -3.89086 -2.2481 -2.40233 -2.4958 -3.53595 -1.98013 -0.921085 0.649792 -3.43301 -6.92662 -5.5005 -5.48483 -5.70968 -4.09932 -3.0742 -4.19234 -8.20541 -10.0332 -10.7648 11.1999 7.06176 5.072 3.24863 5.73434 6.31011 11.3191 8.93998 5.25642 3.38999 7.5996 8.42574 7.35403 2.11455 -0.407282 4.10117 6.55921 4.41252 3.77532 4.22713 2.51341 3.4107 3.19935 3.472 3.24535 3.66366 3.88485 4.00136 3.24914 3.35163 0.75196 0.370343 -1.47863 -5.7719 -4.68484 -4.05684 -4.73097 -1.66014 0.665646 -2.72717 -5.13856 -20.9606 -17.3261 -17.7808 -23.2926 -18.2507 -18.8983 -9.53408 -20.448 -24.5871 -0.713872 -1.14518 -2.42058 -2.34767 -2.54949 -2.17153 -2.51673 -2.4875 -2.25902 -2.33854 -2.26592 -2.56842 -2.61391 -2.81765 -2.52648 -2.31719 -2.33754 -1.93181 -1.82363 -1.85981 -0.595836 -0.948099 -0.464112 -2.29566 -2.78917 -2.77997 -2.65805 -5.30591 -4.42033 -3.99844 -3.79817 -7.52761 -6.21429 -3.53571 -3.75558 -3.77046 2.50072 3.8631 1.17967 -0.327115 -2.79462 -0.712691 -1.68094 -1.15852 -0.671297 -0.399367 -1.37161 -3.31837 -7.75885 -7.75342 4.93567 3.99141 5.41096 2.85375 1.99493 3.36015 4.18747 4.55109 1.57214 5.2023 -3.78249 -2.15574 -5.12251 -7.40379 -5.12814 -2.49224 0.674744 0.212933 -0.235899 1.18432 2.50568 2.56044 1.63703 1.3587 2.54261 2.05879 3.0481 3.74576 3.39668 3.46907 -1.5027 0.749957 1.22585 -1.9116 -2.80216 -0.390399 1.27242 -0.505935 -2.06543 -3.32173 3.97599 -15.3987 -21.4961 -16.4741 -13.3858 -16.7879 -12.8745 -5.4179 -11.3183 -13.5756 -3.17441 -2.23235 -1.63991 -2.56121 -2.7698 -2.07554 -2.27067 -1.91908 -2.83658 -3.32002 -2.52964 -2.96598 -2.84191 -2.56892 -2.66672 -2.79281 -2.47099 -1.78333 -2.41889 -2.03772 -1.68955 -3.04296 -2.30197 -2.49663 -3.28322 -2.58141 -3.08666 -4.50972 -4.506 -3.4786 -2.61414 -8.62049 -6.03584 -0.548685 -2.15094 -0.771623 2.64779 5.38494 1.99365 0.233459 -3.20783 -0.719488 -0.182952 0.474095 1.27617 -0.94064 -1.63788 -3.31407 -3.90561 -4.57426 5.01495 4.18399 5.90772 4.37776 3.56553 4.82953 2.61726 1.71501 -2.8225 1.60835 -8.84259 -8.95651 -6.72839 -7.02744 -7.44249 -5.57254 -3.5209 -2.70451 -6.6838 -4.79662 1.35747 1.16996 0.463178 0.917604 1.2645 1.87115 2.94038 3.5765 2.94825 3.07121 -6.67885 -5.80732 -2.61166 -3.83932 -5.07971 -5.40309 -3.64718 -2.93918 -2.27394 -3.5305 15.2623 0.252179 -11.2634 -6.3145 -5.29835 -13.997 -10.3585 -0.0678619 -1.6098 -2.37517 -4.1876 -2.25256 -2.28051 -2.65423 -3.69545 -3.30452 -2.82174 -3.33129 -4.23683 -3.66049 -2.70101 -3.31721 -2.86867 -3.04174 -2.59635 -2.24022 -2.89433 -2.5887 -3.15989 -3.61041 -1.65254 -3.87025 -2.7064 -1.34305 -2.7923 -2.51955 -3.23942 -4.22241 -4.94003 -5.28693 1.34806 -5.86513 -4.74338 -4.94041 -8.72657 -2.30306 -1.71726 1.82359 -0.62469 4.68389 -4.27398 -2.59681 0.105046 1.07818 1.60799 -0.305103 -0.760335 -0.993645 -1.33729 -0.627703 -2.47358 -4.5903 -3.39585 0.129497 0.880167 2.46599 4.75908 3.77632 1.08492 2.80196 -6.98934 -8.71664 -9.00322 -5.25647 -3.98231 -6.9783 -11.4022 -10.7809 -11.3734 -12.6021 0.497773 0.0496842 -0.54808 0.341835 0.437985 1.88805 1.27004 1.99786 2.00901 3.02379 -7.17984 -4.43775 -4.74515 -6.902 -9.48559 -10.0355 -6.15869 -0.0835105 -1.9847 -1.40794 7.17552 3.18827 -7.52423 -5.80005 -0.327428 3.28556 5.44711 7.16645 8.24822 16.3553 -2.32124 -0.686389 -1.56182 -1.23534 -2.09752 -2.33479 -2.62525 -2.85086 -3.74594 -2.91547 -2.57282 -2.85161 -2.22963 -1.71816 -2.25351 -2.02459 -2.1633 -1.98126 -2.9071 -3.64911 0.00899266 -1.62983 -0.316795 0.631327 0.354168 -0.740504 -0.937694 -2.43842 -4.55606 -4.60658 5.11206 0.85156 0.420277 -6.44402 -6.12234 -2.73915 2.40497 3.64171 0.0727465 4.75639 -9.51435 -6.37711 -4.52946 -3.68058 -6.14476 -7.43892 -5.98592 -2.92788 -3.92691 -2.83455 0.255374 -9.50639 -6.81491 -2.81102 -0.07235 0.862252 5.86779 12.6384 13.5962 12.8538 -5.25391 -12.324 -14.1063 -15.2215 -9.30441 -7.93204 -8.42296 -8.43523 -7.28262 -14.583 0.898135 0.530778 0.761765 1.21501 0.979019 2.29235 2.18607 1.96568 2.60892 4.26943 -3.86867 -0.896926 -0.268139 -1.24352 -5.16422 -6.75988 -3.66603 3.0449 2.36595 1.30832 2.85759 -8.13577 -8.30065 -0.853141 6.26409 0.761362 6.31313 9.33282 6.70762 13.5131 -2.56109 -1.38296 -1.67088 -2.01653 -2.63211 -2.93615 -3.2098 -3.54699 -4.11513 -3.34943 -2.5841 -3.65053 -2.34237 -2.51065 -2.70396 -3.14811 -3.32319 -2.84006 -3.36424 -3.43217 -2.06547 -3.00392 -1.36779 -1.25776 -1.20574 -1.16329 -2.32089 -2.66462 -3.00634 -4.6006 -1.52741 -2.00894 -2.72311 -8.92718 -9.58444 -5.17944 -6.26577 -8.31238 -5.01961 -2.04274 -7.19928 -7.06658 -7.57861 -7.20521 -4.1328 -4.1644 -5.76978 -3.88156 -3.83468 0.836375 22.253 -1.81673 -5.63629 -11.6891 -13.6738 -21.9798 -16.4209 -13.3061 -9.16316 1.23008 2.293 2.24374 2.13923 3.48314 4.03686 3.35792 3.16741 2.89508 1.85844 1.82299 -2.13821 -2.08326 -1.66055 -1.77018 -1.94906 -2.04558 -2.81369 -1.64005 -2.27905 -3.40663 0.720828 0.234224 -1.33241 -2.90715 -2.59297 -0.934344 1.45386 2.66316 2.13113 1.04023 -6.61446 -8.22395 0.128874 5.91516 4.82149 3.26879 3.86657 4.14233 2.79306 1.46964 -0.167506 -4.4949 -10.4108 -7.32723 -1.57809 -7.55461 -11.5525 -14.718 -13.0413 -7.90027 -2.63299 -3.17006 -6.0748 -3.62537 -3.28907 -3.55267 -3.41433 -2.39616 -5.25944 -6.76304 -1.90372 -0.962879 -2.52147 -5.31207 -9.86754 -12.2267 -11.6521 -8.62965 -10.7544 -7.54829 10.7436 1.76627 0.0748959 11.8053 1.33324 0.833929 8.95337 5.27835 -5.88537 -19.2122 -1.25904 -2.74008 -4.67009 -5.24373 -4.59774 -1.75325 -2.16422 -4.86127 -2.90404 0.073711 -1.6278 -15.7636 -14.0336 0.468704 6.9574 -15.4511 -3.59689 6.19864 0.533075 19.2592 1.64477 2.22571 2.12525 4.23224 4.33447 3.78301 3.6687 3.09582 2.66506 2.11465 -2.2361 -2.29819 -2.73016 -2.21271 -2.14732 -2.64415 -1.72345 -1.69275 -2.91987 -2.77932 1.17001 1.03738 -0.499166 -2.06347 -1.18154 0.446178 1.87753 2.47962 2.33446 -0.207152 -11.835 -10.0617 -5.49524 -2.86592 -3.30165 -6.22436 -5.56836 -2.4339 -0.887678 -2.05565 3.18329 -4.46804 -9.34238 -2.73494 4.49118 -0.909714 -3.23264 -3.53741 -0.758352 4.53718 -0.26493 -0.099351 -6.18689 -4.14082 -1.71415 -1.77047 -2.37478 -0.557272 -4.00942 -6.59686 -0.280141 -1.09684 -3.10011 -8.03106 -8.60164 -9.93097 -9.95123 -7.26728 -7.31837 -8.79115 2.62695 4.02808 6.73459 9.8107 -2.39389 2.7304 5.51086 5.51287 -0.877656 -16.3641 0.511196 -1.52765 -2.87817 -4.83357 -5.87456 -5.65258 -3.51549 -3.42512 -4.80662 -2.51836 -22.0907 11.0329 -1.96092 -13.6584 5.45811 4.20469 7.1 5.15094 -11.1418 14.4545 2.2074 2.29633 2.96368 4.71503 4.57285 3.48199 2.22657 0.916976 1.70023 2.43592 -3.09536 -3.17208 -2.40422 -2.40434 -2.14953 -2.36279 -2.23439 -2.29799 -2.21548 -2.7412 3.24531 1.62613 0.912352 0.748372 2.05097 3.33918 4.35035 3.9179 3.40807 2.31416 -2.89229 -2.5482 -2.19098 -3.78968 -3.17229 -3.21104 -4.34278 -2.37803 -3.229 -2.46215 -6.89707 -10.3108 -7.19985 2.37634 6.28346 0.483124 -0.42314 -4.85118 -1.88149 8.13847 -2.14355 0.66326 -4.71796 -2.30588 -1.11717 -3.43587 -2.11732 -3.12754 -2.95189 -3.20852 0.885579 -0.614808 -3.14542 -8.08988 -9.09523 -5.44084 -7.31875 -7.84618 -12.4252 -13.4229 4.49461 9.32795 3.12466 6.27841 2.29222 3.64699 10.5337 -1.32383 -2.05664 -3.94017 -0.102565 -2.35269 -2.64426 -4.95771 -4.81176 -4.74678 -3.91719 -3.88684 -3.70644 -1.91387 -11.094 -18.584 -18.8784 -25.2584 -10.6167 -8.49329 -0.97458 -7.34332 -17.7432 1.49427 1.18354 2.17628 3.06884 3.25963 2.46255 1.82051 0.770863 0.247426 1.04174 1.10019 -2.54074 -3.15357 -2.99815 -2.40192 -2.42654 -3.26023 -3.13591 -2.83505 -3.32827 -4.04518 3.55758 2.34719 2.09753 1.54988 1.7007 4.14087 5.45977 3.98073 3.30743 2.3471 -5.73276 -5.55601 -6.14457 -6.72246 -4.69761 -3.95631 -4.5286 -4.12929 -3.80633 -5.4748 -7.41258 -5.10202 -0.206342 3.59933 -0.242431 -4.28456 -4.44452 -8.79487 -5.59759 1.53396 -3.7123 -1.30437 -3.78895 -1.88938 -0.606671 -3.04682 -4.40315 -6.38122 -6.38567 -2.81411 6.96099 5.26349 4.08618 0.797561 3.39865 -1.34372 -0.668708 -0.469546 -5.07886 -9.48379 -0.459108 0.542202 2.99381 1.05041 0.526876 2.53379 4.53325 -0.0896668 2.62009 -0.321353 -0.763826 -0.609559 -3.0754 -4.59449 -4.15836 -5.31485 -4.7393 -3.66026 -4.424 -2.64621 25.21 -0.764854 0.107091 -1.02654 3.90215 -2.45818 -1.27293 -6.78964 -19.6047 -5.12675 2.15737 3.21069 2.73556 2.05567 2.35685 2.1841 2.7285 1.70464 2.04721 1.60066 -1.92769 -2.02217 -2.45222 -2.26849 -2.26475 -2.60436 -2.69453 -3.35074 -3.76699 -3.54366 3.34353 2.45755 2.50357 1.74499 2.06684 4.27704 5.69139 4.40561 4.09204 2.7611 -6.34196 -7.52339 -7.32558 -6.10349 -4.18286 -3.665 -5.00297 -5.7106 -8.10453 -7.21823 2.62288 1.425 -3.29185 -5.59058 -4.24632 -1.96007 -6.07746 -11.9437 -5.02791 0.0494329 -5.62706 -2.08828 -4.94496 -6.22888 -4.34193 -4.80233 -6.73878 -9.6435 -6.18494 -1.89283 2.84047 -1.46872 -1.30412 -2.44791 0.831294 -0.780518 -3.11103 5.29405 5.906 2.16277 -0.434296 -1.15562 1.69776 6.45996 8.35647 0.39041 6.28135 12.6765 10.1809 7.8905 -3.834 -3.95568 -3.0679 -3.4928 -3.50159 -4.2356 -3.40664 -3.40437 -2.76286 -1.71717 4.29514 -9.39195 -12.4084 -11.6171 -5.33586 -16.1879 6.59427 19.9444 12.5762 6.41356 4.65488 11.9554 10.9052 5.91453 -3.15143 -15.3788 -4.63813 -3.42031 -6.68691 2.39041 -5.3914 -4.52201 -3.37655 -2.82061 -2.72217 -3.06284 -3.25961 -2.72185 -2.76475 -2.97618 -3.25795 -3.02661 -3.41777 -2.23472 -2.82676 -3.08697 -2.9323 -3.66436 -4.09334 -2.98735 -4.02269 -5.31399 -4.2581 -5.10331 -4.765 -4.88049 -3.10968 -3.11124 -3.38496 -2.21144 -3.08059 -3.05495 -2.29928 -3.08938 -3.08261 -2.85932 -3.12886 -3.35035 -2.89957 -2.83108 -3.66811 -4.32308 -5.38928 -6.47634 -6.60676 -5.67655 -5.65363 -8.87459 -7.27093 -2.85085 -5.13342 -3.64023 -3.00451 -1.40844 -4.34781 -4.94936 -3.44433 -3.22444 -2.18299 -3.99004 -1.66446 -1.57443 -1.88928 -1.99345 -1.63689 -1.47749 -1.12185 -1.75673 -1.40478 -1.58602 -2.73423 -2.85008 -3.03684 -2.59143 -3.25654 -3.5829 -3.31912 -2.68278 -2.27034 -1.60418 -8.90182 -12.5833 -12.0823 1.61437 1.98814 -15.3734 6.83387 -14.5668 -12.8906 -6.18005 8.4168 9.57031 7.53496 3.88669 -3.90786 0.847492 1.95207 12.7715 5.73178 13.7735 -3.89342 -3.84777 -2.55681 -1.61132 -1.04415 -1.8993 -1.39658 -1.5737 -1.22525 -1.64293 -2.78833 -2.6177 -2.49104 -1.75597 -1.92851 -2.18153 -2.92245 -4.22476 -3.24025 -2.77619 -4.50024 -4.72919 -4.17351 -4.03348 -3.64915 -4.18647 -3.33407 -1.1623 -0.812254 -1.68491 -2.67545 -2.79104 -2.73698 -2.53977 -2.80222 -2.98047 -2.71258 -2.40878 -2.9571 -2.99736 -0.868536 -0.437572 -1.89562 -1.4037 -2.89103 -3.68609 -2.16756 -4.74304 -3.74672 2.67058 -5.02122 -2.64186 -1.20596 -1.09736 -2.68485 -4.77567 -2.9915 -4.36687 -1.40236 -2.89256 -2.09114 -2.0093 -2.10021 -1.91976 -1.72648 -2.04951 -1.39841 -1.79285 -2.30989 -2.16896 -0.444876 -1.76736 -2.23622 -3.23352 -3.08024 -2.835 -2.56239 -2.5146 -2.2916 -1.60373 0.611459 5.54174 -7.55065 -0.354449 2.86468 8.75216 -8.79304 -11.6166 -10.8569 -6.34093 1.91538 5.38103 0.187266 -1.55413 -8.82197 -4.16515 4.9624 1.07837 -0.995584 1.44354 -2.81336 -2.00044 -2.03362 -1.53207 -1.5575 -0.752799 -0.798504 -0.664834 -1.24347 -1.91955 -2.65022 -2.13549 -2.30213 -2.25699 -2.16684 -2.4046 -2.84995 -3.39059 -3.58542 -2.38974 -1.76526 -2.24161 -0.993898 -0.727297 -1.96886 -2.65337 -1.41509 0.250516 -1.79066 -3.0638 -2.81111 -2.98415 -2.80706 -2.13251 -2.36587 -2.34543 -2.34822 -3.03614 -3.06454 -2.50034 -4.13155 0.158465 0.174789 -0.674617 -2.78377 -4.95499 -6.0056 -6.146 -2.69027 4.91743 -1.29904 -0.48238 1.68154 2.63824 -2.48372 -6.51901 -4.2983 -3.72357 -2.94377 -3.87333 -1.99679 -1.73648 -1.56173 -1.45853 -1.87551 -2.306 -2.24172 -2.17769 -1.94555 -2.02697 -0.792975 -2.52659 -3.60404 -3.59756 -3.63397 -3.65506 -3.99732 -3.07461 -3.22388 -2.346 -6.73633 4.4647 -3.6176 -2.4226 -1.54855 -6.75877 -10.6735 1.35018 -3.99214 -10.5973 11.0166 6.2375 7.37205 5.59746 2.80575 0.249985 3.69505 2.9895 -1.13914 -7.62366 -3.31423 -2.96001 -1.64578 -1.90001 -1.96707 -1.68201 -1.73599 -1.90524 -2.16842 -3.12407 -2.79909 -2.29713 -1.97681 -2.17001 -2.30587 -2.80046 -3.55355 -3.18965 -2.88436 -2.11069 0.30574 -1.17217 0.289571 -0.112563 -1.87384 -3.68081 -2.42012 -1.5402 -2.80019 -4.65099 -3.02241 -3.14891 -3.21857 -2.44586 -2.9988 -2.20149 -2.07443 -3.07213 -3.01422 -2.20694 -5.8989 -2.61674 0.877053 -3.26317 -6.25573 -11.2524 -12.0928 -10.1997 -6.14729 1.38631 -0.356465 2.2215 1.68255 1.65133 -3.82265 -4.55134 -4.60576 -3.94579 -4.44909 -5.94967 -1.93372 -1.82262 -2.05686 -2.54538 -2.186 -2.51917 -2.47211 -2.19501 -1.56862 -1.47541 -1.03784 -2.45433 -3.9565 -3.34259 -2.95647 -3.52076 -4.22189 -3.495 -3.30582 -4.00603 -17.7776 -5.21909 -11.9627 -13.1876 4.19277 -5.71429 -4.66453 5.26304 4.5256 -13.1635 14.1509 11.5911 12.0616 10.0876 5.1359 2.80895 5.46492 9.83598 10.8314 10.4668 -4.25852 -3.42218 -3.21509 -3.00685 -3.18027 -2.84557 -3.24118 -3.1588 -3.78153 -4.36923 -3.93946 -3.58981 -2.99391 -3.20171 -2.88932 -3.42526 -3.69449 -3.0384 -2.91567 -2.98598 0.0327748 0.54775 1.01103 -0.211266 -2.20452 -4.83334 -3.12231 -2.01065 -3.54242 -4.15664 -3.05416 -2.73965 -2.45678 -3.19443 -2.72167 -2.87438 -2.73657 -2.60257 -3.08123 -2.63138 0.0563373 1.207 6.62783 2.32144 -2.72919 -8.41498 -4.99924 -2.52868 -1.14655 2.54732 1.14998 0.296997 -0.546089 -2.0608 -5.74143 -6.91358 -7.97219 -7.03592 -5.38201 -7.17338 -1.84992 -2.3778 -2.039 -1.90038 -2.38089 -3.11648 -2.94951 -2.83645 -2.66115 -2.04241 1.11484 -1.94039 0.893295 1.60325 -1.62917 -2.20862 -0.903054 -2.08246 -1.48448 -1.22382 -3.37657 -5.16086 -6.85498 -8.67497 -8.76987 -6.64085 -8.0069 -5.60948 -1.75484 -0.037309 -3.14127 -5.2464 -4.97546 -3.67659 -4.02996 -3.835 -3.14676 -1.04104 -1.66485 -1.84352 -3.6748 -3.82637 -3.48833 -4.21548 -5.30953 -7.03556 -6.87982 -7.56514 -7.6832 -4.67221 -11.4713 -12.8223 -9.05023 -4.7957 1.6039 -0.984048 -9.9443 -12.442 -5.42889 -9.1293 6.14671 0.686666 -7.30606 -8.77988 -2.04213 4.04813 0.204902 -4.20799 -0.640332 -2.34807 -8.09298 -5.10827 -4.0183 -4.13288 -4.98074 -4.61324 -5.10874 -4.95949 -5.86139 -5.03189 -5.51987 -3.5465 -0.263661 2.02642 1.52614 1.57415 1.01133 -2.22536 -1.5869 3.32393 -3.09593 -2.97615 -2.64661 -4.19999 -4.68769 -5.16549 -6.40025 -5.82537 -6.2417 -6.30021 -3.94651 -3.41811 -4.04509 -3.6039 -3.09063 -2.33148 -3.35658 -3.26611 -4.46257 -3.99006 -4.62945 -4.35994 -2.57161 0.780093 -0.721093 -3.70172 -4.4368 -3.61967 -3.95753 -5.09845 -0.491336 0.543168 -2.94485 -4.73262 -6.32005 -7.83565 -8.52418 -4.35226 1.03609 1.5602 -6.8334 -8.17338 -7.03172 -6.15068 -3.90846 -4.24057 -3.28801 -2.09661 -2.04078 -2.02856 0.316572 -1.01541 -2.30079 -1.2114 -2.37421 -3.85393 -5.19832 -5.4653 -4.83556 -2.60468 -3.4999 -5.15678 -2.3798 -0.390768 -0.00224648 -0.306039 -4.7265 -5.36218 -4.31925 -6.47718 2.10983 1.14991 1.90893 -2.02171 -3.69248 -2.19904 -5.89076 -7.42275 -3.67269 -3.55634 -4.17287 -2.44782 -1.7739 -2.22981 -2.11628 -2.4649 -1.55841 -0.913055 -2.25138 -2.53431 -7.06712 -8.6942 -2.24357 0.596405 1.22394 2.81148 -1.37488 -2.23609 -1.02649 2.75466 -1.41272 -1.01947 -1.32169 -1.16611 -1.79422 -2.56889 -3.68969 -2.08472 -2.7729 -4.19844 -2.95246 -2.79519 -3.13111 -2.52523 -2.47163 -2.43725 -3.09972 -2.9909 -2.97908 -2.84456 -5.12023 -4.09002 -0.410405 0.565144 -0.490544 -0.289701 -0.809485 -2.55703 -2.41438 -1.85838 -0.981123 -0.707451 -3.73547 -5.41455 -6.07927 -6.61406 -8.05757 -3.70932 0.464221 0.424841 -4.84661 -5.00448 -3.13824 -3.69719 -4.02064 -2.57198 -2.46091 -3.16433 -2.07891 -2.10663 -0.0917065 -1.40906 -3.03314 -1.60407 -1.60027 -3.08941 -4.17118 -2.38899 -2.24885 -2.32051 -1.16444 -1.89354 -0.580439 1.04223 -0.352728 -0.992183 -2.91224 -0.807141 -0.78834 -3.65976 1.96152 2.48695 8.92121 5.63754 -0.244088 -3.13413 0.165608 -2.22742 1.76139 2.18708 -1.47637 -0.91959 -1.62692 -2.05587 -2.51013 -0.251424 -0.435439 -0.509835 -0.867446 -2.32334 -8.83828 -5.73251 -3.41952 -3.72356 -3.64373 -3.2543 -3.70563 -1.54405 -1.38299 -3.70998 -0.995807 -1.13417 -0.30063 -0.250129 -1.18109 -1.85475 -2.72333 -1.70202 -1.60362 -1.27123 -1.45292 -1.28474 -0.986905 -1.48678 -1.11343 -1.38472 -1.18509 -1.00104 -1.31382 -1.69967 -5.94878 -6.3987 -4.46288 -2.15722 -3.86451 -0.188375 -1.91459 -4.30435 -6.90293 -8.43316 1.99593 -0.905297 -2.19884 -3.49296 -4.73824 -5.13399 -5.82056 -3.78036 -0.36573 -1.51388 -3.91013 -2.36401 -2.21056 -4.26636 -5.24013 -2.60685 -3.67394 -4.41944 -0.341712 -0.225111 -0.583829 -3.53015 -2.99271 -0.991909 -0.607118 -0.949656 -1.87639 -0.746212 -2.07188 -3.09686 -4.21387 -3.10968 -2.35648 -1.55622 0.214904 -0.83202 -3.33019 -2.73524 0.140948 -3.6108 -8.00128 -6.97721 -3.42445 -0.719339 -2.53507 -6.46879 -1.06887 -5.95197 -6.63665 -9.71571 -3.34104 -3.697 -2.11581 -3.72801 -3.42548 -2.8856 -0.654589 -0.467854 -0.653912 -2.44507 -6.50565 -4.04506 -3.31095 -6.20155 -5.22948 -3.98195 -5.05245 -3.73473 -2.86705 -1.34567 -1.58528 -2.18465 -1.35172 -2.23426 -3.88814 -2.52251 -2.66101 -3.04886 -2.61833 -1.99625 -1.29575 -1.25042 -2.09 -2.36746 -1.6257 -1.24394 -1.71531 -2.34293 -2.39988 -2.73255 -4.82648 -7.69616 -7.29357 -6.98972 -2.0763 -0.803749 -5.98468 -8.08489 -9.68105 -8.25977 7.87254 -0.0187569 -2.38426 -5.29158 -4.63478 -7.25428 -6.83124 -3.9454 -3.96496 -1.96692 -2.27598 -2.45476 -2.21602 -2.66049 -4.02846 -3.56521 -2.82049 -1.25363 1.15597 -0.22734 -0.385745 -3.69001 -2.27125 0.451439 -0.690881 0.203886 1.05786 -0.937473 -1.9222 -0.92942 -2.92668 -1.98243 -1.08762 -1.41022 -0.0591909 -0.774815 -2.86646 -2.58131 -4.02403 -5.16801 -13.2785 -7.88581 -5.17097 -5.18682 -9.42248 -2.78228 -2.82964 -6.44436 -15.3777 -16.7067 -6.20832 -3.88261 -2.99565 -2.77178 -4.74344 -5.59974 -4.56725 -4.43458 -3.00092 -4.45697 -6.94081 -4.78704 -7.31611 -8.60418 -8.85265 -4.28886 -7.18352 -9.25584 -5.39492 -4.50128 -1.55207 -2.13771 -3.77431 -4.87578 -5.68296 -4.82268 -5.52419 -5.77744 -4.26322 -4.11587 -2.46814 -1.81762 -2.61568 -2.54389 -2.89011 -1.52494 -2.13721 -3.13857 -3.15005 -3.63869 -3.18503 -2.02022 -3.48569 -3.38422 -2.93933 -1.781 0.347135 1.11118 0.657939 -1.57894 -3.30881 -2.49381 -2.30063 -0.900347 0.0670461 0.429188 -3.3447 -3.65968 -3.71781 -3.81331 -1.1196 -1.88107 -1.88466 -2.20518 -2.64335 -2.42682 -3.10654 -2.71964 -2.16863 -2.587 -4.33402 -4.37651 -2.64656 -1.91059 -0.840178 -1.78199 -1.75532 -3.07756 -4.26267 -3.6668 -2.79118 -2.221 -1.70363 0.0118728 -0.384879 -0.791043 -0.517342 -2.2103 -3.97301 -5.67783 -0.212137 0.642908 0.216654 -0.493406 -1.86496 -1.87017 -3.03978 -3.55116 -4.03135 -3.6567 -3.59282 -3.75007 -3.31706 -2.73892 -1.57227 -1.6531 -2.07951 -3.15231 -2.27046 -1.12635 -3.00687 -4.15444 -1.1135 -0.282927 1.98396 1.11308 -2.47837 -1.69465 -1.02663 -1.32691 -0.591213 0.306788 -0.257555 0.300584 0.105755 -0.127701 -0.450565 -1.08102 -2.0598 -2.71877 -12.5283 -10.3561 -7.17733 -7.70704 -7.92993 -9.56067 -8.45442 -8.30818 -5.07368 -5.9558 -2.36653 0.110554 -1.99874 -3.03214 -2.86301 -1.19982 -0.30038 0.437409 0.201405 -2.15761 -4.64806 -4.12192 -3.64791 -1.86454 0.701345 -0.451532 -5.69959 -5.88844 -4.33335 -1.59036 -3.30877 -2.91441 -2.74762 -2.56429 -3.24542 -2.68695 -3.351 -2.98408 -2.91983 -2.5253 -3.66124 -4.22753 -3.72985 -2.49147 -2.0074 -2.18681 -2.8388 -4.05879 -5.10256 -4.79746 -2.90723 -1.97827 -1.97203 -2.09303 -0.827917 -0.815618 -1.52127 -2.84987 -2.8436 -4.23615 -0.760035 0.116534 -0.662607 -1.67463 -1.01273 -1.43621 -2.46045 -3.44692 -4.16565 -5.31768 -4.29801 -4.26515 -3.50009 -2.36495 -2.24248 -2.31299 -2.08198 -3.42749 -4.83957 -4.99349 -5.18882 -5.06305 -2.60418 -1.96972 0.242428 -0.279538 -1.81453 -2.13957 -2.56247 -3.70785 -3.00366 -2.81095 -2.93818 -2.80188 -2.51712 -3.05573 -2.68765 -2.51298 -3.16255 -3.53497 -2.74991 -2.66786 -2.48684 -2.41477 -2.24901 -2.23555 -1.80724 -0.76475 -1.45631 -1.60215 -3.20438 -1.31086 -2.14895 -4.62753 -4.25012 -4.86156 -3.11236 -0.771677 -0.711755 -1.3745 -5.27948 -3.28169 -1.04641 -1.22077 -2.13284 -4.2929 -6.44534 -4.22723 -4.00535 -3.10004 -3.5675 -2.5921 -3.37011 -3.12461 -2.82981 -3.07194 -3.08866 -2.49634 -2.82956 -2.42525 -2.29727 -2.60044 -3.71907 -1.83099 -2.51177 -1.91839 -3.41015 -4.15534 -3.98446 -4.34706 -4.28045 -2.64156 -1.95966 -1.58132 -1.7372 -3.47366 -3.61017 -3.59727 -2.39311 -4.54411 -1.35848 0.697739 -0.321417 -1.40464 -1.79362 -1.82833 -2.84764 -3.69881 -5.3546 -5.87835 -4.31272 -4.06257 -3.94684 -3.03132 -2.81195 -2.32254 -2.34103 -2.80246 -3.46303 -3.9225 -4.68722 -6.4974 -3.51062 -3.35322 -0.779448 -1.11671 -1.18519 -1.61491 -1.73836 -1.70887 -2.874 -2.2529 -2.23747 -2.84185 -2.20452 -2.21019 -2.53088 -2.64587 -2.4228 -2.17901 -0.696536 -3.37899 -2.17969 -3.62449 -5.38071 -5.71453 -2.2109 -2.35438 -3.39244 -3.17951 -3.99788 -3.3223 -4.76328 -5.27531 -5.27662 -6.38031 -5.1593 -3.41324 -1.85594 -4.17852 -3.52204 -1.81609 -1.09381 -1.16094 -4.93022 -7.8439 -7.29492 -3.33128 -1.21168 -4.29232 -2.81473 -2.6748 -2.94676 -2.64582 -3.01127 -2.14481 -2.10285 -2.72884 -2.5751 -2.53197 -0.381141 -0.19193 -0.68734 -1.50591 -0.994562 -2.37895 -3.51425 -4.36345 -5.21866 -4.11277 -3.60476 -2.40148 -2.12762 -0.396229 -2.41941 -3.85565 -4.25912 -2.41473 -4.09297 -5.63055 -1.84819 -0.981345 -1.05794 -1.24395 -2.00196 -3.21144 -4.63839 -5.91891 -6.34458 -7.7407 -3.76941 -3.66165 -2.87408 -2.91392 -2.01564 -1.98465 -2.54896 -3.25597 -3.17065 -3.69718 -5.32583 -5.35244 -6.2104 -5.96799 -3.34365 -2.10931 -2.93289 -2.73541 -2.12312 0.168383 -2.57626 -1.97363 -1.93912 -1.84364 -1.95515 -2.9049 -2.72719 -2.60911 -2.30023 -2.31227 -2.33065 -1.9225 -1.78634 -4.06073 -4.64126 -6.02031 -4.97724 -4.02121 -3.19276 -7.1786 -9.33493 -8.80687 -9.66716 -9.2561 -8.40709 -7.35959 -6.78794 -4.51657 -5.46254 -6.65644 -4.12514 -3.13036 -3.31779 -2.3801 -5.86289 -8.77615 -5.99489 -3.16608 -0.612732 -1.21849 -1.67973 -2.46406 -2.44158 -1.81197 -1.758 -1.55034 -2.41212 -1.91641 -1.6336 -1.55869 1.62836 2.93736 1.04517 0.153478 -0.552678 -0.815116 -2.46102 -3.74908 -4.22318 -3.59415 -1.97581 -0.591609 -1.06845 -0.361413 -3.13198 -3.91466 -3.27011 -2.16304 -4.58128 -6.87205 -1.77489 -1.44052 -1.33038 -1.67055 -1.48066 -2.987 -4.29512 -5.65992 -6.93004 -7.01844 -2.428 -2.0337 -1.52641 -1.95623 -1.75332 -2.37009 -1.85478 -2.28821 -2.98373 -2.98021 -2.52909 -2.65565 -3.72815 -3.21177 -1.86143 -1.66469 -3.38637 -2.92642 -2.96368 -0.740835 -2.34831 -1.88073 -2.33306 -2.64583 -1.92363 -2.80607 -2.72849 -1.9256 -2.70143 -2.17615 -3.24928 0.925827 0.563235 1.15389 3.10988 1.9295 -0.776931 1.85707 1.14717 -0.513443 7.52867 6.73785 9.14296 9.4737 10.5699 9.75474 7.8863 4.0591 -1.06922 -6.13405 2.38216 1.74358 1.32605 1.11091 1.27285 1.86888 -0.424763 -1.942 -2.14792 -0.966996 -4.12687 -3.07718 -3.51627 -3.12802 -3.61419 -2.87722 -3.50842 -3.81627 -4.93755 -4.80646 -19.2071 1.27506 9.08304 1.79264 2.93775 9.04392 -0.324233 -8.13836 -13.5481 -16.272 -8.41885 -7.944 -6.08328 -5.02474 -5.32827 -7.55344 -10.3459 -10.1326 -5.82119 -3.6599 -5.80597 -4.9827 -8.73767 -10.4527 -3.29752 -2.91259 -0.801636 4.03768 9.33484 9.59961 -5.58236 -3.85293 -2.41187 -2.31275 -6.59521 -7.20768 -6.9601 -7.02044 -7.06117 -8.19836 -5.7585 -6.38368 -5.82528 -10.9435 -8.10313 4.33061 6.35609 -4.59508 14.0006 18.2231 -6.39999 -5.06792 -3.7574 -6.96916 -5.61785 1.94368 2.48744 -1.41254 -8.57693 -6.35439 13.2453 1.3947 -1.98938 6.23103 8.27054 13.3922 4.62629 2.62383 7.77637 6.66259 -0.79895 -3.17954 2.02126 3.49889 6.22982 5.31054 3.41914 3.0277 -0.876663 -6.36175 4.72323 3.88729 4.86715 2.89311 2.21987 2.19472 0.481095 0.716783 0.268413 0.512185 -3.97114 -3.32654 -3.15261 -2.9678 -3.33753 -2.82578 -3.84112 -3.62992 -3.23029 -3.5944 -5.14816 13.1086 19.2043 7.18702 10.5569 9.20086 5.81513 4.17409 -7.80226 -5.35313 -3.50585 -5.3645 -4.36481 -3.92848 -3.6632 -4.82772 -6.89773 -5.78821 -4.88702 -3.23209 -3.9055 -1.98614 -3.4552 -4.70779 -0.907222 -3.34836 -4.35596 -2.62692 1.08622 5.87584 -3.13512 -2.68584 -3.5925 -3.9871 -5.8502 -3.97815 -3.71962 -4.67408 -3.7822 -4.8431 16.8316 16.1418 -4.70757 -12.2534 -10.7861 -14.8944 -10.4555 -11.64 -6.45396 -10.0367 -4.36601 -8.53252 -4.11165 -5.33941 -2.496 4.95013 3.29059 -6.26935 0.173938 -0.525693 0.943795 -0.438242 -2.29285 7.35453 9.43388 7.67285 8.62971 1.27227 -0.924761 -10.4176 -2.04622 -8.06578 -3.67548 -2.30395 1.6877 1.02795 -2.66872 -4.9099 0.712551 1.33648 4.73609 3.80067 3.8218 1.94899 3.34762 3.21632 0.600488 0.230538 0.298687 0.58088 -3.81266 -3.91619 -3.15169 -3.31438 -3.77605 -3.62088 -3.98644 -4.19469 -2.97642 -3.32402 -3.12466 -1.18466 2.50519 2.60448 4.68751 6.80533 5.93402 11.4273 7.15179 -2.78437 -2.90597 -2.29088 -2.27464 -1.75877 -0.714422 -3.21445 -3.86946 -2.42626 -3.41716 -2.20345 -3.4624 -3.09272 -2.31356 -6.69627 -3.67862 -5.46903 -14.4845 -6.94158 -3.67836 -5.60287 -2.44913 -0.368349 -1.81901 -4.25592 -5.06765 -4.996 -2.2528 0.317732 -0.353128 -4.85978 18.5082 10.8229 -3.18272 -9.62558 -20.3718 -22.0062 -9.98565 -7.02063 -10.7711 -9.6272 -4.55142 -9.33153 -0.998072 2.066 0.0581145 -6.40187 -3.75872 -4.81279 0.710467 1.27266 -10.3571 -6.08911 -12.5886 -10.7759 -2.89576 9.0461 13.0297 -5.84677 -1.49523 -6.2559 9.55035 1.566 1.75207 3.40949 5.88696 3.57517 2.75957 2.3997 1.28959 7.06289 2.19051 1.05912 0.0719622 1.4213 1.26307 1.16141 0.459574 0.106834 -1.39999 -1.42227 -3.30024 -3.44136 -2.90942 -2.34718 -3.10579 -3.35313 -3.65415 -3.87924 -3.75934 -3.48655 -5.33575 1.20119 3.78582 10.8566 15.0735 10.4392 7.92048 7.49446 6.56965 6.1672 -3.27807 -3.19719 -1.80284 -0.717523 0.0257225 -1.08311 -1.58605 -0.96855 -0.234947 -0.185256 -3.45659 -2.22191 -1.65644 -5.47763 -2.94098 -5.78679 -9.86018 -7.11188 -6.65069 -5.47963 0.941161 2.44797 1.23886 -2.23164 -3.14812 -3.23253 -0.489977 1.34483 1.28102 -4.10132 -2.9036 13.384 -2.77321 -17.325 -11.8366 -4.17958 -17.1909 -15.1216 -9.88664 -7.85953 3.36995 5.3679 5.47402 1.62755 -2.68537 -10.4376 -7.61325 -4.6722 1.82434 -7.19926 -6.12953 8.53237 -2.75305 -8.9838 -0.387104 12.9402 -2.97696 -13.8869 0.187892 14.5258 14.8526 7.22295 2.87232 6.20624 7.22161 4.83296 6.88358 7.79045 6.83324 14.1303 0.174171 -0.937067 -3.31901 -3.13788 -2.66642 -0.970583 -0.28625 -1.80925 -3.94276 -5.30722 -2.50698 -1.72188 -2.49013 -1.34042 -3.12124 -4.33829 -4.34199 -3.88665 -3.25304 -3.89225 2.06072 -5.7558 2.46016 6.7146 14.6268 13.0042 10.0173 8.66022 9.60326 7.88325 0.167568 0.136357 -0.00580813 -0.158628 0.832277 1.60681 2.40451 2.55004 2.03845 1.6248 -1.40896 0.984898 1.05045 -2.53369 -2.18536 -7.32768 -8.02128 -6.97181 -9.65256 -5.98178 1.62443 1.27579 -0.952407 -2.96645 -4.9385 -4.8717 -4.33854 -4.94455 -2.86465 -5.12859 -1.31929 -1.44719 -12.5757 -0.173751 4.56504 11.6515 15.1388 1.3232 -6.13502 -15.9022 -6.56 -3.96146 -5.55746 -10.5878 -3.57952 -9.46314 -1.12993 -2.99463 -4.93706 -8.45352 -0.462903 10.9939 8.73774 -7.56609 -8.0087 11.5873 5.51614 -0.232809 1.64302 13.5366 -3.26443 -3.02943 -9.62604 -8.80899 -4.1063 1.30485 -0.0926677 -1.51866 -2.49421 -5.54556 6.72474 4.74295 15.4954 17.2035 15.108 -0.361536 -5.90138 -0.485096 -0.598886 -2.77601 -4.27626 -3.54637 -2.42542 -0.508837 -3.10168 -4.99411 -5.25951 -5.47947 -5.83721 -6.25777 1.64517 1.26445 -0.822302 2.08869 2.88683 0.964459 -1.93735 -2.04462 -4.10926 -3.12526 -3.79034 -5.08269 -4.9314 -3.57617 -2.93704 -2.23935 -1.46234 -2.04095 -4.1812 -4.15331 -0.216487 -2.47989 -1.84467 0.312594 -2.90431 -2.84365 -4.05662 -2.67224 -2.32199 -2.94302 -9.29898 -14.4258 -2.87549 -16.0679 1.32036 -22.658 -6.27218 -29.395 -10.9679 -2.82584 2.24673 0.307712 -0.33562 7.37353 6.10917 -8.39107 -4.59655 4.35384 12.0284 2.84243 -15.4126 -4.11461 -6.37346 -11.0503 0.504643 -0.657888 -6.59856 -6.35444 -4.23234 -3.08673 -0.416447 2.99979 -1.33057 -7.09289 -2.22873 6.07981 4.06095 0.946803 -0.544505 -2.4832 -6.49493 -4.13364 -7.20729 -4.24889 9.00078 8.32113 6.33138 2.3853 0.38021 3.26293 -2.3827 -1.91357 4.91329 2.59408 2.41567 5.16552 2.77311 -3.33844 -1.2743 2.711 -2.20864 -1.47743 -0.733405 -0.245145 -1.19025 -4.55362 -5.62972 -5.32832 -4.84145 -4.94604 -5.77481 -5.26879 -0.386946 0.0681086 -2.2468 -2.87261 -2.40434 -3.03188 -2.9682 -1.97822 -2.1266 -2.46989 -2.70473 -0.960311 -0.663474 0.952849 -0.426463 -2.83059 -2.66418 -3.02017 1.39619 -0.38737 1.74032 -0.127938 -1.08938 -2.53382 -4.31118 -2.50965 -3.46058 -3.91364 -12.9858 0.618889 -6.3408 21.3077 -13.8805 6.70645 11.9867 -2.57299 12.4705 20.6907 -4.81773 0.336391 -0.509614 8.12776 3.71297 14.4277 6.10196 10.1455 8.94217 9.86947 -2.74841 2.94157 5.88333 0.150547 -1.4696 -1.32894 -2.12853 2.17992 -1.54497 2.18419 -0.985653 0.272203 -4.83943 -8.30434 -4.75926 -1.49825 7.92176 6.06921 2.70849 -3.43433 -4.26272 -8.20666 -11.0626 -5.57584 -4.24474 -3.6899 -3.35788 0.704372 2.71148 0.947631 12.0374 12.6982 4.55878 -1.84918 -2.09619 -4.99808 0.122687 12.9579 5.09831 0.385489 -1.38489 -0.684525 -0.80954 -1.11854 -0.136884 -2.7206 -5.1099 -4.59184 -3.22138 -4.0332 -8.53595 -8.05446 -3.33189 -3.0541 -4.46203 -5.23781 -7.0624 -6.75656 -5.54971 -3.18402 -1.15968 -0.409104 -2.30831 -1.42836 -0.454645 -1.88097 -3.79306 -5.22349 -3.381 -4.81601 1.00944 -1.0964 -0.231595 -1.74607 -2.07967 -3.05265 -4.678 -4.27855 -7.39293 -4.43541 9.58734 8.20247 22.3231 -1.9664 2.34693 -6.06355 13.9793 -0.215775 -32.2538 -16.8675 -5.98891 -3.02702 2.04179 3.77097 5.18664 13.9325 9.88381 5.60146 6.71359 18.6201 -1.06139 -4.09524 -0.130296 2.3862 -4.11507 -2.68949 -4.78214 -3.24777 -9.33512 -3.74962 0.246757 -2.82957 -4.106 -8.42304 -9.85619 -3.17458 4.923 10.4328 4.1906 -5.73333 -4.1874 -2.3853 -5.35277 -9.34917 -11.7256 -13.0695 -11.0254 -4.89689 2.26137 -3.98664 20.1456 5.10759 -3.92665 0.286781 6.59732 -2.94961 -4.63986 8.41678 7.07247 12.9535 -0.66758 -0.11316 0.160878 0.354549 -1.76613 -3.77746 -4.41493 -4.91029 -4.17993 -5.56366 -1.36331 -4.18556 -4.13636 -2.76116 -1.83949 -2.09766 -5.80778 -6.10009 -3.24125 -1.28257 -2.99059 -2.08755 -2.93381 -1.95399 0.199948 -1.57542 -3.38056 -3.6262 -2.70084 -3.77458 1.422 -0.420488 -2.69011 -2.85637 -5.72674 -5.45549 -5.29095 -4.2795 -8.2352 -4.93237 -2.60906 -12.0919 3.52746 -25.5334 3.96115 -14.3706 -13.2274 0.612737 -4.9594 8.91033 -6.23496 -10.8413 -3.3913 -0.262605 1.56266 16.5323 9.81059 5.06422 15.2535 21.2676 -3.45058 -9.24269 -5.74896 -1.73941 -5.65535 -5.21966 -4.98037 0.269264 -0.843838 -4.8589 -2.76765 1.22588 0.536535 -7.2006 -10.0908 -7.00571 3.84824 11.9005 -0.705511 -11.8182 -3.49536 -3.66607 -7.40303 -10.2667 -13.1043 -5.32022 -4.68266 -0.586192 -2.18708 0.17986 0.912047 -8.31718 -10.722 -0.916502 1.66537 -6.71968 -6.08601 12.6245 13.5225 12.6064 -1.34942 -0.597825 0.203373 -0.685123 -2.14912 -4.41729 -5.20279 -5.82834 -5.86757 -7.8608 2.53855 -0.950022 -3.52125 -0.480831 1.95972 -1.79085 -6.05614 -3.94683 -2.52336 -1.85244 -4.78046 -3.79881 -4.39812 -3.31549 -1.64284 -4.09515 -5.04363 -4.26125 -4.58943 -5.91737 0.417936 -2.15608 -3.46828 -3.71184 -8.53112 -7.25356 -3.8921 -3.41567 -7.17094 -5.87215 10.074 -22.3515 -4.46698 2.64126 -6.95258 -3.27683 -4.9312 3.56437 -26.1513 -12.0145 -7.18121 -22.0058 -29.0775 -24.2655 -6.32642 15.7025 13.3965 11.9328 19.199 17.2687 1.54015 -3.93316 -8.48462 -8.53825 -2.5112 -7.91746 -6.22653 3.60774 4.5949 -4.86885 -8.14165 -3.4001 -9.80523 -13.5024 -14.9943 -14.7424 -6.22489 -4.08977 -23.8129 -25.7142 0.56907 0.769429 1.07427 0.709886 0.394113 0.30505 0.2405 0.911716 0.274035 0.444342 0.973904 0.83662 0.610391 0.487692 0.739439 0.693304 0.782053 0.22342 0.738185 0.51852 0.551495 1.03534 0.481131 0.41484 0.0851485 0.968955 0.209908 0.664294 0.534049 0.421991 0.539704 1.03004 1.05556 0.448712 0.509733 0.266248 0.527527 0.553441 0.00999221 0.662351 0.894249 0.87684 0.391407 0.403177 0.241614 0.0564244 0.0430663 0.987911 0.252098 0.748943 0.51259 0.791937 0.840497 0.9948 0.216928 0.85742 0.879652 0.283783 0.347853 0.241062 0.540601 0.745957 0.139426 0.5198 1.10989 0.61947 0.765579 0.668104 0.226905 0.791526 0.332874 1.06459 0.582238 0.652204 0.416395 0.823496 0.72203 0.431131 0.80001 0.940962 1.1567 0.233809 0.665158 0.851825 1.08354 0.716918 0.552634 0.822163 0.85321 0.775246 0.929316 0.258876 0.388942 0.935265 0.643527 0.369393 0.410907 0.257733 0.876447 0.46781 0.37048 0.553757 -0.128417 -0.169758 0.0818841 0.148413 0.506739 -0.355243 0.418775 0.136479 0.384708 0.366285 0.149387 -0.151345 0.064599 0.0908486 0.410473 0.405875 -0.309012 0.0610998 -0.017161 0.441358 0.129692 0.174522 0.195007 0.604617 0.379082 0.439811 -0.29177 0.107314 -0.235687 0.432194 0.0210701 -0.00377673 0.618707 0.45431 0.493767 0.486068 0.480484 0.297796 -0.0247985 0.22779 0.0219187 0.526744 0.480244 0.447374 -0.000779201 0.283708 0.240986 0.0678556 -0.28155 0.59842 -0.120787 0.233485 0.162063 0.452293 0.225154 -0.0793531 0.284219 0.304533 0.424579 0.427629 0.083062 -0.239994 -0.271011 0.0437243 0.544234 0.564118 -0.135079 0.351085 0.212013 0.229058 -0.0453312 0.590754 0.121146 -0.188243 0.441232 0.494191 0.474924 0.04067 -0.1042 0.525496 -0.027304 0.137909 0.125861 0.496377 -0.0446314 -0.296789 -0.224505 0.581893 0.332448 0.493035 0.28139 -0.262257 0.592662 0.380313 0.15121 0.501279 0.315853 0.393985 0.0161973 -0.339065 -0.0710569 0.503931 -0.0279096 0.589143 0.0126139 0.896654 0.719417 0.960112 0.165236 0.715072 0.364079 0.259569 -0.125999 -0.271647 -0.026824 0.143661 -0.274739 0.0572737 0.258624 0.628972 0.399491 0.185823 -0.264046 0.0660798 0.440652 0.0384445 -0.22536 0.156156 0.0634021 0.579831 0.556881 0.327993 0.42938 0.736442 0.108455 0.465468 0.637886 0.696065 0.2639 -0.0952341 0.466166 -0.065735 0.626511 -0.0504261 0.498188 0.30055 0.810321 0.734968 1.01269 0.483147 0.911857 0.538836 0.859253 0.980939 0.974362 0.80507 0.711847 1.34912 1.66179 1.05724 1.22916 1.46765 1.58101 0.82612 1.2689 0.823677 1.41111 1.14778 0.74479 0.94466 1.32076 1.54167 1.43041 1.34428 1.04645 1.03687 1.83286 1.87039 1.85146 1.70208 1.24164 1.45171 1.82372 1.58845 1.86823 1.30291 1.97051 2.0218 1.00988 1.8176 1.34502 1.57076 1.55597 1.16929 1.29655 0.888396 0.969735 1.0428 0.38592 0.166848 0.487605 0.193591 0.237684 0.178564 -0.182712 0.363115 0.315024 0.651126 0.230319 0.0766898 0.268749 0.360055 0.477597 0.141901 0.0124011 0.400619 0.464436 -0.0840748 0.323286 0.494286 -0.275798 0.610449 -0.012669 0.292769 -0.212411 -0.3448 0.526947 0.194516 0.0895069 0.315218 -0.249874 -0.0363126 -0.109559 0.340783 0.527646 0.0792032 0.138091 0.223838 0.138741 -0.281741 0.661956 -0.26367 0.39573 0.384285 0.113638 0.640486 0.0127104 -0.149616 -0.204161 0.612122 0.605927 -0.156529 0.5193 -0.0752906 0.439299 -0.358625 -0.102771 0.337452 0.231816 0.445493 0.126342 0.444483 -0.0813478 0.516276 0.304425 -0.113892 0.0644711 -0.170878 0.54 0.576839 -0.0639505 0.535604 0.621891 0.636886 0.170017 0.01991 0.485535 0.450416 0.118676 -0.361147 0.405435 0.101684 -0.158209 0.325488 0.400629 -0.29867 0.375031 -0.250284 -0.459471 0.0959475 -0.321687 0.0851661 -0.0622484 -0.0466444 -0.0463679 -0.404331 0.15432 0.307982 -0.13171 0.133015 0.328641 0.0794975 -0.0539071 0.247808 0.00524358 0.457629 0.604539 -0.08776 0.346524 0.185701 -0.0130905 0.18534 -0.328474 0.257117 -0.0301533 -0.393061 0.514342 -0.117764 -0.0972848 0.52994 0.453375 0.0535127 0.0670596 -0.136077 0.524186 0.562743 -0.00933207 0.203699 0.354903 0.200495 -0.351823 0.0308951 -0.396066 -0.0540408 -0.391108 -0.0288051 -0.222366 -0.386327 0.276363 0.488037 0.182587 -0.31954 0.0949059 0.305556 0.394546 0.48677 0.348297 0.318051 -0.17842 -0.318916 0.289607 -0.326967 0.138194 -0.230757 -0.0666653 0.00870853 -0.331754 0.28744 0.542593 0.404418 -0.129034 -0.36288 -0.125267 -0.0640325 0.0665131 -0.0045061 0.406726 0.309316 0.0824867 0.176022 0.278954 -0.280804 0.325235 -0.150399 0.504898 0.179772 -0.177713 0.320903 -0.0292808 0.047425 0.40176 -0.356638 0.0982358 -0.0840101 -0.214883 0.42554 0.31521 -0.142539 0.114532 0.296064 -0.282583 0.441819 0.400479 0.0491074 -0.216157 -0.160293 0.423157 -0.367667 0.229313 0.571939 0.707506 0.780223 0.508794 0.402921 -0.072047 0.361703 -0.129039 0.0846349 -0.0736061 0.140023 0.43552 0.726011 0.270672 0.0211794 0.112419 0.440296 0.957692 0.959072 0.969832 0.620381 0.945342 1.21949 0.705915 0.83651 0.817332 0.977917 1.25126 0.751705 1.19331 1.33822 1.26567 0.938163 1.04398 0.669895 1.20792 1.02264 1.14054 1.27614 1.26876 1.26083 0.574777 0.893539 1.26786 1.07233 1.19516 1.58598 0.741028 1.2012 1.70791 1.71038 0.866229 1.44128 1.68584 1.17152 0.916301 1.1158 1.77929 1.67145 1.33237 1.34842 1.30399 0.847012 1.45321 0.707875 0.858972 1.11409 1.17575 1.40444 0.771475 0.869262 1.06016 0.80021 1.24946 0.752773 1.4255 0.91133 0.875298 1.55204 1.49171 1.77799 1.45889 1.51566 1.30186 1.25778 0.827229 1.39431 1.55646 1.74524 1.10479 0.96021 0.964742 1.46103 0.793734 0.687083 0.457049 1.02448 1.22439 1.04477 -0.0108161 0.5284 0.433898 0.450759 -0.26846 0.0662599 0.570955 0.394567 0.22344 -0.362294 0.176577 -0.0568646 0.599402 -0.220981 -0.437721 0.124225 0.262032 -0.372153 -0.196581 0.0944046 -0.363617 0.224643 0.369038 0.128443 0.207063 -0.248077 0.451353 0.286894 0.360334 0.16157 -0.212784 -0.304368 0.00329482 -0.422602 0.493202 0.112839 -0.0183271 0.427116 -0.12029 -0.390927 0.449113 0.39274 -0.101412 0.458857 -0.40588 -0.0866195 0.0299281 0.288717 0.00414703 0.255383 -0.14689 0.0927772 -0.0627041 -0.366533 -0.395407 0.528643 -0.239581 0.412239 0.168152 0.52148 -0.0836312 0.331887 -0.414286 0.379223 0.38509 -0.427891 0.00616735 -0.0953797 -0.43355 0.422844 0.0235346 -0.484297 0.289471 0.413213 0.468408 0.391673 -0.156224 0.01841 0.205332 0.333415 -0.224711 0.507107 -0.10321 0.162153 -0.395579 -0.0287675 0.158423 -0.172554 -0.146692 -0.197688 -0.15816 0.313533 -0.301849 -0.0177493 0.254909 -0.390941 0.0596928 -0.261956 -0.00356608 0.10001 -0.33699 0.543428 0.163401 0.498164 0.49288 0.141046 0.380991 -0.171845 -0.341412 0.0986691 -0.331208 -0.0825398 0.087393 0.0303826 0.59462 0.194509 0.500086 0.203533 0.469508 -0.202052 0.440856 -0.267882 0.503831 0.520807 0.0803368 0.145671 0.522055 0.568526 0.319098 -0.0571762 0.0538442 0.332268 -0.167646 -0.421856 0.215683 -0.276012 0.130599 0.00181429 -0.0124908 0.204259 0.53517 0.065889 0.515538 -0.00127337 0.441492 0.420948 0.504014 0.287526 -0.0381905 0.313793 0.439641 -0.225003 0.427811 0.339895 -0.311936 -0.0933284 -0.122255 0.601202 -0.128196 0.592906 -0.0350003 0.380126 0.37192 0.223251 0.37365 -0.0136455 0.349271 -0.0958728 0.393522 -0.291372 0.477456 0.27267 0.125272 0.362302 -0.36832 -0.048789 0.150299 0.511779 -0.390995 0.508394 0.205207 0.420198 -0.352467 0.00425365 0.132649 -0.280276 0.28306 0.387552 -0.297182 0.543219 0.35702 0.0147372 0.261905 0.087021 -0.40871 0.00772154 0.448109 0.316793 0.297423 0.219166 0.938828 0.681728 0.457585 0.487196 0.48989 0.48525 0.817888 1.01432 0.359798 0.811977 0.89199 0.962298 0.566422 0.89697 0.238043 0.0322822 1.0064 1.00875 0.966002 0.194159 1.08191 0.806224 0.700869 0.799146 0.332911 0.727832 0.290246 0.277506 0.534929 1.02095 0.918966 0.366361 0.547033 0.172993 0.604216 0.813045 0.36643 0.192575 0.577582 0.555741 0.823528 0.324575 0.370724 0.316217 0.21548 0.690975 0.441937 0.191155 0.69241 0.330881 0.355414 0.676012 1.07262 0.935917 0.340951 0.253187 0.538844 0.472428 0.38549 0.907262 0.260072 1.06857 1.0263 0.674787 0.137115 0.583287 0.496406 0.552187 0.81187 1.0745 0.99931 0.549951 0.262778 0.345185 0.913297 0.508496 1.14387 0.379724 0.722919 0.758665 0.694831 1.01666 0.368133 0.605267 0.779795 0.555013 0.743365 1.1866 0.859461 0.908329 0.876934 1.0053 0.920959 0.855105 0.655066 0.946895 0.311574 0.945753 0.218725 0.871365 0.161786 0.543335 -0.183141 0.477194 -0.0616904 0.637724 -0.165865 -0.144007 -0.20311 0.396843 0.482604 0.292224 0.23395 0.647896 -0.247906 -0.14112 0.0315707 0.227693 -0.235915 0.662051 -0.0992356 0.415738 0.395712 0.498075 -0.102959 -0.299739 0.114342 -0.0562181 0.370776 0.112577 0.493294 -0.172577 -0.084681 -0.399321 -0.376398 0.210909 -0.339506 -0.0895107 0.565508 -0.114438 -0.249675 0.417094 0.557991 0.329687 0.377696 0.554124 0.383963 -0.346158 0.0400577 0.468528 -0.358072 0.259477 0.204489 0.398686 0.155467 0.54803 0.545764 -0.340131 -0.130179 0.304638 0.204073 -0.0918492 -0.286972 -0.307715 0.0794572 -0.157129 0.433568 0.207778 0.253332 0.429059 0.532249 0.395606 0.219425 0.443362 0.0278791 -0.0489146 0.318269 -0.1682 0.0293555 -0.197723 -0.268132 0.0927943 0.466957 0.352409 -0.0899378 0.020445 0.285749 -0.161708 0.0557239 0.555745 0.550499 -0.369108 -0.183504 0.572795 -0.41801 0.175526 -0.306987 0.319226 -0.28621 0.2469 -0.12509 0.336918 -0.196393 0.448038 0.197088 0.228609 -0.187719 -0.101405 0.396095 0.156818 0.101122 -0.411821 -0.381639 -0.131939 0.201309 -0.121911 0.254748 -0.0947201 0.140733 -0.274695 -0.0602023 0.156476 -0.139688 0.214957 0.17407 -0.101324 -0.158081 0.334602 -0.365873 -0.049949 -0.0527707 0.0999888 -0.0605367 0.361731 0.157559 -0.378559 0.0399378 0.404776 -0.112324 -0.113487 0.0152504 -0.575328 -0.071532 0.175673 -0.156138 -0.297728 -0.367618 -0.348406 0.154038 0.307348 -0.035506 -0.376017 0.0011747 0.26992 0.284614 -0.372421 -0.385837 -0.423533 0.437573 -0.218245 0.0276809 -0.110872 0.328791 0.38496 -0.346237 -0.0521007 -0.526489 0.211002 -0.119881 -0.0496318 -0.297112 -0.512589 0.00766921 0.229893 0.285708 0.424514 0.459689 0.415402 -0.41865 0.170925 0.264996 0.0267968 0.286437 -0.234547 -0.207239 0.0559467 -0.178669 -0.154764 0.151024 -0.191345 0.162557 -0.333723 0.170401 0.0354338 -0.388555 0.414227 -0.476321 -0.396379 0.175273 -0.00659275 0.224145 0.500748 0.162253 -0.207878 0.290888 -0.0747135 -0.347425 0.23204 -0.178369 -0.251674 -0.0431962 -0.344062 0.349415 -0.232488 -0.0370981 -0.318062 0.350373 0.350507 0.108735 0.015504 -0.341157 -0.230121 0.136284 0.313123 0.249057 0.219437 0.19467 0.329905 0.359253 -0.120856 -0.226881 -0.0263619 -0.225823 0.330207 0.205356 -0.499315 -0.289155 0.309905 0.207743 -0.0117332 0.528194 -0.427971 0.0768646 0.291109 -0.25564 0.402173 0.31586 0.459072 0.105669 -0.218093 -0.162673 0.153039 -0.0584101 0.402065 -0.0999354 -0.336599 0.0739561 -0.453879 0.43455 -0.0842747 -0.0588131 -0.206871 0.522919 0.311482 -0.26864 0.243441 0.334592 -0.0670095 0.0638371 0.0225249 0.422011 0.0589039 0.0770389 -0.0643866 -0.232563 0.231891 -0.253856 0.530576 0.150171 0.324502 -0.264673 0.392976 -0.127342 0.120597 0.255006 0.237594 0.227787 -0.223239 0.250371 0.160223 0.193081 -0.360097 0.382364 0.0942087 0.273688 0.443459 -0.334517 -0.0152376 -0.226331 0.108723 0.23475 0.381828 0.379771 -0.33974 -0.336913 -0.513821 0.25141 -0.226548 0.45635 -0.191037 0.562071 -0.369736 -0.472703 -0.28629 0.0237791 0.152163 0.309852 -0.362736 0.33358 -0.0426636 0.264622 -0.0278768 0.0477842 0.0468439 0.491362 -0.202675 -0.0577832 -0.414515 0.15355 0.0905476 0.0683871 -0.0284023 0.109927 0.0601924 0.290528 0.380255 0.144689 0.0733266 -0.378604 0.00227126 0.232352 -0.459505 0.000134893 0.291652 -0.223592 -0.458386 -0.0376783 -0.374122 -0.293231 -0.195972 0.144692 0.474574 0.262886 -0.379221 -0.0404522 0.183653 -0.14771 0.350063 0.235213 0.524312 -0.0590213 -0.213333 -0.0688854 0.449955 0.261937 -0.362064 0.237193 -0.193488 0.126678 0.347013 0.321028 -0.0930804 0.46099 -0.139735 -0.240097 -0.217062 -0.117787 0.179522 -0.142543 0.114559 -0.493237 0.480669 0.0285934 0.227927 -0.44687 -0.530944 -0.172955 -0.1773 0.312614 -0.396571 -0.100207 -0.251746 -0.121703 0.355354 -0.295215 -0.362749 -0.547836 -0.571966 0.00492704 0.162621 0.569641 0.0216312 -0.236441 0.488241 0.341952 -0.0370606 -0.293985 -0.278236 0.630594 0.0648971 0.325518 0.638388 0.0488641 -0.0912987 0.445427 0.185439 -0.0563549 -0.120705 0.608792 -0.201747 0.0256402 0.0460572 0.0840832 0.447046 -0.0357138 0.369515 0.669318 0.0198462 0.404148 