4.23973 4.31498 2.5588 1.90854 -3.14287 -3.44652 5.194 5.68669 7.22157 6.33853 4.69959 4.62706 -0.591985 -0.387245 3.65756 3.73856 7.92678 8.04417 -2.31782 -2.12725 -4.05204 -3.9438 4.06234 4.16026 7.40131 7.47915 -0.642794 -0.947044 4.0009 4.57941 -2.10339 -2.17155 6.16276 6.33247 6.18876 5.33808 -2.0064 -1.90637 6.89355 7.04218 5.94937 6.15424 -2.80045 -2.34951 -0.670759 -0.0921259 4.83136 5.44302 6.05822 5.91742 -2.26531 -1.82876 4.65147 4.33715 -2.78897 -2.67876 6.99962 6.91274 -1.98342 -2.37353 -4.54137 -4.79805 0.305339 0.450739 7.88366 7.70695 4.45164 5.23073 -1.96629 -2.02957 -1.96635 -1.82604 4.77426 4.77808 -2.75703 -3.20583 -2.48687 -2.36368 3.30198 2.58046 -1.29608 -1.33099 -3.52458 -3.57473 -4.20288 -3.9534 -2.78436 -3.37007 7.01077 6.87677 -5.3541 -4.69987 -2.57246 -3.00656 5.41159 4.93393 0.254352 0.348692 -3.19147 -2.87897 0.339765 0.568913 -0.182462 -0.00982092 0.809415 0.853475 0.0272144 -0.157367 -0.0152333 -0.128538 0.459965 0.609618 0.845897 0.654809 0.37961 0.882169 1.06539 1.22493 1.24503 0.466005 -0.432663 -0.491629 -0.199227 -0.564386 -0.462074 0.212753 -0.219783 -0.323667 1.23944 1.69804 0.448428 0.248645 0.896876 0.558288 0.395848 0.316568 1.62299 1.31968 0.375132 0.247858 0.533222 0.36325 0.366857 -0.197966 0.336639 0.458511 -0.0106288 -0.313309 1.65592 1.51051 0.639047 0.94598 1.38099 1.17449 0.237651 0.540206 0.165588 0.264543 0.919402 1.15689 0.704969 1.11225 0.826117 1.07143 0.0575183 0.0680883 0.434492 1.20868 1.01357 0.915735 0.136945 0.427601 0.206365 0.875647 1.23467 0.605804 1.20488 0.868439 -0.340974 -0.268415 -3.85898 -3.87223 -3.99333 -3.67955 -2.53861 -2.21733 1.38734 1.63592 -5.04085 -5.22584 -9.59924 -9.62145 -9.62293 -10.0991 -10.02 -9.729 -6.11732 -5.72819 1.28804 1.52966 -10.1468 -9.43471 -9.77127 -9.74777 -10.7458 -11.4877 -9.83106 -9.65856 -11.7103 -12.2473 -23.393 -22.9532 -1.4088 -0.78424 -1.25401 -1.02393 -1.74916 -2.37921 -0.96535 -1.59928 -1.87352 -1.9088 -0.772295 -0.365035 -0.877922 -0.310962 -2.80653 -2.78367 -1.42961 -1.66618 -1.67594 -1.42854 -1.57525 -1.7785 -1.27661 -1.41975 -2.48092 -2.81539 -1.83513 -1.85859 -2.51126 -2.23683 -5.06165 -5.48322 -3.08458 -2.91458 -1.75561 -1.91078 -2.41057 -3.12341 -3.09868 -2.37376 -3.98409 -3.42934 -3.08474 -3.34434 -3.0507 -3.22027 -3.29312 -3.2153 -2.79846 -2.77071 -2.57243 -2.50308 -2.90005 -2.30394 -2.10966 -2.23028 -1.53512 -1.57955 -2.69677 -3.30653 -2.33527 -2.06298 -1.79165 -1.66266 -2.11202 -1.33485 -1.9443 -1.96206 -0.762523 -1.57779 -1.12644 -1.81022 -1.69258 -1.85325 -1.61252 -1.75132 -1.01073 -1.19084 -11.3847 -11.1211 -1.32144 -1.05721 -2.26486 -2.59272 -2.87043 -2.61126 -2.55232 -2.43035 -2.1299 -1.72248 -2.07364 -1.62889 -2.15603 -2.67516 -1.42565 -1.30365 -0.527112 -0.979543 -0.692906 -0.370539 -0.433603 -0.622198 -0.649157 -0.177367 -0.436031 0.259176 -0.299746 0.0207484 -0.50703 -0.235012 0.139154 -0.498114 -0.151472 -0.234407 -0.356283 -0.959687 -0.856164 -0.269786 -0.947489 -0.556508 -0.598669 -0.567902 -0.641864 -0.968347 -0.373 -0.963531 -1.19183 -0.422153 -0.4681 -0.568326 -1.05749 -1.36814 -1.15908 -0.428449 -1.51325 -1.15135 -0.726552 -1.23242 -1.87642 -1.93549 -1.15467 -1.88816 -1.52083 -1.21843 -1.1212 -1.78267 -1.14328 -1.78347 -1.84046 -1.62291 -1.98337 -2.06465 -1.83884 -1.25232 -1.56796 -1.80801 -1.84818 -1.46042 -1.89937 -1.94633 -1.6926 -2.07094 -1.39876 -1.40004 -2.15207 -1.34856 -1.93432 -1.1562 -1.68835 -1.6453 -2.23287 -2.16909 -1.84532 -1.82261 -1.55981 -2.06668 -2.7801 -2.71493 -4.99659 -4.71044 -5.44623 -4.84249 -4.67143 -5.14039 -4.17463 -4.37752 -1.78886 -1.60262 1.90215 2.72279 1.47758 1.95 -0.616618 0.165042 -1.68669 -1.89212 -1.12247 -1.2907 -4.17074 -3.28794 -3.49282 -4.20108 -4.9976 -4.81323 -3.09601 -2.78325 -1.83914 -2.16346 -0.637061 -1.10661 -1.64798 -0.987327 -0.255556 -1.08885 -1.42861 -1.10419 -1.16665 -1.68395 -1.47126 -1.32255 -2.60514 -2.95519 -3.08422 -2.33861 -4.11409 -4.02183 -4.33373 -4.31697 -3.36548 -4.2526 -5.1041 -4.30524 -5.1859 -5.33976 -7.01286 -6.29381 -7.51233 -7.85161 -5.80042 -6.26358 -2.71751 -3.36094 1.02321 1.34856 -0.425723 -0.0365329 -0.447376 0.0397237 0.516803 0.677258 1.07481 1.25003 1.20021 1.45713 1.45696 1.69896 2.39354 2.85455 3.48539 2.75861 2.2408 2.39912 1.99427 1.97274 0.50602 0.561306 -1.6137 -1.45032 -0.112578 -0.0203188 -1.64725 -1.74007 -4.42884 -4.53112 -6.30339 -6.33129 -9.53123 -8.64893 -9.7897 -9.6308 -8.4384 -8.34343 -6.46211 -6.60897 -7.57992 -7.32507 -7.0658 -7.36471 0.798474 0.152379 0.0743941 0.364121 -0.113007 -0.0666447 0.302481 0.819187 0.104435 1.07016 0.840375 0.658026 0.813244 1.19356 0.911479 0.418281 0.691154 0.648504 1.04611 0.611055 0.377467 0.315565 1.03077 0.913167 1.0074 1.06519 0.830753 0.215754 0.572881 0.403566 0.451281 0.479788 0.675733 0.736121 1.23925 0.936092 1.06492 0.651355 0.742518 0.950913 0.512372 0.405989 0.173335 0.783469 0.035551 0.786422 0.821405 0.373363 0.193523 0.789363 1.01887 0.566741 1.13119 0.971847 0.417707 0.984736 0.787535 0.953346 0.909637 1.12075 1.0287 0.0668202 0.410763 0.591851 0.760376 0.318224 1.23388 0.439128 0.490018 0.581459 0.878479 0.574917 0.493079 0.932776 0.256759 0.515746 0.729093 0.152603 1.07493 0.973725 1.40455 1.3324 0.803805 1.3571 0.482715 0.359642 0.26526 -0.067764 -0.831956 -0.759606 -1.0499 -1.01067 -0.966208 -0.848505 -0.657964 -0.448994 0.43565 0.533884 0.12021 0.940036 -0.889958 -0.0620796 -0.541406 -0.366673 -0.0150933 -0.192256 -0.820565 -0.362423 -0.148239 -0.903574 -0.401687 -0.135988 -0.0599146 -0.256323 -0.44821 -0.507178 -0.803546 -0.864241 -0.25249 -0.529233 -0.539048 -0.0529595 -0.25431 -0.132193 -0.546666 -0.563851 -0.253528 0.0258057 -0.90591 -0.160593 0.0306574 -0.698616 -0.12263 -0.507204 -0.0985313 -0.257759 -0.821797 0.0573848 -0.62004 0.0645731 -0.820741 -0.164893 -0.112559 0.1838 -0.482373 -0.713075 -0.410923 -0.270964 -0.481552 -0.636157 -0.832531 -0.112276 -0.659387 -0.0336785 -0.275556 -0.340284 -0.741714 -0.568253 -0.339451 -0.649876 -0.763613 -0.449846 -0.495496 -0.00351933 -0.0919488 -0.686187 -0.35175 0.015709 -0.728428 -0.096764 -0.0455713 -0.636781 -0.307948 -0.305567 -0.621797 0.125155 -0.0828159 -0.140279 -0.223904 -0.743622 0.0437521 -0.206121 0.0108064 0.130224 -0.501522 -0.458613 -0.38088 -0.396519 -0.189006 0.0802912 -0.252055 -0.116904 -0.558855 0.0753836 -0.343438 -0.831181 -0.677013 -0.717139 0.0495348 -0.625522 -0.797089 -0.865304 -1.11884 -1.23978 -1.27895 -0.840067 -1.06097 -1.35512 -0.716042 -0.203129 -0.869321 -0.69997 -0.56137 -0.174704 -0.923371 -0.284493 -0.898806 -0.555348 -1.04164 -0.39569 -0.890856 -0.59368 -0.874301 -0.678483 -0.673004 -1.26478 -0.467355 -0.495942 -1.09474 -0.506953 -1.28304 -1.3234 -0.840669 -0.810581 -0.728096 -0.274353 -0.829803 -0.365115 -1.23558 -0.385189 -0.464512 -1.11879 -1.24497 -1.00433 -1.30133 -0.992821 -1.11778 -0.955825 -1.13404 -0.631274 -0.773159 -0.508443 -0.66033 -1.07133 -0.627845 -0.896496 -1.02528 -0.856664 -1.17796 -0.81265 -1.01226 -1.01314 -0.588334 -0.312362 -0.289986 -1.12635 -0.459107 -0.960927 -0.474987 -0.585684 -1.35326 -0.747337 -1.60264 -1.23435 -1.41142 -1.44402 -0.657245 -0.931153 -0.695581 -1.36682 -0.978118 -1.04086 -0.190479 -0.161689 -0.604417 -0.550409 -1.36434 -0.84086 -2.31654 -2.85364 -2.63185 -2.65284 -2.26717 -2.05342 -2.89875 -2.40753 -1.74344 -1.75873 -1.70199 -1.69628 0.0698161 -0.59222 0.26109 -0.629886 0.00359368 -0.538197 -0.828911 -0.445856 -0.19031 -0.984526 0.0927334 -0.494112 -0.839642 -0.534352 -1.04423 -0.374928 -1.00766 -0.805576 -0.635767 -1.05386 -0.401545 -0.319967 -0.767814 -0.640807 -0.3261 -0.510185 -1.10144 -0.428736 -0.364987 -0.757348 -0.117227 -0.442607 -0.4709 -0.180845 -0.395689 -0.743831 -0.94841 -0.0883407 -0.0658807 -0.133319 0.0560809 -0.19719 -0.413927 -0.20503 -0.518792 -0.731135 0.510984 -0.0777016 -0.07189 -0.000907042 -0.0451546 -0.390429 -0.159393 0.394767 -0.0811341 -0.633249 -0.571292 -0.171322 -0.0298774 -0.859188 -0.855209 -0.0561989 -0.206622 -0.253411 -0.115946 -0.486994 -0.879062 -0.0417346 -0.608613 0.0313708 -0.182441 -0.627568 -0.225021 -0.109417 -0.359334 -0.920602 -0.0694561 -0.427485 -0.501841 -0.608841 -0.943468 -0.100187 -0.537074 -0.671561 -0.506298 -1.17684 -0.777451 -1.00993 -0.287942 -0.853951 -1.0322 -0.29517 -0.992157 -0.208639 -0.550465 -0.228396 -0.19888 0.0964347 -0.26244 -0.360957 -0.224377 -0.295092 -0.923058 -0.601045 -0.542727 -0.3226 -0.385617 -0.437467 -0.605987 0.00480983 -0.127583 -0.552531 0.0292641 -0.581864 -0.0533225 -0.201804 -0.571876 0.182089 -0.228689 0.219067 -0.600103 -0.0428682 0.133325 -0.445717 -0.110616 -0.235575 -0.386606 0.366601 -0.485254 -0.58283 -0.0564234 0.0492374 -0.367548 -0.256498 -0.501817 -0.625218 -0.276222 -0.0878084 -0.304576 -0.1113 -0.500424 -0.834525 -0.645012 -1.39172 -0.785934 -0.57704 -0.693231 -0.920123 -0.529152 0.194686 -0.581407 -0.430594 -0.143797 0.261865 -0.19766 -0.575844 -0.301632 0.0131615 -0.580812 -0.129752 0.155077 0.184797 -0.239477 -0.190546 -0.116922 -0.132539 -0.205426 0.266525 -0.558162 0.192116 -0.127008 -0.155003 0.32317 -0.243282 0.0117443 -0.517304 0.142097 -0.527807 -0.424705 0.180599 0.341693 -0.193385 -0.339258 -0.00425908 0.621022 0.948911 -1.99944 -1.84814 -10.1268 -9.79495 -10.6173 -10.7574 -7.3431 -7.18403 -7.36891 -7.86659 -0.832479 -0.998107 -0.740731 -0.424483 -1.03925 -0.399756 -0.0734043 -0.0725763 -0.962302 -0.448759 -0.950196 -0.234702 -0.419799 -0.703959 -0.97622 -1.07865 -0.165686 -0.0887715 0.197718 -0.750923 -0.345057 -0.15568 0.00523493 0.0527259 -0.404311 -0.599301 -0.65907 -0.776296 0.144145 -0.039611 -0.694753 -0.587219 0.0916053 -0.54902 -0.188229 0.047039 0.105445 -0.182521 0.0710119 0.142933 -0.696351 0.0115248 -0.217649 -0.148436 -0.730735 -0.622523 -0.680183 -0.0756994 -1.18385 -0.984508 0.0365124 -0.373555 -0.0336911 -0.175194 -0.565841 -0.655908 0.0426848 -0.412489 -0.554468 0.0731206 -0.553496 -0.375688 -0.7345 -0.722813 -0.100295 0.0586072 -0.981349 -0.445292 -0.310819 -0.827766 -0.185879 -0.0893663 0.105358 -0.499253 -0.41419 -0.799544 -0.200822 -0.0683202 0.14765 -0.163619 0.146075 0.0210484 -0.827917 -0.107357 -0.183088 -0.267001 -0.624827 -0.227849 0.0246945 -0.552106 -0.367042 -0.545059 0.0475659 -0.192744 -0.803362 -0.665171 -0.350551 -0.269925 -0.718094 -0.928564 -0.361254 -0.0790339 -0.13975 -0.385141 2.41003 2.4618 2.88304 3.06425 2.12386 2.71224 4.69188 5.208 4.67861 4.82722 5.12403 4.32086 4.48266 5.34982 4.84322 4.36883 4.74179 5.36016 4.77496 4.66633 4.95289 5.13415 5.18877 4.48542 4.57627 4.28007 4.34831 5.17388 5.15926 5.13149 4.07721 3.74084 2.64272 2.59215 4.20675 4.41503 4.88588 4.60067 4.45077 4.45194 2.55282 2.51388 -0.519738 -0.591646 3.39732 3.18913 0.616246 0.734839 4.94832 4.74961 4.70035 4.4886 4.56981 4.60934 4.64981 4.89424 4.62869 4.79979 4.90243 4.6318 4.76879 4.41896 4.88264 5.04997 4.6471 4.88496 5.28796 4.42537 4.30628 4.40627 4.61554 4.43159 4.5292 4.86578 4.59576 4.48503 3.8196 4.01744 4.70778 4.24634 4.6714 4.68923 4.16522 4.14689 4.77874 5.19046 15.7887 16.5894 -69.7226 -69.4265 -92.0414 -91.3152 -66.8755 -66.9524 -68.8595 -69.3137 -7.21063 -6.94157 3.69202 3.80561 -0.166366 -0.344516 -0.393962 -0.96387 -0.766568 -0.0927807 -0.945545 -0.658732 -0.934365 -0.607138 -0.94184 -1.07109 -0.0666659 0.0855261 -0.0449322 -0.64251 -0.0583873 0.0201448 0.202872 -0.650404 -0.258385 -0.525185 -0.630312 -0.309415 -0.696545 0.0697811 0.234868 0.0520904 -0.216481 -0.66645 -0.842336 -0.437906 0.00942664 -0.130112 -0.269136 -0.738826 -0.31362 -0.159737 -0.316152 0.0897259 -0.451845 -0.809344 -0.563392 -0.737222 -1.18266 -1.0536 -0.538758 -0.180155 -0.00746335 -0.575745 -0.0463918 -0.464167 -0.30727 0.0709181 0.0193445 -0.159454 0.0125718 -0.217547 -0.682909 -0.503011 -0.0616393 -0.4924 -0.291386 -0.599592 -0.806538 -0.387688 -0.146188 -0.182237 -0.592323 -0.553097 -0.229218 -0.175375 -0.398154 -0.751689 0.118939 -0.404642 -0.642919 -0.534313 -0.906018 -0.922896 -0.143351 0.196998 -0.236568 -0.531322 -0.0229206 -0.554454 0.156504 0.0195534 -0.791896 -0.627025 -0.988542 -0.430279 -0.307925 -0.680649 -0.677401 -0.513587 -0.411367 -0.939206 -0.673069 -0.0542094 -0.353296 0.1443 -0.154854 0.0382599 0.0904341 -0.35685 -0.649268 -0.729681 -0.053691 -0.549135 -0.689201 -0.487554 -0.591364 -0.123309 -0.206897 -0.643454 0.271459 -0.295202 0.135442 -0.689685 -0.0783146 -0.608874 0.104484 -0.563194 -0.467892 -0.484699 0.0310724 0.173915 -0.388415 0.235485 -0.306392 -0.339652 0.0363688 -0.529227 -0.335717 -0.0701655 -0.0735574 -0.244167 -0.073671 -0.425231 -0.133395 -0.045546 -1.17938 -1.00053 -0.411218 -0.654238 0.0561957 -0.451378 -0.223208 -0.0544218 -0.407083 -0.618554 0.0289264 -0.570638 -0.444991 -0.710047 -0.320172 -0.703186 0.169988 0.00896763 0.271836 -0.0886753 -0.27439 0.0879917 0.151115 0.116692 -0.243573 -0.182561 -0.421853 -0.608777 0.142746 0.271657 0.153366 -0.287094 0.0267764 -0.516395 -0.260842 -0.210787 -0.240995 -0.734157 -0.534365 0.0821895 -0.637227 -0.780159 -0.80378 -0.387561 1.79818 2.1988 -19.1462 -18.6764 -20.0067 -19.7326 -22.0062 -21.9609 -17.6335 -17.4503 -1.24431 -0.9799 -0.241922 -0.436061 1.63203 1.58568 1.46688 1.44529 0.259086 0.501618 0.553886 0.38359 -0.194567 0.189929 0.538532 0.0499593 0.554187 1.18609 0.699705 0.717746 0.980694 0.941194 1.46258 1.54391 1.0354 1.69366 1.33355 1.87314 1.99638 1.98828 1.80935 2.52381 1.83787 1.80482 2.43423 2.76803 2.38416 1.83927 1.66041 1.09419 1.55092 1.29836 1.62195 1.61217 1.93822 1.53825 1.00216 1.13515 1.24774 1.11788 1.12112 1.40119 0.960459 0.530146 1.09439 1.35533 1.97383 1.69066 1.79022 1.72173 1.49213 2.01543 1.51302 1.47807 2.01198 2.1783 1.12713 1.53798 0.992119 1.60317 1.83151 2.15056 1.52947 1.6376 1.39532 0.885753 1.42788 1.23879 0.834494 0.774597 0.579945 1.3544 0.504499 1.01619 1.58194 1.16352 1.01737 1.58947 0.690804 1.26398 0.550832 0.557985 0.486241 0.635838 -0.236029 0.350705 -0.396224 -0.12518 -0.142741 -0.205416 -0.214466 -0.372231 -0.413695 -0.173106 0.368706 -0.0656572 0.783637 0.442165 -0.211084 0.143372 0.881819 -0.0605828 0.144386 0.96319 0.505635 -0.0212948 0.505429 0.847363 0.988795 0.687594 0.659622 1.20841 0.947843 0.959428 0.612125 0.290279 0.820455 0.834741 0.873626 0.469537 0.469332 1.30062 0.831207 1.03919 1.08105 0.469571 1.30509 1.10799 1.28056 1.43073 0.593615 1.23929 1.44254 0.728826 1.28589 1.06295 0.196984 0.0618443 0.783822 1.58835 1.15811 1.19221 1.74874 1.01837 0.654756 0.70643 0.7244 1.3684 1.39121 1.28818 0.4144 0.431973 1.13906 0.817124 1.01853 0.818664 0.823272 0.822449 0.223044 0.33666 0.476992 0.237402 0.865386 0.222495 0.187874 0.411635 0.382851 0.188896 0.253055 0.506214 0.178434 -0.169284 0.239029 0.202891 0.168776 0.50172 0.475339 0.345003 0.231994 0.313492 -0.0133024 0.203564 -2.23609 -2.74121 -3.47479 -3.15016 -3.42077 -3.45927 -1.62039 -1.72232 0.218287 -0.308565 -2.39638 -1.56197 0.103697 -0.191129 0.116632 0.0810528 0.834451 -0.0187565 -0.763035 -0.641255 -1.06843 -0.563588 -3.07037 -3.3494 -0.28756 -0.18638 -0.333499 0.481242 -0.898778 -0.541518 -0.956588 -0.674838 -0.477166 -0.550636 -0.59678 -0.44962 -1.65862 -1.72843 -1.71254 -1.74938 -1.37363 -1.66991 -1.13291 -0.89932 -1.82694 -1.9712 -2.03773 -2.11762 -3.88313 -4.46753 -3.93417 -3.13257 -3.07844 -2.9509 -3.55937 -3.80115 -3.59434 -3.48114 -3.91307 -3.50167 -4.9476 -4.34303 -2.74128 -2.41868 -2.66086 -2.36133 -1.19968 -1.78054 -0.76818 -1.25316 -1.19404 -1.56101 -1.32461 -1.14474 -0.741767 -1.11414 -1.16301 -1.09837 -0.665076 -0.626936 -0.904605 -0.314953 -0.366775 -0.96611 0.294032 -0.343654 -0.725744 -0.779824 -0.492871 -0.761011 -2.83164 -2.88567 -0.783251 -0.732781 -0.955813 -1.08829 -0.762234 -1.02389 -0.651218 -1.07151 -0.874186 -1.20522 -0.462427 0.00967912 0.0498375 0.129211 -0.29158 -0.40712 -3.31527 -3.66778 -0.693987 -1.06974 0.415526 0.177866 0.199861 0.154195 0.382978 0.56679 0.556427 1.15659 1.27164 0.529206 1.01409 1.26618 0.541275 1.35598 0.494525 1.15256 1.06612 1.4724 1.512 1.31842 0.959454 0.409927 0.578079 0.502161 1.2101 0.588367 0.384552 1.05842 1.15454 0.885666 1.29391 0.556827 1.15445 1.47748 0.594626 1.21276 0.496763 0.614248 0.714734 0.137244 0.952704 0.717127 1.41329 1.09637 0.640704 1.43491 0.989686 1.12186 1.33641 0.915241 0.305495 0.581218 0.226172 0.443284 0.656824 0.215991 -0.594169 -0.585828 -0.493517 0.127622 -0.0521075 -0.520963 -0.503386 -0.270436 -0.498065 -0.396786 -0.89323 -0.532212 -0.534954 -0.465594 -0.947912 -1.35409 -0.715888 -1.25775 -1.0119 -1.59901 -1.32573 -0.707732 -0.966302 -0.513485 -0.968251 -0.484603 -0.970306 -0.744154 -1.3081 -1.37975 -0.946212 -1.65007 -3.01402 -2.99567 -3.7185 -3.04234 -3.47366 -3.67234 -3.58741 -3.18374 -2.21429 -2.4541 -2.03897 -2.91761 -0.238774 -0.690554 -0.959112 -0.295793 -0.20946 -0.217392 -0.109017 -0.850334 -0.56136 -0.940089 -1.33408 -0.527173 -0.189294 -0.749253 -0.562827 -0.757151 -0.301268 -0.482894 -0.435011 -0.129941 -0.351164 -0.332075 -0.350516 -0.964294 -0.196449 -0.306108 -0.614111 -0.891106 -0.0765354 -0.521949 -0.767501 -0.287431 -0.193399 -0.633857 -0.490093 -0.38094 -0.968523 -0.748923 -0.212053 -1.05038 -0.182431 -0.103094 -0.272123 -0.326335 -0.791714 -0.790082 -0.812819 -0.925057 -0.102217 -0.248941 -0.134155 -0.477423 -0.602535 -0.428472 -0.30197 -0.609198 -0.695485 -0.862636 -0.542781 -0.827851 -0.349378 -1.08923 -1.16478 -0.674533 -0.840974 -0.502585 -0.925313 -0.55402 -1.0159 -1.04867 -0.164581 -0.765723 -0.5941 -0.0925532 -0.819273 -0.25333 -0.796812 -0.700703 -0.294799 -0.971621 -0.806567 -0.16003 -0.194212 -0.372461 -0.666573 -0.643701 -0.0338024 -0.148797 -0.48435 -0.554051 -1.18546 -0.942308 -0.661016 -0.866081 -1.30323 -1.2931 -1.12588 -0.793087 -0.333096 -0.641782 0.388127 0.302517 0.243175 -0.410239 -0.0285879 -0.593771 -0.397251 -0.478138 -0.041771 0.324465 -0.582669 -0.102356 -0.118067 0.104151 -0.655222 -0.821849 -0.312559 -0.495972 0.256967 0.357777 0.116626 0.434939 -0.239244 -0.301914 -0.0475794 0.0297826 -0.134996 0.111572 -0.517121 -0.188242 -0.00339666 0.706784 -0.467901 -0.439844 0.0156695 0.674874 0.13662 0.10591 0.734934 0.728734 -0.18379 -0.363178 -0.816958 -0.468656 -0.726012 0.0501684 -0.0365793 -0.748669 0.456051 0.356101 -0.290344 0.0493107 0.184607 -0.0827158 0.187217 -0.481171 0.331906 -0.443647 0.172547 0.392737 0.100395 0.616466 0.427882 0.224473 -0.282606 -0.295473 0.421912 0.428912 0.269212 0.303322 0.200736 0.492684 0.337868 -0.187211 0.476968 0.374518 -0.518164 0.303768 -0.399486 0.444384 0.138307 -0.287527 -0.121145 -0.180795 0.0246425 -0.51485 -0.112955 0.00394202 -12.1361 -12.2859 -18.5728 -18.3345 -17.7609 -18.4934 -9.60636 -9.69601 -3.63146 -3.14082 -2.51985 -3.30883 5.70901 5.62717 1.65963 2.0391 -2.5775 -2.43427 -6.19604 -5.55186 -5.68 -6.21754 -4.87566 -5.18851 -3.36501 -3.69345 -2.24971 -2.90622 3.20222 3.10169 3.73486 3.55186 0.192131 0.989612 -0.936821 -0.820979 -7.72738 -7.63726 -13.0065 -12.6869 -8.06815 -8.12461 -8.22324 -8.11772 -9.14802 -9.11452 -8.35639 -8.10159 0.775836 0.537836 6.39624 6.5382 4.45059 3.83758 1.2098 0.4709 -4.28463 -3.82802 -4.0307 -3.84009 -3.36514 -3.30016 -2.49309 -2.3874 -2.21551 -2.15263 -2.52096 -2.59356 -4.59969 -4.35197 -5.38623 -5.65246 -3.18204 -3.40451 -8.45843 -8.40543 -10.8781 -10.5538 -8.48142 -8.49362 -9.65066 -10.4439 -7.85054 -7.53982 -1.35566 -1.39673 0.545907 0.198157 0.592933 0.769337 1.25234 1.02396 3.9623 3.81276 1.91884 2.02268 -5.13189 -5.03305 -6.22326 -6.15692 -5.88351 -6.60531 -3.43943 -2.90159 -6.05761 -6.41822 -4.92125 -5.05446 -4.1066 -4.20804 -5.58095 -5.53103 0.329226 0.313696 0.843237 0.542197 0.520099 0.452559 1.13016 0.4891 0.720012 0.914052 1.28067 0.630922 0.969464 0.977324 1.45233 1.41017 1.32123 0.806589 0.80726 1.26053 0.939362 0.763652 0.365029 1.18432 0.33585 0.91777 0.653455 0.0807952 0.694156 0.234906 0.498798 0.0845284 0.573819 0.411719 0.803166 0.271786 0.198131 0.834021 0.850471 0.729711 0.598958 0.557078 0.673085 0.547535 0.966067 1.64967 1.40731 1.47999 0.8813 1.73777 1.31986 1.25237 0.864392 1.38144 0.948409 1.09284 0.849635 1.28752 0.524297 0.103736 -0.0781894 -0.029169 0.0618203 0.56566 0.395359 -0.154771 -0.19311 0.46419 0.678342 0.478362 -0.0643544 -0.148654 0.679752 0.445792 0.479302 0.203412 0.73512 0.35755 0.24597 0.86457 0.361347 0.684087 0.200201 0.359837 0.387658 0.690568 0.949593 0.888353 -1.30735 -1.43152 0.43596 0.15537 -0.366443 -0.683057 2.48209 2.29386 3.11219 3.30789 0.835505 0.0545353 -4.25969 -4.25409 -4.34313 -3.58928 -4.10732 -4.18245 -4.61064 -4.38938 -3.89739 -4.62264 -4.38088 -4.35469 -3.66352 -4.27255 -4.49702 -4.05974 -4.32068 -3.83077 -4.31728 -3.88262 -4.34936 -3.4551 -3.78 -3.48941 -1.38418 -2.00688 -1.73701 -2.0261 -2.07916 -2.50775 -3.23731 -2.66861 -2.97703 -2.91237 -2.34093 -2.9923 -2.55631 -1.75579 -2.14798 -1.61115 -2.35673 -1.94697 -2.34835 -1.67561 -1.56432 -1.81547 -1.41692 -0.922316 -1.46877 -0.982699 -0.894952 -1.29046 -0.96245 -0.879136 -1.59145 -1.63348 -1.26738 -1.26995 -1.62815 -1.59455 -2.0803 -1.48148 -1.27379 -1.12794 -1.17467 -1.24982 -0.473211 -0.820201 0.0580846 -0.877524 -0.762578 -0.961968 -0.589223 -0.836362 -0.526157 -0.251281 -0.434477 -0.851098 -0.00749028 -0.267021 -0.345095 -0.646361 -0.706376 -1.2566 -0.210668 -0.970634 -0.0879852 0.154671 -0.751148 -0.674514 -0.392444 -0.586136 0.234475 0.113027 0.0671848 -0.593886 -0.0161771 -0.569523 -1.32507 -0.796313 -1.63919 -1.45741 -1.3191 -1.33391 -1.3148 -1.51208 -1.19728 -1.76093 -1.57378 -1.54423 -1.57377 -2.11822 -2.27406 -1.75228 -1.60308 -1.09274 -1.16384 -1.85077 -1.32917 -1.32989 -2.39866 -2.36942 -3.16113 -3.09596 -3.17929 -2.42154 -2.88419 -2.173 -2.98718 -2.59115 -2.27408 -2.55863 -2.90221 -2.3329 -2.27922 -1.76677 -2.18307 -2.22236 -2.20275 -1.44462 -1.37447 -1.24885 -1.8849 -1.16636 -1.56909 -1.4501 -1.24537 -1.83615 -1.75943 -1.77757 -2.69001 -1.86823 -2.17438 -2.9603 -3.37229 -2.4534 -2.11851 -2.82748 -2.0687 -2.89247 -2.33527 -2.46525 -2.83525 -2.57037 -3.37529 -2.78297 -3.04967 -3.23831 -2.57428 -2.84816 -3.16657 -2.62328 -2.80341 -3.02025 -2.83592 -3.33678 -3.34089 -2.85019 -2.60875 -2.27453 -2.62699 -2.31014 -2.33681 -2.85314 -2.5024 -2.45945 -2.97282 -2.47006 -5.0089 -4.97626 -4.0755 -4.05445 -5.1606 -5.58993 -3.98006 -3.63807 -4.7796 -4.71636 -3.52627 -2.81024 -0.13092 -0.408081 -0.152374 -0.511282 -0.0469342 -0.525772 -0.394244 0.0139096 0.0400331 -0.911381 0.0211278 -0.494437 -0.253948 -0.355565 -0.439805 -0.543441 -0.614073 -0.243419 -0.843189 -0.567874 -0.169146 -0.0910292 -0.761543 -0.4556 -0.801321 -0.219038 -0.533282 -0.721499 -0.0663472 -0.265061 -0.643878 -0.209002 -0.73919 0.0479498 0.126686 0.156808 -0.491524 -0.275327 0.117185 -0.562641 -0.302348 -0.121696 -0.327919 -0.697703 -0.590558 0.182153 -0.347237 -0.326869 -0.162167 -0.236463 0.00508916 -0.448258 -0.363551 -0.771504 0.0138289 -0.333564 -0.209129 -0.7086 -0.142256 -0.322405 -0.0472607 -0.0550577 -0.801907 0.024029 -0.15535 0.175343 0.0449049 0.13255 -0.425027 -0.130695 -0.725913 0.0857592 -0.434621 -0.222192 -0.782853 -0.228834 -0.175928 -0.207459 -0.603875 -0.47537 -0.677092 -0.807021 -0.127577 -0.229583 -0.749019 -0.221265 -0.631083 0.00536368 0.0171186 0.0321086 -0.531088 -0.200992 -0.208105 -0.497081 -0.325262 -0.538726 -0.464671 -0.452582 -0.601062 -0.0124546 -1.07662 -0.794618 -0.38548 -0.604075 -0.933129 -0.0909624 -0.66275 -0.183184 -0.362829 -0.453018 -0.857685 -0.152876 -0.335834 -0.0526042 -0.346479 -0.10448 -0.207123 -0.0537224 -0.212102 -0.372835 -0.36271 -0.0279634 -0.984178 -0.808599 -0.710187 -0.384791 -0.418231 -0.330745 -0.998159 -0.161865 -0.48024 -0.836334 -0.86178 -0.785408 -0.164517 -0.551793 -0.586648 -0.825913 -0.739384 -0.0102083 -0.432469 -0.732107 -0.265979 -0.815551 -0.721785 -0.684999 -0.14566 -0.351084 0.0417359 -0.387388 -0.798237 -0.439662 -0.676011 -0.872804 -0.463454 -0.512064 -0.318871 -0.822595 -0.747972 -0.281886 -0.974189 -0.259221 -0.15998 -0.709108 -1.03211 -0.496809 -0.404577 -0.694698 -0.450344 -0.294459 -0.866639 -0.900055 -1.05514 -1.1821 -0.784496 -0.944657 -1.02575 -0.916317 -0.277417 -1.17741 -0.370076 -0.10182 -0.82141 -1.23547 -1.05865 -1.0659 -0.471389 -0.271324 -3.72036 -3.14417 -2.93765 -3.11605 -4.30237 -4.52622 -2.36923 -2.28673 -3.3484 -3.01234 -1.40619 -0.79871 -1.48314 -1.2517 -1.69188 -1.34369 -1.15162 -1.16054 -0.851563 -0.837259 -0.850617 -1.02818 -0.856239 -1.07541 -0.939541 -1.36664 -1.02517 -0.863008 -1.444 -1.53991 -1.25953 -1.20486 -1.62465 -1.59627 -1.51855 -0.747098 -0.908727 -0.760005 -1.05813 -0.942167 -1.51792 -0.871581 -1.30434 -1.32762 -1.35966 -1.06214 -1.74599 -1.76373 -1.64952 -1.13657 -1.25015 -1.86103 -1.50384 -1.39296 -1.04868 -1.6226 -1.81378 -1.27707 -1.59376 -1.34434 -0.990153 -1.03968 -1.53342 -0.612335 -0.538502 -1.35816 -0.502302 -0.718935 -0.737445 -1.19096 -1.25854 -1.44469 -1.12141 -1.49862 -0.753455 -0.682854 -0.832424 -0.716936 -0.77444 -1.56553 -0.603242 -0.553826 -0.972571 -1.00876 -0.81292 -1.04494 -0.837089 -0.993024 -0.608736 -0.630594 -0.502873 -0.757377 -0.555923 -1.15835 -0.297518 -0.39006 -0.831316 -0.472203 -0.717086 -0.810099 -0.899569 -0.309408 -0.488184 -0.389761 -0.217419 -0.706008 -0.582366 -0.449107 -0.85682 -0.63494 -0.489093 -0.233763 -1.6274 -1.6872 -1.30405 -0.872469 -1.11416 -1.50511 -0.894267 -0.881387 -0.331742 -0.962605 -1.06819 -0.552392 -0.473103 -0.048147 -0.473181 -0.12855 -0.339612 -0.225531 -0.297339 -0.60767 -1.93545 -1.963 -1.70069 -1.7835 -2.38809 -2.43097 -2.17368 -2.06291 -2.00739 -1.61477 -1.78432 -1.33403 -1.53705 -0.951806 -0.736126 -0.69512 -0.112403 -0.954877 -0.689401 0.092067 -0.558043 -0.74578 -0.611377 -0.318 -1.13525 -0.414727 -0.810303 -0.789014 -0.949347 -1.05972 -0.328068 -0.789223 -0.986351 -0.487303 -1.27522 -0.929272 -0.533863 -1.02738 -0.56613 -0.930972 -1.48321 -1.6604 -1.74786 -1.51593 -1.9988 -1.03148 -1.6193 -1.01696 -1.04016 -1.71333 -1.36616 -1.71464 -1.77122 -2.09015 -2.1659 -1.78959 -1.24273 -1.65983 -0.82636 -1.59016 -0.915638 -0.807086 -1.13783 -0.803213 -1.25468 -1.0236 -1.52396 -1.4602 -6.61809 -6.48081 -9.04189 -9.40522 -10.8529 -11.0685 -3.2583 -2.89017 -3.10226 -2.96072 -2.42295 -2.5464 -0.147399 -0.793129 -0.310754 -0.703304 -0.716667 -0.243703 -0.280348 -0.843407 -0.765288 -0.383937 -0.515333 0.013071 -0.668767 -0.220579 -0.428438 -0.330933 -0.644636 -0.101055 -0.891201 -0.474365 -0.72402 -0.863832 -0.823144 -0.182204 -0.542689 -0.620577 -0.679178 -0.282927 -0.0992406 -0.119704 -0.786799 -0.254784 0.0899851 -0.109149 -0.0534579 -0.684305 -0.430332 -0.307113 -0.630604 -0.300902 -0.708108 -0.228875 -0.180234 -0.185759 -0.245288 -0.524165 -0.458848 0.147842 -0.73754 -0.484291 -0.48567 -0.54011 -0.218534 -0.1415 -0.700397 0.0575976 0.126054 -0.278374 0.105346 0.168144 -0.249154 0.17789 -0.186678 -0.277761 -0.012676 -0.278401 -0.153477 -0.651738 0.206074 0.290234 0.112844 -0.52509 0.0755206 -0.234935 0.204447 -0.304739 0.0990896 -0.452389 -0.229856 0.445516 0.140412 0.261441 -0.0571568 -0.24195 -0.112924 0.0945101 -0.178254 0.0189541 -0.169187 0.558258 -0.167036 0.21108 0.254087 0.108904 0.261023 -0.356581 0.411922 -0.0229769 -0.156206 0.29038 -0.590476 -0.8749 -0.0532526 -0.840599 -0.428292 -0.263099 -0.597497 -0.78171 -0.181451 -0.380478 -0.888922 -0.573437 -0.546763 -0.43467 -0.342554 -0.222489 -0.0567243 -0.352833 -0.0448193 -0.922284 -0.441062 -0.863783 -0.296069 -0.710244 -0.247513 -0.45983 -0.337113 -0.315925 0.0884529 -0.0591891 -0.841719 -0.839674 -0.215666 0.0607603 -0.806378 -0.833323 -0.426277 -0.508109 -0.737122 -0.681788 -0.976372 -0.69637 -0.232099 -0.590956 -0.172578 -0.671069 0.171966 -0.116413 0.0164668 0.0949488 -0.0627734 -0.426036 -0.768214 -0.433407 -0.223561 -0.135704 -0.0454318 -0.854648 -0.772733 -0.297459 -0.122696 -0.545878 -0.0011537 -0.390076 -0.520748 0.171271 -0.240466 0.0543957 -0.296811 0.0761624 -0.627762 -0.298431 -0.602497 0.118516 0.0915943 0.136663 -0.65576 0.0759211 -0.319509 0.108415 -0.0629135 -0.472067 -0.404877 0.0610494 0.0923908 -0.620387 -0.00254468 0.0455983 0.886913 1.54974 2.37852 2.89967 3.76802 3.76876 1.55955 1.65244 0.179393 0.895748 -0.286509 0.0164396 -0.322113 -0.584167 0.0546927 -0.203006 -0.728854 -0.126104 -0.348785 -0.667302 -0.297506 -0.753446 -0.613618 -0.469023 -0.385887 -0.21182 -0.62576 -0.565202 -0.0968772 0.0674241 -0.808246 -0.86895 -0.0442672 -0.412147 0.0583436 0.125114 -0.239458 -0.646792 -0.443259 -0.117639 -0.839414 -0.292005 -0.655391 -0.257045 -0.0241509 -0.763306 -0.624821 -0.880506 -0.00785047 -0.0798345 -0.664603 -0.466576 0.0168487 -0.447948 -0.0966846 -0.489706 -0.792249 -0.839106 -0.160401 0.0101599 -0.872051 -0.0958114 0.0236813 -0.0317476 -0.620805 -0.0505076 -0.0459948 -0.00477278 -0.826824 -0.655823 -0.253137 -0.781154 -0.0202945 -0.0248845 -0.160674 -0.156909 0.10578 0.116756 -0.224584 -0.104733 -0.168298 0.00557809 -0.648501 -0.237435 -0.552587 0.107915 0.133281 -0.448371 -0.833466 -0.147882 -0.531138 -0.80005 -0.36547 -0.666707 0.0302688 -0.0995486 -0.818663 -0.131663 -0.224076 -0.792052 0.0797184 -0.642034 -0.753383 -0.176972 0.10156 -0.124103 -0.514574 0.0153415 -0.261236 0.067016 -0.287287 -0.562983 -0.0553501 -0.0877051 0.111828 -0.676964 -0.0762009 0.0772148 -0.302974 -0.0611828 -0.213794 0.00467033 0.00829764 -0.690882 -0.815997 -0.16746 -0.0421817 -0.855895 -0.541941 -0.45953 -0.842218 -0.648681 -0.271471 -0.749153 0.0596101 -0.306073 -0.0127045 -0.662584 -0.484954 -0.402987 -0.731733 0.0822657 -0.0833995 0.0970992 -0.0409224 -0.0992808 -0.719466 -0.309676 -0.220776 -0.199515 -0.502558 -0.568501 -0.317126 -0.692665 -0.429072 -0.27212 0.00366294 -0.590453 -0.153945 -0.545411 -0.169667 -0.208118 -0.423045 -0.574091 -0.136423 -0.564405 -0.105423 -0.324901 -0.453417 -0.805912 0.0431918 -0.3563 0.120924 -0.210315 -0.405191 -0.162044 -0.518701 -0.345988 -0.724175 -0.0187162 0.467813 -0.227671 0.0885994 -0.4777 -0.526432 -0.652037 -0.0421769 0.159798 -0.595865 -0.661974 0.168514 -0.0629118 -0.186482 -0.5739 0.111001 -0.509692 -0.345366 -0.244566 -0.116209 -0.00947127 -0.182978 -0.16066 0.271901 0.481709 1.04358 1.53185 0.310012 0.611494 -1.15424 -1.04835 -0.429738 -0.574794 -0.424259 -0.7778 -0.487246 -0.14786 -0.617927 -0.73863 -0.20449 -0.403357 -0.614387 -0.262516 -0.709528 -0.000900448 -0.0167835 -0.829549 -0.727288 -0.578235 -0.292105 -0.0443411 -0.784955 -0.748616 -0.467218 -0.50418 -0.362301 -0.40114 -0.966449 -0.267348 0.00523034 -0.882508 -0.0676441 -0.79806 -0.860105 -0.644705 -0.736446 -0.480596 -0.913182 -0.476283 -0.342318 -0.246171 0.00813039 -0.0435356 -0.568183 -0.760445 -0.0241959 -0.611726 -0.597395 0.147503 -0.319675 -0.0366693 -0.0317527 -0.21444 0.100622 -0.636634 -0.856474 -0.290981 -0.060375 -0.82873 -0.551912 -0.0653645 -0.718678 -0.649092 0.101086 -0.587803 -0.276605 -0.604429 -0.0370395 -0.197268 -0.0985427 -0.396436 -0.450224 -0.103118 -0.549804 -0.165868 0.098803 -0.593793 -0.799625 -0.64981 -0.596083 -0.238152 -0.812634 -0.76767 -0.59372 0.158448 -0.539902 -0.584304 -0.260232 -0.72862 -0.540848 0.0414076 0.022559 -0.446294 -0.781988 -0.00769725 -0.166086 -0.22926 -0.768896 -0.359677 -0.582676 -0.0271359 0.0853243 -0.202161 -1.1734 -1.41163 -1.23499 -1.17749 -1.02265 -1.12979 -0.89059 -0.769117 -0.540602 -0.900474 -0.786444 -1.3604 -0.845949 -1.3718 -0.785536 -1.07559 -1.04405 -0.47518 -1.1948 -1.17088 -1.13014 -1.18609 -0.472624 -0.530342 -0.743822 -0.499147 -1.20889 -0.551411 -0.676431 -1.2136 -0.893373 -1.19051 -1.02825 -1.56181 -0.751782 -1.45801 -1.08007 -1.11241 -0.663514 -1.05342 -1.46586 -0.884185 -0.841223 -0.841143 -0.709881 -1.29213 -0.559767 -0.498189 -0.40513 -0.402884 -0.408404 -1.32174 -1.42268 -0.538963 -0.585 -0.757825 -0.61892 -1.23848 -0.600059 -0.671466 -0.855458 -1.00081 -0.490234 -1.42237 -1.24235 -0.850531 -1.48837 -0.807978 -1.46303 -0.686148 -1.25679 -1.28954 -0.966347 -0.639742 -0.778913 -1.36455 -1.63471 -0.957337 -1.30339 -0.572386 -1.06343 -1.502 -0.691181 -1.06527 -1.73471 -0.88811 -1.30678 -0.733265 -1.58411 -1.64638 -6.98124 -6.91093 -7.42432 -7.29075 -2.05122 -1.93776 -1.76222 -1.26242 -2.34885 -2.46401 3.53699 3.62131 3.64836 3.28357 3.35448 3.1739 2.86126 3.01656 2.52125 3.04677 3.41361 3.59001 4.2913 3.99526 3.73399 3.26609 3.85014 4.10554 4.34225 4.11986 3.92146 3.52918 2.64253 2.62804 1.82754 1.81363 2.04271 2.30936 3.41319 3.306 3.58665 3.34921 3.34058 3.34416 2.71872 3.10678 2.94138 3.38873 2.86733 3.18712 3.17203 2.60168 2.73327 2.79309 2.43049 1.729 1.80073 1.48491 1.41448 1.112 0.220506 0.967547 0.317141 0.626831 0.580849 0.627359 0.646394 0.477905 0.361161 0.142836 -0.209831 0.254812 0.202532 0.903974 0.232042 0.174062 0.654316 0.945534 1.07826 0.711136 -0.244051 0.118184 0.285291 0.392485 -0.245433 -0.0492943 0.220387 0.23436 -0.235178 -0.275581 -0.13777 0.204317 -0.0153903 0.00133372 -0.608378 -0.169203 -0.32801 -0.38045 -0.481877 -1.10549 0.110435 0.105444 0.407284 -0.319243 0.250702 -0.440042 -0.154837 -0.368857 -0.0287854 -0.423936 -0.729973 -0.5185 -0.508361 -1.02698 -0.661778 -1.27263 -0.581981 -0.857617 -0.544884 -0.987063 -1.33137 -1.21676 -1.16869 -0.778091 -0.479255 -0.927564 -0.02093 -0.826363 -0.402806 -0.302351 -0.776604 -0.548119 -0.554476 -1.14249 -0.656632 -0.864704 -1.14411 -0.426665 -0.835386 -0.513682 -1.20299 -1.20623 -0.687884 -0.398503 -0.864423 -1.01258 -0.293706 -1.13806 -0.620091 -0.538445 -0.954292 -0.694125 -0.51656 -0.903172 -1.18649 -0.858906 -0.699266 -1.21874 -0.688742 -1.02441 -0.562598 -0.469482 -0.602387 -0.925941 -1.43584 -1.04107 -0.472491 -1.24616 -1.02391 -0.977633 -0.479623 -1.04511 -1.04607 -0.964846 -1.28797 -0.766798 -0.861614 -0.459191 -0.745598 -1.23633 -0.778313 -1.38803 -0.659689 -0.979363 -0.898677 -0.478482 -0.469134 -1.30036 -0.333425 -0.803345 -0.988731 -0.507027 -1.00088 -1.27498 -1.07633 -0.948029 -0.818913 -1.19239 -0.920422 -0.687515 -2.77396 -2.87128 -3.09993 -2.38408 -0.774918 -1.38359 -1.05832 -1.14136 -1.41314 -0.499301 -0.521901 -0.244096 0.0518484 -0.752496 -0.792752 -0.484922 -0.858479 -0.89243 -0.408105 -0.891533 -0.342607 -0.0329111 -0.0165302 0.102794 0.121955 -0.72162 -0.479111 -0.322812 -0.537233 0.0650198 -0.529075 -0.0733228 -0.542531 -0.485906 -0.308465 0.180353 -0.352612 0.0559977 -0.581003 -0.339326 -0.0182319 -0.186242 -0.662387 -0.035794 -0.00311739 -0.525505 -0.609362 0.0341347 -0.51408 -0.103058 0.0752264 0.0150174 -0.248815 -0.090469 -0.0481776 -0.291849 0.0222702 -0.670993 -0.759066 -0.661347 -0.75886 -0.457026 0.1146 -0.471483 -0.0469281 -0.321863 -0.417406 -0.611007 -0.478258 -0.169752 -0.118375 -0.662246 -0.521433 0.0461236 0.130228 -0.70163 -0.670623 -0.653478 0.171304 -0.339864 0.0934998 0.0652108 -0.49926 -0.350373 -0.228658 0.259081 0.162288 -0.392885 -0.57878 0.239064 -0.231167 -0.527702 -0.413449 -0.317431 -0.195619 -0.71748 0.105223 0.125339 -0.594921 -0.640161 -0.314635 0.0179774 -0.569796 -0.100679 -0.198559 -0.704949 -0.0679115 -0.122572 -0.600216 -0.151315 -6.35368 -5.41476 -6.36008 -6.49728 -5.78413 -5.23346 -6.32325 -6.33022 -5.9808 -5.83579 -9.66786 -9.12981 -10.6207 -10.6901 -6.87908 -6.91322 -4.76735 -4.31221 -3.78183 -4.08861 -4.31824 -4.00366 -5.94454 -6.12374 -3.95691 -4.0309 -12.5165 -12.0955 -14.6703 -14.8452 -3.98964 -3.68413 -3.71922 -3.42874 -2.76054 -2.90866 -4.9838 -4.46496 3.44236 3.27901 24.2475 24.9033 6.92999 7.44239 -3.37747 -3.36872 -3.4081 -3.41308 -4.58858 -4.12442 -5.77451 -5.90071 -5.6426 -4.92851 -6.49568 -6.93322 -5.76364 -5.75464 13.6668 13.1782 21.4337 22.287 -2.9745 -3.37625 -7.7751 -7.78983 3.23609 3.22102 23.0732 23.3682 7.18293 7.35093 -5.14218 -4.94591 -6.74409 -7.20691 -8.05258 -7.89408 -7.62024 -7.95133 -8.26923 -8.04878 -8.54454 -8.14313 -7.75342 -7.51611 -8.2113 -8.63669 -8.74585 -8.79854 -11.5187 -11.4382 -12.3555 -12.4524 -8.12103 -8.17665 -8.58764 -8.45876 -8.19543 -8.80303 -0.193223 -0.442319 0.113615 -0.511586 -0.573781 -0.333094 -0.409697 -0.257506 0.0807909 -0.475024 -0.635182 -0.613339 0.0599918 -0.576184 -0.129697 -0.530535 0.0725679 -0.540306 -0.351151 -0.503687 -0.190797 0.0690351 -0.00298459 0.132052 -0.686082 -0.079387 -0.0235424 0.0275786 -0.282114 -0.273365 -0.816571 -0.657038 0.132273 0.136169 -0.323541 -0.616717 -0.420733 0.0255812 -0.0898812 -0.446114 -0.46723 0.21289 -0.141754 -0.58662 -0.541986 -0.453123 -0.299978 -0.654892 -0.20166 0.126414 -0.355524 -0.545105 0.062377 -0.517118 -0.564809 0.185938 0.212164 0.237044 0.0183676 -0.218851 -0.357632 -0.112246 -0.188594 -0.395313 -0.15344 -0.696792 -0.24127 -0.747404 -0.611953 -0.252834 -0.156001 -0.362538 -0.266873 -0.463629 -0.113634 -0.0304512 -0.144294 -0.641401 0.0808494 -0.551055 -0.801552 -0.580734 -0.337873 0.0809982 -0.316253 -0.192287 0.0560153 -0.275463 -0.174517 -0.203032 -0.771893 -0.589418 -0.387163 -0.0335425 -0.121292 -0.655136 -0.76737 -0.291509 -0.331006 -0.617778 -0.376937 -1.27927 -0.775777 -0.901557 -1.02388 -1.16858 -1.23752 -0.444507 -1.06837 -1.38269 -1.1711 -0.981948 -1.14643 -0.806822 -1.25456 -0.706746 -1.26874 -1.4911 -1.25758 -0.645159 -0.834742 -1.1871 -1.3757 -1.4097 -1.50318 -0.732528 -1.30896 -1.49744 -1.21281 -0.820643 -1.34624 -1.26475 -0.63776 -0.606318 -0.782923 -1.39219 -1.37237 -0.459245 -1.24515 -1.00024 -0.371012 -1.02619 -0.593255 -1.08797 -0.411264 -0.369189 -1.15025 -1.00224 -0.301103 -1.03167 -1.16343 -0.594596 -0.761218 -1.20588 -0.742332 -0.824013 -0.640498 -0.673516 -0.931679 -1.35917 -0.959171 -0.704577 -1.01907 -1.17008 -0.902706 -1.29298 -1.11341 -0.940647 -1.40777 -0.984336 -0.591532 -1.4699 -0.700577 -0.848846 -1.18231 -0.729615 -0.711826 -1.03182 -0.558599 -0.845082 -0.885092 -0.523945 -1.26572 -1.39923 -0.347722 -0.530538 -0.815363 -0.57289 -0.253862 -0.739214 7.06569 6.20901 12.6281 12.0971 4.81378 4.86905 1.66453 1.89654 1.19611 0.797656 -1.05774 -0.412024 -0.620131 -0.196419 -0.681946 -0.331866 -0.432618 -1.04136 -1.0085 -0.531377 -0.391366 -0.411863 -0.626632 -0.239509 -0.387605 -0.632853 -0.434677 -0.803882 -0.754819 -0.766347 -0.510487 -0.698282 -0.544361 -0.629676 -0.320392 -0.196295 -0.460237 -1.10035 -0.520488 -0.322483 -0.493254 -0.481694 -0.620123 -0.935512 -0.493601 -0.152432 -0.125294 -0.813611 -0.0566288 -0.991862 -0.135769 -0.298578 -0.249194 -0.622121 -0.434954 -0.544691 -0.175063 -0.746442 -0.238067 -0.859018 -0.399368 -0.732865 -0.442499 0.106386 -0.318841 -0.846396 -0.175659 -0.624507 -0.831527 -0.802432 -0.0447356 -0.250955 -0.187825 -0.594946 -0.138747 -0.66282 -0.805885 -0.292803 -0.495244 -0.828775 -0.212676 -0.636263 -0.102927 -0.480799 -0.271405 -0.54343 -0.0175967 -0.432285 -0.24771 -0.214257 -0.328817 -0.755128 0.0339263 -0.810457 -0.767195 -0.48605 -0.722133 0.0734294 -0.155725 -0.695322 0.0966472 -0.3219 -0.0718814 -0.206571 -0.11237 -0.379797 0.0607471 -0.830873 -0.588811 -0.459963 -0.875888 -1.05238 -0.579627 -1.30112 -0.762789 -0.854042 -0.817054 -0.859026 -0.323252 -0.160172 -0.172882 -0.714464 -0.987224 -0.295789 -0.722722 -0.863377 -0.753128 -0.511027 -0.789963 -0.985088 -0.533889 -1.05432 -0.532694 -0.576009 -0.102107 -0.541447 -0.891156 -0.205043 -0.617719 -0.682805 -0.740288 -0.296402 -0.87629 -0.356074 -0.322956 -0.118897 -0.651551 -0.92267 -0.858081 -0.935053 -1.16505 -1.01149 -0.565124 -0.936396 -1.08551 -1.09002 -0.736091 -0.918508 -0.143964 -0.000987632 -0.289104 -0.349013 0.339919 0.348709 -0.10174 -0.134327 -0.665397 -0.079361 -0.606097 -0.367604 -0.965585 -0.497105 -0.822886 -0.543513 -0.509834 -1.10504 -0.433159 -1.01549 -0.896567 -0.251051 -0.922519 -0.896897 -0.217494 -0.495356 -0.84865 -1.20456 -0.599632 -0.45721 -0.948454 -0.993235 -0.612915 -0.528788 -0.739444 -0.831502 -0.646542 -0.854453 -0.888715 -0.226348 -1.4526 -0.923733 -3.59917 -3.7001 -18.4426 -18.8593 -15.5818 -15.5958 -5.81281 -5.15094 -4.28853 -4.16684 -0.236653 -0.492238 -0.380738 -0.274265 -0.788081 -0.986416 -0.189067 -1.00488 -0.0381196 -0.825894 -0.414502 -0.185018 -0.213804 -0.179084 -1.041 -0.651728 -0.846743 -0.833962 -0.722799 -0.517868 -0.658909 -0.706408 -0.568249 -0.0292322 -0.471821 -0.189374 0.285964 -0.190263 -0.477757 -0.548961 -0.912845 -0.661133 -0.042172 -0.2494 -0.918476 -0.778706 -0.0973601 0.0113841 -0.49218 0.0463344 -0.571344 -0.107976 -0.284003 0.333319 -0.242947 -0.337524 -0.529843 -0.204946 -0.110265 -0.0520349 -0.629465 -0.169603 -0.01872 -0.384889 -0.534562 0.0119139 0.161007 -0.315041 -0.265755 -0.405156 0.133951 -0.150339 -0.0193929 0.106564 -0.383908 0.0865892 0.177244 0.280159 -0.171472 -0.581785 0.0825295 -0.0172605 -0.16811 -0.758683 -0.21353 -0.662383 -0.332475 -0.808351 0.359038 -0.407909 0.025626 -0.568504 0.201218 -0.205698 -0.143167 -0.451376 -0.461154 -0.505175 -0.330254 -0.120443 -0.348712 -0.680224 -0.737781 -0.808892 -0.0522225 -0.618217 -0.232614 -0.17244 -0.641935 -0.663308 0.88458 0.0629299 1.04299 0.745907 0.456197 0.852567 1.0412 0.943827 0.648622 0.778732 0.810058 0.312898 -0.258891 0.569699 0.622367 0.198047 -0.220735 0.0147554 0.538532 0.274652 -0.570943 -0.222714 0.133131 -0.496039 0.0110661 0.210136 -0.0722064 -0.395697 -0.213095 0.128655 -0.145371 -0.236281 0.0793044 -0.386716 0.556284 -0.335836 0.747724 0.613804 0.598109 0.448949 0.17426 0.32044 -0.373414 0.158739 0.132085 -0.418308 -0.349922 0.145238 0.0397558 -0.320754 -0.106363 0.0240361 0.447107 0.0830175 -0.264398 0.000452071 -0.112139 0.193921 0.0699239 0.164133 -0.458667 -0.862177 -0.794736 -0.626826 -0.353863 -0.738533 -0.291367 -0.230557 0.145159 -0.568541 -0.624675 -0.147085 -0.68365 -0.41832 -0.371631 0.0356386 -0.452006 -0.334416 -0.361143 0.038887 -0.313589 -0.179869 -0.700479 -0.955669 -0.229754 -0.198104 -0.216914 -0.612304 -0.874278 -0.923266 -1.19249 -1.20697 -24.95 -25.2478 -24.3612 -24.6832 -4.95124 -5.52202 -3.36644 -2.56758 -0.441176 -0.790738 -0.349391 -0.201394 -0.291498 -0.00529495 -0.441852 0.188845 -0.476573 -0.0188845 -0.0374742 -0.876606 -0.240824 -0.679667 -0.768893 -0.40785 -0.806134 0.109191 0.0832718 0.0137907 -0.208643 -0.544169 -0.60244 -0.188593 -0.831943 -0.762483 -0.70925 -0.0251813 -0.463005 -0.632386 -0.125606 0.0885818 -0.4234 -0.664011 -0.312799 0.084022 -0.910987 0.00645587 0.0581323 -0.492486 -0.100888 -0.0426425 -0.510013 -0.543469 -0.882552 -0.366629 -0.000585949 -0.788372 -0.443289 -0.150049 0.00495466 -0.697461 -0.728121 -0.669354 0.0827399 -0.592936 -0.606084 -0.802824 -0.775786 -0.148885 -0.53023 -1.03891 -0.227137 -0.112201 -0.745366 -0.542092 -0.054399 -0.758092 -0.644581 -0.105306 -0.448907 -0.953057 -0.382759 -1.02681 -0.453219 -0.236296 -0.36085 -0.570867 -0.149347 -0.846238 -0.787123 -0.215256 -0.602034 -0.561095 -0.959261 -0.647143 -0.204655 -0.445795 -0.407469 -0.0338139 -0.643954 -0.894686 -0.0518776 -0.825028 -1.00373 -0.888043 -0.405179 -1.02921 -0.62572 -0.0748773 -0.159059 -1.00136 -1.2111 -0.698342 -0.999484 -0.490398 -0.754243 -0.368751 -1.17157 -1.01276 -0.257302 -0.875013 -1.03767 -0.748375 -0.236354 -0.875042 -0.310637 -0.522147 -0.459297 -0.74248 -0.712569 -0.206621 -1.02143 -0.99429 -1.29838 -0.968099 -1.0416 -0.878687 -1.18843 -1.63359 -0.579464 -0.957984 -1.62016 -0.859715 -1.13223 -0.906067 -0.448332 -0.584417 -1.12855 -0.559946 -0.917794 -0.617541 -0.784322 -1.03092 -1.35322 -0.979092 -1.06237 -0.871381 -0.802478 -0.567583 -0.763023 -0.438236 -0.824309 -0.450432 -0.270484 -0.796877 -1.22326 -0.728515 -1.22099 -0.810579 -0.805688 -1.45541 -1.38005 -0.617956 -0.197373 -1.03125 -0.722976 -0.342727 -0.358174 -0.758249 -1.17406 -1.12129 -1.23306 -0.333309 -0.396439 -0.906709 -0.670956 -0.750049 -0.785951 -0.349431 -0.155256 -0.566749 -0.978167 -0.0815375 -0.387047 -1.27383 -1.07727 -1.41073 -6.01818 -6.01142 -6.19154 -6.53399 -18.5166 -18.4078 -16.9397 -16.4719 -13.4043 -12.9964 -8.21209 -7.90708 10.1851 9.98196 11.044 10.952 10.3679 10.5319 13.5371 13.5076 16.7883 16.8668 15.0634 15.3041 7.8155 7.98383 7.60123 7.23056 9.23623 8.74379 11.6257 11.5152 8.98189 8.35471 5.80122 5.67258 6.1455 6.11222 7.75655 7.51319 16.8123 16.9994 28.0738 27.4563 27.3241 27.7435 26.0674 25.748 25.1658 25.854 -63.7551 -64.0868 -95.3978 -95.3396 -105.197 -105.764 -94.9239 -94.8776 -17.0071 -17.4991 -94.7227 -95.3639 7.69515 7.76334 11.0145 10.959 10.0721 10.2854 4.60583 4.88449 6.36184 6.64776 4.28543 4.31705 9.27322 8.72299 8.96336 8.92221 6.82124 6.85573 -7.69809 -7.91663 -38.682 -38.2683 -63.722 -63.1101 -59.8186 -59.7526 -13.3641 -13.4538 -8.99682 -8.78482 -3.48123 -3.50963 -21.4524 -21.4517 -33.454 -33.2343 -14.0145 -13.1871 -24.3889 -24.2049 -28.011 -28.0468 -48.5269 -48.7452 -79.2305 -78.5638 -42.6448 -43.1005 -59.9499 -60.5623 -7.09971 -6.69571 -0.248444 -0.0830741 -3.83902 -4.19042 -3.36495 -3.69095 -1.01733 -1.21193 -17.661 -17.833 -38.229 -38.0628 -13.229 -12.5358 -2.86344 -2.82064 -4.44227 -4.55807 -9.7492 -9.1154 -30.1349 -29.6924 -14.7281 -14.4657 -17.8176 -17.6616 -37.6166 -37.8062 -25.7025 -25.5699 -0.925442 -0.580442 -1.31187 -1.08157 -8.1837 -7.6544 0.145025 -0.302375 1.65761 1.44783 1.26569 1.37744 -2.41688 -3.20768 -4.59673 -5.25453 -0.634619 -0.309219 -3.58718 -4.10838 -12.6241 -12.5492 -8.04843 -7.67373 5.03643 5.06702 5.13036 5.27449 -0.417127 -0.342627 -1.64135 -1.58585 -0.933637 -1.35904 -1.87349 -1.46049 0.787419 -0.0224809 2.64933 3.08794 1.70657 2.05248 5.4937 5.43036 6.42169 5.77692 6.2738 6.08093 7.1987 6.7041 8.71708 8.35692 8.27758 7.48493 5.63225 5.55001 5.93744 6.48284 0.631683 -0.289417 -9.79137 -10.4529 -7.6003 -7.5611 -0.0646984 0.355602 2.4955 2.51245 -0.221358 -0.803679 -0.358526 -0.767862 0.0166265 0.0225494 -0.468246 -0.149552 -0.782692 0.0235207 0.214136 -0.744087 -0.481213 -0.0694055 -0.410007 -0.518026 0.0971859 -0.206602 -0.391861 -0.53476 -0.272566 -0.400935 -0.447635 -0.58617 -0.383834 -0.31329 -0.376742 -0.25348 0.199506 -0.447537 -0.317237 -0.216045 -0.450072 0.145694 -0.139662 -0.605441 0.0202367 -0.760588 0.0875228 0.0503698 0.0701395 0.0488745 0.112907 -0.550095 -0.198366 -0.512121 -0.237716 -0.228012 0.168716 0.207434 0.0938762 -0.282056 -0.336389 -0.533513 -0.0501909 0.0703291 -0.111417 0.274839 -0.448065 -0.0838162 -0.384323 -0.000333611 -0.572635 -0.0627862 -0.0926479 0.0646486 0.143055 -0.2755 0.0918101 -0.0112039 -0.453204 -0.0513451 -0.173802 -0.624884 0.115858 -0.617877 -0.408166 -0.440333 -0.17123 -0.553608 -0.513733 -0.37096 -0.161805 -0.244906 -0.284047 -0.556823 -0.538966 -0.719897 -0.59532 -0.31412 -0.140111 -0.287419 -0.621023 0.0277364 -0.563449 0.0814977 -0.166812 0.239798 -0.5227 -0.340174 -118.021 -118.251 -130.655 -130.476 -122.152 -121.829 -121.322 -120.768 -117.206 -116.484 -108.626 -108.328 -97.0197 -96.6056 -81.8999 -82.0899 -70.7482 -71.4963 -81.8402 -81.5854 -61.157 -61.3447 28.7512 28.9496 31.6877 32.1577 34.7171 34.9843 39.1822 39.2519 15.4023 15.5825 -64.1067 -64.0727 -71.9699 -71.8099 -57.9007 -58.0956 -58.3674 -58.719 -62.2429 -62.3557 -59.7176 -59.3266 -58.5664 -58.4059 -58.0619 -57.6194 -60.9156 -61.0856 -64.8734 -64.9278 -60.3343 -60.5296 -57.311 -57.2075 -50.1093 -50.1221 -46.7284 -46.577 -41.0324 -41.212 -24.1677 -24.2705 -16.2674 -16.5762 -18.6702 -18.4584 -25.3407 -25.5688 -29.753 -29.7301 -29.9797 -29.1735 -42.2198 -42.2596 -50.7083 -50.0934 -53.4189 -53.0397 -54.8713 -54.7713 -53.7551 -53.6678 -56.8295 -56.3607 -55.3576 -55.1781 -53.9745 -54.4131 -51.854 -52.3411 -54.7696 -55.107 -62.1837 -61.9475 -71.1835 -70.7161 -56.2737 -55.4237 -0.64476 -0.336568 -0.446693 -0.548367 -0.521428 -0.234604 -0.349018 -0.267909 -0.316265 -0.0549346 -0.802552 -0.455927 0.123799 -0.0910719 -0.658738 -0.392598 -0.125288 -0.500629 -0.0847424 -0.374864 -0.3081 -0.531475 -0.280987 -0.713109 -0.374279 -0.741398 -1.10339 -0.310527 -1.12193 -0.869788 -0.069787 -0.730302 -0.162839 -0.647121 -0.375325 -0.700609 -0.931123 -0.834732 -0.094074 -0.389811 -0.130325 -0.914191 -1.02056 -0.301482 -0.252365 -0.767579 -0.797646 -0.542487 -0.58678 -1.15589 -1.35296 -1.05742 -0.877817 -0.690022 -0.84962 -1.20293 -1.34618 -0.678645 -1.33368 -1.41279 -1.43962 -1.35722 -1.10957 -0.629567 -0.917488 -1.41929 -1.18712 -0.786473 -1.08313 -1.17259 -1.20188 -1.24958 -1.14652 -0.990716 -1.28242 -1.15447 -0.481438 -0.824843 -0.345645 -0.595611 -0.53685 -1.18871 -1.05543 -0.7604 -1.18671 -0.277742 -0.405753 -1.04914 -0.483783 -1.10247 -0.79266 -0.296483 -0.849657 -0.311781 -0.364265 -0.302462 -1.12624 -0.995343 -0.582322 -0.951681 -0.608011 -0.0406513 -0.600848 -0.432728 -1.54908 -1.29476 -2.15728 -2.79352 -2.53167 -1.85251 -1.54052 -1.54211 1.69766 0.857021 3.65983 4.22306 -1.50201 -1.26684 -1.82526 -1.18042 -2.35149 -2.15414 -1.88102 -1.80085 -1.93766 -1.82047 3.42884 3.20013 5.65158 5.25601 -1.63754 -2.34801 -1.32645 -1.34158 -2.19576 -2.30079 -1.92405 -2.17034 -2.19625 -3.04616 4.75693 5.12945 5.26311 5.72328 5.62104 6.063 7.02655 6.62677 5.64018 5.58344 3.83773 3.13133 -1.44478 -1.05872 -1.43574 -1.55991 -2.32814 -2.81238 -2.27606 -2.52471 -2.39472 -2.34567 -2.17852 -1.88654 -2.839 -2.34046 -4.60994 -4.33685 -5.59838 -5.1527 -4.28958 -3.60446 -3.05653 -3.48483 -3.00765 -2.65756 -2.24702 -2.07829 -2.30838 -2.61759 -1.07504 -0.879689 -0.737751 -1.48516 -0.963309 -0.605139 -1.83844 -1.75377 28.5139 29.2895 42.7778 42.772 39.6067 39.4836 10.9148 10.7733 12.9006 12.3737 9.60225 9.22995 -2.80415 -2.24936 -1.77596 -2.03904 -1.8181 -2.35997 -2.23527 -2.09512 -2.39831 -2.36102 -2.15692 -2.41809 -1.77785 -1.96253 -1.68919 -1.87515 -1.91546 -1.79562 -1.71864 -1.67124 -1.8346 -2.09989 -2.64955 -2.92959 -2.28503 -2.95743 -4.00982 -4.02278 -2.61341 -2.90336 -1.9297 -2.21036 -1.65488 -1.72733 -2.27767 -1.88634 -1.67428 -2.13103 -2.62922 -2.61668 -2.56541 -2.20302 -2.32569 -2.51253 -2.1985 -2.4557 -3.28553 -2.93432 -3.28569 -2.75979 -2.36762 -1.6096 -2.79678 -2.35666 -1.98955 -2.11733 -1.10993 -1.0535 -1.88329 -2.31496 -4.68396 -4.20996 -4.09944 -4.06812 -2.57004 -2.82612 -2.02835 -2.24111 -2.12227 -2.16815 -2.50155 -2.63386 -2.228 -1.67684 -1.60553 -2.1113 -1.61302 -1.30497 -1.94775 -1.79115 -2.20183 -1.9578 -1.7113 -1.61673 -2.97036 -2.57777 -1.57144 -2.11958 -1.53776 -1.71171 -1.78028 -1.56477 -2.15283 -1.84496 -2.03562 -2.33403 -2.3304 -2.66092 -2.16861 -1.82968 7.87619 8.16481 3.63964 3.57972 -0.151224 -0.263754 -9.95653 -9.82279 38.4846 38.7643 0.584401 0.613881 2.30367 2.50864 2.64185 1.84977 2.18112 2.27194 3.41787 3.46446 26.5704 26.2504 46.9026 47.1195 51.0662 50.5751 51.7339 51.7735 19.2849 19.6923 3.66742 4.46937 9.19543 8.78053 4.64748 4.18322 1.57494 0.751285 1.23547 0.903665 16.8553 16.8151 29.6649 29.6447 19.3811 19.2028 29.2841 29.0465 63.0457 62.8932 49.653 50.4824 47.0124 47.0834 76.3066 75.822 69.3717 69.3365 56.1062 56.8645 -26.0323 -26.0987 -23.9988 -23.9307 1.41507 1.71735 -3.64145 -3.65001 -2.9133 -2.64001 3.71346 3.64816 1.13654 0.49384 1.84792 2.24583 -1.3672 -1.26489 15.5518 15.6433 12.4129 12.3821 4.16124 3.63866 5.58795 5.55515 4.5325 5.15262 54.5122 54.06 69.0946 68.3987 46.3749 46.3136 3.1398 3.14 50.458 50.434 34.8749 35.5944 -0.952525 -0.301287 -0.623369 -0.140977 -0.140886 -0.572089 -0.707146 -0.519616 -0.835116 -0.794564 -0.506557 -0.885565 -0.948149 -0.748191 -0.632217 -0.582283 -0.392558 -0.301338 -0.609705 -0.510566 -0.899113 -0.850634 -0.402571 -0.282125 -0.201662 -0.42624 -0.71888 -0.490795 -0.434838 -0.322608 -0.50494 -0.504259 -0.758877 -0.156978 -0.625572 -0.853573 -0.649976 -0.286604 -0.295894 -0.454084 0.0520072 -0.709415 -0.306191 -0.892533 -0.568054 -1.00684 -0.52472 -0.919029 -0.199436 -0.0657858 -0.297885 -0.00640817 -0.68018 -0.572105 -0.316846 -0.147572 -0.33355 -0.801006 -0.298994 -0.664093 0.00869044 -0.646303 0.035194 -0.556564 -0.701736 -0.583081 -0.31258 -0.19498 -0.67281 -0.533041 -0.613345 -0.727394 -0.338102 0.0841093 -1.0425 -1.22561 -1.26819 -0.504981 -0.663787 -0.0279276 -0.120018 0.00738781 -0.0489987 0.0299813 -0.838261 -0.499001 -0.126753 -0.00777859 -0.150808 -0.505194 -0.806709 -0.290132 -0.290375 0.0990845 -0.0249459 -0.0874216 -0.501237 -0.396178 -0.386438 -0.396299 -0.225638 -0.211103 -0.336199 -0.713023 0.960965 1.13667 0.525247 0.945424 -0.326214 -0.46358 -0.385561 -0.549812 -0.560481 -0.577111 -0.67212 -0.446601 -0.131559 -0.968576 -0.641244 -0.446811 -0.637619 -0.539248 -0.804365 -0.00514694 -0.504176 -0.868346 -0.124155 -0.128213 -0.366247 -0.574381 -0.591382 -0.605666 -0.730802 -0.868631 -0.123481 0.119667 0.0828576 0.131807 0.339317 0.316086 0.262991 -0.0176559 -0.681655 0.219968 -0.0943392 -0.367092 -0.142455 -0.117102 -0.390297 0.0813417 -0.580034 0.118792 -1.42609 -1.49529 -1.0095 -0.95166 -0.549226 -0.314441 -0.101938 -0.794423 -0.945918 -0.906056 -0.600979 -0.767928 0.431996 0.334121 -0.9199 -0.979997 -0.712853 -0.973334 -0.345524 -0.482866 -0.0166381 -0.287447 -0.529153 -0.367556 -0.914288 -0.0228635 -0.745022 -0.398355 -0.0137983 -0.60706 -0.617874 -0.684803 -0.350931 -0.807395 -0.778616 -0.874453 2.2876 2.33228 1.23116 2.03613 2.12192 1.62683 -0.681939 -0.695356 0.931481 0.645702 1.57736 1.93547 -0.385706 -0.542549 -1.21166 -0.299047 -0.577015 -0.591964 0.351237 0.380027 0.22555 0.486708 -0.529724 -0.290187 -0.358414 0.0625285 0.308332 0.313762 -0.500637 -0.337121 -0.433111 -0.690309 -0.482486 -0.361207 -0.736616 -0.443861 -1.03644 -0.850634 -0.535334 -0.502107 0.175336 0.381159 -0.192089 0.161668 0.658499 0.270607 0.202901 -0.175771 0.230217 -0.429203 0.170698 -0.355674 0.264717 0.290277 -0.998666 -0.729021 -0.817095 -0.931318 -0.589698 -0.178706 -0.456147 -1.27147 -1.21962 -0.96213 -0.698141 -0.996572 0.246672 0.178821 0.112832 -0.0575754 -0.731944 -0.944562 -1.00736 -0.65064 -0.600636 -0.516239 -0.500387 -1.09288 -1.29703 -0.731042 -2.40758 -2.05174 -1.04252 -1.69268 -1.26831 -1.51553 -1.61298 -1.78506 -2.16452 -2.26996 -0.885282 -1.19743 -1.07473 -0.68203 -0.553705 -0.168503 -1.08063 -0.585017 -0.237253 -0.255614 -0.819566 -0.536841 -0.704726 -0.344111 -0.928624 -1.01847 -0.64216 -1.03391 -0.752473 -0.601736 -1.70611 -1.64035 2.22329 2.43714 1.92817 2.81615 2.07697 2.11206 1.81446 1.41965 -0.770081 -0.815275 -0.639408 -0.630512 -0.242802 -1.0044 -0.606919 -0.165135 -0.504732 -0.793283 -1.48033 -1.42113 -1.41342 -1.22099 -1.72344 -2.08982 -1.94464 -2.07981 -1.87838 -1.4581 -0.0880703 -0.671963 -0.178731 -0.656588 0.756574 0.658213 0.263577 0.860163 0.537463 0.663483 0.965262 0.831642 0.824133 0.318956 -0.526158 -0.0978203 -0.36393 -0.0945551 -2.15123 -1.68402 -2.96675 -3.6732 -2.9413 -2.9663 -4.02612 -4.07988 -3.44666 -3.85807 -2.00029 -2.1498 -1.9503 -1.12366 0.195926 0.690824 0.793351 1.6899 -0.743158 -0.984253 -0.583687 -0.250417 -0.351826 -0.656926 -1.84988 -1.88412 -1.18917 -1.11424 -0.61827 -0.695341 -0.359487 -0.095273 1.51338 1.8385 1.33105 1.24761 1.58536 1.62911 -0.55892 -0.650185 -0.180702 -0.506824 2.44263 3.08384 3.06128 3.08708 1.91994 1.76923 2.35793 2.89058 0.588075 1.00354 -0.596748 -1.10362 -0.558978 -0.49341 0.108377 -0.591529 -0.459508 -0.606536 -0.532199 -0.0474055 0.0930452 -0.293784 -0.389408 -0.714461 -0.264921 -0.154879 -0.291516 0.101032 0.0818588 -0.567105 -0.58981 -0.811814 0.112757 -0.320301 -0.547117 -0.418767 -0.0180428 -0.291889 -0.914906 -0.890472 -0.483305 0.0436124 -0.301491 -0.049475 -0.399102 -0.422663 0.113062 -0.15396 -0.296995 -0.521858 -0.289843 -0.343245 0.0729234 0.100614 -0.255295 -0.337247 -0.346973 -0.00673014 -0.801005 -0.644495 0.0528652 -0.570112 -0.601285 0.0822354 0.151955 -0.109736 -0.48141 -0.12121 -0.696221 -0.223354 -0.749128 -0.143026 -0.0117453 -0.109551 -0.262063 -0.669793 0.14158 -0.448189 -0.113952 -0.405907 -0.0933627 -0.550341 0.136724 -0.289599 0.220868 -0.502944 -0.528077 -0.819631 -1.18832 -0.385988 -0.160509 -0.852799 -0.621272 -0.82181 0.160974 -0.715712 -0.290313 -0.487213 0.112048 0.114285 -0.590607 -0.722457 -0.151149 0.1246 -0.107963 -0.641506 -0.873176 -0.224198 -0.265974 -0.0727056 -0.686204 -0.624147 0.0786216 0.0902876 -0.375494 -0.0684914 -1.76247 -1.63501 -1.56262 -1.65834 -0.775005 -0.894602 -0.755978 -0.646845 -0.9292 -0.725973 -0.473975 -0.256339 0.0627031 -0.221335 0.0820861 0.364381 -0.157139 -0.328929 0.337677 -0.307866 -0.196437 0.229629 0.370772 -0.457871 0.0834737 -0.556067 -0.611324 -0.255699 -1.14372 -0.274569 -0.49266 -0.83268 -0.718708 -0.0406333 -0.400788 -0.474395 -1.25109 -0.474829 -0.356957 -1.11862 -1.25951 -0.99153 -0.92603 -0.940212 1.30266 0.978517 1.20387 0.771923 3.86823 3.69438 3.712 3.51072 -0.103258 -0.177315 -1.31871 -1.44715 -1.52346 -1.31997 0.402526 1.06104 1.08687 0.976676 1.31341 0.382657 0.946874 0.829648 0.805307 0.931657 -0.571897 -0.540728 -1.21738 -1.57886 -1.56 -1.73932 -2.15939 -1.87631 -1.51651 -1.62406 -1.64268 -1.6421 -0.939518 -1.16588 -2.47228 -2.50144 -4.1477 -4.37831 -10.277 -10.2911 -8.50867 -8.4391 -4.23241 -4.18689 -2.44035 -2.47735 -17.6503 -18.123 -0.44102 -0.330607 -0.712106 -0.207293 -0.311975 -0.293653 -0.124362 -0.683638 -0.862229 -0.094549 -0.335191 0.00032983 -0.355731 -0.7808 -0.442813 -0.0640673 -0.548358 -0.412951 -0.108641 -0.0605028 -0.272668 -0.0806928 -0.145692 -0.268017 -0.993402 -0.314799 -1.33095 -1.11002 -0.643245 -0.605279 -0.957709 -0.470312 -0.0809692 -0.67915 -0.666102 -0.376141 -0.985378 -0.849831 -0.134143 -0.875004 -0.7605 -0.306013 -0.668024 -0.104664 -0.121268 -0.190506 -0.451866 -0.0738832 -1.01442 -0.72273 -0.258762 -0.2878 -0.670018 -0.209784 -0.789092 -1.04388 -0.938405 -1.16657 -0.841895 -0.061429 -0.138585 -0.424244 -0.161808 -0.203632 -0.203352 -0.94328 -0.756792 -0.22049 -0.745357 -0.766535 0.096063 -0.605093 -0.671585 -1.28148 -0.528913 -1.06619 -0.0580722 -0.253762 -0.466777 -0.0797459 0.0590804 -0.674092 -0.383486 -0.803827 -0.286576 -1.07994 -0.666683 -0.800775 -0.919534 -0.628519 -0.890383 -0.102124 -0.213899 -0.299662 -0.770618 -0.649102 -0.326567 -0.331994 -0.267609 -0.697682 -0.765744 -0.312487 -0.799737 -0.393035 -0.662809 -0.931832 -0.840614 -0.676391 -0.271884 -0.561747 -0.684378 -0.0530948 0.0206204 -0.0701306 0.330355 0.0343816 -0.173409 -0.637596 -0.242392 -0.148054 -0.282545 -1.06624 -0.0580233 -0.22584 -0.121353 -0.49232 -0.485125 -0.180271 -0.488278 0.12324 0.0200613 -0.382939 -0.462027 -0.718474 -0.765509 -0.857373 -0.349172 -0.47604 -0.452864 -0.443048 -0.882348 -0.258734 -0.790589 -1.23035 -0.822769 -0.970727 -0.111821 -0.463081 0.19871 0.0329014 1.35399 1.56867 1.4213 1.04697 -0.546071 -0.365028 -1.09686 -1.09629 -2.0116 -2.13328 -1.21904 -0.85836 -1.30539 -1.62853 -0.862159 -0.383141 -0.564308 0.0144521 -0.510343 0.147015 -1.18899 -1.25357 -1.09133 -0.861659 -1.22813 -1.4143 -1.28182 -1.52192 -1.40596 -1.93639 -1.64468 -1.43903 -1.39588 -1.75128 0.104136 -0.164739 -1.20722 -1.12118 1.22849 1.54002 2.74772 3.0915 4.34504 3.78471 3.8276 4.60404 0.605235 0.210871 0.129879 -0.599288 -0.423659 -0.47988 -0.279027 0.26494 -0.752768 -0.0508654 -0.672497 -0.417324 -0.00077845 -0.180404 -0.446199 -0.390286 -0.384482 0.0245233 -0.199839 -0.342485 -0.011994 -0.485842 -0.634666 -0.762843 -0.134897 -0.227153 0.0616838 -0.428414 -0.121911 -0.885668 -0.957806 -0.691714 -0.846335 -1.20478 -0.635265 -0.530385 -0.683099 -0.93992 -0.32024 -0.561457 -0.0972692 -0.0906212 -0.0331624 -0.126267 -0.317099 -0.578398 -0.456512 -0.603463 -0.456825 -0.793506 -0.202542 -0.914709 -0.746716 -0.0929202 -0.873198 -0.846036 -0.137469 -0.762212 -0.524281 -0.615334 -1.06223 -0.238824 -0.81873 -0.365347 0.262164 -0.0258708 -0.526975 -0.476688 -0.151049 0.0560624 -0.281941 -0.381715 -0.152052 -0.329026 -0.132903 -0.0921189 -1.01148 -0.241549 -0.651571 -0.94214 0.0627478 -0.333016 -0.259276 -0.636558 -0.350433 -0.193512 -0.523818 -0.704249 -0.321985 -0.13504 -0.445384 -0.301705 -0.36384 -0.460287 -0.751254 -0.275939 -0.634783 -0.479455 -0.214198 -0.143535 -0.684856 -0.350185 -0.0891734 -0.512974 -0.490858 -0.712849 0.901 0.62043 0.140424 0.651241 0.088269 0.069453 -0.802548 -0.37643 -0.813669 -0.440584 -1.50723 -1.25344 -0.380622 -0.265406 -0.882544 0.038626 -0.704164 -0.25308 -0.418727 -0.562768 -0.653406 -0.213165 -0.17128 -0.71928 -0.207001 -0.833275 -0.701174 -1.21938 -1.23856 -1.29419 -0.26835 -0.701439 0.23015 0.0378867 0.592231 0.684877 0.539808 0.732591 -0.386907 0.00591857 -0.455199 -0.353397 -0.0843803 -0.325857 -0.917988 -0.830652 -0.241467 -0.765554 -0.605291 -1.10087 -0.829282 -0.364466 0.0234228 -0.633418 0.249769 0.70533 -0.359702 -0.656214 -0.897106 -0.230294 -0.625014 -0.427859 -0.128158 -0.816509 -1.22424 -0.912778 -0.471472 -0.677659 -0.782805 -0.859747 -0.706413 -0.63631 -0.589969 -0.756724 -0.6002 -1.35831 -0.76951 -0.261192 0.56076 1.01975 0.955823 1.00548 0.0642426 0.0216316 -1.02487 -0.184243 0.815419 0.925129 -0.295983 0.0543226 0.23656 0.428536 1.53408 1.54433 -0.598132 -0.0457823 -0.306565 -0.398646 -0.267581 -0.441648 -0.618802 -0.0860013 -0.24441 -0.388574 -0.0337021 -0.309039 -0.206949 0.079676 -0.631132 -0.815625 -0.152056 -0.906342 -0.0129468 -0.343508 -0.0620117 0.195983 -0.33769 -0.721636 -0.428351 -0.374162 -0.373269 -0.229044 0.0274573 -0.458725 -0.54839 -0.7986 -0.699788 -0.22362 -0.596311 -0.183983 -0.770268 -0.281582 -0.33559 -0.137453 -0.73991 -0.428735 -0.51194 -0.0697018 -0.429335 -0.273555 0.100172 -0.556403 -0.14432 -0.0214041 -0.0962228 -0.491626 -0.0545791 -0.531645 -0.297238 -0.548622 0.122975 -0.690014 0.00303642 -0.173673 -0.396979 -0.349666 -0.644607 0.122386 -0.265961 -0.035172 0.127718 -0.0467004 -0.342653 -0.218199 -0.387411 -0.323413 0.249903 0.196421 -0.156328 -0.122896 -0.219728 -0.455747 -0.287404 -0.78361 -0.663679 -0.273955 -0.0737329 0.194077 0.0822006 -0.588756 -0.554077 -0.0642926 -0.559458 -0.650189 -0.324685 -0.107805 -0.229861 -0.343708 -0.316913 0.163149 0.209975 -0.626827 -0.358478 -0.52206 -0.216537 0.112825 0.100081 -0.176638 -0.138147 -0.731497 -0.137822 -0.759643 -0.580269 -0.446696 -0.401874 -0.344345 -0.818195 -0.827831 -0.485874 -0.0499179 -0.738767 -0.397 -0.475993 -0.640532 -0.419688 -0.180875 -0.110117 -0.902499 -0.807867 -0.771649 -0.0778206 -0.835913 -0.626712 -0.633389 -0.586177 -0.0991097 -0.612454 -0.633714 -0.444512 0.154053 -0.593879 -0.626816 -0.669481 -0.113459 -0.0173628 -0.158648 -0.541924 -0.917992 -0.0435531 -0.104662 0.129497 -0.702018 -0.279683 -0.294055 -0.624867 -0.0931737 -0.809235 -0.752945 0.510203 -0.14039 0.0272708 0.454262 -0.768241 -0.476318 -0.844484 -0.174843 -0.38832 -0.645322 -0.00619668 -0.0168557 -0.681353 -0.647581 -0.685673 -0.367367 -0.62559 -0.56855 -0.387183 -0.183838 -0.671761 -0.645662 -0.490227 -0.749368 -0.57558 -0.152686 -0.406641 -0.208109 -0.115079 -0.164151 -0.254732 -0.560835 -0.563224 -1.2159 -0.872251 -0.980601 -0.312338 -0.771135 0.462412 -0.119343 0.379021 0.588694 -0.565406 0.0603566 -0.711081 -0.34709 -0.236221 -0.402981 -0.279398 -0.158308 0.124065 0.226065 -0.680822 -0.502002 -0.619983 -0.278209 -0.726743 -0.157393 -0.628321 -0.0720193 -0.454503 -0.659376 -0.522249 -0.701638 -0.534512 -0.163423 -0.398441 -0.61673 -0.707487 -0.433932 -0.160796 0.0356967 -0.527576 0.0799665 -0.163982 -0.437309 -1.15446 -1.38813 -0.964801 -1.57224 -0.651775 -1.05528 -0.927704 -0.8931 -0.00554151 -0.668111 -0.254231 0.1228 0.0109757 -0.0723411 -0.123617 -0.696561 0.150999 -0.665466 -0.491451 -0.637184 -0.116202 -0.156272 -0.512791 -0.0458728 0.209062 0.0449949 -0.0738769 -0.357163 -0.735668 -1.25001 -0.768945 -0.353933 -0.414693 -0.411393 -0.606424 -0.467019 0.131444 -0.56641 -0.468981 -0.0938663 -0.454913 0.0954754 -0.193174 -0.64682 -0.487642 -0.80216 -1.09708 -0.918192 -1.27588 -1.0548 -0.582366 -0.158722 -0.626542 0.0425873 -0.0148652 -0.600369 -0.109176 -0.555205 -0.435741 -0.487199 -0.89679 -0.322195 -1.26053 -0.968905 -0.784932 -0.613799 -0.0706787 0.107012 -0.41866 0.186386 -0.183391 -0.0705388 0.0611481 -0.6339 -0.0572282 -0.434729 0.730703 0.363322 1.12166 0.981111 -0.329053 -0.494526 -0.197737 -0.16303 -0.657774 -0.484119 -0.0489077 -0.0401897 -0.308579 -0.728168 -0.784998 -0.0177363 0.134601 -0.544584 -0.521778 -0.788878 -0.273582 -0.783661 0.169892 0.135118 -0.788958 -0.325563 -0.75997 -0.50958 -0.859087 -1.1218 -0.544094 0.214685 -0.23098 -0.55671 0.390142 0.613747 0.139703 0.0410292 -0.507256 -0.494803 -0.461736 -0.75422 -0.893653 -1.09104 -0.684789 -0.706357 -0.292831 -0.849898 -0.999472 -1.37072 0.0598836 -0.148921 0.953379 1.0398 -0.562372 -0.348735 -0.583229 0.251272 -0.499944 -0.181781 -0.622239 -0.285322 -0.125997 -0.1843 -0.622783 -0.927609 -0.349529 0.170454 -0.255871 -0.832255 -0.306669 -0.635189 -0.488332 0.0652735 -0.451857 -0.0327981 -1.05884 -1.01489 0.20684 0.0381249 1.26903 1.30685 -0.606146 -0.814762 -0.80274 -0.423839 0.0486823 -0.277251 0.0882445 -0.442709 0.590835 1.37602 1.27955 1.34872 -0.228034 -0.410884 -0.500386 0.391805 -2.14246 -1.78161 -0.960066 -1.0905 -0.765393 -1.31846 -1.18117 -1.67476 -2.32352 -2.36831 5.59404 5.32203 3.57629 3.79936 -3.4625 -3.05353 -1.471 -1.58094 -1.89296 -1.87349 -1.55071 -1.54943 5.43425 5.99061 4.00578 4.30027 -4.03516 -4.5218 -3.88596 -3.49608 -1.45613 -2.00736 5.19775 5.9191 5.29936 6.08243 -1.9147 -1.17319 -1.93446 -1.90017 -0.87613 -1.03629 -1.15489 -0.671674 5.20481 5.73291 5.66386 5.74123 4.14152 3.82159 -3.13361 -3.15131 -3.64639 -3.06101 -3.47725 -3.00944 -3.15119 -3.98699 -2.40477 -1.41326 -1.82515 -1.43843 -1.50903 -1.2042 -1.63631 -1.8777 -1.96122 -1.68484 5.24023 5.6176 3.81986 4.01671 4.21868 4.29164 5.02047 5.30061 -2.50407 -1.93182 -4.01103 -3.9918 3.77434 4.22871 -2.96095 -3.02729 -3.37096 -3.83078 -1.6715 -1.75189 5.40224 5.78489 5.82768 6.08616 -1.77956 -2.42816 -1.92108 -2.04362 -1.68027 -2.02908 -2.06008 -1.44995 -11.5618 -11.0972 -20.0389 -19.7932 -22.547 -22.0599 -10.5708 -10.4322 -8.97522 -9.0918 -12.5184 -12.2067 13.0577 12.217 29.8518 30.2293 36.8387 36.4854 46.4303 46.8342 46.8237 46.032 40.8773 40.6761 38.3479 38.5735 36.3006 35.9703 32.1992 32.0292 31.1742 31.0796 26.5765 26.6633 17.7951 18.6271 14.628 14.3051 7.40341 8.03656 11.5917 11.7201 12.9866 12.8849 1.14988 1.33992 -8.7727 -8.7856 -2.90006 -3.32705 2.06865 1.93485 -3.66337 -3.61007 -7.94232 -7.60134 -10.0847 -10.7435 -6.92665 -6.77088 -13.0934 -12.8029 -14.1559 -14.69 -12.0679 -11.8556 -12.7841 -12.833 -12.0535 -11.785 -10.908 -11.4581 -14.5084 -14.9793 -18.9851 -19.3007 -14.4925 -13.8685 -13.8376 -13.2817 -16.7741 -16.7116 -11.1889 -11.2105 -12.1363 -12.0492 -11.1834 -10.7887 -18.6678 -19.3378 -15.2424 -15.6428 -13.4773 -13.8656 -12.7479 -12.7501 -1.21152 -0.848171 -2.2087 -2.49529 9.65922 10.1926 10.0898 10.1184 14.4157 13.9273 46.4329 47.2144 19.0729 19.4574 15.9947 15.3275 12.34 12.0996 -23.8013 -24.2385 1.94682 2.57735 38.4534 38.7283 40.4736 39.9816 11.2239 11.8051 12.3604 12.3003 -20.5811 -20.6374 15.6836 15.2116 16.0267 15.9618 43.2654 43.0858 44.6931 44.8169 7.73726 8.41404 6.79069 6.25835 5.73413 5.97682 39.7762 40.2846 11.2236 11.3352 7.84538 7.69419 38.6027 38.6314 38.5118 38.2145 7.47915 7.47738 8.2185 8.87484 -20.4956 -20.6327 -22.8123 -22.5708 7.28944 6.54651 7.0084 7.46068 7.1876 6.32798 41.3937 40.8032 40.0669 39.5482 -24.5773 -24.6988 -23.6422 -23.9646 5.8251 5.5513 11.3024 11.7604 10.8129 11.3442 11.1475 10.8462 -22.7411 -22.7178 14.7119 15.2298 15.87 16.5052 41.4994 41.779 36.3446 36.1162 30.3864 30.4398 3.22449 3.83868 6.98968 6.7896 6.16357 6.17443 -1.78722 -1.8864 -0.995294 -0.990054 -0.933764 -0.657581 -1.84304 -1.4755 -2.60613 -2.29968 -2.71134 -2.49055 -3.01929 -3.88649 -3.77979 -3.07764 -3.65357 -3.72986 -4.29877 -4.26745 -4.56119 -4.34723 -4.26768 -3.52766 -3.91716 -3.89038 -2.89106 -2.43009 -1.98372 -2.60584 -1.15023 -1.0423 -0.711623 -0.350437 -0.00516736 -0.148061 1.04281 0.887428 -0.54633 -0.174789 -0.435121 -0.311631 -0.0523006 0.103956 0.737926 0.57434 0.50684 0.413764 0.316975 0.512668 0.217574 0.181037 0.192543 -0.0662978 -0.823379 -0.146457 -0.0586689 -0.000981868 -0.764928 -1.17029 -1.24119 -1.63146 -1.81228 -1.098 -1.44511 -1.62936 -2.89128 -2.28299 -2.74058 -2.94453 -3.22995 -2.41851 -3.078 -3.50584 -2.86925 -2.69343 -1.61075 -1.78465 -1.43398 -2.26526 -1.71602 -1.69503 -1.90562 -1.47418 -2.12698 -2.29131 -2.85747 -2.32738 -2.76985 -3.52357 -3.80694 -3.47801 -3.35565 -3.52835 -4.0172 -4.19028 -4.37365 -4.75907 -4.82284 -5.51943 -0.983036 -0.567995 -0.453466 -1.12331 -1.13611 -1.05356 -0.338459 -0.942656 -0.970476 -0.381751 2.33461 2.26505 2.08669 1.7834 -1.0759 -1.70403 2.67495 2.14521 -1.19935 -0.77359 -1.63128 -1.60459 1.39305 1.96557 -0.971872 -1.17398 -0.941002 -1.44397 -1.25401 -1.41936 -1.68985 -1.86675 2.25506 2.17034 2.25843 2.49533 -0.588706 -0.929469 -0.295778 -0.389308 1.94969 2.14693 1.49637 1.35405 -1.04121 -1.84242 -1.05972 -0.633376 2.18682 2.31833 2.22393 2.60949 -0.507909 -0.901129 -0.872399 -0.860233 -0.542577 -1.18504 -1.00681 -1.18967 -1.20923 -1.89962 -0.706157 -1.26427 2.21743 2.01093 -0.552009 -1.32933 -0.903537 -0.592049 -1.92243 -1.22174 -1.69113 -1.72505 -1.31062 -1.90794 2.16374 1.95166 2.74609 2.57999 2.5312 2.21233 -0.806755 -0.729143 -1.01708 -1.83952 -1.77904 -1.08647 1.69216 1.29112 2.41116 2.13844 2.04898 2.19892 -1.00276 -0.869313 -0.797801 -0.949857 -0.660421 -1.26425 -2.13827 -1.65296 -1.2162 -1.54805 -1.91829 -1.26305 -1.10118 -1.48492 -1.17092 -1.27106 -2.14818 -1.78559 -2.2748 -1.60518 -2.13847 -2.26958 -1.5952 -2.06522 -2.74024 -2.35796 -1.83601 -1.76484 -1.78665 -1.74914 -2.30469 -2.02596 -1.91634 -1.7518 -1.68682 -2.15973 -1.47225 -2.18615 -1.65391 -0.996325 -1.08454 -1.62074 -1.02349 -0.998401 -1.03382 -1.27782 -1.37203 -0.84182 -0.709339 -1.20342 -1.00289 -1.4441 -1.32735 -1.28034 -0.833425 -0.897165 -1.44444 -1.22672 -1.2159 -0.677038 -1.21267 -0.98414 -1.05453 -0.628362 -0.284332 -0.340092 -0.551925 -0.598139 -1.43014 -1.46446 -0.918274 -0.733683 -1.52715 -1.60294 -1.46674 -0.957209 -1.26475 -1.13013 -1.16704 -1.36824 -1.77584 -1.53626 -1.03154 -1.01618 -1.6638 -1.21743 -1.33896 -1.62307 -0.885217 -0.926177 -1.93827 -2.01896 -1.54145 -1.46912 -0.926101 -1.34547 -1.74359 -1.44484 -2.00813 -1.76123 -1.49594 -1.35014 -2.13998 -1.44609 -1.25694 -1.61577 -0.588342 -0.83813 -1.05131 -0.808144 -1.27823 -0.861883 -0.199227 -0.292618 -0.855884 -1.08654 3.29776 3.68108 -1.35805 -1.34098 -1.18012 -1.44014 3.04136 3.57128 -1.11516 -0.833305 -1.26481 -0.435938 -0.917661 -1.27267 -1.16077 -1.31576 -0.797194 -1.28995 -0.831661 -0.9709 -0.900637 -1.1583 3.13957 3.06379 2.96079 3.12078 -0.55786 -1.08959 3.10342 3.87569 -1.49526 -1.07569 -0.975222 -1.25236 -0.385427 -0.887468 -0.420692 -1.04767 2.92393 3.19908 2.97458 3.11302 -0.957431 -0.721952 -0.928373 -0.748591 -0.533045 -0.95888 -1.88599 -1.26658 -1.85265 -1.01718 2.99372 3.03962 -1.28351 -0.936237 -0.84974 -0.749481 -1.3262 -1.05373 -1.23601 -1.18285 -1.37544 -1.34731 -1.11082 -0.982123 3.53873 2.7776 3.3189 2.87286 3.43007 3.58668 -0.821337 -1.20331 -0.955899 -1.48009 -0.952152 -1.47958 -1.53834 -1.0535 3.61245 3.09735 3.47821 2.93195 -0.79764 -0.717628 -0.82158 -1.08489 -1.29482 -1.67826 -1.25092 -1.19812 -0.275602 -0.57438 0.00441021 -0.549843 2.05591 1.66293 1.29013 1.62178 -0.159813 0.0388124 -0.570861 -0.717473 -1.53575 -0.655412 -0.888338 -0.273875 1.62303 2.0022 0.121013 -0.434077 -0.600394 -0.180761 -0.354664 0.0402042 -0.449511 0.250173 -1.01042 -0.330512 -1.13687 -0.996148 1.76393 1.7499 1.38167 1.19532 1.39406 2.06594 -0.376916 -0.260588 -0.407541 0.17411 -0.786649 -0.29487 -0.689434 -0.557827 1.45677 1.22101 1.06778 1.79282 1.4527 1.29809 -0.731647 -0.724171 -0.845188 -0.77657 -0.180486 -0.415824 -0.577689 -0.0437825 -0.631771 -0.547229 0.341614 -0.481086 -0.628847 -0.112277 0.161796 -0.335978 -0.572273 -0.16066 -0.671501 -0.479537 -0.402678 -0.469171 -0.826675 -0.398377 -0.165051 -0.109188 -0.0262454 -0.215062 0.0955122 0.431441 -0.688361 -0.7375 -0.0227918 -0.101211 0.780215 0.525975 -7.30684 -7.51907 -12.5112 -12.3804 -11.2977 -11.3435 -10.8505 -10.9077 -2.92988 -3.63082 0.334338 -0.00636559 -0.74602 -0.682409 -0.783595 -0.0796572 -1.35973 -1.82472 -0.555605 -0.493374 -1.49333 -1.16857 -0.976769 -0.604993 -0.0788409 0.451139 -3.63854 -3.63442 1.59262 1.93474 -0.383607 -0.245802 -0.133106 -0.103562 -0.649983 -0.647767 0.0742592 0.651005 2.62211 2.0768 1.32567 1.71577 -1.91322 -2.32673 -1.60219 -1.63693 0.0971975 -0.45197 -1.42859 -2.00593 0.463887 0.555033 0.343898 0.730378 0.752339 1.16046 -0.711998 -0.926437 -0.724771 -1.35676 -1.06569 -0.903558 0.155445 0.413019 0.259605 0.0340536 -1.17041 -0.994902 0.105926 0.310764 2.46831 1.69531 0.777482 0.521685 -1.65613 -1.60747 -0.175203 -0.0712898 0.40552 0.61526 1.83691 1.84946 1.42729 0.701282 -1.1552 -1.3914 -0.0166143 -0.701129 -1.61259 -1.5182 -1.77953 -2.10248 -0.483274 -0.293947 0.354907 -0.196908 0.172807 -0.63278 1.74801 1.06298 1.55709 1.81098 -1.99217 -1.99798 -1.94208 -1.58662 -0.0136348 -0.30607 0.336589 -0.121074 1.4057 1.39164 -0.140656 -0.922466 -0.577295 -0.623378 -0.621481 -0.679406 -0.116989 -0.585621 -0.86922 -0.916314 -0.689971 -0.397001 -0.357684 -0.214645 -0.489307 -0.383299 0.38064 -0.254513 0.142941 -0.120356 -0.851536 -0.888588 -0.124033 -0.507194 -0.0719743 -0.298231 -0.0551836 -0.277404 0.0660941 -0.6922 0.142726 0.0136944 -0.291095 -0.267428 -0.501996 -0.0601025 -0.490831 -0.396542 -0.436247 -0.434047 -0.290123 -0.108446 -0.757982 -0.568555 -0.257885 -0.221562 0.386407 0.0485752 -0.545306 0.171105 -0.868937 -0.849026 -0.0633468 0.0664172 -0.221761 -0.223995 -0.259721 -0.298567 -0.529532 -0.309945 -0.119384 -0.580114 -0.595411 0.0673429 -0.367901 -0.452458 -0.332195 -0.803513 -0.825557 -0.747651 -0.212027 -0.155103 -0.831349 -0.00529724 -0.770891 -0.186594 -0.370538 -0.828752 -0.651895 -0.388353 -0.120451 -0.475119 -0.147812 -0.210258 -0.40521 -0.485006 -0.224386 -0.545782 0.618529 0.329399 -0.0787757 0.0054423 0.293653 0.282401 -0.0252536 -0.212181 -0.60829 -0.756673 -0.39318 -0.479261 -0.573057 -0.700421 -2.20849 -2.01938 -2.37522 -2.15802 -0.939121 -0.378059 -1.01241 -0.992537 1.07578 1.09295 -0.765143 -1.6571 -1.57343 -2.13313 0.105069 -0.00488136 -0.680288 -0.770665 -0.0830637 -0.0659709 0.0292295 -0.119717 0.807307 0.548118 2.89903 2.80907 1.92497 1.93085 -1.76316 -2.2412 -1.11517 -1.32039 -0.350095 -0.77289 -2.03577 -1.5513 2.08433 1.85531 2.33663 2.2995 -0.91986 -0.750325 -0.900598 -1.15771 -2.30941 -2.21021 -1.11046 -0.381724 1.14875 0.38259 0.989423 0.992073 -1.36738 -1.61571 -0.645189 -0.896168 1.28494 0.620828 1.28862 0.774273 0.1018 0.73522 0.059207 0.628117 0.85697 0.149416 2.01891 2.36781 1.21543 0.773148 -1.15787 -1.30632 -0.878911 -0.496222 -2.14774 -1.81067 -1.35744 -2.13008 0.0236229 0.514323 -0.787748 0.0238907 -0.505581 0.0405171 1.81746 2.05428 1.31575 1.54076 -1.48596 -1.43594 -1.72844 -2.29787 -1.39629 -1.40518 0.267193 0.161259 2.00475 2.0576 -0.960588 -0.613636 -0.885924 -0.331208 -0.00976112 -0.671956 -0.842926 -0.0499877 -0.337491 -0.918202 -0.883136 -0.14244 -0.351682 -0.870176 -0.209608 -0.806261 -0.747884 -0.632242 -0.117313 -0.79459 -0.444849 -0.231968 -0.811795 -0.760485 -0.167528 -0.111338 -1.03292 -0.39 -0.365258 -0.0392924 -0.334587 -0.141379 -0.380931 -0.0745786 -0.374761 -0.50334 -0.861126 -0.175788 -0.553252 -0.234203 -0.154927 -0.470262 -0.408524 -0.393919 -0.241768 -0.629688 -0.083405 0.110375 -0.128277 -0.0701766 -0.694962 -0.626588 -0.344741 -0.455496 -0.302912 -0.388471 -0.444993 -0.282891 -0.694632 -0.79895 -0.256848 -0.00369186 0.0406584 -0.79837 -0.26803 -0.431215 -0.421982 -0.218306 -0.725606 -0.0288443 -0.498691 -0.871928 -0.456294 -0.873824 -0.239044 -0.691448 -0.521031 -0.461716 -0.74379 -0.821516 -0.732524 -0.474652 -0.499043 -0.110622 -0.939259 -0.828926 -0.426656 -0.334107 -0.0657081 -0.205478 -0.36061 -0.600113 -0.521361 -0.444239 -0.414289 -0.741389 -0.821023 -0.867155 -1.01011 -0.57403 -0.674589 -0.275289 -0.139289 -0.107238 -0.183067 -0.478851 0.0450667 -0.778612 -0.231123 -0.910103 -1.01244 -1.13149 -0.433154 -0.343911 -0.814927 -0.0889158 0.186781 -0.240999 -0.449169 0.0228391 -0.58196 -0.775168 -0.501893 0.04394 -0.106538 0.04744 -0.778996 0.0188547 0.129786 -0.774906 -0.708416 -0.949943 -0.465543 -0.168763 -0.30945 -0.83307 -0.656888 -0.286715 -0.632362 0.132163 -0.153223 -0.401927 -0.702765 -0.432681 -0.585214 -0.670373 -0.910766 -0.870651 -0.438108 -0.623454 0.133615 0.0531207 -0.240242 -0.495612 0.0381671 -0.456472 -0.623235 0.0608367 -0.883152 -0.876699 -0.0676793 -0.530532 -0.528277 -0.254285 -0.414371 0.141079 -0.101446 -0.266523 -0.394979 0.00809405 -0.382398 0.234414 -0.635663 -0.390738 -0.438453 -0.443545 -0.505638 -0.622647 -0.717864 -0.0710377 -0.0156121 -0.468466 0.107251 -0.573656 -0.28141 -0.249737 -0.4478 -0.257415 -0.552808 -0.425141 -0.40337 0.0917607 -0.251379 -0.289615 -0.545974 -0.0472305 -0.360926 0.158568 -0.502008 -0.0591713 0.226965 0.160081 -0.331973 -0.255036 -0.989397 -1.04285 -0.319809 -0.982003 -0.150461 -1.0436 -0.126905 0.400276 -0.0256205 0.525345 -0.840281 -0.89449 -1.32919 -0.658464 0.495606 -0.206006 0.156728 0.489742 -0.0710047 0.392204 0.744362 0.307003 -0.223613 -0.41162 -0.295439 0.000179338 -0.0521593 -0.0474543 -1.25149 -0.937023 -0.446707 -0.0399317 -0.93213 -0.778642 -0.819165 -0.728608 -0.133805 -0.404592 0.164174 0.0785432 -0.645721 -0.181709 -1.05583 -1.19301 -1.17063 -1.1743 0.275564 0.208697 0.855409 0.810129 -0.438472 0.185657 -0.279057 0.0792385 -1.05301 -0.453514 -0.923985 -1.23305 -0.28073 -0.398082 -0.378962 -0.693113 0.0649534 0.331401 0.170681 0.204686 0.178732 -0.721577 -0.129147 -0.154405 -0.13012 -0.0867207 -0.422687 -0.548466 -0.537197 0.0362955 0.382694 0.45012 -0.426444 -0.226537 -0.445064 -0.542097 -1.34411 -0.804603 -0.773298 -1.51314 0.370615 0.285789 0.415616 1.15884 0.59447 0.551001 -0.188445 -0.101197 0.0285689 0.29698 0.000155471 -0.419863 -0.0418944 -0.157424 -0.856166 -0.474003 1.01076 1.00423 0.39966 0.23375 -0.326252 -0.199312 -1.71712 -1.64353 -0.5337 -0.610032 -0.298121 -0.147239 -0.706112 -0.46829 -0.436673 -0.83447 -0.599892 -0.237747 -1.69457 -1.74375 -1.51333 -1.73883 -0.0665013 0.475153 1.41774 1.57706 0.595689 1.0067 -0.4361 -0.75974 -1.83755 -0.865885 -1.17858 -1.12901 -0.443966 -0.20716 -0.0756733 -0.368407 1.81566 1.31901 0.998727 1.28568 0.754002 0.848119 -0.322643 -0.25737 -0.301525 -0.623746 -0.184433 -0.142683 0.205467 0.951567 0.79386 0.460527 0.0573682 -0.0834613 -0.286976 0.12241 -0.719005 0.150772 -1.5193 -1.45593 -0.62317 -0.867587 -0.00996477 -0.362776 -0.364813 -0.0753776 0.936363 1.23916 1.021 1.00638 1.55214 0.999172 -0.684959 -0.570429 -0.0501966 -0.274367 -1.3467 -1.40699 -1.58422 -1.16331 -0.647295 -0.0134605 -0.918178 -0.944619 1.11141 1.02498 1.41952 1.18271 -1.44954 -0.980841 -1.15269 -1.52791 -0.219991 -0.280502 2.16824 2.38491 -0.468073 0.158348 -0.27852 -0.256807 0.320729 -0.57007 -0.495349 -0.804031 1.62651 1.60754 2.06014 2.07618 -0.301268 -1.01655 -0.672353 -1.0658 -0.782236 -0.257711 -0.61718 -0.205615 -0.707208 0.255847 -0.380634 -0.159208 0.251357 0.252669 2.34458 2.0006 1.81369 1.93186 1.79255 1.96227 0.252934 0.645077 0.835404 0.191802 -0.00384597 -0.343672 -0.306254 -0.581181 2.22172 1.73658 2.15793 1.71987 -0.377676 -0.199614 -0.385624 -0.667466 -0.834894 -0.0862873 0.43016 -0.429172 0.108493 -0.587029 0.173606 0.317015 0.608078 -0.183615 0.489149 -0.264259 0.0349232 -0.292956 -0.0169373 0.0541257 0.0778312 -0.314411 0.147821 -0.286576 0.0871436 -0.437672 0.388369 0.297508 0.17404 0.20583 -0.0504498 -0.260802 0.0488905 -0.311534 0.142892 0.0553316 -0.536481 0.101048 0.231678 0.331516 0.666324 0.0815353 -3.75539 -3.50759 -5.48195 -5.43927 -1.45374 -1.50375 -6.77814 -6.86743 -1.37587 -1.59681 0.060903 -0.490578 -0.138834 -0.352438 -0.553804 -0.918458 0.911752 0.825512 -0.204869 -0.0382609 -1.52414 -1.64715 -0.777184 -1.56597 -0.118707 -0.924342 0.125352 -0.0321049 -0.741241 0.0495075 -0.937705 -0.400246 -0.293598 -0.412324 -1.57168 -1.03874 -1.18943 -0.894484 0.43999 0.292308 0.398625 0.360731 0.568138 0.98682 -0.474511 -0.249968 -0.837073 -1.39305 -1.22675 -1.50558 -0.209566 -0.367862 -0.789384 -0.372562 0.97984 0.367427 1.10344 1.00509 -0.0460847 -0.140689 -0.512247 -0.0243626 -0.509179 -0.77823 -1.12161 -1.09861 0.310005 0.510428 -0.17185 0.535674 -0.887481 -0.495525 -0.838664 -0.485083 -0.706616 -0.288485 -1.35692 -1.49226 -0.601948 -0.885526 -0.543943 -0.0711422 0.598432 0.782422 0.574703 1.18575 0.749814 0.250626 -0.357861 -0.556158 -0.180272 0.0248309 -0.69785 -0.848788 -1.55173 -0.892993 -0.988732 -0.788796 -0.348447 -0.158445 -0.217854 -0.305941 0.43705 1.01414 0.25083 0.643426 -1.16982 -1.3262 -1.00704 -1.14965 -41.3182 -41.4751 -4.49855 -4.38038 -4.49487 -4.27506 -3.85923 -3.26057 -4.44342 -4.20151 2.19986 2.32668 -36.7806 -37.0906 -40.6941 -40.3111 -1.89181 -2.04386 -2.14053 -1.93266 -5.2308 -5.74034 -5.20761 -5.5877 -5.64327 -5.258 -6.58066 -6.51789 -45.1593 -45.8895 -44.5116 -43.7226 -40.9987 -41.7483 -0.999318 -0.859368 -4.454 -4.81769 -3.9896 -3.79883 -1.71539 -1.57641 -3.30997 -2.98475 -40.8003 -41.5068 -38.8437 -38.6661 -2.82812 -2.53684 3.37768 3.55707 0.129302 -0.365418 -5.78155 -4.93226 -1.79164 -1.97984 -4.96653 -4.84708 -3.18736 -3.35514 -3.29486 -3.10042 -2.70594 -2.89045 -0.753077 -1.20037 -1.81127 -1.73826 -4.41644 -5.08644 -8.22363 -8.16255 -9.20461 -9.1637 -5.11565 -4.75215 -2.53144 -3.03543 -2.59583 -1.99179 -0.780612 -0.344092 -3.49251 -4.01781 -3.15917 -3.15929 -42.6637 -43.4658 -39.3036 -38.9356 -1.17361 -1.1459 -2.12888 -2.01623 7.07824 6.97514 -1.45129 -2.15632 -11.2298 -10.8209 -10.1325 -9.9506 -1.26543 -0.985217 -15.1621 -15.3376 1.13975 0.581088 12.2819 12.5804 -7.36048 -7.36459 2.23052 2.38522 -3.33676 -3.31593 -1.08303 -1.32595 7.76946 8.04335 12.4319 12.6808 31.2403 31.9279 23.2342 23.379 -19.6651 -19.6383 -20.3857 -20.8312 -8.40986 -8.34509 -10.7294 -10.8239 6.45832 6.41742 6.47909 6.46779 -11.208 -11.1574 1.15562 0.601473 -13.2227 -13.2005 -9.76765 -9.25055 10.1619 9.91697 11.7157 11.9774 5.9906 5.3899 13.7884 13.119 -4.75842 -4.8864 -21.3427 -21.6711 -5.45942 -5.54424 -4.34307 -4.00856 -4.08703 -4.12468 12.9265 12.2514 26.6071 26.5773 -4.52811 -4.20606 5.46628 5.06708 -2.31136 -2.24416 -5.39611 -6.02788 7.28679 6.95284 10.1181 9.97655 28.3878 28.5403 31.3879 30.8262 13.6395 13.9841 10.7637 10.7222 -0.695568 -0.486338 -15.6702 -15.4279 -15.6795 -14.826 14.1358 14.9196 3.82632 3.95239 -0.940993 -0.44879 0.125112 -0.100151 -0.528413 -1.31256 0.051468 -0.232519 -0.627439 -0.201242 -1.31408 -0.606354 0.434536 -0.255597 0.144007 0.686322 -0.42372 -0.0804008 -0.181647 -0.123023 -0.787701 0.115523 -0.611374 -0.435849 -0.29022 -0.478618 0.378965 0.728991 -0.949611 -0.741849 0.0644953 0.413933 -0.044133 0.880003 -0.769295 0.0236755 -0.826419 -0.860307 -0.261101 -0.536858 -0.164384 -0.273338 0.111951 -0.211138 0.729715 0.0218932 0.231532 0.180678 0.0725274 -0.821245 -1.3097 -0.372362 0.400106 -0.324267 -0.394247 -0.239345 -0.170402 -0.0283677 -0.455435 0.227232 -0.517626 -0.536602 -0.502784 -0.453023 -0.432734 -0.276455 -0.58365 -0.538487 -0.432187 -0.0804723 -0.270571 -0.755868 -0.450091 -0.24872 -0.012742 -0.569068 -0.0874883 -0.676648 -0.403856 -0.2748 -1.13579 -0.735197 -0.685024 -1.1585 -0.129036 0.050206 -0.227291 -0.463845 0.723616 0.909966 0.189156 -0.139772 0.155634 0.633851 -1.15064 -1.07811 -1.16109 -0.597531 -0.638499 -0.881611 -0.652651 -0.765551 -0.325701 -0.167664 -0.0789107 -0.615707 0.62998 0.21201 -0.302424 -0.307893 -1.35285 -0.961734 -0.16966 -0.392193 -0.48207 -0.410736 -0.402107 -0.803055 -1.09489 -0.816907 -1.038 -0.757105 -0.793369 -0.840595 -1.51087 -0.840991 -0.846202 -1.4526 0.0266049 0.16961 -0.0303692 0.118364 -0.172997 -0.750915 -0.4294 -0.310828 -0.825553 -0.917076 -1.16583 -0.406505 -0.0934952 -0.681818 -0.409721 -0.111594 0.893107 0.961177 0.252645 0.398493 -0.656752 -0.452513 0.758805 0.211328 -0.427743 -1.05485 -0.612741 -0.368505 0.858562 0.289168 0.943253 0.219488 0.886361 0.674691 0.252643 -0.143645 -0.382206 -0.650475 -0.856705 -0.76101 0.922528 0.345407 -0.426618 0.1166 -0.0439711 -0.0385081 0.517059 0.54076 0.562094 0.772894 0.227608 -0.0317384 -0.230432 0.362961 -0.184258 -0.284086 0.100549 -0.300973 -0.159346 -0.150276 -0.148762 -0.366516 -0.148475 -0.545784 0.752244 0.462514 0.68697 0.46795 0.490437 0.419121 -0.563805 -0.481596 -1.14405 -0.412349 -1.00697 -0.820844 -0.834868 -0.3681 -1.16171 -0.351017 -0.660156 -0.280774 -1.06886 -0.976246 -0.0773372 -0.332801 -0.32389 -0.384829 0.0842679 0.22146 -0.632551 -0.260453 -0.32297 -1.08953 -1.16524 -0.675216 0.0356141 0.216809 -1.43208 -1.04638 -0.611295 -0.463612 -0.30327 0.15818 0.030947 0.124285 -1.07891 -0.462347 -0.127008 -0.269603 -0.551994 -0.314316 -0.742898 -0.764278 -0.381547 -0.171987 -0.144302 0.178777 0.25691 0.323083 -0.806187 -0.709435 0.493449 -0.126835 -0.910757 -1.4977 -0.242669 -0.968776 -0.26123 -0.120503 -0.654156 -0.950018 -0.66933 -0.541817 0.168721 -0.663476 -0.831196 -1.01803 -0.355044 -0.574084 -0.873263 -0.661639 -0.625735 -0.718377 -0.478305 -0.129373 -0.589267 -0.675864 0.0336204 0.299158 0.207598 -0.66012 -0.840722 -0.422875 -1.1075 -1.41503 -0.114771 -0.733052 -0.480783 -0.0556172 -0.58593 0.0400425 1.50801 1.31886 2.46304 2.75793 -2.25422 -2.27988 0.649438 0.412455 1.83491 1.61354 -7.35759 -6.58365 -1.62843 -1.46353 18.8464 18.6493 4.97981 4.77469 -13.1552 -13.0973 -2.63748 -3.20675 -1.94875 -1.50959 2.42497 2.7316 2.77459 2.86417 -3.23842 -2.8951 -5.06287 -4.20177 -17.3604 -16.8914 -17.8816 -17.7487 15.2377 15.5018 7.54618 7.74498 -2.03064 -2.16013 -5.67733 -5.94867 -5.47512 -5.37963 -4.92074 -5.80705 -15.1847 -15.5847 -6.39949 -6.58189 26.3647 26.012 19.9151 20.0691 -1.70841 -1.63085 17.2744 16.9601 -12.5113 -12.5522 -16.9484 -17.3734 -8.84298 -9.1402 12.9852 12.8567 16.7043 16.3081 18.3832 18.3927 21.5162 21.559 21.0701 20.5798 0.563277 0.83303 -21.6345 -21.6058 -6.37067 -5.57574 13.2396 13.1401 15.181 15.2839 -5.65089 -5.25479 3.21233 2.51034 -18.1643 -17.563 -7.8087 -7.1801 -4.24532 -4.56008 -2.42978 -2.54546 -4.23915 -3.94094 -7.29362 -6.66664 11.8044 11.7668 1.55524 1.60113 -18.3119 -18.5038 -18.2536 -18.1582 -1.24822 -1.06283 -0.831606 -1.14863 -1.06674 -0.734237 -0.979194 -0.838841 -1.10568 -1.13934 -0.712802 -0.902389 1.72867 1.42413 0.783858 1.52797 0.897549 1.66793 1.04642 0.983887 1.02598 1.14249 0.699459 1.07576 -0.966408 -0.73219 -0.560686 -0.00979541 2.12325 1.86107 1.12469 1.00377 -1.2997 -0.763115 1.03225 1.04135 -1.06934 -0.721398 -0.592871 -0.995174 -0.457985 -0.870177 2.47137 2.35334 2.51198 2.3591 1.50529 2.16926 1.34754 1.60205 -1.10178 -0.415689 -1.47398 -1.30811 -0.758416 -1.30853 -0.808514 -0.323938 2.59139 2.03379 2.14006 1.78712 1.33957 1.48517 -0.484441 -0.600902 -0.418211 -0.365485 -1.06069 -0.75653 -0.957759 -0.411997 -0.724351 -0.665818 -0.571912 -0.396686 -0.641047 -0.587227 -0.395581 0.127565 0.155401 -0.403966 -0.281186 -0.601831 0.0747422 -0.653629 -1.19812 -1.19154 -6.75748 -7.62745 -6.20371 -6.22512 -15.8306 -16.0601 -2.4405 -2.47978 3.99252 3.27142 -3.45215 -2.56667 -0.483692 -0.819818 -1.13672 -1.66171 3.25207 3.11105 2.54449 3.17255 -1.13948 -1.65004 -1.06024 -0.839117 -0.908788 -1.54834 -1.02706 -1.49049 -1.88368 -1.85395 -1.22915 -1.84088 -1.97903 -1.98689 -2.03249 -2.09565 -2.37708 -1.88601 2.39894 1.81553 3.57115 3.48217 -1.378 -1.02498 -1.66812 -0.934804 -0.813711 -0.51641 -1.06569 -0.587416 -0.553139 -1.04806 -1.98112 -1.90456 1.60783 1.50561 2.04695 1.67363 2.16951 2.2386 -2.2702 -2.2927 -1.27985 -1.46368 -1.30563 -1.48141 -1.94588 -1.21364 -1.65696 -1.00638 3.35069 2.43594 2.81043 2.26134 2.68241 2.8189 2.9873 2.25361 -1.66293 -1.88643 -1.03734 -1.67818 -1.59119 -1.8789 -1.20092 -1.19313 2.17604 2.04877 3.30425 3.34867 -0.405294 -1.11441 -1.10942 -0.710253 -0.28549 -0.293921 -0.430608 -0.570537 -0.547353 -1.00868 -0.463181 -0.590534 -1.30655 -1.23429 3.29486 3.35705 -1.318 -1.81023 -1.29989 -1.65736 -1.29935 -1.22627 3.98016 3.54602 6.17869 5.6161 6.63855 6.03399 4.79969 5.00782 3.25667 3.50863 3.43846 3.90024 4.26409 4.87016 6.00403 5.87853 5.61715 5.79432 3.31521 3.29201 2.3674 2.40449 0.712304 1.08567 1.05352 1.31132 0.181217 -0.391003 0.199393 0.364823 5.22429 5.1263 6.10643 6.39265 3.04741 3.35234 0.804445 1.454 0.786071 0.907591 1.27099 1.28307 3.61972 3.17235 2.69979 2.73645 3.29539 3.37968 2.65707 2.49737 1.97632 2.23996 4.50612 4.61626 6.13896 6.11563 10.2218 9.73992 11.6403 10.9086 10.5964 10.5017 10.4455 9.86028 10.42 9.92975 8.31715 8.19034 7.69726 6.9301 6.05493 5.11567 4.10226 4.68027 3.71424 3.5773 4.77262 3.81311 5.29385 5.12233 4.69129 4.69972 4.49245 4.25063 3.50195 3.23107 1.57874 2.06523 2.84739 2.9867 2.97643 2.90727 0.321944 0.246934 0.814619 0.0507589 1.05405 1.11951 2.36301 1.95691 0.46703 0.571069 0.535976 0.0791878 0.555406 0.8234 0.632793 0.929501 0.650346 0.0039623 0.0267616 0.216039 -0.415731 -0.198415 -0.0924262 0.388186 1.48297 1.16529 1.36786 1.56156 1.12778 1.84961 -0.286373 0.579874 -0.28361 -0.81339 -0.242337 -0.160845 0.834142 0.0458711 1.98663 1.82061 2.17133 1.50135 2.01942 2.01723 1.39008 2.17354 1.69844 1.60494 1.75999 2.1797 2.49276 1.99189 2.49768 2.54092 1.93198 1.51545 1.37673 1.32357 0.590996 0.138176 -0.509545 -0.60783 -0.698322 -0.382826 -1.44048 -0.924656 -1.82311 -1.9155 -0.568923 -0.496549 0.154057 0.197373 -0.731371 -0.612582 -0.700894 -0.700487 -0.431766 -0.0961219 -0.872211 -0.832879 -1.57276 -1.57008 -1.23342 -1.84103 -1.66521 -1.14701 -1.56631 -1.79485 -1.84093 -2.0879 -2.81388 -3.68018 -3.4035 -3.67142 -4.33248 -4.3058 -5.16741 -4.32122 -2.09457 -2.11913 -1.51671 -1.84082 -2.40944 -2.08848 -2.74275 -2.68286 -3.73948 -3.04255 -0.978155 -0.749883 -1.06654 -0.915647 -0.709321 -0.434596 -0.945554 -0.668684 -0.85739 -0.338261 -0.241883 -0.983928 -0.701522 -0.334535 -1.09744 -1.17054 -1.08223 -1.24136 -1.20018 -0.85322 -1.1206 -0.23272 -0.961824 -0.356203 -0.601202 -0.260038 -0.314528 -0.95608 -0.202215 0.0457324 0.191953 -0.0114678 -0.498028 0.293622 -0.0748738 -0.367703 -0.17591 -0.685168 -0.800789 0.0585088 -0.200612 -0.168232 -1.02102 -0.738987 -0.327784 -0.818868 -0.590709 -0.0922806 -0.751638 -0.589126 -0.510049 -0.473215 -0.597659 -0.42987 -0.850818 -0.236664 -0.354252 0.214783 0.278376 0.188379 0.0213866 0.0493736 -0.197099 0.096102 1.1667 0.820759 -0.508804 0.377209 -0.508617 -0.524203 0.217906 0.37257 -0.548188 0.314375 -0.228736 0.187426 -0.497194 0.148428 -0.141931 -0.420672 -0.519256 0.24072 -0.217218 -0.358697 -0.0579699 0.342579 -0.370932 0.0657855 1.7978 1.24308 -0.734077 -0.94751 -1.00921 -0.955914 -0.490891 -1.19798 0.112732 -0.807127 -0.143827 -0.291679 -0.685573 -0.761345 -0.76581 -0.684459 0.145588 -0.410907 0.0497549 -0.791974 -0.68987 -0.277768 0.0368798 -0.0658602 -0.340266 -0.702643 0.0373058 0.137148 -0.830182 -0.601725 -0.0471249 -0.0393679 -0.333931 -0.450652 -0.688098 -0.541095 -0.581363 -0.707271 -0.0971568 -0.453221 -0.57477 0.0440558 -0.500985 -0.482198 0.146014 -0.351088 -0.288055 0.0417927 -0.0264831 -0.428832 0.0705786 0.106109 -0.0463453 -0.678697 -0.0898246 0.0920053 -0.48792 0.200652 -0.227307 -0.183862 -0.399176 -0.580945 -0.508598 0.0821672 -0.244097 -0.398572 0.355122 -0.00678579 -0.423015 -0.245338 0.0506622 -0.275489 -0.526024 -0.747911 0.0979954 -0.562448 -0.2353 -0.442525 0.196646 -0.57594 -0.196972 -0.0394508 0.046357 -0.553466 -0.0370489 0.158686 -0.250086 -0.719646 0.20285 0.0665275 0.0141196 -0.184544 0.165356 -0.20956 0.341263 -0.275316 0.220363 0.350232 0.327964 -0.481809 -0.160064 0.143475 -0.157884 -0.0538368 0.00799099 -0.435299 0.0685949 -0.568743 -0.0930096 0.019996 -0.576002 0.163908 -1.84717 -1.99415 0.409085 1.20478 -0.220834 0.501254 0.601164 0.534234 1.169 1.06903 0.296862 0.564542 1.22949 1.35599 3.77968 3.77539 3.60203 4.27465 3.33425 2.89817 1.79627 1.84628 0.474216 0.532026 1.02532 1.13688 1.44432 1.40054 1.30737 1.31791 -1.53461 -1.03951 -4.31654 -4.48033 -4.38577 -4.47345 -5.65844 -5.04151 -4.34014 -4.19606 -3.28013 -2.70034 -1.29068 -1.24863 1.07814 1.141 2.48411 2.44676 1.77524 0.998959 -3.28189 -3.57027 -4.70078 -4.50626 -4.54509 -4.66463 -5.47786 -5.28795 -3.58019 -4.04953 -2.96671 -3.43391 -1.66305 -1.59905 9.52808 9.84464 3.42878 3.35609 3.46512 3.28682 2.3954 1.84583 1.8458 2.32894 2.04473 2.1525 2.54678 3.07705 1.65881 1.94029 1.64944 1.24642 0.0936159 0.121346 -2.04704 -1.28451 -1.47738 -1.37977 1.16769 0.912548 -25.4944 -25.3415 -41.0951 -41.441 -26.114 -26.4673 -24.1241 -23.9309 -22.9274 -23.0234 -1.75396 -2.1086 -1.5633 -2.14691 -2.08146 -2.23443 -1.77055 -2.09605 -1.72373 -2.12915 -2.25599 -2.1247 -1.8463 -1.89723 -1.61547 -1.63239 -2.02518 -1.95797 -1.78312 -2.1191 -2.45127 -1.7423 -2.02265 -1.93292 -2.96789 -2.93413 -2.13222 -2.79862 -2.09051 -1.78014 -1.54076 -2.2989 -2.47073 -1.87851 -2.24488 -2.16066 -1.61991 -2.4375 -1.492 -1.67545 -1.88498 -2.17031 -2.06695 -2.09839 -1.5093 -1.40243 -1.64593 -2.2706 -2.41338 -2.38103 -2.3976 -2.41145 -2.56656 -1.71031 -2.58468 -2.48035 -2.74773 -1.93545 -2.53268 -2.41572 -2.34882 -2.6732 -2.19597 -2.11761 -1.75537 -1.73828 -2.30887 -1.6018 -2.44792 -1.52664 -2.13723 -2.16074 -2.75175 -2.28027 -2.37915 -2.07945 -2.61206 -2.71533 -2.31105 -2.55862 -2.69865 -2.98427 -3.41555 -2.74516 -3.24133 -3.42687 -2.80375 -3.34311 -2.78756 -3.5749 -2.73175 -2.98237 -2.96038 -3.02394 -3.05842 -2.90233 -2.87068 -2.88035 -2.68451 -2.53149 -6.63753 -6.25074 -5.59793 -6.05035 -4.16245 -4.08786 -2.87067 -2.43407 -3.06888 -2.54657 -4.12466 -4.22428 -4.44424 -4.51663 -3.85292 -4.0456 -4.1547 -3.80919 -4.09227 -4.72345 -4.46149 -4.61592 -4.13765 -4.69123 -4.53798 -4.59202 -4.71966 -4.98411 -5.93019 -5.46451 -5.60293 -5.75502 -7.92694 -7.90885 -7.78437 -8.07363 -7.72059 -7.47783 -6.3416 -7.27761 -5.8051 -6.46874 -6.51821 -6.51645 -5.97135 -5.43621 -6.14485 -6.13879 -6.41162 -6.33459 -6.83754 -6.39874 -6.23265 -5.73958 -6.38992 -6.6853 -7.43608 -7.94835 -7.43086 -8.05554 -7.68615 -7.35741 -5.13541 -5.32952 -6.82095 -7.20223 -6.27767 -5.83817 -4.85159 -4.18762 -4.28539 -4.65885 -4.82818 -4.36032 -4.15156 -3.88724 -2.98733 -2.54995 -4.06046 -4.17682 -3.07295 -3.42771 -2.71101 -2.27399 -3.43063 -3.22297 -3.18724 -3.6099 -4.2486 -4.6668 -19.37 -18.7212 -17.6684 -18.4925 -4.78882 -4.53145 -9.80012 -9.82882 -10.5056 -9.84951 -15.4113 -15.2109 -8.39916 -8.76356 -6.12895 -6.21802 -5.86492 -5.1937 -5.93247 -5.76217 -4.79491 -4.93219 -6.07979 -6.20249 -4.45466 -4.50079 -3.41019 -3.96882 -1.3624 -1.58207 -2.21758 -1.7337 -3.36472 -3.43101 -9.93219 -9.04839 -10.8666 -10.4122 -9.54447 -9.65653 -8.69411 -8.20374 -7.15453 -7.76141 -7.96641 -8.20989 -7.74951 -7.72359 -8.26651 -7.61415 -10.2905 -10.308 -10.6366 -10.6248 -12.2313 -12.4165 -13.476 -12.5311 -11.9959 -11.499 -12.669 -12.3896 -14.816 -14.6617 -13.1931 -12.5527 -12.303 -12.8988 -12.7657 -12.8725 -10.1789 -9.97359 -14.1794 -13.799 -10.9598 -11.4502 -12.5405 -12.638 -12.5243 -11.9597 -11.6455 -10.9137 -14.0187 -13.9487 -15.9148 -15.5077 -17.1708 -17.4617 -20.6878 -20.5468 -19.6248 -20.5477 -25.0541 -24.8675 -28.0109 -28.3776 -29.5692 -29.2997 -35.1177 -35.1957 -36.0539 -36.7243 -33.3471 -32.8008 -27.2471 -27.5212 -26.0175 -26.1707 -19.8015 -20.2102 -0.286368 -0.103091 -0.722727 -0.764068 -0.540319 -0.47379 -0.103955 -0.965938 -0.271242 -0.553538 -0.230086 -0.248509 -0.418584 -0.719316 -0.550393 -0.524142 -0.17226 -0.176858 -0.83122 -0.461108 -0.531389 -0.0728665 -0.376025 -0.331195 -0.325437 0.0841736 -0.145894 -0.0851653 -0.80505 -0.405966 -0.741952 -0.0740697 -0.640912 -0.665759 -0.184832 -0.349229 -0.154758 -0.162457 -0.205481 -0.388169 -0.774767 -0.522177 -0.777954 -0.273122 -0.350679 -0.383549 -1.14495 -0.860467 -0.824403 -0.997546 -1.34792 -0.467946 -1.1137 -0.759435 -0.676623 -0.386393 -0.49033 -0.794836 1.14564 1.16595 1.30699 1.31004 -0.608371 -0.931432 -0.907547 -0.592809 -0.149197 -0.129313 -0.906403 -0.42024 -0.575899 -0.558854 -0.764992 -0.128909 -0.643382 -0.952769 -0.43695 -0.383991 -0.739771 -1.17402 -0.993831 -0.364136 -0.995504 -0.830296 -0.780808 -0.410292 -0.914546 -1.1667 -1.14057 -0.334186 -0.864603 -0.704016 -0.357957 -0.901601 3.52644 3.31409 -0.289625 0.0604451 -0.0533005 0.0248315 -0.36571 -0.720979 -0.598738 -0.0237521 -0.742568 -0.125514 -0.838757 0.0452713 -0.290994 -0.0502996 -0.662508 -0.112672 -0.224932 -0.329441 -0.656264 -0.801911 -0.538709 -0.368225 -0.732274 -0.400258 -0.426063 -0.0557095 -0.558946 -0.772615 -0.90748 -0.577351 -0.120681 -0.522879 -0.680253 -0.298737 -0.608726 -0.0922964 -0.115627 -0.344515 -0.242418 0.0646437 -0.5433 -0.186287 -0.0272233 0.0309557 -0.368448 -0.727585 -0.173448 -0.705349 -0.164815 -0.841755 -0.515097 -0.712737 -0.170585 -0.245938 -0.111341 -0.640911 -0.322042 -0.695064 -0.427568 -0.30586 -0.345046 -0.514302 -0.781718 -0.144415 0.0822361 -0.522317 -0.380318 -0.141811 0.0560423 -0.69881 -0.180079 -0.625353 -0.0127678 -0.276108 -0.662428 -0.462557 -0.0516387 0.16928 -0.151383 -0.237505 -0.664753 -0.674332 0.0208165 0.0583415 -0.00398358 -0.153372 -0.656769 -0.4467 -3.695e-05 -0.23532 0.129329 -0.435975 0.158946 0.210237 -0.738669 0.0690535 -0.473369 -0.247638 -0.252903 -0.639605 -0.133754 -0.541952 -0.371582 -0.298541 0.0766763 -0.142395 0.142918 -0.151096 -0.187886 -0.247007 -0.644682 -0.0988568 -0.254168 0.0819347 -0.326416 -0.480047 -0.190326 -0.09902 0.0393502 -0.296345 -0.434618 -0.0463986 0.00848529 -0.540028 -0.105757 0.0652422 -0.691487 0.19476 -0.527859 -0.222418 -0.778933 -0.911321 -0.029926 -0.362357 -0.355568 -0.129862 -0.760812 -0.547247 -0.590707 -0.140365 0.145534 -0.302908 -0.310234 -0.224487 -0.588787 -1.00927 -0.0932317 -1.01886 -0.356922 -0.368367 -0.696426 -0.169578 -0.330064 -0.492385 -0.481841 0.334442 0.346412 -0.416046 0.252338 -0.342251 0.15702 -0.640904 -0.143343 0.296883 0.175635 0.389312 -0.163439 0.154702 -0.24927 0.348353 0.0630495 -0.355264 -0.318862 -0.554211 0.169309 0.206148 -0.461953 0.137598 0.176151 0.191146 -0.244277 -0.394384 -0.0470197 -0.0821387 -0.286927 -0.766751 0.0207185 -0.283032 -0.371341 0.112355 0.154488 -0.544812 0.231429 -0.393886 -0.201589 0.353826 2.74996 3.15682 2.53656 2.55216 2.57687 2.21891 2.71225 2.86591 -0.916783 -0.652058 -0.470522 -0.719663 -0.919382 -0.617667 -0.826332 -0.37395 -0.235631 -0.927936 -0.578356 -0.73918 -0.926026 -0.727599 -1.19885 -0.613275 -0.928677 -1.29159 -0.331926 -0.964032 -0.9345 -0.307282 -0.406862 -0.806728 -0.813908 -1.01704 -0.444592 -0.406035 -0.90187 -0.688843 -0.430885 -0.585293 -1.18331 -0.800591 -1.2198 -0.877766 -1.20909 -0.846788 -0.995226 -1.15919 -0.499053 -0.287379 -0.54608 -1.0482 -0.655501 -0.444858 -0.444489 -0.352265 -0.515728 -0.545974 -1.15667 -1.29716 -0.709722 -1.32629 -0.974878 -1.34383 -1.14681 -1.07143 -1.35654 -0.737356 -0.416285 -0.55446 -1.04849 -1.28234 -1.03097 -0.969737 -0.763514 -0.834533 -0.321304 -0.418714 -0.601158 -0.507618 -0.484325 -1.04408 -0.503575 -0.979212 -0.318958 -0.644084 -1.0611 -0.562485 -0.868777 -0.792071 -0.334519 -1.09291 -0.668239 -0.850483 -1.05426 -0.41383 -0.540454 -0.998199 -0.733766 -0.552233 -1.03049 -0.306093 -0.276387 -0.627761 -0.857882 -0.802019 -0.292495 -1.08331 -0.903844 -0.561216 -0.258509 -0.185792 -0.443596 -0.54947 -0.954346 -0.520592 -0.954534 -0.740863 -0.889324 -0.675695 -0.33243 -0.0419388 -0.529916 -0.779406 -0.730382 -0.402503 0.0186358 0.0200158 -0.0777384 -0.427189 -0.26025 0.0139623 -0.704542 -0.573947 -0.541329 -0.380742 -0.218097 -0.717652 -0.531103 -0.386191 -0.406217 -0.733739 -0.552655 -0.926713 -0.398765 -0.584054 -0.492804 -0.3572 -0.460355 -0.46829 -1.12954 -0.810788 -0.542339 -0.737878 -0.780976 -0.390169 -1.00146 -0.541257 -0.0549175 -0.0524455 -1.06688 -0.491787 -0.080727 -0.595023 -0.943866 -0.744343 -0.0886631 -0.196511 -0.471527 -0.455475 -0.484369 -0.941327 -0.560007 -1.30532 -0.856707 -0.601574 -0.355621 -0.126943 -0.918091 -0.820306 -0.639189 -0.899222 -0.439937 -0.936636 -0.373369 -0.887551 -1.1227 -0.445926 -0.482862 -0.196571 -0.413366 -0.356589 -0.57816 -0.622237 -1.01122 -0.444141 -2.05472 -1.86595 -1.04946 -1.19404 -6.71297 -6.21668 -8.30857 -8.41522 -4.70008 -4.13264 -3.91934 -4.09895 3.65137 4.19059 3.50369 3.52055 2.29208 2.6268 3.12328 2.94689 2.80006 2.21433 2.72331 2.48988 4.1833 3.36291 3.46189 4.02384 3.91891 3.28472 3.13844 3.42942 2.26174 2.85 2.36134 2.12074 1.97831 1.52317 1.93157 1.76711 2.15357 1.95481 1.81952 1.72794 1.79927 1.37338 2.08643 1.70607 1.36716 1.8126 1.40328 1.13264 2.67611 2.61974 2.01178 2.57204 1.02447 1.34373 0.750191 1.00897 0.524776 0.776011 0.368297 0.607962 0.31921 0.01538 -0.374693 0.549352 -0.508809 0.143007 -0.773563 -0.420235 -1.01035 -0.594827 -1.08258 -0.289066 -0.121695 -0.934671 -0.400131 -0.501679 -1.16202 -0.305616 -1.06776 -1.5756 -1.33762 -1.21388 -1.36277 -1.43951 -1.66646 -1.49183 -0.934023 -0.80594 -1.65863 -0.9268 -1.52288 -1.25751 -1.53564 -1.16882 -1.14657 -1.47754 -1.27927 -1.33027 -1.15083 -0.679139 -1.24687 -0.962763 -0.721771 -1.36762 -0.647086 -0.968739 -0.508441 -0.404866 -3.01443 -2.13401 -2.4935 -2.15874 -1.75624 -2.10807 -1.96881 -2.52165 -2.90085 -2.46077 -3.3076 -3.05893 -3.36028 -3.41729 -2.55726 -2.95737 -1.32444 -1.62099 -0.89011 -1.56167 -0.729858 -1.4386 -0.895577 -0.878601 -1.20025 -1.13492 -1.26423 -1.21776 -1.73161 -2.10789 -1.94238 -1.66395 -3.17967 -3.43389 -2.27583 -2.76753 -2.66039 -2.78918 -2.28078 -2.06403 -2.1047 -2.57398 -2.20773 -2.72454 -1.75222 -1.77277 -1.42094 -1.63743 -1.97248 -1.6205 -1.28124 -1.94588 