0.373323 0.448579 0.561504 -0.0887625 0.575758 0.272112 0.425212 0.917904 1.25879 0.375764 0.785276 0.712746 0.859822 1.06459 0.395205 0.476205 0.827599 0.94499 -0.085295 0.10528 -0.364747 -0.256513 -0.153386 -0.0554669 0.375814 0.453652 0.372216 0.0679608 -0.0044211 0.57409 0.52778 0.459614 0.451092 0.620801 0.801053 -0.0496328 0.757438 0.857468 0.636445 0.785074 -0.073935 0.130935 -0.045488 0.405455 0.17295 0.751579 -0.0227385 0.588926 0.41813 0.277334 0.117896 0.55444 0.205112 -0.109206 0.270731 0.380932 0.296675 0.209791 -0.0792577 -0.469375 -0.417257 -0.673941 0.552759 0.698158 0.773933 0.597218 -0.328773 0.450318 0.400918 0.337636 0.079373 0.219678 0.337245 0.341065 -0.156454 -0.605258 0.0347627 0.157959 0.171361 -0.550166 -0.133571 -0.168479 0.253865 0.203707 -0.21207 0.0374057 0.190753 -0.39495 0.204308 0.070299 -0.43733 0.216895 0.00854341 -0.425557 0.4936 0.0159331 0.612167 0.706503 -0.311945 0.000557251 0.0762641 0.305413 -0.24684 -0.0742027 0.150486 0.194541 -0.0715727 -0.256159 -0.0659772 -0.179281 -0.083743 0.0659145 -0.102212 -0.293306 -0.160465 0.342094 0.404869 0.564405 0.454394 -0.324626 -0.308325 -0.367291 0.50939 0.144231 -0.356691 0.318137 0.483171 0.379287 0.116238 0.574843 -0.21401 -0.41379 0.280041 -0.0585424 -0.0637985 -0.143078 0.555738 0.252435 0.000602817 -0.12667 0.452553 0.282581 0.287623 -0.2772 0.353929 0.475801 0.430452 0.12777 0.378193 0.232782 0.167314 0.474251 0.267832 0.0613313 0.0334581 0.336016 -0.189348 -0.0903938 0.104607 0.3421 -0.101511 0.305776 0.345162 0.590474 -0.333523 -0.322954 -0.155624 0.618554 0.32936 0.231529 -0.0962411 0.194415 -0.0866886 0.582593 0.277748 -0.351121 0.440017 0.103586 0.197655 0.270214 -0.217887 -0.231139 0.156391 0.470173 0.215967 0.537242 0.143103 0.391683 -0.194936 -0.379928 0.0827856 0.0605752 0.276189 -0.200028 0.0329636 0.323962 -0.140773 0.248362 0.291397 0.533015 -0.162646 0.549431 0.119119 0.142617 0.552566 -0.189325 0.215972 0.38848 0.305618 -0.231303 0.0429362 0.482773 -0.118054 0.506508 0.239412 0.469488 0.4066 -0.223444 0.236919 -0.397013 -0.219506 -0.254776 0.0628851 0.470144 -0.0385105 0.528454 0.245668 0.268532 0.196932 -0.0396483 0.240065 0.487462 -0.0429894 -0.246232 0.0571834 -0.085961 -0.00348434 -0.337955 -0.307606 -0.331064 -0.215384 0.0590482 0.495767 0.0741993 -0.0320145 0.137978 -0.0863168 -0.241487 0.286463 -0.426374 -0.203153 0.521764 -0.214111 0.340649 0.43016 0.170562 0.271764 0.10219 -0.131717 -0.0539015 -0.448126 -0.420376 -0.0700158 -0.000662236 -0.177239 0.418866 0.331243 0.210614 0.456177 0.411751 0.237747 -0.372021 -0.140317 0.131977 0.135329 0.264325 -0.292383 0.484786 0.468858 0.4511 0.494171 -0.321102 0.383644 -0.300135 0.467544 0.306875 0.365758 0.226966 -0.113356 -0.293471 -0.341992 -0.0783818 -0.242843 0.0213912 0.376358 0.0484911 -0.094135 0.165035 -0.281887 -0.159919 1.9029 2.31032 1.66335 2.1081 1.80198 1.28284 1.93421 2.05622 2.1845 1.73208 1.78842 2.11079 1.74738 1.55878 0.992736 1.46452 1.00059 1.69579 1.08543 1.40593 0.998379 1.27042 1.87435 1.23709 1.8887 1.80576 1.96323 1.35984 1.79105 2.37743 2.0719 2.46287 2.43532 2.46609 2.28083 1.95435 2.54366 1.95313 1.78916 2.55884 2.53962 2.43939 2.3068 1.99615 1.6437 2.37433 1.72562 2.08753 2.57606 2.07015 1.65743 1.59837 2.48624 1.75277 2.02871 2.33107 2.39537 1.73391 2.26763 1.62744 1.54239 1.75994 1.41641 1.33513 1.41755 2.00406 1.48929 1.24925 1.26555 1.6533 1.34168 1.29471 1.65084 1.2725 1.79691 1.79563 1.17801 1.98151 1.45704 2.23514 1.57365 1.61669 1.41273 1.47651 2.01076 2.03347 2.57634 2.06944 2.55313 2.6183 2.44049 2.72664 2.08842 2.69216 2.96816 2.49921 2.82453 2.62162 2.87747 3.06371 -0.272731 0.547891 -0.282642 0.189777 -0.365269 0.416385 -0.122764 -0.328192 0.259914 0.0916881 -0.314067 0.568733 0.418514 -0.289749 -0.383899 -0.199527 0.120358 0.43312 0.126929 -0.197386 0.187114 -0.282441 -0.338085 0.322572 0.459988 -0.373305 -0.181011 0.143417 0.0990187 -0.418283 0.104032 0.252733 0.534929 0.184877 -0.226234 0.519372 -0.0680752 0.0241845 -0.428294 -0.411529 0.493945 -0.393189 -0.485411 0.313438 -0.242307 -0.396161 -0.421134 0.297917 0.464197 0.12492 0.528906 0.0657456 0.289486 -0.353946 -0.167175 0.158174 -0.310868 0.0783301 -0.288179 0.198917 0.0780965 0.238552 -0.117374 0.0578438 -0.126047 0.130869 0.0287863 0.270785 -0.360398 0.100605 0.347899 -0.378889 0.161747 0.320074 0.407853 0.386326 0.409368 0.46465 0.173391 0.336773 0.0307357 0.122986 -0.158767 -0.251592 0.207689 0.105408 0.337801 0.309901 -0.409107 0.473193 -0.0637234 0.0950924 0.13582 0.230813 0.579815 0.43296 -0.214411 0.0404443 0.129921 -0.168991 1.16672 0.520644 0.447158 0.736885 0.239648 0.28601 0.583336 1.10008 0.150446 1.11622 0.719801 0.537454 0.512345 0.892655 0.595275 0.102075 0.371853 0.329203 0.833945 0.398893 0.271329 0.209427 0.954351 0.836749 0.903756 0.961548 0.702867 0.0878698 0.432831 0.263515 0.407558 0.436065 0.620403 0.68079 0.98049 0.677313 0.806322 0.392756 0.589739 0.798132 0.379037 0.272654 0.285541 0.895675 0.20925 0.960123 1.08308 0.634995 0.382756 0.978597 1.09812 0.645993 1.13406 0.974719 0.409291 0.976319 0.851897 1.01771 0.924629 1.13577 1.11972 0.157812 0.377674 0.558761 0.659551 0.2174 1.12773 0.332999 0.461527 0.552968 1.00452 0.700981 0.679547 1.11929 0.388164 0.64715 0.834985 0.258496 1.09173 0.990543 1.06737 0.995167 0.460368 1.01369 0.789329 0.666257 0.80563 0.472606 0.512403 0.58475 0.482163 0.521399 0.644589 0.762289 0.991985 1.20096 0.945936 1.04421 0.43007 1.24991 0.306105 1.13399 0.688401 0.863135 1.17951 1.00235 0.469895 0.928038 1.08565 0.330297 0.647929 0.913628 1.09909 0.902646 0.681156 0.622187 0.2722 0.211504 0.773062 0.496319 0.473599 0.959687 0.716653 0.83877 0.439351 0.422167 0.747802 1.02714 0.16137 0.906685 1.04652 0.317213 0.924823 0.540249 1.0736 0.914382 0.395013 1.27422 0.580283 1.26496 0.363461 1.01931 0.908922 1.20527 0.663086 0.432384 0.5917 0.731659 0.39912 0.244517 0.0849017 0.805161 0.150255 0.775967 0.587529 0.522801 0.0568295 0.23029 0.480034 0.169609 0.136144 0.449911 0.509793 1.00173 1.01383 0.419622 0.726047 1.0935 0.340501 0.972172 1.01054 0.419359 0.744848 0.747229 0.49996 1.24694 1.04623 0.988772 0.797429 0.277712 0.922005 0.672132 0.764178 0.883596 0.264241 0.30715 0.395622 0.379983 0.650583 0.919879 0.667531 0.802682 0.358648 0.992881 0.634091 0.146347 0.187233 0.147107 1.07599 0.400941 0.644947 0.576732 0.322769 0.201818 0.143349 0.58223 0.225578 -0.0685785 0.316797 0.829706 -0.029438 0.139914 0.383734 0.7704 0.118472 0.757352 0.256909 0.600368 0.253776 0.899722 0.505461 0.802637 0.550164 0.745982 0.662741 0.0709636 0.777879 0.749292 0.128724 0.716514 -0.00427931 -0.0446444 0.455209 0.485297 0.316791 0.770534 0.242179 0.706866 -0.168159 0.682225 0.668705 0.0144242 0.0611853 0.301831 0.0621716 0.370675 0.227201 0.389157 0.0304617 0.533228 0.319544 0.58426 0.378647 -0.032351 0.437943 0.169296 0.193417 0.362024 0.0675579 0.432875 0.181929 0.181048 0.506506 0.782478 0.822769 -0.0135868 0.755776 0.253951 0.86069 0.749996 0.0716015 0.677524 -0.0813219 0.286976 0.136514 0.103917 0.764454 0.490546 0.615554 -0.0556915 0.171215 0.108474 0.732957 0.761747 0.286462 0.340471 0.0867461 0.610224 0.775253 0.238162 0.109656 0.0886722 0.510552 0.72431 -0.0411979 0.450034 -0.158196 -0.173494 -0.225644 -0.219935 1.2098 0.547752 1.17326 0.282271 0.942623 0.400831 0.409439 0.792494 0.920997 0.126783 0.857291 0.270444 0.394948 0.700238 0.0950277 0.76433 0.156802 0.358886 0.639617 0.221531 1.02085 1.10243 0.685388 0.812396 1.10657 0.922527 0.59973 1.2724 1.12254 0.730185 1.34698 1.02162 0.869393 1.15948 0.836538 0.488397 0.156806 1.01684 1.05124 0.983843 0.999496 0.746241 0.0871109 0.296011 0.392554 0.180211 1.07982 0.491133 0.529023 0.600008 0.660471 0.315195 0.489974 1.04415 0.831826 0.279712 0.628596 1.02858 1.12584 0.296518 0.324419 1.12346 0.999269 0.95248 1.05348 0.682399 0.294634 1.13201 0.597813 1.23785 0.969833 0.524706 0.898895 1.0145 0.777528 0.216261 1.09866 0.740651 0.583752 0.476752 0.203891 1.04713 0.702673 0.568186 0.979118 0.308576 0.582807 0.350321 1.06437 0.49841 0.462341 1.19937 0.504517 1.28806 1.0061 1.32816 0.694864 0.990179 1.15527 1.05676 0.583167 0.512452 -0.0316338 0.290377 0.324504 0.54463 0.321222 0.269372 0.1185 0.729295 0.541704 0.116756 0.544467 -0.066652 0.408945 0.260462 0.0203687 0.774329 0.416708 0.864467 0.0472899 0.604524 0.770972 0.191929 0.534371 0.409411 0.146431 0.899629 0.0616849 -0.0358922 0.614936 0.720591 0.55153 0.66258 0.0893896 -0.0340073 0.297602 0.486017 0.303142 0.496419 0.345868 0.0117668 0.787276 0.0405688 0.0872083 0.296104 0.374488 0.147596 0.127741 0.85158 0.04893 0.199743 0.461464 0.867116 0.44705 0.0688622 0.340925 0.655724 0.0475781 0.498639 0.696019 0.725738 0.273341 0.322272 0.487029 0.471412 0.44517 0.917102 0.0580215 0.808299 0.492757 0.464762 0.86511 0.298686 0.509667 -0.019381 0.60331 -0.0666002 0.182869 0.788173 0.869187 0.334115 0.08259 0.41759 0.316254 0.644145 0.601699 0.752995 0.331141 0.662981 0.26206 0.121971 0.475371 0.634441 0.518519 0.0208448 0.200438 0.0348144 -0.0277323 0.288512 -0.538367 0.101129 0.378397 0.379225 -0.590305 -0.0767614 -0.612154 0.103339 -0.0525481 -0.336709 0.0323727 -0.0700628 0.0991082 0.176022 0.407116 -0.541526 -0.135631 0.0537441 0.284307 0.331798 -0.116081 -0.311073 -0.386716 -0.503943 0.495906 0.312147 -0.292559 -0.185024 0.415682 -0.224944 0.161189 0.396458 0.356849 0.0688819 0.305664 0.377584 -0.387426 0.32045 0.0859216 0.155132 -0.425497 -0.317285 -0.354291 0.250194 -0.528705 -0.329366 0.330411 -0.0796526 0.341834 0.200332 -0.163771 -0.253838 0.433599 -0.021575 -0.233788 0.393801 -0.211852 -0.0340497 -0.278135 -0.266448 0.252175 0.411078 -0.35466 0.181394 0.0248888 -0.492055 0.138786 0.235299 0.401638 -0.202973 -0.0507753 -0.436131 0.0629803 0.195486 0.408821 0.0975508 0.441119 0.316092 -0.404543 0.316017 0.0423897 -0.0415233 -0.374942 0.0220392 0.460958 -0.115852 -0.0925542 -0.270575 0.325281 0.084973 -0.0701802 0.0680113 -0.0135884 0.0670381 -0.239463 -0.449931 0.124051 0.406271 0.281545 0.0361536 -0.181007 -0.129239 0.239258 0.42047 -0.392741 0.195643 0.0596336 0.575747 0.0443844 0.192988 0.434674 -0.368497 -0.306057 0.56111 0.162748 -0.311646 -0.0189368 0.599443 -0.0575267 -0.166154 0.21021 0.39147 0.414842 -0.2885 -0.0251682 -0.321358 -0.238758 0.586807 0.567641 0.539872 0.119707 -0.216656 -0.186231 -0.236804 -0.389122 -0.180852 0.356815 0.071609 -0.201452 -0.200281 -0.331631 -0.370571 -0.176441 -0.24835 0.575106 0.366913 -0.166991 -0.0483997 0.361295 0.162581 0.176745 -0.0350023 -0.0483371 -0.00880607 0.0720766 0.31651 0.0629329 0.234024 0.308502 0.0378711 0.174512 -0.175318 0.204635 0.37196 -0.0316777 0.206182 0.586262 -0.27633 -0.316551 -0.216566 -0.0797155 -0.263659 -0.19712 0.139458 -0.113928 -0.224657 -0.0944979 0.103342 0.110668 -0.350765 -0.35301 -0.335178 -0.00913649 -0.027463 0.0255656 0.437289 -0.349872 0.450831 0.0380144 0.334112 -0.137213 0.588922 0.529876 0.452958 0.347916 -0.10622 0.0392943 0.308352 -0.0128315 0.10076 0.239056 0.0609049 -0.0171368 -0.587043 -0.466154 0.207633 -0.480667 -0.193853 -0.298604 0.0286241 -0.143273 -0.27252 0.0871359 0.239331 0.0977874 -0.499787 0.0619129 0.140447 0.361609 -0.491667 -0.0746717 -0.341475 -0.426006 -0.105106 -0.415957 0.350368 0.213194 0.0304158 0.0170139 -0.432953 -0.503726 -0.0992892 0.255697 0.116158 -0.0766668 -0.546356 -0.00579262 0.148087 -0.059515 0.346363 -0.181562 -0.539062 -0.295693 -0.469523 -0.674219 -0.545157 -0.283693 0.0749096 0.325244 -0.243037 0.275439 -0.142335 0.0576357 0.435825 0.371141 0.192342 0.344381 0.114262 -0.226319 -0.0464182 0.256211 -0.17455 0.38473 0.0765215 -0.543814 -0.124964 0.111083 0.0750349 -0.348688 -0.309462 0.0342566 0.0880987 -0.238196 -0.591733 0.263375 -0.260205 -0.45134 -0.342734 -0.440683 -0.457561 0.10811 0.448459 0.0288488 -0.265906 0.423157 -0.108374 0.399783 0.262833 -0.483927 -0.319054 -0.274535 0.283728 0.00656916 -0.366155 -0.102964 0.060848 0.0871984 -0.440644 -0.339081 0.279778 -0.0448631 0.45273 0.123458 0.316572 0.468793 0.0215075 -0.313081 -0.393494 0.273951 -0.221493 -0.32466 -0.123009 -0.297659 0.170396 0.105253 -0.331303 0.620247 0.0535848 0.478999 -0.346129 0.238646 -0.291914 0.426984 -0.240694 -0.143339 -0.160146 0.330237 0.47308 -0.0707649 0.553138 0.319467 0.286208 0.419333 -0.146266 0.0144517 0.280004 0.262092 0.0914835 0.294019 -0.0575433 0.272818 0.360667 0.206296 0.385146 -0.0620342 -0.305057 0.452245 -0.0553312 0.13691 0.305696 -0.0228197 -0.234293 0.408308 -0.191257 -0.0728309 -0.337889 0.0421358 -0.340878 0.535742 0.374722 0.628623 0.268111 0.0399451 0.402323 0.470899 0.436476 0.0714447 0.132457 -0.0470728 -0.234 0.507877 0.636788 0.492805 0.0523468 0.353921 -0.189249 0.137106 0.187161 0.142416 -0.350746 -0.132357 0.484197 -0.220495 -0.363428 -0.356451 0.0597712 -0.363287 0.0373292 0.0742992 0.544099 -0.231923 0.0421704 0.144754 0.190073 -0.173946 0.00923582 0.0100719 0.274483 0.512981 0.318842 0.895015 0.848659 0.881443 0.859853 0.470833 0.713366 1.10423 0.933921 0.204022 0.588517 0.921031 0.432458 0.352375 0.984286 0.280689 0.29873 0.377306 0.33781 0.734836 0.816172 0.157935 0.816189 0.127016 0.666604 0.282562 0.274464 -0.00709484 0.707369 0.0139698 -0.0190731 0.505024 0.83882 0.765364 0.220465 0.563189 -0.00302717 0.677004 0.42445 0.769049 0.759268 0.924478 0.524509 0.0572569 0.190252 0.445764 0.315905 0.401261 0.681332 0.445606 0.015302 0.378406 0.639351 0.868248 0.585081 0.300226 0.231743 -0.0960265 0.427276 0.0766699 0.0417176 0.574763 0.741077 0.163469 0.574327 0.241712 0.852762 0.683959 1.00298 0.346678 0.454809 0.714752 0.205189 0.90687 0.717781 0.404634 0.344737 0.00974213 0.784209 -0.0975972 0.414091 0.678565 0.260146 0.0152997 0.58739 -0.0773185 0.495855 0.0647916 0.0719449 0.217373 0.366971 0.38824 0.974967 0.274681 0.545725 0.517512 0.454837 0.356975 0.199209 0.549179 0.789769 0.499606 0.065235 0.830731 0.489255 -0.11079 0.243666 0.828865 -0.113537 0.0123012 0.831105 0.418844 -0.108085 0.312397 0.654331 0.69471 0.39351 0.304616 0.853395 0.562608 0.574193 0.260843 -0.0610058 0.520863 0.53515 0.466134 0.0620473 0.00628488 0.837566 0.267967 0.47595 0.543285 -0.068203 0.706348 0.509256 0.548016 0.698183 -0.147324 0.498347 0.713594 -0.000124 0.463694 0.240751 0.00406982 -0.131072 -0.00187471 0.802645 0.369606 0.403707 0.762114 0.0317334 0.0681359 0.119808 0.0659877 0.709994 0.778303 0.675268 -0.0943939 -0.0768196 0.648719 0.326782 0.55263 0.352769 0.414623 0.4138 0.0162974 0.129914 0.289111 0.049522 0.816387 0.173498 0.217636 0.441397 0.577733 0.383778 0.484295 0.737453 0.351166 0.00344695 0.288505 0.252367 0.182238 0.515183 0.533964 0.403628 0.371932 0.45343 0.22828 0.445147 0.547792 0.0426785 -0.051672 0.272958 0.569446 0.530952 0.844555 0.742636 0.805368 0.278516 -0.0660253 0.76838 0.792027 0.4972 0.517702 0.482126 0.930714 0.0775102 0.285639 0.407422 0.22176 0.7266 0.85728 0.578248 0.44465 0.54583 0.087933 0.902668 0.0471043 0.404364 0.457703 0.739453 0.66074 0.587275 0.216395 0.363564 0.31126 0.241441 0.340241 0.303402 0.724986 0.428706 0.213631 0.44722 0.779491 0.63523 0.70362 0.623735 0.567484 -0.0169174 0.0631882 0.864794 0.714247 0.84179 0.363362 0.121586 0.475954 0.589153 0.225405 0.636807 0.112108 0.716672 0.431966 0.75457 0.377292 0.67682 1.18171 0.600904 0.796539 0.311555 0.709837 0.342878 0.559839 0.739714 0.601584 0.229221 0.251453 0.316094 0.807246 0.845388 0.385018 0.974666 0.829047 0.22972 0.864885 0.227197 0.39587 0.341784 0.881109 0.612964 0.976123 0.922091 0.22331 0.273778 0.574978 0.442499 0.865577 0.603929 0.872024 0.451729 0.643999 0.312966 0.438087 0.910193 0.732001 0.811375 0.923962 0.808416 0.92762 0.575114 0.484315 0.108563 0.559804 0.322146 0.239518 0.193852 0.252228 0.436041 0.369406 0.969566 0.888444 0.146006 0.605806 0.857895 0.0698175 0.88452 0.0379172 0.695943 0.31506 0.721331 0.967441 0.77386 0.809276 0.259752 0.626739 0.550821 1.21837 0.596736 0.437529 1.11136 1.12933 0.860516 1.21203 0.474915 0.993517 1.31654 0.532224 1.15037 0.66521 0.782694 0.998376 0.420886 0.819337 0.583752 1.25442 0.937544 0.461963 1.25615 0.580588 0.712757 0.882633 0.46147 0.3706 0.646323 0.703775 0.920886 1.13496 0.69408 0.297449 0.30579 0.529299 1.15044 0.927944 0.459088 0.376816 0.609764 0.466038 0.567316 0.465169 0.826186 0.991312 1.06066 0.801351 0.395162 1.18778 0.645869 0.89947 0.31236 0.561472 1.17943 0.74636 1.1992 0.368432 0.852079 0.537211 0.763363 0.477556 0.4059 1.20381 0.499935 0.433885 0.452236 0.345281 1.02148 0.585317 0.386637 0.322644 0.726317 0.743098 0.503282 1.25342 0.374738 0.490531 0.0387492 -0.217451 0.445868 0.469921 0.461989 0.513888 -0.227429 0.393516 0.014792 -0.235845 0.571058 0.647829 0.0878789 0.0810441 -0.113281 0.236601 0.0549735 0.177964 0.483034 0.303222 0.322311 0.256735 -0.357042 0.441453 0.331794 0.1172 -0.159797 0.468027 0.022614 -0.101152 0.378921 0.514058 0.0735962 0.227871 0.337024 -0.1127 0.106902 0.492027 -0.3463 0.501209 0.580546 0.538321 0.484109 0.000807366 0.00243936 -0.278623 -0.390861 0.407376 0.260652 0.471078 0.12781 0.0123194 0.186384 0.211377 -0.0958484 -0.0308481 -0.197998 0.206005 -0.0790587 0.308647 -0.431211 -0.191141 0.299101 0.126199 0.464588 0.0342834 0.405582 -0.0302242 -0.0629954 0.456486 -0.144655 -0.093948 0.407599 -0.251722 0.314221 -0.175448 -0.0793398 0.386856 -0.289958 -0.352202 0.294335 0.25162 0.0733744 -0.124137 -0.101266 0.404926 0.289931 0.141329 0.0716325 -0.314856 -0.0716975 0.105408 -0.0996595 -0.351603 -0.341475 -0.187501 0.14529 0.558454 0.249767 0.580195 0.494584 0.585785 -0.0676244 0.348873 -0.216309 -0.30513 -0.386017 0.146808 0.513044 -0.253218 0.227095 0.232825 0.455039 -0.21966 -0.386286 -0.135084 -0.318496 0.399963 0.500769 0.248926 0.567239 -0.103167 -0.165838 -0.0576207 0.0197421 -0.0341337 0.212443 -0.375844 -0.0469621 -0.106941 0.603235 -0.15123 -0.123173 -0.068295 0.590909 0.0559245 0.025215 0.618105 0.611906 -0.0449471 -0.224341 0.243858 0.59216 -0.370405 0.405775 0.595605 -0.116486 0.470305 0.370358 -0.240854 0.098797 0.314672 0.0473508 0.328433 -0.339953 0.472007 -0.303552 0.272616 0.492813 0.0527717 0.568847 0.485541 0.282129 -0.171512 -0.18438 0.285874 0.292877 0.244275 0.278381 0.272213 0.564168 0.420338 -0.104744 0.535797 0.43334 -0.312957 0.508974 -0.301739 0.542125 0.269954 -0.155874 0.0299895 -0.0296607 0.271981 -0.267516 -0.000407519 0.116484 -0.191753 -0.341602 -0.0225223 0.215744 0.572322 -0.160213 -0.128636 -0.218284 0.0373638 0.528012 0.440217 -0.348758 0.256162 0.17432 -0.364951 0.0145144 0.395885 0.539138 -0.189537 0.454637 0.463943 -0.0735925 0.475864 0.163016 0.104656 -0.223787 0.291512 -0.364998 -0.286418 -0.386952 0.125206 -0.0577892 -0.186332 0.61115 -0.167596 -0.0517602 0.117179 0.2073 0.268577 0.588128 0.133414 0.0769482 0.539913 0.645433 0.436243 0.469794 -0.1136 0.141177 0.250255 0.0122523 -0.127803 0.014152 0.231868 -0.38114 0.479132 -0.259771 -0.0791848 0.377426 0.0198473 0.210455 0.651735 0.716705 0.863382 0.969078 0.900793 0.963669 0.150246 0.0776507 0.220227 0.467949 0.627718 0.361483 0.433468 0.210991 0.0431258 0.0960966 -0.121912 0.202356 0.549615 0.537474 0.65944 -0.133866 -0.109242 0.201482 -0.286944 -0.328017 0.267525 -0.0802343 0.455487 0.631889 0.521061 0.292675 0.454615 0.305073 0.177076 0.280919 0.270123 0.368964 0.425634 0.491972 0.878257 0.156451 -0.0783872 0.459447 0.476008 0.115397 0.615626 0.482435 0.389319 0.287878 0.122932 0.172852 0.206317 0.190795 0.573286 0.272243 0.230126 0.162592 0.501669 -0.139389 -0.014791 0.179256 0.316886 -0.332855 -0.2781 -0.270238 0.215187 0.173029 0.27673 -0.237917 -0.202303 0.250967 0.0113228 -0.164392 -0.24333 0.57595 -0.000163094 0.581752 0.251517 -0.321148 0.193454 -0.265803 0.204181 -0.210084 0.309277 0.14718 0.444069 -0.0873103 -0.293947 0.341942 0.185922 0.0651658 -0.10903 -0.150916 0.085184 -0.0403762 -0.0736315 0.609975 0.435646 0.508326 -0.330174 0.526291 0.0604189 -0.00706793 -0.310825 0.206231 -0.0394927 0.104937 0.201354 0.639231 0.182222 -0.238334 -0.275203 -0.226183 -0.0881752 0.415661 0.285203 -0.264927 -0.276374 0.380918 0.494358 0.294377 -0.177886 -0.262182 0.516502 0.282535 0.0943499 -0.181544 0.288506 -0.0890649 -0.262393 0.356203 -0.140918 0.18182 -0.27578 -0.116137 -0.281491 0.0214116 0.287173 0.225938 -0.0262718 -0.15044 0.390648 0.110048 0.00106868 -0.31554 -0.168859 -0.357082 -0.256477 -0.060783 0.37986 -0.401114 -0.374089 -0.368496 -0.245755 0.508093 0.293673 0.218543 -0.319843 -0.0985715 0.445855 -0.279396 -0.421464 -0.395274 0.201407 -0.407625 -0.203565 0.233717 -0.0805666 0.409337 -0.217419 0.217238 -0.411195 0.483062 -0.360856 -0.0702794 0.525072 -0.0976361 0.0103256 -0.278767 0.278854 -0.14973 -0.230754 0.337949 -0.0901301 -0.0254684 0.309873 -0.341491 -0.309284 0.491224 0.0752886 0.612121 -0.286329 0.12343 -0.312386 0.360357 0.114791 -0.136355 -0.014741 0.479857 -0.27338 0.212691 0.130915 -0.264595 0.0840326 0.167346 0.0494822 0.00745707 0.494447 0.491876 0.194525 0.228121 -0.222232 0.376583 -0.0639514 0.0819048 -0.230874 -0.306027 0.227307 -0.119685 0.573939 -0.361671 -0.161176 -0.360564 0.115205 -0.131935 0.317588 0.592464 0.0744159 -0.34221 0.430544 0.171013 0.232994 -0.0682715 0.290156 -0.260068 0.513995 -0.24597 0.182983 0.42564 -0.342392 -0.265758 0.00596005 -0.187739 0.481917 0.360469 0.307865 -0.353206 0.443681 -0.109663 -0.135356 0.3934 -0.0201718 0.161604 0.497022 0.482217 0.41952 0.222239 0.477847 -0.0857993 0.312847 0.342394 0.524123 -0.0203314 -0.296925 0.224857 0.132601 0.642931 0.405082 -0.281842 0.46769 0.466968 -0.149846 -0.120606 -0.329247 -0.264085 -0.363703 0.394046 -0.205469 0.505721 -0.285327 0.110702 0.355025 0.070477 -0.351219 0.218091 -0.083696 0.428751 -0.194416 -0.233704 -0.280466 0.47766 0.472826 0.598446 -0.181345 0.537196 0.18273 0.301725 0.534212 -0.0565676 0.367772 0.34963 -0.238178 0.583603 0.600253 -0.185667 -0.307217 0.611672 0.584069 -0.124895 0.505034 -0.318734 0.362189 0.232213 0.115018 0.379891 -0.185546 0.406776 0.188915 0.000280573 0.56624 0.292357 -0.138277 0.405017 0.267322 0.0504795 0.314903 -0.185959 -0.280409 0.210299 0.122622 0.456847 -0.0687901 0.248064 0.406679 -0.109658 0.420274 0.463223 -0.141574 0.361185 -0.299064 -0.266432 0.399882 0.42093 0.320177 -0.109155 0.16133 0.50332 -0.335059 -0.271821 -0.136301 0.579729 0.272229 -0.00493523 0.242864 -0.116041 0.404829 -0.0740085 0.0450363 0.45319 0.463063 -0.488352 0.2678 -0.247764 0.11779 0.016176 0.0246743 -0.078962 -0.156176 0.214482 -0.403298 -0.127983 0.256274 0.33439 -0.363805 -0.0578581 -0.396335 0.185947 -0.141184 -0.329401 0.30299 0.104274 -0.384497 0.0503775 -0.430591 0.356549 0.460199 0.490321 -0.140394 0.0758035 0.532841 -0.146985 0.135359 0.316011 0.131352 -0.238431 -0.220347 0.552364 0.0851838 0.105554 0.256828 0.182532 0.466317 0.012975 -0.0189565 -0.42691 0.426565 0.0791699 0.277461 -0.22201 0.266085 0.0859339 0.373531 0.365734 -0.421432 0.404504 0.199826 0.530519 0.427071 0.514716 0.0297534 0.324087 -0.268623 0.543048 -0.00115913 0.211272 -0.360624 0.193395 0.174203 0.142672 -0.279492 -0.150987 -0.252271 -0.382202 0.311721 0.209714 -0.342301 0.185454 -0.244716 0.391731 0.418662 0.433652 -0.114233 0.215863 0.21797 -0.0710069 0.0877528 -0.125711 -0.0910032 -0.0789144 -0.220971 0.367635 0.240473 0.522473 0.893399 0.674804 0.148859 0.991038 0.265498 0.745066 0.523433 0.433243 -0.0283391 0.676471 0.373705 0.656935 0.304699 0.546698 0.477726 0.631127 0.597253 0.43652 0.619898 0.954644 0.160129 0.335711 0.416712 0.742108 0.711048 0.798534 0.106557 0.942855 0.61608 0.259985 0.389001 0.465373 0.9264 0.539123 0.438398 0.199132 0.242935 0.972109 0.64811 0.348472 0.798834 0.249262 0.241886 0.278672 0.992301 0.786871 1.04503 0.61588 0.228202 0.586778 0.492544 0.295752 0.852757 0.804147 0.96629 0.462545 0.458938 0.925026 0.239874 0.954844 1.09435 0.545281 0.334281 0.869585 0.938106 0.647991 0.931357 1.08722 0.552783 0.519367 0.276249 0.149287 0.526305 0.366143 0.276062 0.385502 1.03674 0.13674 0.835767 1.10409 0.520374 0.106309 0.194581 0.187325 0.772899 0.972955 0.445676 1.02192 0.683632 0.505225 0.770595 0.546738 0.832681 0.915186 0.259579 0.595638 0.424355 1.03187 -0.093742 0.137697 -0.27456 0.0736303 0.163036 0.154116 0.330658 0.344962 0.474529 0.29697 0.424542 0.205373 0.254321 -0.172778 0.168295 0.330456 -0.0759307 -0.171841 0.223058 0.277724 -0.252569 -0.224192 -0.343463 0.427985 0.22608 0.374802 0.237696 0.353664 -0.163454 0.482883 0.219754 0.196479 0.0688831 0.366403 -0.32205 -0.339795 -0.0596721 0.45327 0.446973 -0.163905 0.156545 0.267419 0.442981 -0.130936 -0.400671 0.136043 -0.275954 -0.0265358 0.410654 0.361123 -0.357952 0.563131 0.565967 -0.253688 0.413798 0.197166 0.535573 0.082055 -0.0206886 -0.206837 -0.0344987 -0.411709 0.390642 0.461243 0.392473 0.507961 0.542629 -0.248459 0.362945 0.412361 0.00641639 -0.0297664 0.143833 -0.0881877 0.312461 0.156526 0.451255 0.429397 0.534651 0.280147 0.162025 -0.440402 0.227652 0.13511 -0.28692 0.0721875 -0.244574 -0.337587 -0.442506 0.147655 -0.12569 -0.0272652 0.193797 -0.294791 -0.11589 0.0173666 -0.339458 -0.117575 0.249186 0.504517 -0.222902 -0.2827 -0.0268279 0.404758 0.171221 -0.219735 0.142738 0.155618 0.804579 0.173716 -0.0529629 0.462839 0.264782 0.689737 0.126174 0.470804 0.184481 0.298562 0.455075 0.144744 -0.23074 -0.258285 0.450766 0.367957 -0.16801 -0.210895 -0.139459 -0.0286944 0.153965 0.546586 -0.0667336 0.383566 -0.25142 0.333822 0.235713 0.276719 0.480219 -0.362253 -0.281886 0.499585 0.0754725 -0.112262 0.190106 0.483483 -0.290874 0.429649 0.0793607 0.100647 -0.115789 -0.226164 0.450672 -0.0104761 -0.137369 0.361677 -0.181672 0.164274 0.610267 0.116753 0.540449 0.175607 -0.0165925 -0.193777 -0.113167 0.118759 -0.448433 0.518892 -0.193953 0.40838 0.533412 -0.139765 0.30874 -0.0397363 0.138863 -0.180062 -0.218638 0.157669 0.545632 0.128538 0.568237 -0.195563 0.282723 0.391275 0.17795 0.512565 0.0595175 0.290597 -0.106569 -0.0428047 -0.29399 -0.156717 0.530083 0.166756 0.141265 -0.0743678 -0.259384 0.108746 -0.183341 -0.0418001 -0.123968 -0.247422 0.46626 -0.179468 0.367883 -0.0246669 0.0585387 0.531496 0.488039 -0.0750203 -0.0194343 0.36192 0.0516856 0.580089 0.0162517 0.464442 0.275575 0.37308 0.084192 0.627772 -0.177894 0.238943 -0.0647535 -0.204565 -0.143885 0.497057 0.154082 0.0761958 0.104212 0.500465 0.565562 0.545099 -0.142161 0.389854 0.6958 0.496666 0.56438 -0.0664725 0.1459 0.269119 0.100439 0.430139 -0.0860085 0.393228 0.244256 0.238731 0.221771 -0.0571033 0.041826 0.648519 -0.0956593 0.157588 0.200655 0.146217 0.298561 0.375595 -0.0514533 0.706542 0.677769 0.273341 0.429883 0.49268 0.0517588 0.478805 0.105452 0.0143658 0.247191 -0.0185353 0.263389 -0.234872 0.659304 0.743464 0.558925 -0.0790089 0.462113 0.151658 0.515998 0.00681521 0.416576 -0.134906 -0.0225516 0.652819 0.29796 0.418989 0.018891 -0.165904 0.054646 0.262083 -0.168646 0.0285594 -0.158631 0.568812 -0.165614 0.212502 0.374841 0.229657 0.53416 -0.0834389 0.51266 0.0777636 -0.0172573 0.429329 0.733319 0.448893 1.15948 0.372165 0.615715 0.780908 0.449799 0.265586 0.83825 0.639223 0.0549476 0.370433 0.144104 0.256197 0.356994 0.477059 0.90486 0.608733 1.11852 0.241048 0.823138 0.400417 0.946892 0.532717 0.946035 0.733719 0.648882 0.67007 1.06209 0.914451 0.443349 0.445394 1.12884 1.40529 0.694746 0.667802 1.14914 1.06731 0.751763 0.807097 0.448974 0.728974 1.0629 0.704048 1.05778 0.559299 1.29466 1.0063 1.2272 1.30569 1.23061 0.867348 0.538175 0.872983 1.12688 1.21477 1.3642 0.554944 0.675702 1.15103 1.22005 0.796917 1.29419 0.905218 0.772442 1.46446 1.07929 1.37417 1.00064 1.37366 0.66048 0.98981 0.591818 1.31279 1.29677 1.34184 0.555599 1.28729 1.03327 1.46119 1.31241 0.903291 0.972834 1.43873 1.40891 0.696147 1.30905 1.35718 0.810853 1.47366 0.964119 1.48518 0.699035 0.699775 0.848205 0.941093 0.64127 1.35759 0.718248 1.02119 0.00171339 -0.260336 0.377904 0.120205 -0.418359 0.184391 -0.0310161 -0.349534 -0.00305219 -0.458998 -0.35692 -0.212324 -0.0719886 0.102078 -0.243653 -0.183094 0.269846 0.434147 -0.466207 -0.526911 0.30124 -0.0666392 0.392588 0.459359 0.0754227 -0.331909 -0.157118 0.168502 -0.514365 0.0330394 -0.35145 0.0468973 0.307882 -0.431272 -0.220427 -0.476111 0.44777 0.375786 -0.227308 -0.0292828 0.430094 -0.0347084 0.317937 -0.0750831 -0.414848 -0.461706 0.213695 0.384255 -0.504107 0.272134 0.395997 0.340568 -0.29847 0.271827 0.263205 0.304427 -0.484163 -0.313164 0.0759565 -0.452061 0.251636 0.247046 0.0771637 0.0809286 0.322623 0.333599 0.0785535 0.198406 0.119941 0.293817 -0.369592 0.0414753 -0.223549 0.436954 0.454363 -0.127286 -0.512032 0.173551 -0.24892 -0.517831 -0.0385966 -0.339836 0.3625 0.232683 -0.508389 0.178611 0.083695 -0.484281 0.383979 -0.337773 -0.44836 0.12805 0.392712 0.167049 -0.269797 0.260118 0.0119167 0.340172 -0.0080421 -0.283739 0.85721 0.824855 0.933452 0.144656 0.755587 0.909003 0.530506 0.772297 0.60657 0.825034 0.781952 0.0827794 -0.0206149 0.627923 0.79894 -0.0147704 0.350376 0.432787 0.0871328 0.280667 0.647414 0.169732 0.942377 0.576694 0.871608 0.221728 0.380472 0.46244 0.142291 0.95629 0.775015 0.955514 0.760872 0.702514 0.113345 0.523139 0.61773 0.638991 0.274965 0.209022 0.432685 0.0571369 0.291238 0.44819 0.716173 0.12206 0.465786 0.0743265 0.554573 0.516122 0.322484 0.171438 0.661979 0.233997 0.712977 0.493499 0.419002 0.0665013 0.930285 0.530794 0.984314 0.653075 0.449626 0.692773 0.306845 0.479558 0.128827 0.834287 1.02018 0.324705 0.964186 0.397887 0.329231 0.203626 0.795616 0.997591 0.273253 0.207144 1.01738 0.785956 0.682657 0.295239 0.910853 0.29016 0.480276 0.581076 0.751149 0.857887 0.606777 0.629095 0.339896 0.549704 0.248844 0.737099 0.195992 0.497473 0.154626 0.260516 0.271493 0.126438 0.217589 -0.135952 0.244117 0.583502 0.0612574 -0.0594435 0.387312 0.188445 -0.0730838 0.278789 -0.0131982 0.695432 0.860773 0.0480085 0.205955 0.35501 0.806404 1.05416 0.506753 0.543091 0.899658 0.862696 1.03959 1.00074 0.499604 1.19876 1.55571 0.667934 1.51673 0.786279 0.792579 1.00798 0.857629 1.11349 0.610892 1.04787 1.20744 1.30359 1.63906 1.58739 1.02115 0.828857 1.36656 0.779001 0.748023 1.49294 0.972681 1.25567 1.14576 0.963051 1.31597 0.578763 0.516393 1.08187 1.32713 0.558813 0.6698 1.15641 0.59949 0.669077 1.51946 0.830564 1.27845 0.95065 1.68774 1.52751 1.6652 1.36729 1.29355 1.64064 1.08752 1.47144 1.52817 0.835539 0.766138 0.915954 0.906435 1.26434 0.418952 0.463917 0.450453 1.20266 0.544439 0.500038 0.735998 0.267611 0.468849 1.05108 0.923125 0.454274 0.302307 1.07662 1.12684 1.06367 0.622888 1.03207 0.892573 1.44815 1.62727 1.3398 0.110417 -0.127819 -0.0114575 0.0460312 0.119183 0.012045 0.259735 0.381208 0.669975 0.310102 0.476503 -0.0974588 0.27998 -0.245876 0.162054 -0.12799 -0.141989 0.426885 -0.329967 -0.306051 -0.21781 -0.273759 0.518766 0.461048 0.343581 0.588256 -0.0900013 0.567477 0.365303 -0.171867 0.22818 -0.0689612 0.166107 -0.36745 0.412771 -0.293464 0.0678273 0.0354841 0.461547 0.0716399 -0.313837 0.267839 0.297831 0.297911 0.331647 -0.250592 0.466174 0.527751 0.511446 0.513692 0.594875 -0.318467 -0.389221 0.494481 0.501675 0.32885 0.451593 -0.167966 0.305537 0.23413 0.0840535 -0.0613067 0.573094 -0.359043 -0.016926 0.374882 -0.221183 0.459203 -0.188837 0.588031 -0.136044 -0.168792 0.207744 0.53435 0.497947 -0.087687 -0.32944 0.347927 -0.182363 0.54864 0.226674 -0.21189 0.611504 0.237415 -0.327082 0.51952 -0.0647265 0.508785 -0.2722 -0.334465 0.161167 0.231479 -0.000917594 0.132648 0.237015 0.350473 -0.129164 0.370637 0.169088 0.0539266 0.758294 0.842616 0.702566 0.337779 0.764797 0.584218 0.638251 0.793546 0.287899 0.813417 0.691824 0.868226 0.954683 0.658642 0.46806 0.000154105 0.550515 0.805914 0.914116 0.69172 0.900282 0.507995 0.382285 0.367794 0.157069 0.143159 0.240803 0.507452 0.98507 0.87788 1.01794 0.780492 0.758159 0.761736 0.144874 0.532936 0.328134 0.775486 0.314436 0.634223 0.621795 0.0514484 0.570344 0.630167 0.765533 0.0640384 0.651942 0.336115 0.894228 0.591747 0.0499911 0.797023 0.0829699 0.392662 0.111008 0.157514 0.459321 0.290832 0.633148 0.414823 0.146109 0.610752 0.134 0.835454 0.285114 0.227127 0.304889 0.596107 0.986765 0.619637 0.241358 0.603593 0.681706 0.7889 0.207898 0.404036 0.809877 0.82385 0.706052 0.665649 0.366837 0.708924 0.41822 0.434944 0.0868145 0.525985 0.588764 0.536324 0.817238 0.193626 0.910325 0.905334 0.733928 0.00740236 0.708392 0.0176442 0.242912 0.0288903 0.626898 0.231749 0.196584 0.408057 0.378097 -0.140527 0.184319 -0.426535 0.265138 -0.0105013 0.399364 -0.042808 -0.329303 -0.214692 -0.280836 0.109756 0.217957 -0.230352 0.569363 -0.236069 0.240306 0.340761 -0.0901943 0.138294 0.231784 -0.356231 0.139861 -0.0682025 -0.353949 0.363494 -0.059334 0.262373 -0.414438 -0.417679 0.117594 0.406976 -0.113873 -0.26203 0.420231 -0.424119 0.147057 0.228703 -0.055207 0.204957 0.413605 0.0269881 -0.325471 0.00212478 0.155835 -0.363637 0.15382 -0.181853 0.404128 0.497244 0.387889 0.064336 -0.442024 -0.0472454 0.423648 -0.350016 -0.23329 -0.187009 0.342919 -0.222567 -0.170541 -0.0893212 -0.352011 0.169164 0.106937 0.50936 0.176437 -0.314295 0.14186 -0.46784 0.336449 0.0167785 0.0361885 0.456383 0.466318 -0.364914 0.53271 0.0627903 -0.102995 0.378712 0.00312584 -0.27096 -0.114942 0.0133488 0.122886 -0.250592 0.0974239 0.330333 0.0196604 -0.0776639 -0.415374 0.300468 0.268711 -0.339974 -0.109435 -0.192482 -0.402342 0.511498 -0.0305206 0.247281 0.580556 -0.223785 -0.243092 0.0647337 -0.34257 -0.37652 0.104532 -0.378895 0.148428 0.458124 0.42317 0.542494 0.54512 -0.298455 -0.0274074 0.128892 -0.0701364 0.532115 -0.0832725 0.372476 -0.116086 -0.0594599 0.105503 0.594321 0.0566881 0.465296 -0.132727 0.108952 0.427265 0.259256 -0.235858 0.390734 0.393388 -0.129 -0.225871 0.417627 -0.128623 0.282397 0.441161 0.380952 0.079821 0.238167 0.333799 0.0901306 0.42011 -0.273153 -0.347835 -0.250115 -0.309801 -0.00796702 0.555167 -0.0309186 0.30404 0.0291043 -0.0793922 -0.272996 -0.134314 0.174193 0.20498 -0.33889 -0.184807 0.382748 0.470468 -0.361388 -0.333558 -0.316413 0.50475 -0.00641644 0.406426 0.378137 -0.215817 -0.0669264 0.0621706 0.549909 0.450106 -0.105065 -0.298291 0.519553 0.0531208 -0.243415 -0.117267 -0.0212483 0.0979697 -0.42389 0.387796 0.407912 -0.300449 -0.345689 -0.0138365 0.318773 -0.255435 0.213684 0.128554 -0.377836 0.256324 0.201664 -0.284434 0.164466 -0.343731 0.595192 0.016926 -0.120281 -0.0286408 0.522032 -0.12238 -0.129355 -0.12525 0.0197576 -0.187457 0.350586 0.1805 0.111048 -0.236589 -0.270733 0.140791 0.595937 0.575925 0.269149 -0.322737 -0.00814199 0.012437 -0.166767 0.619448 0.545456 -0.135562 0.285405 0.157228 -0.0176093 -0.14484 0.16068 -0.0677546 0.22273 0.384629 0.236523 0.0816978 0.600547 0.456282 0.292928 -0.0172563 0.638531 0.00352841 0.515866 0.0893712 0.0981223 0.586815 0.581835 0.0301666 0.494331 0.177496 0.0513004 -0.166082 0.547999 0.24397 -0.193568 0.436249 0.445254 0.43423 -0.0543365 -0.20714 0.646163 0.452391 0.050645 0.19632 0.18159 0.638939 0.623873 0.150756 0.445818 0.272264 0.440242 0.368182 0.564451 0.243594 -0.219222 -0.0183495 0.140148 0.673635 0.34255 -0.0258784 0.194569 -0.260716 0.140696 0.0705357 0.30785 0.262202 -0.163183 0.0834933 0.0307978 0.123468 0.203958 -0.00216632 -0.0991554 0.562604 0.506993 0.380899 0.509786 0.437182 -0.170419 0.20285 -0.0462417 0.504886 -0.120315 -0.178579 0.0621083 -0.024219 0.127975 0.529807 -0.0260075 -0.213209 -0.191366 0.48493 -0.151246 0.287182 -0.113652 0.47622 -0.136657 0.0235292 -0.129003 0.197481 0.457313 0.385165 0.520201 -0.311234 0.29546 0.380979 0.4321 0.162258 0.171007 -0.385399 -0.225866 0.534766 0.538662 0.0940556 -0.199121 0.0593924 0.50571 0.366295 0.0100603 -0.0989737 0.581153 0.259441 -0.185425 -0.160337 -0.0714756 0.0640625 -0.290852 0.192058 0.520132 -0.00256102 -0.19214 0.378846 -0.200649 -0.255975 0.494773 0.529668 0.554548 0.354968 0.117751 0.152696 0.398083 0.311757 0.105038 0.360159 -0.183193 0.316543 -0.189591 -0.295029 0.0640917 0.205641 -0.000898909 0.0561558 -0.140599 0.208404 0.291588 0.182169 -0.314938 0.404687 -0.227217 -0.391307 -0.17049 0.000734562 0.419608 0.0597657 0.18373 0.361122 0.0296443 0.165866 0.137351 -0.433414 -0.25094 -0.0362146 0.31741 0.298976 -0.234868 -0.426056 0.0498026 0.013912 -0.272859 0.569242 -0.333104 0.131416 0.00563387 -0.0727097 -0.217425 -0.156291 0.636712 0.00519288 -0.309132 0.0432219 0.232373 0.324098 0.663708 0.0500146 0.597829 -0.0805057 -0.302863 -0.130991 0.481431 0.249887 -0.10247 -0.226413 -0.260418 -0.439681 0.330975 -0.21456 -0.403037 -0.0775254 0.314651 -0.190483 -0.108987 0.369456 0.400898 0.344828 -0.264445 -0.31419 0.598929 -0.275069 -0.0301635 0.414859 -0.240315 0.183815 -0.310908 0.464552 0.506627 -0.381061 -0.233048 0.61798 -0.112597 -0.340845 0.22799 0.149834 -0.29483 0.160708 0.0790273 0.360288 0.32727 -0.0179868 -0.445469 -0.0745613 0.180034 -0.0544952 -0.205509 0.0788722 -0.311409 -0.215949 -0.0431858 -0.688114 -0.264677 0.341562 -0.53681 0.364822 0.216553 -0.133377 0.319322 0.286965 -0.033033 0.533187 0.246704 0.196527 0.557674 -0.146403 -0.279914 0.698542 0.515726 0.257316 0.499789 0.172939 -0.312413 0.615071 -0.241608 0.488962 -0.0420528 -0.146768 -0.0914944 -0.0169915 0.215022 0.493383 0.0949287 0.178379 0.824097 0.446598 0.87031 0.417865 0.767945 0.692014 0.0832688 0.0527723 0.529896 0.647552 0.627055 0.543149 0.930272 0.859968 0.61472 0.930954 0.56175 0.59434 0.582812 0.638879 0.451085 0.522587 0.437272 0.516121 0.640218 0.495366 -0.144738 0.240507 0.438513 0.422459 0.434019 0.330857 0.0154689 0.538772 0.879941 0.931012 0.242695 0.968332 0.0331022 0.742544 0.579735 0.583247 0.21032 0.360289 0.250551 0.583208 0.011828 0.452301 -0.168651 0.235695 -0.097803 0.195967 0.744854 0.354612 -0.172944 0.565966 0.117118 0.0480959 0.0771901 0.979318 0.773098 0.858811 0.451689 0.96398 0.439906 0.416587 0.929668 0.803086 0.469556 0.92229 0.498702 0.781381 0.40351 0.436417 0.164392 0.597168 0.18248 0.275825 0.309278 0.31962 -0.10669 0.82681 -0.0175731 0.198766 0.479912 -0.0208096 0.774756 0.576225 0.0366325 0.941995 0.523448 0.893599 0.758909 0.972866 0.705439 0.966715 0.0750921 0.421441 0.550289 -0.240247 -0.41674 0.278712 -0.442779 0.00573941 -0.0855111 -0.0486238 -0.0905959 0.433331 0.59641 0.648423 0.106845 -0.0995867 0.591847 0.146845 0.00619052 -0.0736295 0.168468 -0.208095 -0.403217 0.285642 -0.234795 0.180819 0.137504 0.440347 0.00100408 -0.322709 0.3634 0.0519125 -0.0131733 -0.185226 0.258663 0.00931377 0.529533 0.243403 0.447462 -0.115801 -0.386921 -0.235871 -0.312842 -0.432119 -0.278552 0.0958082 -0.275463 -0.422412 -0.426924 0.0423009 -0.140109 0.0799916 0.222971 -0.15022 -0.210129 0.404976 0.413765 0.302142 0.269555 -0.157566 0.428468 0.085465 0.323956 -0.127778 0.340705 0.0232549 0.302626 0.290928 -0.30429 0.130832 -0.451503 -0.282638 0.362878 -0.271542 -0.24592 0.557938 0.280081 -0.0598869 -0.415796 0.331905 0.474327 -0.0619497 -0.106728 0.181139 0.265266 0.167054 0.0749938 0.176351 -0.0315602 -0.190524 0.471848 -0.181294 0.347585 0.291293 0.190365 0.199805 -0.216951 -0.0756878 -0.0896311 -0.121507 0.540369 -0.0438358 0.0778567 0.409757 0.154173 0.307442 0.413915 -0.102573 -0.300916 0.441309 -0.3745 0.564811 -0.222961 -0.0580062 0.171477 0.433349 0.468069 -0.414116 -0.0248481 -0.17585 -0.163068 -0.0997484 0.105184 -0.36683 -0.41433 -0.296685 0.242332 -0.227717 0.0547274 0.589332 0.113105 0.0486356 -0.0225692 -0.38062 -0.128909 0.527543 0.320315 -0.342958 -0.203189 0.374028 0.482772 -0.172234 0.366281 -0.318369 0.145 -0.089954 0.527373 0.0476331 -0.0469438 -0.040575 0.284323 0.220907 0.279137 -0.18461 0.275252 0.298381 -0.0677944 -0.0854307 0.461043 0.368834 -0.107212 -0.0456471 -0.185043 0.267814 -0.0164711 0.107431 0.233388 -0.248607 0.22189 0.481343 0.584258 0.172355 -0.23796 0.406924 0.307134 0.335183 -0.255389 0.262692 -0.186159 0.124361 -0.351515 0.516893 -0.250054 0.335011 -0.25912 0.440431 0.0335121 0.0575592 -0.250653 -0.113697 -0.157719 0.0616111 0.27142 0.103864 -0.227647 -0.280618 -0.351728 0.450054 -0.115938 0.262349 0.322523 -0.123574 -0.144946 0.602328 -0.219321 0.668922 0.371839 -0.0385267 0.357841 0.600115 0.502742 0.405242 0.535348 0.636336 0.139181 -0.354078 0.474515 0.602971 0.178648 -0.272783 -0.0372901 0.501857 0.237986 -0.312378 0.035849 0.433059 -0.196117 0.0996152 0.298679 0.121897 -0.201591 0.0500619 0.391819 0.0400364 -0.0508651 0.470169 0.00414453 0.623735 -0.268385 0.657388 0.523466 0.532239 0.383073 0.381697 0.527883 -0.120662 0.411497 0.392907 -0.157486 -0.0490751 0.44609 0.149289 -0.21122 0.0240859 0.154485 0.152454 -0.211636 0.310257 0.575107 0.40907 0.715125 0.638435 0.732648 0.362916 -0.040587 -0.0375732 0.130337 0.262422 -0.122251 0.181648 0.24246 0.699308 -0.0143951 -0.105963 0.371623 -0.186448 0.0788737 0.0818901 0.489152 0.199034 0.31662 0.215665 0.615695 0.367701 0.501423 0.0289153 -0.226282 0.537272 0.568926 0.589203 0.193811 0.52878 0.479792 0.159495 0.145011 0.693317 0.39545 0.562246 0.240226 0.567496 -0.00328309 -0.278413 0.520453 0.0589949 -0.290566 -0.0176628 0.130328 0.0608359 0.347039 -0.109488 0.521209 -0.0680827 0.389605 0.434025 -0.405107 0.156261 -0.282582 -0.382045 -0.0210001 -0.409723 0.505601 0.482019 0.412538 0.274265 -0.0612616 -0.148024 0.265824 -0.37687 -0.307412 -0.208824 0.475246 -0.0357154 -0.205104 0.277039 0.491227 -0.0345914 -0.275206 0.0903519 0.487171 -0.457759 0.459686 0.505425 -0.0451907 0.3224 0.380645 -0.0197165 -0.0531727 -0.441018 0.0749015 0.387149 -0.400638 0.0490172 0.342255 0.50086 -0.201554 -0.243046 -0.184278 0.501514 -0.174163 -0.0504788 -0.247215 -0.245072 0.381829 0.0166278 -0.492042 0.368924 0.48386 -0.247098 -0.0438262 0.473351 -0.230341 -0.103052 0.436223 0.153036 -0.351113 0.222207 -0.421855 0.0328737 0.249791 0.115053 -0.0949618 0.323126 -0.373764 -0.288596 0.283271 -0.09876 -0.05782 -0.419909 -0.107779 0.248859 0.00771825 0.12075 0.494405 -0.106255 -0.356985 0.53603 -0.237121 -0.365774 -0.250078 0.180392 -0.443646 -0.0172291 0.533615 0.525255 -0.317052 -0.262764 0.249993 -0.222528 0.28656 0.0137276 0.399223 -0.30637 -0.147558 0.534981 -0.0827333 -0.370421 -0.0811195 0.352386 -0.286302 0.311961 0.100459 0.219818 -0.0633653 0.0981426 0.604079 0.0554075 0.0825428 -0.175475 0.154809 0.302267 0.465176 0.17006 -0.275107 0.440962 0.0624418 -0.217997 0.542448 -0.322284 -0.0961251 0.189746 0.0536595 -0.335641 0.232962 0.255321 0.555578 0.500233 0.253642 -0.160563 0.213572 0.341019 0.532 -0.306235 -0.07134 -0.167965 0.15682 -0.10788 0.265997 0.608728 0.082347 -0.212929 0.281818 -0.0845173 0.325893 0.374819 -0.274908 -0.233873 0.528232 0.643117 -0.190754 -0.200913 0.179338 0.213014 -0.187068 -0.235208 -0.182432 -0.285627 0.614127 0.4252 -0.0850688 0.186041 0.106948 -0.207337 0.229183 0.388144 -0.023354 -0.262378 0.634252 0.59313 -0.293649 0.0695585 -0.2639 0.337953 0.344717 0.414654 0.0721992 0.430239 0.539079 -0.0432565 0.424497 -0.300694 0.107222 -0.0430783 0.261938 0.158346 -0.0447928 0.314367 0.222376 -0.0634798 0.100501 0.484707 0.455211 -0.45844 -0.379992 0.0327034 0.273388 -0.093756 0.0745717 0.207843 -0.162822 0.142323 -0.350119 -0.0480641 -0.158548 0.354214 -0.272956 0.262565 0.133923 -0.400903 -0.434193 -0.082858 -0.326219 0.0491467 0.236269 0.304039 -0.313498 -0.329219 0.0902284 0.386895 0.0674922 -0.334366 0.353843 0.0222059 -0.309477 0.442744 0.500867 0.396445 -0.169942 0.045328 0.0916442 0.1381 -0.353903 0.205412 -0.435762 -0.0130925 0.0550987 -0.208596 -0.264025 -0.347311 -0.133986 -0.226166 0.0524959 0.0202269 0.306138 -0.229384 -0.197766 0.487558 -0.0626748 0.408507 0.367352 0.505926 0.540423 0.19045 -0.0280834 -0.35707 0.0566425 -0.129685 0.482126 0.316316 0.382355 0.0381036 -0.0516252 -0.492177 -0.280183 -0.00870916 -0.0371616 0.26061 0.261359 0.183273 0.403009 -0.391162 0.436242 -0.0554107 0.128622 0.260718 0.224906 0.463803 0.245492 -0.328005 0.338715 0.0795837 -0.376099 0.335284 -0.277127 0.085553 0.489583 0.296303 0.461676 0.480443 0.129067 0.36509 0.03905 0.603763 0.409212 0.286678 0.11467 -0.12705 0.0390916 -0.11949 0.573623 -0.0464793 -0.00366639 0.512434 0.39671 -0.3845 0.249336 0.0835702 0.526076 -0.0435904 0.218827 0.332254 0.488314 0.292583 0.103026 -0.349663 -0.217139 0.00979361 0.354746 -0.347423 -0.117114 -0.113867 0.415439 0.3197 -0.127833 0.203575 -0.00620112 0.369155 0.480907 0.433962 -0.356836 0.454532 -0.203236 0.0398898 0.365273 0.585978 0.0648424 0.0191909 0.0941619 0.015381 0.390128 -0.267668 -0.23708 0.289532 0.433661 0.274649 0.349104 -0.372544 -0.317043 0.104731 -0.320721 -0.0306162 0.382358 0.486577 -0.323344 -0.341877 0.0967401 0.0711819 0.417086 -0.0292855 -0.0926265 0.464178 -0.18059 0.101721 -0.0911545 0.591718 0.0971167 0.384917 0.0247631 0.600107 -0.192541 -0.186338 -0.268578 -0.0335187 0.511885 0.568159 -0.35287 0.26786 -0.393598 -0.260641 -0.221384 -0.310976 0.109308 0.560471 0.577418 0.157467 -0.424854 -0.00767758 -0.417016 0.325588 0.331511 -0.147047 0.171646 -0.467895 0.338316 0.462131 -0.496092 -0.141336 0.270473 0.00442585 -0.103594 0.491867 0.188079 0.0120209 -0.130878 0.11683 -0.0115386 -0.124001 -0.262538 -0.0627615 0.00778417 -0.171293 -0.0480263 0.370049 -0.276994 -0.0967918 0.00440039 -0.135679 0.460088 0.212284 -0.253496 0.416014 -0.364811 0.424542 0.387389 0.374153 0.352888 0.50125 -0.161752 0.312767 -0.000991026 0.0998204 0.109524 0.470963 0.509681 0.327347 -0.0485887 -0.175178 -0.372302 0.118352 0.238872 0.138403 0.524659 -0.224853 0.139396 -0.128338 0.255653 -0.308343 0.201505 0.178768 0.336063 0.400374 -0.0181795 0.342168 0.239154 -0.216834 0.185024 0.111301 -0.339782 0.396601 -0.337133 -0.19124 -0.223407 0.0346078 -0.34777 -0.327234 -0.184461 0.137979 0.0548807 0.0187345 -0.254038 -0.24459 -0.425521 -0.300613 -0.0194182 0.0961545 -0.05115 -0.369415 0.279344 -0.351878 0.293068 0.107798 0.514408 -0.235463 -0.052935 0.284776 0.0554605 -0.379283 -0.199964 0.130487 0.453726 -0.106403 0.448366 -0.24028 0.48127 -0.268441 0.0291811 -0.0397573 0.374319 0.544328 0.3543 0.461594 -0.286466 0.317214 0.571995 0.0981404 -0.089498 0.045832 0.244157 -0.351125 0.118889 -0.0545854 0.212592 0.113012 0.182681 -0.368706 -0.188487 -0.356254 -0.322168 0.0505046 0.210468 0.547457 0.352577 0.0549837 -0.296619 0.252284 0.139402 0.104908 0.495903 -0.204169 -0.0436335 0.15476 0.597258 -0.0171254 -0.187123 0.500596 0.446212 0.077266 -0.117979 0.0158919 0.119379 0.38813 0.375351 -0.254931 -0.103539 -0.0282472 -0.207879 0.135185 0.0324361 -0.108265 -0.417114 -0.369018 -0.157243 0.310269 0.0822072 -0.0743524 -0.051418 -0.358463 0.447726 -0.138127 -0.177875 -0.202773 0.412123 -0.173432 0.205776 -0.33213 -0.232102 0.0882289 0.175503 0.0792653 0.54803 -0.263737 -0.0841897 0.371129 -0.067447 0.278402 -0.208722 0.162954 -0.174499 0.221847 0.45809 -0.203006 0.264329 -0.284215 0.565744 -0.27734 0.0308531 -0.115302 -0.216972 -0.118588 0.168237 -0.00678635 0.0743238 -0.0151988 0.246126 -0.29931 0.0473123 0.457706 0.242836 -0.249669 0.0164719 0.264528 -0.110813 0.352308 0.0621877 0.239384 0.0160087 0.167798 -0.264324 0.104243 -0.262877 -0.418526 0.37434 -0.545356 -0.293216 0.43283 -0.227685 0.349055 -0.135226 0.168046 -0.15724 -0.270166 -0.173776 0.597045 0.301308 0.678507 -0.105354 -0.0415681 0.67751 0.750667 0.235453 0.169906 0.425065 0.48562 -0.0834759 -0.200086 0.0954463 0.184286 0.372082 0.215613 -0.137685 -0.317872 0.349658 -0.164867 -0.243977 -0.315467 -0.233075 -0.022519 0.457485 0.0298552 -0.471953 -0.245357 0.155296 -0.3233 -0.412759 -0.255947 -0.303649 -0.0857879 0.0700137 -0.27959 -0.15165 0.47331 0.129901 0.511814 0.261842 0.365396 -0.286465 -0.164458 0.130574 -0.236678 0.6723 0.530108 -0.113281 0.463507 -0.155193 0.00624251 0.502426 -0.011266 0.52661 0.536613 0.598402 -0.336116 -0.205213 0.251111 -0.118245 0.757496 1.32484 1.04271 1.21081 0.963765 1.21808 1.53238 0.896145 0.863902 1.54307 1.67736 1.67577 1.72577 0.885113 1.24087 1.80413 0.906088 1.14125 1.09413 1.73895 1.39488 1.59223 1.65923 1.73941 1.5258 1.643 1.86997 1.64126 1.94521 1.54965 2.01259 1.30213 1.50553 1.49039 1.92509 1.82006 2.06879 1.82249 2.05888 1.20896 1.59877 1.97129 1.08263 1.54281 1.03832 1.48027 1.45152 1.05174 1.81994 1.76318 2.07787 1.37148 1.59562 1.98167 1.34921 1.22504 1.65982 1.17557 1.81839 1.56973 1.72816 1.77721 1.82764 2.11962 1.21037 1.70891 1.98726 2.26036 1.5271 1.97279 1.35714 2.04228 1.85389 1.42559 1.57553 1.92562 1.88155 2.05026 1.90351 1.59428 1.67473 1.8701 1.86199 1.11456 1.71398 2.07214 1.18946 1.27413 1.1659 1.94144 1.77847 1.77258 1.61389 1.49079 1.79848 1.65698 2.04577 1.51881 1.64403 1.27172 -0.503588 0.0512004 0.656015 0.392918 0.60188 0.0600117 -0.0508576 0.0892835 -0.498507 -0.46122 0.23869 -0.0224759 -0.0348696 -0.219553 -0.344016 -0.529977 0.00697219 0.126813 -0.166937 -0.119528 -0.475049 -0.740339 -0.555506 -0.835545 0.259645 -0.412763 0.529231 0.516274 0.548583 0.258632 1.13627 0.855571 1.0325 0.96007 0.419376 0.810699 1.37423 0.917472 0.636214 0.648757 1.2255 1.58789 1.3021 1.11526 1.23899 0.981768 0.718248 1.06944 0.976004 1.5019 0.30194 1.06 0.181081 0.621198 0.405738 0.277956 1.10058 1.15701 0.902802 0.47112 0.356291 0.830286 1.11678 1.14809 0.290377 0.0342909 0.48565 0.272894 0.717601 0.671712 0.828078 0.695764 1.28384 1.83498 1.8136 1.30783 1.87895 2.187 2.2466 2.40319 2.15157 2.39561 2.1017 2.19626 1.67175 2.06434 1.95736 1.40923 1.80191 1.62796 1.80792 2.02343 1.43055 1.73841 1.98532 1.68691 1.84929 1.51874 1.85153 2.19047 0.8443 1.13292 0.24898 0.189067 1.03712 0.924585 0.377334 0.511078 0.696169 0.975906 0.268162 0.297639 0.894448 1.0994 1.38751 0.595435 1.2905 1.38132 1.21378 1.26037 1.26408 0.944041 1.19734 1.41425 1.50938 1.01826 1.14325 1.18288 1.39508 1.80242 1.34131 2.14324 1.87743 1.46262 2.09095 1.62669 1.95574 1.1321 1.64287 1.31106 1.71457 1.6744 1.48807 1.46791 1.59825 1.41995 1.60882 1.37117 1.38761 1.23517 1.23298 2.06234 1.77061 1.84162 1.99536 1.51074 2.07522 2.04 1.41848 2.1768 1.44133 1.37491 1.8478 1.91587 1.53805 1.84034 1.60772 1.59916 2.02339 2.29667 1.93595 1.87064 2.14134 1.49863 1.4018 1.7997 1.86989 1.9722 1.97136 2.06287 2.02748 1.99666 2.07466 1.55205 1.74924 1.71643 1.65049 2.27059 2.17115 1.71898 2.04735 1.35145 1.81102 1.74969 2.13113 2.1313 1.27304 1.24902 1.11496 1.83451 -0.37195 0.279288 -0.0506836 0.43171 0.461164 0.0299539 -0.0907234 0.0968029 -0.229419 -0.188868 0.0955093 -0.283498 -0.291315 -0.0913587 -0.0139947 0.0359404 0.20676 0.29798 -0.0194069 0.0797321 -0.285536 -0.237057 0.195735 0.316181 0.315005 0.0904259 0.224393 0.452479 0.181943 0.294173 0.255597 0.256278 0.0126999 0.614596 0.0535997 -0.174407 -0.0270153 0.336356 0.283788 0.125598 0.522479 -0.238943 0.223726 -0.362616 0.10131 -0.337476 0.140425 -0.253884 0.392564 0.526214 0.264475 0.555952 -0.248995 -0.140917 0.285072 0.454346 0.351717 -0.115742 0.222961 -0.142139 0.499494 -0.155499 0.498497 -0.0932599 -0.137785 -0.0191236 0.132181 0.249781 -0.271484 -0.131717 -0.180561 -0.29461 0.0765657 0.498781 -0.175611 -0.358729 -0.381248 0.381953 -0.189152 0.446708 0.36041 0.487816 0.357119 0.436099 -0.353848 -0.0145956 0.238132 0.357107 0.286824 -0.0675595 -0.29455 0.222028 0.214111 0.603569 0.50075 0.438275 -0.0483364 0.0567215 0.116509 0.106648 1.0163 1.03084 0.890011 0.513186 0.950668 1.12636 0.575484 0.995657 0.918841 0.781475 0.82211 0.657859 0.653347 0.636717 0.586164 0.811683 1.17962 0.342556 0.724403 0.918836 0.755622 0.853993 0.590787 1.38998 0.897405 0.533235 1.29919 1.29513 1.03199 0.823817 0.836289 0.822005 0.65094 0.51311 1.08732 1.33046 1.3221 1.37105 0.997651 0.97442 0.88599 0.605344 0.448612 1.35024 1.04062 0.767837 0.883211 0.908564 0.857847 1.32949 0.619043 1.3179 0.927413 0.858211 1.38394 1.44178 1.03643 1.27122 1.31899 0.626493 0.629031 0.668892 0.959562 0.792613 0.703881 0.606004 0.697019 0.636924 1.54943 1.28894 1.21199 1.07465 1.55066 1.27985 1.03806 1.19966 0.637336 1.52875 0.661134 1.00778 1.38144 0.788173 0.872318 0.805389 1.14903 0.692556 0.645551 0.549716 1.31406 1.35875 0.575697 1.38068 1.45538 0.960276 0.585422 0.572005 0.952074 0.666295 0.564735 0.922846 0.430343 0.2735 -0.533342 0.379271 -0.0791546 -0.0941034 -0.0549219 -0.0261359 -0.165232 0.0959276 -0.571164 -0.331627 -0.639027 -0.218081 0.0187873 0.024223 -0.0451417 0.118378 0.0114179 -0.245777 -0.0148937 0.106384 -0.367427 -0.0746672 -0.421047 -0.235252 0.0920664 0.125296 0.0383398 0.244164 -0.362353 -0.00859391 0.108931 -0.278961 0.0147979 -0.363872 0.255025 -0.404393 0.25674 -0.269627 0.309806 0.335371 0.119931 0.389576 -0.178066 -0.292286 -0.101042 0.309953 0.274011 -0.541307 -0.431405 -0.173904 0.158869 -0.139562 0.413292 0.345441 0.288304 0.117896 0.151592 -0.061024 -0.0746518 0.282059 0.364035 0.448432 0.367433 -0.225057 -0.532146 0.0338342 -0.189823 0.166016 0.225847 -0.424314 0.0492917 -0.197925 0.461698 0.289614 -0.0359048 -0.141339 0.128743 -0.1834 -0.12209 0.270613 0.199175 0.584377 -0.350398 0.145209 0.458708 0.440347 -0.269333 0.0133958 -0.222862 0.137752 -0.225128 -0.314969 0.134552 -0.25719 0.0383783 0.189116 0.371195 0.436959 0.0113465 0.225195 -0.342755 0.545226 0.535256 0.570343 0.323906 -0.070903 -0.11904 -0.164234 0.161126 0.170022 0.512272 -0.24933 0.0899795 0.53176 0.213511 -0.0750395 0.273831 0.333035 0.335872 0.528315 -0.0701363 -0.436523 -0.364717 -0.499885 -0.259943 0.160331 0.160674 -0.423219 0.0870028 -0.390856 0.296578 0.198218 -0.369787 0.226796 0.179242 0.305264 0.523878 0.390258 0.499803 -0.00538606 -0.155715 0.272623 -0.0319621 0.237409 0.0954966 0.562707 0.480625 -0.225839 0.278891 0.25389 -0.278572 -0.332333 0.269211 -0.142198 -0.317843 -0.467361 -0.48586 0.340779 -0.347622 0.14728 -0.493393 0.403151 -0.161232 -0.402327 0.118772 0.452042 0.342223 0.0371235 0.187883 0.153638 0.356596 0.431521 -0.175774 -0.252845 0.0984121 0.362626 -0.188112 0.137012 -0.330381 -0.413813 -0.111991 -0.0682402 -0.199353 -0.290618 0.344967 0.0188441 -0.240286 0.400919 -0.153643 -0.127834 0.0208404 -0.129866 -0.180083 0.352566 -0.0949223 0.320556 0.143376 -0.363499 0.591471 0.657039 1.13177 0.431817 0.500885 0.353855 0.758658 1.24346 1.64647 1.25965 1.28122 0.956175 1.37904 1.48909 1.05164 1.4442 1.73857 1.08963 1.1326 0.910622 1.6885 1.25546 0.770889 0.89924 1.20271 0.928866 0.315785 0.340219 0.510628 1.03753 0.6525 0.904516 0.33879 0.315229 0.897525 0.630504 0.450262 0.225398 0.433506 0.380104 0.786829 0.81452 0.37086 0.288909 0.2894 0.629642 0.279111 0.435622 1.47286 0.84984 0.869749 1.55327 1.10168 0.839983 0.352581 0.712782 0.190698 0.663566 0.129525 0.735627 1.07534 0.97748 1.18399 0.77628 1.8977 1.30794 1.58672 1.29477 1.39084 0.93391 1.37259 0.946259 1.1548 0.430994 0.637408 0.345857 -0.210399 0.591925 0.437795 -0.254496 0.003777 -0.196762 1.22085 0.344148 1.15687 0.959987 1.46971 1.47195 0.680762 0.548912 1.07335 1.3491 1.07216 0.538593 0.572286 1.22125 1.26526 1.45854 0.69372 0.755777 0.537234 0.5489 0.265983 0.572985 -0.0236119 0.103845 0.17227 0.0765578 0.036504 -0.0830925 0.109275 0.218411 -0.241282 -0.0380565 0.0882558 0.305888 0.261578 -0.0224646 0.107793 0.390088 -0.0185466 -0.190336 0.339081 -0.306463 -0.0932755 0.332792 0.361669 -0.466977 0.140089 -0.499452 -0.24357 0.112057 -0.453166 0.41598 0.120995 -0.219026 -0.132664 0.54541 0.123803 0.0501913 -0.349297 0.426966 0.42916 -0.332499 -0.367299 -0.0993203 0.383964 0.369782 0.269147 -0.0550099 0.18056 -0.251391 0.214686 0.040846 -0.0281895 -0.229467 0.0602839 -0.013775 -0.10367 -0.232113 0.0601075 0.263603 -0.476374 0.182151 0.275784 0.165592 0.528591 -0.402159 0.22162 0.104392 0.194084 0.320443 0.016971 0.0481376 0.297572 -0.0639009 0.158345 -0.020978 -0.392082 -0.109006 0.315109 0.207564 0.0331097 0.0336907 -0.29815 -0.524516 0.28687 0.257705 -0.104838 -0.335454 -0.524822 -0.538847 -0.531107 -0.461532 0.179605 0.225127 0.135329 0.0983336 0.188571 -0.284163 -0.122639 -0.0122249 -0.355954 0.148859 0.297526 0.315848 0.457022 -0.102252 -0.265845 0.501835 0.223465 0.558986 0.216113 -0.208956 0.123359 0.502105 -0.15161 -0.0162066 0.332024 0.380163 0.285353 0.477328 0.521768 0.399442 -0.333616 0.344997 0.275346 0.496279 0.126445 0.164411 -0.0910366 0.396358 0.540347 -0.0578313 -0.0695016 0.220464 -0.360235 -0.224689 0.506594 -0.234267 -0.334921 0.119566 -0.290146 0.273214 0.305531 0.236293 0.189199 0.567181 -0.367668 -0.0759848 0.348965 0.319927 -0.197522 0.262713 0.11536 -0.139431 0.000772485 -0.227397 -0.267326 0.51314 0.317272 0.031609 0.300709 0.258886 0.376708 -0.36322 -0.116594 0.419709 -0.183234 -0.204412 0.588209 -0.112944 0.331674 -0.278225 0.580884 0.0436106 0.354632 0.158942 -0.000771773 0.386256 0.483187 -0.249985 0.113835 -0.306506 0.421519 -0.371851 -0.0460307 -0.180121 -0.207207 0.0838041 -0.266225 0.522034 0.530263 0.4445 0.198414 0.31993 0.490438 0.485011 0.135918 -0.294155 -0.357191 0.0960675 0.0117714 0.418472 0.278395 0.0093699 -0.0933061 0.070919 0.599532 0.309669 -0.200428 0.430855 0.329258 0.238507 0.434174 0.1382 0.287793 -0.176391 0.394891 0.489229 0.322468 -0.461226 0.405925 0.238109 0.375205 0.00423839 -0.0303355 0.274515 -0.110254 0.501265 0.387697 -0.0153029 0.0750278 -0.181424 -0.180196 -0.272062 0.234065 0.107197 0.190097 0.199913 -0.184641 0.438974 0.100184 -0.339584 0.194888 0.0469267 0.328339 -0.0229234 0.339369 0.17356 -0.117189 0.0974904 0.0975923 -0.276735 -0.22727 -0.0462277 0.264925 0.265493 -0.238961 -0.360646 0.227315 0.587991 0.0944107 -0.228727 -0.156402 0.322616 -0.0708962 0.507865 -0.11528 0.542078 0.213936 0.149354 0.418733 0.648408 0.0855951 -0.100572 -0.0380513 -0.27815 0.185941 -0.344485 0.289304 0.494956 0.17416 -0.181242 0.553688 0.284814 0.07804 0.164077 -0.106045 0.20549 0.156773 0.500553 0.141679 -0.418655 -0.388234 0.38821 0.298865 -0.095493 0.281024 -0.448141 -0.203574 -0.259796 0.140376 0.684342 0.0355468 0.737447 0.0546663 0.309838 0.67748 0.497863 0.185937 0.24185 0.256904 0.665895 0.229656 0.0870088 0.139758 -0.334088 -0.392099 -0.520278 0.440532 0.348275 0.851452 0.361345 0.914404 0.150649 0.427991 0.694072 0.597715 0.23927 0.869274 0.974155 0.536117 0.279307 0.860063 0.618853 1.07617 1.08282 1.21393 1.12082 0.924415 0.663113 0.396999 0.250047 0.29026 -0.0464219 0.658791 -0.0533636 0.0476996 0.701515 -0.130049 -0.102883 0.44278 -0.181963 0.298447 0.207395 -0.150899 0.672521 -0.0161975 0.437189 0.816138 0.528106 -0.108457 -0.0581674 0.307634 0.514744 0.302844 0.20307 0.482645 0.305674 0.154249 0.195033 -0.217796 0.552129 0.54098 0.250407 0.751815 0.356044 0.318007 -0.0592727 0.031868 0.188789 -0.210226 -0.390656 0.105406 0.292351 0.150951 0.29463 0.312145 0.215698 -0.171754 0.303561 -0.147639 0.00769125 0.547912 0.618568 0.0823257 0.417001 0.65762 0.233823 -0.0993696 -0.321364 0.274112 -0.00646187 -0.460717 0.0500975 0.471529 0.452713 -0.462242 -0.0361268 -0.344629 0.0284604 -0.26578 -0.0119931 0.125053 0.240269 -0.38762 0.533548 -0.280307 0.170777 -0.0309478 -0.174982 -0.183427 0.256815 0.232171 -0.31583 0.186472 -0.4398 0.321674 -0.196533 -0.312377 -0.368007 -0.0860184 -0.519107 0.208839 0.0165756 0.196961 0.289607 0.0884295 0.281213 -0.283302 0.109523 -0.364614 -0.262812 0.366267 0.12479 0.360222 0.447558 0.100383 -0.423703 0.141018 -0.354566 0.0777264 0.542544 0.51438 -0.14246 -0.248616 0.206944 -0.128913 -0.425424 -0.517068 0.149746 -0.203731 -0.00657833 0.292073 -0.396277 -0.461913 -0.15046 0.275777 0.0695908 -0.409381 -0.486323 -0.319508 -0.249404 -0.190436 -0.357189 0.461928 -0.296195 -0.34125 0.167066 -0.0931601 0.365839 0.352482 0.402147 0.338498 0.295887 -0.334573 0.506057 -0.0634828 0.0462263 -0.417952 -0.0676408 -0.238506 -0.0465286 0.486783 0.497028 -0.0507611 0.501588 -0.161526 -0.253607 0.673876 0.49981 0.389661 0.922458 0.852224 0.708061 1.06218 0.786883 0.897506 1.18415 0.408701 0.224207 0.957418 0.203132 1.08325 0.752708 0.951931 1.20994 0.712967 0.32902 0.709759 0.763948 0.802979 0.947204 1.24306 0.756914 0.909687 0.659479 0.743548 1.21971 0.873817 1.28614 0.48539 0.974079 0.818481 1.01664 0.377818 0.68899 0.675918 1.11814 0.779125 0.934906 1.06994 0.413364 0.748197 0.871114 0.93099 0.535591 0.947004 0.469938 0.649587 0.398203 0.90633 0.0933429 0.977502 0.800768 0.566077 0.613391 0.221672 0.988656 0.459681 0.69047 0.793002 0.618583 0.300367 0.424821 0.493661 0.557659 1.04114 0.987673 0.477249 0.51068 0.479792 0.243771 0.664143 0.167936 0.0931479 0.48287 0.580388 0.848198 0.787926 0.116969 0.15802 0.647805 0.203716 0.112986 0.424822 0.641704 0.600164 0.486319 0.454386 0.934423 1.03088 0.194051 0.631723 0.468141 0.924004 1.25341 1.23503 0.958303 1.0132 0.419857 0.911811 0.28999 0.368442 0.502015 0.387784 0.445313 0.0433726 0.0337352 0.352053 0.788011 0.133809 0.475576 0.756337 0.591795 0.99722 1.23603 1.36266 0.570314 0.70073 0.736948 1.3095 0.551392 0.820098 0.813421 0.918014 1.40502 0.696729 0.675469 0.953918 1.55247 0.977887 0.94495 0.767116 1.32315 1.32999 1.1887 0.749071 0.373003 1.16941 1.1083 1.18724 0.355719 0.573122 0.55875 0.55183 1.08351 0.575567 0.631857 1.49223 0.841652 0.845007 1.27201 0.83626 1.12818 0.479722 1.1494 0.743331 0.486328 1.138 1.12734 0.448238 0.48201 0.360553 0.678861 0.329946 0.386988 0.622619 0.825962 0.451798 0.477896 0.694909 0.435768 0.698862 1.12175 0.93618 1.13474 1.15396 1.10489 1.39048 1.08438 1.37897 0.726284 0.91497 0.806619 1.42951 0.970749 1.44348 0.86172 1.0706 1.28027 0.743779 1.36954 0.679311 1.04329 1.02348 0.856731 1.32545 1.44653 1.01154 1.11354 0.226491 0.405308 0.248866 0.590644 0.196681 0.766031 0.30395 0.860253 0.388393 0.183521 0.441871 0.262483 0.409442 0.780532 0.493424 0.275132 0.175984 0.449542 0.624271 0.820764 0.24154 0.849084 0.651509 0.378182 0.298209 0.064535 0.63468 0.0272386 0.891505 0.488002 -0.131759 -0.0971537 0.620714 -0.0418557 0.309601 0.686633 0.681645 0.598328 0.586416 0.0134778 0.766286 -0.0501784 0.267782 0.12205 0.770915 0.730845 0.415308 0.882229 1.01835 0.854275 0.519506 0.236221 0.762789 0.248455 0.7182 1.13316 0.286713 0.290013 0.0913437 0.230749 0.860964 0.16311 0.299637 0.674751 0.265396 0.815782 0.585778 0.132128 0.56918 0.254665 0.147061 0.325944 0.192361 0.41344 0.503028 0.926672 0.10188 0.771006 0.685415 0.0999104 0.71748 0.271451 0.478305 0.426847 0.467926 1.04254 0.394858 0.686483 0.299977 0.471108 0.957369 1.13503 0.643491 1.24852 0.856181 0.969004 1.10975 0.414693 0.173366 -0.204137 -0.105438 -0.47282 0.439366 0.298817 0.155606 -0.00986052 0.224319 0.259026 -0.211689 -0.0380286 0.40753 0.416248 -0.0406076 -0.460189 -0.622111 0.145151 0.212129 -0.467056 -0.36071 -0.627812 -0.0783463 -0.588433 0.302582 0.267808 -0.670617 -0.207225 -0.134851 0.115537 -0.1359 -0.398613 -0.492646 0.266132 -0.27297 -0.5987 0.102089 0.325694 -0.121795 -0.220471 0.0420962 0.0545488 0.112519 -0.179965 -0.0899626 -0.287354 0.0228409 0.00127276 0.460114 -0.096952 0.129239 -0.242006 -0.0298742 -0.238679 -0.0930578 -0.00663443 -0.224155 -0.0105204 -0.38318 0.451319 -0.0728697 0.245297 -0.156072 0.180841 0.259968 0.201665 0.115017 -0.18981 -0.0518446 0.468133 0.0786223 -0.497762 -0.00286509 -0.331388 -0.265114 0.288494 -0.223023 0.196035 -0.284697 -0.240745 -0.38079 -0.549506 0.149 0.186825 -0.246248 -0.454864 -0.330162 0.0487384 0.0417331 -0.284201 -0.0435526 -0.574499 -0.599278 0.185916 -0.0438095 0.0253649 -0.245403 -0.428254 -0.650349 0.241842 1.07385 1.43469 1.5233 1.39288 1.17381 0.620772 0.752781 0.259196 -0.391004 -0.435792 0.418997 0.146985 0.064193 0.28727 0.189605 0.59858 0.618808 0.508875 0.359155 0.378632 0.867571 0.868848 -0.258823 0.297542 -0.148411 0.14608 -0.627471 -1.11412 -1.27481 -0.884894 -0.662706 -1.21393 -1.29325 -0.571873 -1.35507 -0.572021 -1.18812 -0.446617 -0.803356 -0.76906 0.425102 0.264948 0.518606 1.00183 0.59134 1.11944 1.28851 1.36589 1.45284 1.1329 1.05648 1.03878 0.745541 1.33097 0.79516 1.26297 1.14436 0.308554 0.44053 1.43204 1.12489 1.51161 1.08595 1.39077 1.69591 1.45451 0.897465 1.17386 0.555037 0.932405 -0.000119663 0.196721 0.403048 0.476009 0.0900215 0.37016 -0.00261176 0.569639 0.0261105 0.0453417 0.842973 1.29735 2.0369 1.97056 2.26944 1.80963 2.05345 1.97308 1.42429 1.80694 2.29437 2.55284 2.63773 1.98912 2.61727 2.49472 2.44581 2.09699 2.3399 2.95002 -0.361815 0.102691 -0.0949884 0.150793 -0.299045 0.187997 -0.259089 -0.120558 -0.0412649 -0.157837 -0.029844 0.281772 0.554147 -0.286565 -0.0241896 0.353356 0.0996587 -0.253583 0.0794822 0.483347 0.541312 -0.250403 0.362274 0.161054 -0.293154 -0.0675142 0.611302 0.280996 0.154111 -0.0158215 0.313331 0.218723 0.530883 0.617691 -0.285738 0.546302 0.0874514 -0.235467 -0.26211 0.371034 -0.0407626 0.0875702 0.0660613 -0.0356323 0.224652 0.414692 -0.326884 -0.339788 0.480383 0.0533969 0.457264 0.323468 0.0880213 0.141325 -0.199503 0.141478 0.415814 -0.242968 -0.21897 -0.063198 0.148195 0.438699 0.510704 -0.023436 0.334675 0.54701 -0.149631 -0.198473 -0.288408 -0.0199412 0.615495 0.0654302 0.445456 -0.0254804 0.303224 -0.0123605 -0.306546 0.31754 -0.0258995 0.530007 -0.252768 -0.190294 0.220067 0.198463 0.299744 0.386836 -0.300193 0.0945287 0.524107 -0.145839 0.40618 0.0057825 0.660428 0.272088 0.348841 0.346708 0.135376 0.498725 0.443159 0.156573 -0.38774 0.145594 0.292804 0.32142 0.37893 -0.109494 -0.400475 0.38103 -0.432333 -0.0477895 0.315228 -0.35201 0.102707 -0.137779 0.227021 -0.210183 -0.383417 0.247118 0.172139 0.447056 0.369758 -0.122238 -0.232966 0.348179 0.426091 0.366055 -0.0823566 -0.138689 0.158779 -0.31318 0.364205 0.299335 0.441969 0.262389 0.291281 0.415053 -0.208423 0.468356 0.348888 -0.183453 -0.136387 0.106296 -0.0682454 0.440101 0.369475 0.481056 0.52401 0.372813 0.0793113 0.10797 0.187115 -0.11018 0.378503 0.376736 -0.346517 0.309815 0.31069 0.173552 -0.116197 0.125315 0.508547 -0.23438 -0.111384 0.340892 0.360107 -0.499505 0.0710272 -0.519486 0.372858 -0.145818 -0.183272 -0.304781 0.4232 0.100774 0.446483 0.172686 -0.0493442 0.40863 -0.0165607 0.514715 -0.00192589 -0.3032 -0.0597813 -0.0364885 -0.375363 0.142464 -0.236863 0.398293 -0.32263 -0.0430109 -0.115107 -0.343517 0.173708 0.227016 -0.487084 0.127101 0.293106 0.0930153 0.107106 0.117969 0.582232 0.483058 0.363988 0.369231 -0.0577285 0.218464 -0.0501058 0.317449 0.040663 0.347115 0.269963 0.490758 0.516682 -0.350514 -0.11764 0.584498 0.220969 0.14468 0.474719 0.506041 -0.291436 -0.0774692 -0.274979 0.465041 -0.267206 -0.240425 0.100807 0.561776 0.405533 -0.216587 0.23733 0.345263 -0.386668 -0.0254767 0.109589 -0.0333059 0.612131 0.456754 -0.315136 0.0564076 0.196769 0.320257 -0.0851312 0.0711237 0.345674 0.182097 0.0439314 -0.0491455 -0.29588 -0.100186 -0.163092 -0.199631 0.228039 -0.0308048 -0.326116 0.350812 0.120137 0.177826 0.320204 -0.0851608 0.326838 -0.0634346 -0.358413 0.355862 0.334119 0.149863 -0.297513 0.310779 -0.0393688 -0.243332 -0.265477 0.545966 0.476066 0.0482332 0.0303469 0.206163 0.623026 0.449122 0.532128 -0.299146 -0.273241 -0.25225 -0.1153 0.316144 0.0674063 -0.0969211 0.00584152 0.535933 0.43342 -0.320309 -0.19123 0.1377 -0.0140098 -0.186718 -0.166768 -0.339849 0.307593 -0.0778244 0.356383 -0.340211 0.409998 0.82504 0.948239 0.278435 0.281469 0.364019 0.923954 0.319756 0.147339 0.73606 0.2949 0.225334 0.723515 0.420234 0.707053 0.0789203 0.712383 0.182639 0.145786 0.571542 0.310979 0.337663 0.0729433 0.645473 0.457055 0.254939 0.700483 0.197502 0.60854 0.443191 0.23128 0.0543737 0.294615 0.209888 0.391199 0.628103 0.626224 0.28546 0.958819 0.86529 0.275724 0.472962 0.338073 0.195752 1.05732 0.256129 0.622886 1.04926 0.769419 0.900922 0.732063 1.11762 1.24424 0.851016 0.700126 0.712292 1.01041 0.367931 0.795629 0.612767 0.782598 0.0922023 0.809354 0.251234 0.57475 0.368246 1.14819 0.37088 0.809575 1.12109 0.0403573 0.741046 0.181069 0.147145 0.727823 0.130502 0.327214 0.115135 0.98609 0.819978 0.847139 0.528262 0.842535 0.920162 1.16868 0.346255 0.439576 1.13211 0.70635 0.30531 0.836184 0.563466 0.514369 0.664315 0.812733 0.94617 0.991681 0.839603 1.30236 0.698563 -0.0701817 0.415131 0.559526 0.227683 -0.317651 0.337594 0.402553 0.0188075 0.466535 0.366393 -0.191608 0.170982 -0.275559 0.394064 -0.183536 -0.314655 0.540282 0.0702653 -0.346425 0.0358502 0.149728 0.220886 0.332282 0.369788 -0.408872 -0.130149 0.0245952 0.189138 0.359459 -0.113446 0.513075 -0.200828 -0.197979 0.459612 0.386846 -0.149353 0.202322 0.22741 0.306911 0.0629085 -0.000194805 0.530015 0.684407 0.190333 0.385072 -0.0561338 0.309095 0.356111 0.407369 0.343629 -0.206401 0.011315 0.00729501 0.546153 -0.235043 -0.00651895 -0.180787 0.245384 0.65924 0.603481 0.58742 0.541206 -0.215709 -0.250035 0.34205 0.526641 -0.043233 -0.119019 0.0705725 0.580103 0.237125 0.371749 0.432653 0.231455 -0.0948697 0.144715 0.513287 0.528646 -0.19031 0.256061 0.205444 -0.0786689 0.542229 0.501267 -0.275969 -0.356661 -0.194153 -0.121832 0.20417 -0.2152 -0.189421 0.109323 -0.339317 -0.092418 0.125155 0.270947 -0.320115 0.373783 0.435524 0.0766969 0.622143 0.372355 0.125315 0.368489 -0.149229 0.267118 0.788629 0.695238 0.0500315 -0.180618 0.14932 0.532641 0.0680359 0.0851052 0.45472 0.194705 0.159283 0.689207 0.46252 0.744377 -0.0890488 0.73982 0.253259 -0.101772 -0.150006 -0.304986 0.516684 0.0239399 0.589837 0.450598 0.491526 0.233869 -0.0590104 -0.134785 -0.0708207 0.0891674 0.469893 -0.0618354 0.167939 0.940213 0.168142 0.587718 0.807884 0.530743 1.02178 0.519752 0.998619 0.371654 0.434345 0.709495 0.291108 0.429544 0.423044 0.658522 0.344732 0.524514 0.689954 0.264119 -0.0792916 0.540121 -0.0342011 0.801261 0.241566 0.287466 0.148045 0.49532 0.764855 0.865114 0.687576 0.960056 0.717854 0.771017 0.29599 0.324118 0.235957 0.364663 0.960261 0.199121 0.736274 0.290242 0.81964 0.976245 0.665292 0.283321 0.599097 0.0749055 0.892813 0.365395 0.507845 0.992707 1.05131 0.536256 0.857511 0.311259 0.788601 0.868613 0.742491 0.479179 0.770366 0.38693 -0.248599 -0.195796 0.507122 0.208344 0.305223 -0.24903 0.582005 0.189021 -0.134869 0.196784 0.342865 0.54149 0.0115452 -0.135068 -0.324194 0.556147 -0.0896768 0.524787 -0.124871 0.254297 0.342602 -0.212484 -0.343782 0.075847 -0.0244319 0.370444 -0.127509 0.572173 -0.277588 0.402329 -0.248431 -0.107709 0.625853 0.611821 0.433635 0.247285 -0.323237 0.348633 -0.2248 -0.108476 -0.0987711 0.482877 -0.182453 0.309326 -0.243745 -0.11214 0.269224 0.0334551 -0.247162 0.477879 0.619851 0.465234 0.628433 0.635909 -0.123022 -0.054403 0.357336 0.121997 -0.106179 0.427722 -0.109776 -0.0252338 0.66358 -0.159123 -0.08394 0.43263 0.442457 -0.0553134 0.0844469 0.49606 0.0956454 0.287612 0.305944 0.239451 -0.0697051 0.358593 0.437152 0.493015 0.691102 0.502285 0.271193 0.607129 0.259019 0.20988 0.534276 0.455858 0.455698 0.201459 -0.113669 -0.325891 -0.0408248 0.0899978 -0.0520064 -0.0977147 0.188147 0.130978 0.616294 -0.0846415 0.359324 0.0186227 -0.306903 -0.243292 -0.415877 0.288061 0.297445 -0.167546 -0.0392803 0.0229511 -0.335156 -0.0103849 -0.0898625 0.281916 -0.0282442 0.501733 -0.0770201 -0.0729021 0.343711 0.685829 0.297075 0.43488 0.493086 0.52263 -0.179158 -0.176942 -0.106247 0.470498 0.347498 -0.197806 -0.381348 0.00875442 0.12307 -0.290444 0.160366 0.125631 0.46841 -0.0807604 0.564969 -0.0123695 0.476521 0.567667 0.341189 0.727668 0.230669 0.638801 0.543682 0.329243 0.727791 0.0958092 0.206006 0.368135 -0.304905 -0.0473284 0.0445844 -0.180969 0.195956 0.371464 -0.24679 -0.0419516 0.616108 -0.156892 0.396996 0.141197 0.0166776 0.0653339 -0.146723 -0.0428067 0.332215 0.541955 -0.0849072 -0.0723552 0.22815 -0.497851 0.0820636 -0.154121 0.529411 -0.155105 0.310725 0.405108 0.117032 -0.20592 0.0388018 0.228133 0.279702 -0.272112 0.630897 -0.17469 0.363543 -0.321489 0.0463551 0.300257 -0.133719 -0.139526 -0.156625 0.198833 0.375173 0.0827372 0.511802 0.0541429 -0.0114559 -0.0255135 0.536784 -0.245026 0.0300899 -0.0159929 -0.0197411 -0.0776653 0.19965 -0.268982 -0.250358 -0.297452 -0.116688 0.17628 0.299224 0.442262 0.209938 0.315946 0.713089 0.0779345 0.493692 0.230395 -0.160729 -0.197782 0.532707 0.149545 0.468071 0.241814 0.549376 0.327156 0.645327 -0.112967 0.675982 0.54695 -0.0109983 0.01267 -0.184587 0.257305 0.245844 0.340133 0.315249 0.317449 0.333986 0.515662 -0.174463 0.0149652 0.365192 0.401515 0.68711 0.349277 -0.261071 0.45534 -0.17069 -0.150779 0.555009 0.684773 0.338433 0.336199 0.243897 0.205051 -0.000726912 0.218856 0.445226 -0.0155054 0.0641376 0.726895 0.276589 0.192032 0.319815 -0.151504 -0.132523 -0.0546226 0.455552 0.512476 -0.235671 0.59038 -0.158073 0.426224 0.303923 -0.154292 0.106 0.369545 0.599995 0.245327 0.508119 0.445673 0.225689 0.145892 0.1145 -0.206895 0.682895 0.39376 0.260551 0.344769 0.589014 0.577762 0.332404 0.145474 0.0292092 -0.11917 0.233333 0.147254 -0.102276 -0.22964 -0.26175 -0.0726407 -0.355609 -0.138415 -0.36535 0.195711 -0.0276737 -0.00780476 -0.189579 -0.172402 0.525303 -0.366636 0.611068 0.0513625 0.0637073 -0.0462438 0.0272511 -0.0631259 0.510908 0.528002 0.519089 0.370141 0.393544 0.134356 -0.201131 -0.2911 0.239861 0.245742 0.0545284 -0.423519 0.509418 0.304213 0.0751631 -0.347633 -0.257675 0.22679 0.342892 0.113863 0.580594 0.543464 0.307373 0.476908 0.566689 0.309567 -0.102026 -0.00283571 -0.373682 0.355052 0.291932 -0.474224 0.223577 0.226233 0.358262 0.109931 -0.154546 -0.405526 0.26704 -0.397062 0.308394 -0.205954 -0.318073 0.315346 -0.371303 0.197607 0.367634 -0.339931 -0.320863 0.0280259 0.11232 -0.329971 0.0362758 -0.11217 -0.390908 -0.00821983 -0.410622 -0.0735501 0.397519 -0.37512 -0.318462 0.172234 -0.335658 0.47598 -0.0485759 0.497519 0.0209523 0.257775 -0.462084 -0.237074 0.390817 0.440838 0.179574 -0.389857 0.323343 0.314449 0.260092 0.154158 0.454577 0.507433 -0.199798 0.147154 -0.260038 0.294678 0.486712 -0.175478 -0.234874 0.558068 0.246429 -0.334283 -0.288628 0.452068 0.387047 -0.131447 0.382246 -0.214413 -0.219889 -0.104245 0.53596 -0.141318 0.212779 0.425661 -0.19501 -0.143699 0.504773 0.560959 -0.401454 0.241477 0.173008 0.498969 0.194746 0.387954 0.0757707 0.382123 0.143637 0.0150566 -0.341525 0.343805 0.00893092 0.327978 0.440217 0.124883 0.173366 0.187971 0.338733 -0.0491884 0.382214 0.57599 0.299418 0.357526 -0.108867 -0.0404978 0.217217 0.106462 0.21529 0.129731 0.0676575 0.229764 -0.229948 -0.334267 0.136147 0.389307 0.476022 -0.363003 0.213463 0.050284 0.0801674 0.283842 -0.19906 0.497699 0.0218956 -0.351337 0.065643 -0.351886 0.288866 -0.163538 0.0111668 0.0704818 -0.189514 -0.26724 -0.125243 0.132631 0.126793 0.515206 -0.35936 -0.249027 0.0286473 0.121193 0.385455 0.245682 0.245665 0.00616116 0.136168 0.21329 0.140214 -0.186885 -0.263784 -0.309916 -0.436024 6.08675e-05 -0.414817 -0.0155156 0.0396985 0.0717481 0.0645521 -0.231235 0.332673 -0.491006 0.286521 -0.392459 -0.247328 -0.366377 0.204262 0.293505 -0.382815 0.343196 0.491213 0.0634287 -0.146176 0.325834 -0.221138 -0.414347 -0.131321 0.414513 0.336514 0.490492 -0.267391 0.53046 0.583212 -0.321468 -0.160412 -0.401937 0.189372 0.486153 0.293999 -0.229622 -0.160506 0.209667 -0.151579 0.612946 0.295579 0.046877 -0.283606 -0.0135236 -0.177811 -0.262969 -0.295271 -0.255157 0.21018 0.0248312 0.543864 0.46337 0.0018775 -0.253493 0.228661 -0.265978 -0.331925 0.352149 -0.352576 -0.346123 0.443754 -0.0190962 -0.308521 -0.0345241 -0.191389 0.364061 0.0938018 -0.0712692 -0.0969614 0.306115 -0.0343446 0.582462 -0.258697 -0.0137701 -0.192757 -0.197849 -0.0158095 -0.132827 -0.107957 0.538868 0.233528 -0.219326 0.373923 -0.306984 -0.00618107 0.0254918 -0.149298 0.0410823 -0.291829 -0.16416 0.00362949 0.498758 0.176643 0.138407 -0.0278882 0.470855 -0.0119033 0.507591 -0.162433 0.280403 0.322819 0.255935 0.196737 0.273674 0.422745 0.369289 0.461829 -0.200364 0.631538 -0.261594 -0.145901 0.381281 0.0396407 0.59061 0.247953 0.193744 -0.269817 0.40091 0.529155 -0.172457 -0.368071 -0.0350585 -0.216977 0.246232 0.578226 0.140867 0.0745542 -0.11345 0.00983603 0.305452 0.531142 0.535847 -0.291715 0.022766 0.158526 0.565301 -0.182407 -0.0289192 -0.225812 -0.135254 0.159503 -0.111281 0.411754 0.326123 -0.35509 0.108922 0.0099013 -0.127278 -0.0126103 -0.0162743 0.179484 0.112617 0.404396 0.359121 -0.29781 0.326319 -0.0975882 0.260708 -0.340961 0.258541 -0.187654 -0.496705 0.0527621 -0.0645902 -0.0234002 -0.337553 -0.0918634 0.174583 0.00906356 0.0430689 0.446804 -0.453505 0.403128 0.37787 0.347907 0.391307 -0.152963 -0.278741 -0.362061 0.211431 0.0787807 0.1462 -0.327042 -0.127135 -0.102831 -0.199867 -0.430145 0.109372 0.312625 -0.427218 -0.212781 -0.297607 -0.378721 0.364505 0.102672 0.0592006 -0.495564 -0.408317 -0.107201 0.16121 0.871756 0.451738 0.848399 0.73287 0.347389 0.729552 0.697237 0.690713 1.01044 0.844535 0.349805 0.476745 0.336127 0.409719 0.663251 0.586919 0.637662 0.788543 0.261597 0.499421 0.956082 0.558284 0.762291 1.12444 0.54611 0.496931 0.880979 0.655483 0.722536 1.26422 1.28263 1.44194 0.53818 0.949198 0.914614 0.590973 0.341643 1.31333 1.00717 1.05672 0.816938 1.05374 1.23416 0.941438 1.20862 0.711986 0.359156 0.646115 0.327808 0.421925 0.959241 1.02451 0.746896 0.424674 0.872374 0.914124 0.492009 1.23811 1.02775 0.694439 0.949283 0.808453 0.691574 1.10097 0.45932 1.32907 0.487543 0.55091 1.39156 1.14713 1.19793 0.845118 0.813535 1.10298 0.445197 0.747987 0.539185 0.524574 1.11719 0.564163 0.69993 0.81446 1.27247 1.04828 0.780723 0.720435 0.5407 0.961616 0.673457 1.30729 0.494999 0.468558 0.993899 0.907431 1.3278 1.09101 0.948423 1.41705 1.18274 0.807519 0.0802272 0.019715 0.330171 0.546836 -0.230313 0.396109 -0.0930138 -0.0713007 0.527354 -0.363445 0.113706 -0.194976 0.063942 0.0449708 0.521758 0.537798 0.454946 -0.260326 0.172223 -0.221226 -0.287566 0.236959 -0.192635 0.21893 -0.36701 0.596046 -0.224421 -0.00299611 0.480861 0.482173 0.349497 0.00551902 -0.0494501 0.0687224 -0.0498642 0.119869 -0.112796 0.279345 0.450925 -0.192676 0.312534 -0.0272926 0.0237987 -0.25113 0.393242 -0.0918925 0.638247 0.200192 -0.0390065 0.139058 0.290593 0.00874792 -0.332779 0.415827 0.518756 -0.340569 0.35537 -0.340152 0.0235271 0.166935 0.479447 -0.312248 0.486041 -0.267367 0.0969258 -0.230952 0.198624 0.269687 0.335636 -0.0566108 0.419799 -0.0145946 0.287623 -0.237193 0.0602998 -0.0305647 -0.0302212 0.00156885 0.460033 0.249682 0.421476 0.0610464 0.537566 0.450006 -0.19617 0.441357 0.484631 0.584473 0.495667 -0.0891253 0.151554 0.399352 0.0216656 0.0643512 0.495471 0.445461 0.189453 0.10016 0.144248 -0.0766856 0.504547 -0.0469312 0.284278 0.070674 -0.00641761 -0.37107 0.283561 0.197318 -0.11987 0.0467299 -0.233638 -0.356649 0.445278 -0.34351 0.460887 -0.344748 0.503055 0.345598 -0.391563 0.399185 -0.357103 0.180355 0.219977 0.101251 -0.291791 0.241142 0.114974 0.409921 -0.206616 -0.354299 -0.296858 -0.334753 0.0013799 0.420066 0.208343 0.432885 0.533757 -0.0222207 0.124042 -0.154792 0.481326 0.32303 -0.132161 0.284661 0.295447 -0.316967 0.265559 0.167216 0.377756 0.283152 -0.00163965 0.486243 -0.129413 -0.398464 -0.0408647 -0.0178677 0.24309 0.443513 -0.240317 0.467209 -0.487154 -0.0951943 -0.42869 -0.0751092 -0.255782 0.162349 -0.249194 -0.384528 0.483528 0.19995 -0.220189 0.252612 -0.175985 0.00800592 -0.116893 0.494149 0.0362226 -0.462967 0.055098 -0.143201 0.273318 0.478422 -0.244532 -0.395471 -0.4513 0.207446 0.0875437 0.287479 0.146941 0.336943 0.261003 0.172916 -0.255646 0.321445 -0.391655 0.000941313 0.0137236 -0.14266 0.124462 -0.0181571 -0.280442 -0.437341 -0.916936 -0.79877 -0.780078 -0.560269 -0.528535 0.0701484 -0.179099 0.0628126 0.540596 0.667412 1.35857 1.04852 1.05902 1.44209 1.10014 0.948073 1.8169 2.02477 1.86051 1.35098 1.1997 0.81965 0.554657 0.939949 0.438775 0.501545 0.611132 -0.119074 0.253519 1.04244 1.81979 1.07012 2.04549 2.18543 2.33918 1.9755 1.39124 1.582 1.05932 1.19831 1.55041 1.87563 1.49723 0.790728 1.12556 1.30319 0.303472 0.594754 1.45441 1.6338 0.990629 0.495933 -0.0492154 0.800079 0.548367 0.360159 -0.120249 -0.000796574 0.380961 0.213179 0.446473 0.64091 1.23141 1.04689 0.833443 0.386152 1.58473 1.65774 1.63588 0.965826 1.7189 1.77998 2.22691 2.26782 1.90756 2.27105 3.24204 2.73804 2.34983 2.95387 2.6104 3.04693 2.71248 2.18717 1.864 1.86388 0.703045 -0.0990761 -1.03291 -0.664843 -0.223808 -0.196098 -1.2134 -1.10075 -0.51173 -0.614833 -0.0340938 -0.739113 -0.56693 -0.158091 -0.506067 -0.324183 0.194423 0.47463 -0.319786 -0.495296 0.171074 -0.38759 -0.0235526 0.274946 0.273035 0.268931 -0.019597 0.1351 -0.391461 -0.370625 -0.180768 -0.423679 -0.174118 0.099776 0.21885 0.467658 -0.188816 0.498852 -0.160553 -0.0157532 -0.508235 -0.481413 -0.0277549 -0.473292 -0.0175889 0.0471796 -0.220367 -0.314785 0.0237837 -0.0170727 -0.302582 -0.313895 0.0718096 0.122379 0.431921 -0.122224 -0.101151 -0.0789479 -0.466269 0.0507868 0.14676 -0.0981278 0.216512 0.478267 0.51536 -0.0853364 0.441625 -0.227765 -0.143856 -0.271833 0.173072 -0.15539 -0.2391 -0.323914 -0.11535 0.219159 0.177472 0.139822 0.402325 -0.272744 -0.361058 -0.390893 -0.15358 0.168393 0.21774 -0.181456 -0.387996 -0.320793 0.28487 -0.346758 0.219927 -0.114025 0.0266054 -0.114985 -0.122349 0.0301467 0.291591 -0.270043 0.159655 0.504341 -0.201751 -0.243241 -0.260803 -0.0515602 -0.214054 0.0281723 -0.420509 0.433144 -0.312412 0.471424 -0.348902 -0.222832 -0.341302 0.150902 0.602546 0.377282 0.480626 -0.303507 0.530271 0.246284 -0.168413 0.257784 -0.359621 0.348104 0.61715 -0.0729773 -0.203425 0.33889 0.0974972 0.440818 0.330175 0.388798 -0.316039 0.587185 -0.15095 0.0245735 0.171021 -0.0173776 0.011404 0.361427 -0.0273914 0.180375 -0.344974 0.00446337 -0.291388 0.632749 -0.242682 0.550288 -0.304723 -0.338611 0.163532 -0.112221 0.2761 0.167146 0.606283 0.283195 0.484867 -0.22295 -0.0071775 -0.0580316 0.565014 -0.328759 -0.329896 0.607435 0.606708 -0.117666 -0.00623199 0.148669 0.236712 0.378746 -0.102495 0.580171 -0.0591876 -0.0781638 -0.0499517 -0.000192463 -0.0944691 0.0618086 -0.077577 -0.0324141 0.0946001 0.446315 0.208749 -0.276549 -0.0274504 0.17392 0.368685 -0.187642 0.305981 -0.283179 0.108118 0.237174 -0.244612 0.155976 0.220104 -0.253377 0.414163 0.593405 0.274787 0.0382341 0.350925 0.537274 -0.0266821 -0.355612 -0.206018 0.2722 -0.00703563 0.0654982 -0.286847 0.276716 0.400963 0.157851 0.745796 0.632896 0.839839 0.997843 1.03946 0.502636 1.16773 0.74975 0.591135 0.585666 0.221462 0.612573 0.999695 0.777206 0.670111 0.741445 0.66381 0.262862 0.0874282 0.365412 0.0691522 0.350036 0.251656 0.20443 0.0268125 0.696699 0.703255 0.0968582 0.255673 0.398675 0.580809 0.729538 0.780193 0.202276 0.520315 0.638888 0.620513 0.52899 0.338117 1.09748 0.954509 0.366186 0.438374 0.736501 0.941471 1.0096 0.311844 0.457697 0.0151152 0.21935 0.575377 0.0279022 0.556424 -0.0706829 0.323277 0.567513 0.59822 0.0288253 0.631489 -0.0922781 0.407084 0.195414 0.615085 0.218797 0.525614 0.257345 0.0716484 0.167347 0.832448 0.255329 0.0616077 0.604823 0.440614 0.446077 0.261426 0.285127 0.387506 0.59831 0.772217 0.512872 -0.0725769 0.520819 0.63383 0.534002 0.464618 0.063102 0.254086 0.263156 0.353673 0.135917 0.556389 0.159081 0.798773 0.509042 0.729566 0.510553 0.916426 0.845113 0.69206 0.774269 0.101289 0.832996 0.389533 0.575658 0.369368 0.836138 0.0772664 0.88797 0.575133 0.954515 0.408584 0.501197 0.488213 0.232749 0.308951 0.248011 0.659268 0.796461 0.814505 1.18659 1.17345 0.406915 0.388415 0.878431 0.852635 1.03381 0.276272 0.661977 0.813164 0.960848 0.433541 0.894991 0.754388 0.847727 0.470074 1.08662 0.592483 0.449888 0.964765 1.20243 0.457425 0.436045 0.65267 0.86223 0.589612 0.912693 1.14322 1.20939 0.708468 0.80522 1.32767 0.707399 1.01589 0.42894 1.4088 0.682671 1.31976 1.46052 1.15224 0.856395 1.13946 1.26697 1.47331 0.641071 0.816534 0.629701 1.29361 1.07457 0.727281 0.938904 0.981284 0.888641 1.05143 1.4004 0.466266 0.379668 1.11566 1.38122 1.41453 0.546763 0.828266 1.24613 0.755768 0.448246 1.3244 0.706142 0.69868 1.12385 0.665267 1.29124 1.43521 1.24606 1.07613 1.37102 1.27409 1.24843 1.27913 1.04215 0.770463 0.549093 -0.299997 0.47394 0.166254 0.331145 0.463752 0.266657 0.335098 0.129979 0.182514 0.240384 0.157772 -0.411494 0.0938312 0.532991 -0.299083 0.00753909 -0.186438 -0.096853 -0.400596 -0.0572813 -0.35643 0.504665 -0.343637 0.125404 0.279507 0.412346 -0.135143 0.128904 0.0260974 0.224779 0.262639 0.133145 0.11141 -0.159924 -0.0874462 0.0080417 0.568602 -0.317706 0.574344 0.174357 0.361209 0.178741 0.234213 -0.118506 0.108502 0.262461 0.190763 0.268328 0.508892 0.194588 0.571004 0.530102 0.0391594 -0.385775 0.0387941 -0.258427 0.473414 0.344936 0.317154 -0.0790822 -0.00241847 0.00709064 0.472546 0.515365 0.259128 -0.231204 -0.105741 0.164003 -0.223699 -0.195022 -0.324373 0.470551 0.351194 0.251697 -0.331837 -0.228939 -0.182569 0.213536 0.398266 -0.303731 -0.226055 0.375295 -0.386592 0.242002 0.41774 0.102983 0.440758 0.325077 -0.103544 0.194661 -0.314654 0.31231 -0.368924 -0.406569 0.263103 0.30899 -0.211888 -0.403794 -0.0863778 0.00900586 -0.213772 -0.0283789 -0.102553 -0.419573 -0.335276 -0.002772 -0.250963 -0.110611 -0.377203 -0.41086 0.0082195 -0.18137 0.347401 0.0428639 -0.471276 0.272832 -0.309169 0.461211 0.0797024 0.0171686 0.0589813 0.175494 -0.326458 0.0498483 0.112932 0.34715 -0.200922 0.34997 0.424815 0.162635 -0.213171 -0.334091 -0.405641 0.130938 -0.292669 -0.28357 -0.39285 -0.0449077 0.0699759 -0.332331 0.0430582 -0.369132 0.0853805 -0.0326448 0.234496 0.0816125 -0.358486 0.305483 -0.153645 0.100865 -0.333337 0.35275 -0.269512 -0.103647 -0.0808633 -0.630971 -0.235011 0.249566 0.240074 -0.31753 -0.115823 -0.468765 -0.126596 0.0190043 0.258743 0.142282 0.365502 0.418228 -0.324118 -0.0199669 -0.301338 0.244425 0.152161 0.210694 -0.339875 -0.164652 -0.276366 -0.222546 -0.41027 0.112879 0.42725 -0.132118 0.0616175 -0.259022 0.343362 -0.385011 -0.265232 -0.258646 0.472491 -0.397481 0.0116374 -0.00976657 -0.271621 -0.50116 -0.383648 -0.422924 0.255387 -0.465713 -0.398437 0.487041 0.0758716 -0.260256 0.157665 -0.367322 0.35328 0.212254 -0.145905 0.482152 0.409944 -0.10062 0.0791304 0.300256 0.221823 -0.417732 0.50303 0.0395977 -0.315877 -0.286149 0.248529 -0.3632 -0.206384 -0.214245 0.158893 0.0957305 -0.0988582 0.392211 0.265525 -0.317881 0.347005 0.258023 -0.42154 -0.0685181 -0.473481 0.259829 0.0902113 0.38751 0.0237778 0.502051 0.448279 -0.0466358 -0.0229993 0.0535709 -0.25499 -0.357209 0.049037 -0.324274 0.0902618 0.159345 -0.170443 -0.192938 0.241244 0.0574126 0.0376119 -0.138169 -0.389739 0.342503 -0.398613 0.251967 0.345807 -0.568942 -0.0322532 -0.581342 -0.138605 -0.00210809 0.186082 -0.547613 -0.0576965 -0.281194 0.464294 -0.176553 0.0659312 -0.221776 0.23753 0.245319 -0.154224 -0.281492 0.358638 0.403059 0.335537 -0.373574 -0.354305 0.0448564 0.152362 0.143931 0.370968 0.231039 -0.042958 -0.504291 0.0213807 -0.105975 -0.445988 -0.373737 -0.0504112 0.0117795 0.337428 -0.1548 0.14417 -0.213295 0.0505525 0.123628 0.536788 0.102648 0.889691 0.327097 0.904884 0.300321 0.6156 0.823726 0.259527 0.51148 0.00646863 0.468257 0.117428 0.7235 0.177464 0.0519654 0.514096 0.691262 0.0987245 0.0755218 0.124829 0.161921 0.211562 0.58493 0.684576 0.942366 0.825949 0.253728 0.160451 0.325873 0.830892 0.732902 0.465017 0.751238 0.0857454 0.390678 0.0681633 0.717722 0.230935 0.352452 0.253198 0.26527 0.844896 0.397521 0.0165509 0.0532086 0.483096 0.567385 0.785599 0.625899 0.688777 0.952412 0.829488 0.939621 0.573656 0.550331 0.914974 0.433118 0.836061 0.104308 0.790038 0.695346 0.867952 0.2828 0.474848 -0.015473 0.705826 0.579012 0.738171 -0.0289871 0.966387 0.0271263 0.273403 0.85141 0.462958 0.326015 0.939705 -0.0198039 0.924916 0.753403 0.634176 0.642608 0.736195 0.494378 0.615453 0.344576 0.0800351 0.566515 0.814729 0.954039 0.711287 0.642119 0.692155 0.617147 0.965683 0.20183 0.637746 0.703207 0.81516 0.409056 1.20437 1.30841 0.877674 0.420889 1.05183 1.31983 0.542809 0.839517 1.02741 0.381 0.776013 0.965291 0.317103 0.534417 0.596102 1.07673 1.297 0.979354 0.871447 1.06509 0.753285 1.47509 0.0312609 0.897508 0.299722 -0.23006 0.217971 0.299464 0.778786 -0.00948591 0.54317 0.377152 0.942127 0.272146 1.21411 1.21192 1.45136 2.2348 1.77966 1.68616 1.96856 2.38826 2.13112 1.63026 2.06544 2.10867 2.36667 1.95012 1.60506 1.55189 2.01528 1.56247 1.02002 0.921752 1.0923 1.40779 0.330701 0.846523 -0.129899 -0.222283 0.354306 0.426681 0.308748 0.352063 -0.306378 -0.187588 0.196597 0.197004 0.128854 0.464501 0.567409 0.606741 0.301289 0.30397 0.604213 -0.00339229 -0.217978 0.300215 -0.00103085 -0.229561 0.345127 0.0981575 0.432539 -0.433756 0.276719 0.00879391 0.596464 0.623144 -0.00903145 0.837159 1.33102 1.30647 1.42852 1.10438 1.50092 1.82186 1.49365 1.55354 0.8738 1.57073 -0.258246 -0.0299791 -0.29377 -0.142879 0.0896926 0.364416 -0.0876991 0.189172 -0.0147192 0.504411 0.549918 -0.192126 0.077691 0.444683 -0.154477 -0.227574 -0.125454 -0.284589 -0.331104 0.0158538 -0.299512 0.588364 -0.098867 0.506757 0.0684826 0.409646 0.341224 -0.300327 0.102625 0.350571 0.399335 0.195916 -0.330844 0.460807 0.406153 0.113325 0.180234 -0.329023 -0.33757 0.521728 0.536702 0.569082 -0.315933 -0.0338996 0.365989 -0.125096 0.0883487 0.586775 -0.0671905 0.0953223 -0.0623268 -0.0254926 0.0195864 0.187373 -0.168636 0.44552 -0.0476009 0.521432 0.494796 0.404799 0.229204 0.257191 -0.0303036 0.262897 0.0817687 -0.264181 -0.251708 0.634305 -0.221591 -0.237176 0.502247 0.656911 -0.324112 0.538452 -0.0246379 0.391518 -0.237111 0.40851 0.320077 0.0413324 -0.151112 0.608864 0.36496 0.223481 0.149571 0.55012 0.0207145 0.457442 0.424283 -0.130434 0.218549 0.00511708 0.481823 0.535125 0.612712 -0.0943795 0.612942 -0.306917 -0.124704 -0.272555 0.719351 0.643578 0.510815 0.592165 1.21944 0.662962 1.03243 0.19076 0.405514 0.817616 0.939057 0.836317 1.11229 0.749891 1.59243 1.69227 0.669151 0.897608 1.25689 1.26465 0.828767 0.712046 0.309241 0.456244 0.258907 0.132999 0.553733 0.197669 0.157141 0.775968 0.260023 0.27881 0.804247 0.307145 0.700609 1.03048 1.24133 0.838994 1.37085 1.40638 1.47218 0.839834 0.730619 0.912449 0.90849 1.59709 1.01171 1.05516 0.882921 0.70115 0.568033 1.15878 0.752986 0.598511 1.02607 0.664128 0.16814 0.345816 0.619972 0.29382 -0.000917885 -0.222808 0.511704 -0.148741 0.115585 -0.0916388 0.541211 -0.231377 0.2052 0.362721 0.807902 0.208079 0.79267 0.988399 0.358651 -0.110911 0.531932 0.395611 -0.285686 -0.484352 0.201326 -0.173589 0.309456 -0.307124 0.256865 0.386734 0.381058 -0.428716 0.13092 0.434459 0.47904 0.583087 0.891037 0.447748 1.0608 0.423426 0.887678 1.00067 0.609961 1.34988 -0.199064 -0.346043 -0.201534 0.594162 -0.35429 0.367803 -0.302155 -0.369092 0.21283 0.112851 -0.144857 0.122824 -0.333402 -0.206902 0.436692 0.432408 -0.305714 0.366899 0.55538 0.119294 0.0875644 0.137588 -0.199927 -0.142124 0.456371 0.567936 -0.013321 -0.0571082 0.165387 0.17593 -0.136847 0.358254 0.216357 0.0525683 0.342311 0.254631 -0.189005 0.427927 0.268869 0.412943 -0.0560585 0.523718 -0.0558306 -0.0137726 -0.301685 -0.238826 -0.199288 -0.236636 0.479915 -0.296368 0.227328 -0.0610497 0.215703 0.410231 0.175114 0.0555773 0.366941 0.556839 0.388954 -0.0803797 0.120935 -0.346268 -0.312572 -0.248568 0.120906 0.437465 0.415254 0.342562 0.279753 0.101459 0.183512 -0.366045 0.0408336 0.523973 0.0163468 0.124117 -0.33973 0.190546 0.258381 0.539853 0.29144 -0.111574 -0.120875 -0.0931474 -0.300244 0.462286 0.366321 0.463929 0.410215 0.155077 -0.205114 -0.0522422 0.234547 -0.111415 0.0937556 -0.259582 -0.292677 -0.0994772 0.480201 0.384287 0.636045 0.281394 0.577039 -0.00657519 0.0953709 -0.0575971 0.410072 0.0845603 0.455897 0.0504792 0.0824036 0.213702 0.389124 0.338189 0.483211 0.466298 0.19852 0.265731 0.316448 -0.0195271 -0.215864 0.493105 0.276043 0.365774 -0.283627 -0.249863 0.541442 -0.124956 0.0668712 0.377234 0.598299 -0.159839 -0.208467 0.383746 0.0499256 0.13414 0.574944 -0.242642 0.547896 0.364446 0.183187 -0.102145 -0.185666 -0.217097 0.404889 0.51176 0.495312 -0.129357 0.00103456 0.0333875 0.0871219 0.073277 -0.181591 0.674687 -0.289063 -0.184734 -0.323306 0.488975 -0.114178 0.00278918 0.033209 -0.291179 0.0302801 0.108645 0.378637 0.395722 -0.418706 0.288366 -0.490144 0.431142 -0.057816 -0.081321 -0.462026 0.00944126 -0.102354 0.197342 -0.261684 -0.364963 0.31426 0.0666853 0.00461252 -0.281002 -0.530938 0.139457 -0.263238 -0.448776 0.338803 -0.200555 0.48921 -0.298141 0.308411 0.0577986 0.0016165 -0.0619416 -0.185368 -0.0292708 -0.06962 -0.0792869 -0.223256 -0.0702343 -0.196735 0.190056 0.339437 -0.112984 -0.239107 -0.164522 -0.311296 0.125309 0.111598 0.633901 -0.190112 -0.289732 -0.0496341 -0.122029 0.478304 0.285623 0.0344284 0.379931 0.646934 0.015751 0.562087 0.407659 0.486401 -0.0671807 -0.284422 -0.338464 0.283371 0.0189133 -0.0508258 0.414854 0.27379 0.121699 -0.0304014 -0.0123107 0.378825 0.0895584 0.189457 0.432219 0.614187 -0.321827 0.434449 -0.229179 -0.262982 -0.261229 0.00276215 0.537904 0.352224 0.358276 0.255008 0.332043 -0.309049 0.129747 0.0246556 0.517728 0.393278 0.0979028 0.538435 0.0261623 0.473609 -0.15107 -0.157051 0.171683 0.387644 0.193529 0.549591 0.168309 -0.299316 0.140188 0.00390261 0.667866 0.179717 -0.193737 -0.204857 0.262999 -0.0937132 0.170614 0.166636 0.604008 -0.147766 -0.264121 0.224471 -0.130286 0.18514 0.622154 -0.233029 -0.0253725 0.110889 -0.311766 0.367922 -0.0502765 -0.100851 0.547936 0.447391 -0.376713 0.0613348 0.3187 0.121327 0.0926307 -0.212031 0.444058 0.568825 0.769184 1.07401 0.709629 0.39385 0.304787 0.240234 0.91145 0.273783 0.44409 0.973671 0.836387 0.61016 0.487461 0.739208 0.693073 0.781813 0.22318 0.73795 0.518285 0.551262 1.03511 0.480892 0.414601 0.0849158 0.968722 0.209678 0.664064 0.533819 0.421761 0.539481 1.02982 1.05534 0.448489 0.509503 0.266018 0.527284 0.553198 0.00974181 0.662101 0.894004 0.876595 0.391168 0.402938 0.241367 0.0561773 0.0428144 0.987659 0.251841 0.748686 0.512336 0.791683 0.840242 0.994545 0.216679 0.857171 0.879383 0.283514 0.347567 0.240776 0.540321 0.745677 0.13915 0.519524 1.10961 0.619193 0.765295 0.66782 0.226613 0.791234 0.332582 1.0643 0.581941 0.651907 0.416099 0.8232 0.721735 0.430836 0.799713 0.940665 1.1564 0.23351 0.664866 0.851533 1.08325 0.716627 0.552342 0.821871 0.852922 0.774958 0.929022 0.258582 0.388646 0.934969 0.64322 0.369086 0.410585 0.257411 0.876114 0.467477 0.370897 0.554174 -0.128006 -0.169347 0.0823048 0.148834 0.507175 -0.354807 0.419239 0.136943 0.385176 0.366753 0.149868 -0.150864 0.0650785 0.0913281 0.410938 0.40634 -0.308535 0.0615765 -0.0166753 0.441844 0.130186 0.175016 0.195515 0.605125 0.37957 0.440299 -0.291264 0.10782 -0.235164 0.432717 0.0215888 -0.00325806 0.619223 0.454826 0.494286 0.486587 0.481023 0.298335 -0.0242526 0.228336 0.0224557 0.527281 0.480775 0.447905 -0.00025716 0.28423 0.2415 0.0683698 -0.281042 0.598928 -0.120279 0.233993 0.162574 0.452804 0.225668 -0.0788391 0.284736 0.30505 0.425088 0.428138 0.083574 -0.239482 -0.270503 0.0442324 0.544758 0.564642 -0.134547 0.351617 0.212551 0.229596 -0.0447836 0.591302 0.121699 -0.18769 0.44178 0.494739 0.47546 0.0412056 -0.103672 0.526024 -0.0267858 0.138427 0.126379 0.496895 -0.0441062 -0.296264 -0.223969 0.582429 0.332994 0.493581 0.281945 -0.261702 0.593215 0.380866 0.151779 0.501848 0.316428 0.39456 0.013872 -0.34139 -0.0734565 0.501531 -0.0303779 0.586675 0.010219 0.894259 0.717131 0.957826 0.163046 0.712882 0.36185 0.25734 -0.128301 -0.273949 -0.0292419 0.141243 -0.277088 0.0549242 0.256416 0.626764 0.397381 0.183713 -0.266132 0.0639935 0.438526 0.0363188 -0.227508 0.154008 0.0613128 0.577742 0.554738 0.32585 0.427181 0.734243 0.106173 0.463186 0.635546 0.693725 0.261688 -0.0974464 0.463997 -0.0679038 0.624321 -0.052616 0.49598 0.298342 0.808114 0.732761 1.01055 0.481011 0.909665 0.536644 0.85686 0.978546 0.971784 0.802492 0.709227 1.3465 1.65923 1.05468 1.2266 1.46509 1.57848 0.823595 1.26633 0.821105 1.40857 1.14524 0.742152 0.942022 1.31807 1.53898 1.42776 1.34163 1.04375 1.03417 1.83007 1.8676 1.84877 1.69939 1.23901 1.44908 1.82112 1.58585 1.86563 1.30031 1.96786 2.01915 1.00707 1.81479 1.34213 1.56787 1.55308 1.1664 1.29368 0.885528 0.966747 1.03981 0.386114 0.167042 0.487795 0.193781 0.237893 0.178773 -0.182491 0.363336 0.31525 0.651352 0.230546 0.0769166 0.268978 0.360284 0.477823 0.142127 0.0126199 0.400838 0.464655 -0.0838558 0.32351 0.49451 -0.275566 0.610681 -0.0124248 0.293013 -0.212161 -0.34455 0.527201 0.19477 0.089768 0.315479 -0.249619 -0.036058 -0.109302 0.34104 0.527909 0.079466 0.138368 0.224115 0.139023 -0.281459 0.662237 -0.263389 0.396008 0.384563 0.113907 0.640755 0.0129747 -0.149352 -0.203903 0.61238 0.606186 -0.15627 0.51956 -0.0750301 0.439561 -0.358363 -0.102513 0.33771 0.23207 0.445747 0.126598 0.444739 -0.0810923 0.516532 0.304685 -0.113632 0.064735 -0.170614 0.540266 0.577105 -0.0636762 0.535878 0.622164 0.637159 0.170278 0.0201713 0.485792 0.450673 0.118928 -0.360895 0.405686 0.101935 -0.157955 0.325742 0.400893 -0.298406 0.375306 -0.250009 -0.459188 0.0962302 -0.321397 0.0854565 -0.0619578 -0.0463538 -0.0460794 -0.404043 0.154612 0.308274 -0.131567 0.133158 0.328782 0.0796389 -0.0537659 0.247949 0.005384 0.457769 0.604676 -0.0876233 0.34666 0.185837 -0.0129542 0.185476 -0.328341 0.25725 -0.030023 -0.392931 0.51448 -0.117626 -0.0971495 0.530075 0.453511 0.0536483 0.0671996 -0.135937 0.524327 0.562884 -0.00918707 0.203844 0.355045 0.200637 -0.351682 0.0310357 -0.395927 -0.0539013 -0.390965 -0.0286616 -0.222223 -0.386184 0.276508 0.488182 0.182737 -0.31939 0.0950558 0.305706 0.394688 0.486912 0.348438 0.318192 -0.178289 -0.318785 0.289733 -0.326841 0.138314 -0.230637 -0.066548 0.00882586 -0.331638 0.287556 0.542713 0.404538 -0.128912 -0.362758 -0.125149 -0.063915 0.0666285 -0.00439065 0.406839 0.309429 0.0825919 0.176127 0.279058 -0.2807 0.325342 -0.150292 0.505007 0.179881 -0.177609 0.321007 -0.0291761 0.0475297 0.401872 -0.356526 0.098355 -0.0838909 -0.214762 0.425661 0.315325 -0.142424 0.11464 0.296172 -0.282472 0.44193 0.400593 0.0492218 -0.216043 -0.160179 0.423265 -0.367559 0.229485 0.572111 0.707743 0.78046 0.50903 0.403157 -0.0718192 0.361931 -0.128838 0.0848357 -0.0734534 0.140176 0.435642 0.726133 0.270751 0.0212583 0.112469 0.440346 0.957729 0.959109 0.969869 0.620418 0.945363 1.21951 0.705926 0.836521 0.817371 0.977956 1.25132 0.751769 1.19336 1.33827 1.26573 0.938221 1.04404 0.669953 1.20797 1.02269 1.14056 1.27616 1.26874 1.26081 0.574729 0.893491 1.2678 1.07227 1.1951 1.58592 0.740978 1.20115 1.70786 1.71033 0.86616 1.44121 1.68574 1.17142 0.91619 1.11569 1.77918 1.67134 1.33225 1.3483 1.30387 0.846889 1.45307 0.70774 0.858846 1.11396 1.17562 1.40431 0.771362 0.869149 1.06004 0.800086 1.24934 0.752651 1.42539 0.911217 0.875196 1.55194 1.49161 1.77789 1.45878 1.51555 1.30174 1.25766 0.827099 1.39418 1.55633 1.74511 1.10464 0.960059 0.964576 1.46086 0.793568 0.686917 0.456884 1.02431 1.22422 1.0446 -0.0106791 0.528537 0.434032 0.450893 -0.268328 0.0663915 0.571086 0.394698 0.223571 -0.362163 0.176712 -0.0567294 0.599537 -0.220846 -0.437583 0.124363 0.262168 -0.372017 -0.196447 0.0945389 -0.363484 0.224776 0.36917 0.128575 0.207199 -0.247941 0.451496 0.287037 0.360479 0.161715 -0.212642 -0.304226 0.00343138 -0.422465 0.49334 0.112977 -0.0181887 0.427254 -0.120147 -0.390784 0.44926 0.392887 -0.101264 0.459005 -0.405735 -0.0864742 0.0300628 0.288852 0.00427856 0.255515 -0.146767 0.0929 -0.0625882 -0.366417 -0.395289 0.528761 -0.239467 0.412353 0.168264 0.521592 -0.08352 0.331998 -0.414173 0.379336 0.385198 -0.427783 0.00626816 -0.0952789 -0.433449 0.422945 0.0236304 -0.484201 0.289571 0.413313 0.468509 0.391774 -0.156129 0.0185047 0.205429 0.333512 -0.224618 0.5072 -0.103111 0.162252 -0.395468 -0.028656 0.158531 -0.172446 -0.146583 -0.197579 -0.158059 0.313634 -0.301753 -0.0176529 0.255013 -0.390837 0.059793 -0.261856 -0.00346751 0.100109 -0.336781 0.543637 0.163605 0.498368 0.493094 0.14126 0.381221 -0.171615 -0.341185 0.0988964 -0.330978 -0.0823103 0.0876261 0.0306157 0.594849 0.194738 0.500312 0.203759 0.469737 -0.201823 0.44109 -0.267648 0.504079 0.521055 0.0805845 0.145919 0.522297 0.568768 0.319344 -0.0569299 0.0541006 0.332524 -0.167398 -0.421608 0.215934 -0.275761 0.130849 0.00206422 -0.0122221 0.204528 0.535447 0.0661658 0.515817 -0.000994676 0.441769 0.421225 0.504283 0.287795 -0.0379267 0.314057 0.439903 -0.224741 0.428065 0.340149 -0.311677 -0.0930693 -0.122004 0.601453 -0.127938 0.593164 -0.0347471 0.380379 0.372165 0.223496 0.373895 -0.013401 0.349528 -0.0956162 0.393783 -0.291111 0.477722 0.272936 0.125544 0.362574 -0.368056 -0.0485254 0.150547 0.512027 -0.390753 0.508636 0.205449 0.42044 -0.352227 0.0044939 0.132898 -0.280027 0.283312 0.387804 -0.296919 0.543482 0.357286 0.0150028 0.262169 0.0872853 -0.408449 0.00798291 0.448374 0.317058 0.297691 0.219434 0.938712 0.681612 0.457469 0.48708 0.489771 0.485131 0.817769 1.0142 0.359678 0.811857 0.891868 0.962176 0.56629 0.896838 0.23791 0.032149 1.00626 1.00861 0.965872 